100 128
98 0.419057 -0.144213 -0.386306 0.164686 -0.080043 0.316899 0.099988 -0.130388 -0.175554 -0.217440 -0.311310 -0.211425 0.176778 -0.228876 0.375107 -0.184590 0.414355 0.289701 -0.750429 0.352987 0.038349 -0.051065 0.278141 -0.050964 -0.552732 -0.239419 0.339582 -0.166999 -0.350725 0.214049 0.105891 -0.230426 0.116834 0.049792 -0.733999 0.291773 -0.194313 0.186293 0.151791 -0.496386 -0.235551 -0.175732 -0.124962 -0.120079 -0.415432 -0.265305 0.163561 0.408268 -0.284718 0.454577 0.353174 0.276761 -0.355770 -0.281301 0.031372 -0.465222 -0.168989 -0.257596 0.055005 0.507201 -0.348533 -0.374921 0.410233 0.409118 0.047970 0.350011 -0.042304 0.076574 -0.202964 -0.180259 -0.031531 0.221544 -0.388489 -0.108769 0.563575 -0.116080 -0.415786 0.439275 -0.366254 0.347896 0.001490 -0.543702 -0.426498 0.003962 0.406903 0.726817 -0.707993 0.060534 -0.099206 -0.310897 -0.043449 -0.323191 -0.066953 0.020067 0.325269 0.469289 0.029519 0.599990 0.032449 0.419960 0.297427 -0.779398 -0.271703 0.107990 0.440622 -0.203727 -0.003159 -0.111277 -0.236824 -0.181084 0.050491 -0.197004 -0.400188 -0.512377 0.263769 -0.702287 -0.587783 -0.531444 -0.337692 0.161697 -0.089800 0.106098 -0.238231 0.289682 0.599307 0.764554 0.278599 -0.257694
70 0.624423 -0.461329 -0.321791 0.092552 -0.447858 -0.029414 0.231226 0.177523 0.345761 0.427160 -0.441978 0.127819 0.121713 0.075725 -0.608172 -0.309403 0.311770 -0.090742 -0.109498 0.550524 0.158056 -0.254807 0.264182 -0.329951 0.196541 -0.147498 0.293861 -0.353911 -0.251012 0.060794 -0.439579 -0.471704 -0.447765 -0.450613 -0.251663 0.198515 0.031665 0.112080 0.121524 -0.500113 0.201730 0.247956 0.243311 0.352485 0.180952 0.017542 0.248926 -0.580248 0.248083 -0.071897 -0.240753 0.064184 0.301936 -0.370323 0.408593 0.107479 0.195190 0.068336 -0.286766 -0.017495 -0.033236 -0.021652 0.284116 -0.527133 -0.232252 -0.109159 -0.031179 0.049979 0.134572 0.234730 0.361089 0.208188 0.386876 -0.093369 -0.417071 0.108503 0.121353 0.746875 0.566607 0.206216 -0.396902 -0.339872 -0.468545 0.262524 -0.536942 -0.149185 -0.162011 0.109285 -0.377239 0.237681 0.487257 -0.150441 -0.319254 0.270613 0.281114 -0.050106 0.016046 -0.212190 0.067770 -0.200184 -0.262177 0.568528 0.087407 -0.141852 -0.316448 -0.391868 0.451678 0.295514 -0.530268 0.404555 -0.344178 -0.142154 0.107447 0.188977 0.143212 0.014617 -0.433907 -0.137751 -0.066598 0.590942 0.118904 0.105716 0.047958 0.404935 0.138411 -0.099925 0.307629 0.515858
34 0.483483 0.119820 -0.545654 -0.005456 0.355560 0.127928 0.560232 -0.411945 0.084263 0.296663 -0.274437 -0.250089 -0.120804 -0.132847 -0.295914 0.249786 0.315970 -0.435389 -0.489352 0.309764 0.205978 -0.459520 -0.001850 -0.548336 0.180149 -0.224755 0.137645 -0.060570 -0.017797 0.598373 0.371898 -0.120727 0.027246 -0.064896 -0.388559 0.187435 0.168060 0.618592 -0.131894 -0.076219 0.032521 -0.060502 -0.121961 -0.120797 -0.231274 -0.122743 0.127806 0.032503 0.159914 0.087522 0.211090 0.672625 0.068940 -0.486276 -0.018003 0.267632 0.042244 -0.330968 0.383883 -0.034181 0.284888 -0.366095 0.205353 0.283834 0.169630 -0.082967 -0.284914 -0.408948 0.063986 -0.095046 0.399530 0.193359 0.181927 0.137137 0.299724 -0.539651 -0.369671 0.237228 0.639142 0.615549 -0.544330 -0.007134 -0.185041 -0.145870 0.367487 0.212493 -0.365885 0.091051 -0.342703 -0.353477 0.172497 0.109334 -0.147990 0.183160 0.410350 0.335988 -0.188411 0.494833 0.312820 -0.373368 -0.379694 0.156956 -0.505811 0.150011 0.284176 -0.021391 0.600875 0.326526 -0.215791 -0.009371 0.142625 -0.198753 -0.428794 0.053999 0.273774 -0.193587 -0.140767 -0.350264 0.245140 0.234756 -0.079011 -0.408196 0.212437 0.262405 0.239511 0.600520 0.249832 -0.519122
55 0.209762 -0.294073 -0.337916 0.290947 -0.293984 0.222019 0.576067 0.151378 0.184167 0.291518 -0.452913 0.182606 0.060098 0.170258 -0.313797 -0.436713 0.123849 0.064161 -0.492571 0.505348 0.259698 -0.239333 0.420287 -0.216741 0.463005 -0.075229 -0.302469 -0.425122 -0.549214 0.067830 -0.341116 -0.505372 -0.248370 -0.404469 -0.043304 0.444964 -0.134476 0.321841 -0.191999 -0.353579 0.109530 0.398310 0.314798 0.126318 0.392818 0.252291 0.242902 -0.386294 0.280131 0.243943 0.041831 0.002684 0.036169 -0.223854 0.268785 0.021985 0.203925 0.138108 -0.091370 0.003940 0.126741 -0.037414 0.351594 -0.309135 0.254097 -0.221186 -0.602938 -0.029623 0.460889 -0.058695 0.427345 -0.133069 0.410416 -0.249184 0.043771 -0.208517 0.461418 0.121867 0.415046 0.464356 -0.596174 -0.122767 -0.349331 0.184105 -0.594168 -0.298385 -0.362410 0.335826 -0.291715 0.535439 0.048286 -0.312672 0.056676 0.293278 0.118000 0.043184 0.038336 0.460167 0.096747 0.241505 0.103197 0.595319 0.150087 -0.095375 -0.126573 -0.121598 0.172979 0.070293 -0.135973 0.286446 -0.286037 -0.138622 -0.237134 0.210674 0.323128 -0.024865 -0.516218 -0.206756 0.286187 0.167236 -0.132208 0.243089 -0.118594 0.232977 0.317824 -0.120319 0.656726 0.325376
12 0.191049 -0.522160 -0.473081 -0.164359 -0.094052 0.458704 0.009593 0.430669 -0.181269 0.172473 -0.438894 0.649897 -0.009092 -0.057446 -0.170942 -0.177824 -0.078776 -0.049935 -0.192197 0.353100 0.215852 -0.148628 0.503325 0.162979 -0.034972 0.229704 -0.049186 0.079808 -0.108283 0.401762 0.254881 0.279399 0.008089 0.193371 0.052618 0.329970 -0.183838 0.417403 0.204939 -0.597385 -0.458017 -0.040889 0.235625 0.333689 -0.082722 0.068733 -0.290403 -0.089981 0.082147 0.481101 -0.043114 0.032621 -0.115767 -0.138611 0.483388 0.108386 -0.653597 0.276324 0.192616 0.078184 0.112494 -0.644098 0.078977 0.529834 0.550279 -0.263733 -0.524316 -0.167344 -0.118414 -0.098005 0.394245 0.096557 0.273633 -0.248445 0.626228 0.178167 0.694655 0.081322 -0.212663 0.231699 -0.700817 -0.224616 -0.434767 -0.073951 0.019703 0.438888 0.102884 -0.179407 0.036921 0.138359 0.391406 -0.126861 0.173675 0.018102 -0.105673 0.593558 -0.210593 0.088207 0.733852 0.119317 0.134050 -0.019737 -0.087225 0.285536 -0.317985 0.156334 0.372346 0.509634 -0.381505 0.319278 -0.102448 -0.466985 -0.274734 -0.339912 0.344683 -0.334056 -0.130487 0.270754 -0.662304 0.238622 -0.270716 -0.591993 -0.099232 -0.231101 0.448054 0.223216 0.158237 -0.220462
44 0.110469 0.001286 -0.766695 0.495225 -0.137022 0.092598 0.401058 0.356964 0.455099 0.374379 -0.263125 0.242074 -0.105005 0.120386 -0.154338 -0.289341 0.094927 0.170263 -0.651088 0.368861 -0.146865 -0.012708 0.301871 -0.483960 0.530098 -0.243528 -0.320847 -0.255329 -0.318349 0.349650 -0.061056 -0.327508 -0.287224 -0.216220 0.178816 0.505493 -0.012306 0.506484 -0.089722 0.092035 0.203953 0.564291 0.417798 0.052312 0.048360 -0.091517 -0.047329 -0.270088 -0.020715 0.084590 0.262414 0.103073 0.340275 -0.225240 -0.064983 -0.054641 0.277410 0.060663 -0.140636 0.054343 0.343446 -0.069458 -0.230412 -0.213146 0.309654 -0.005421 -0.570228 -0.140683 0.612761 0.247270 0.583486 0.264825 0.273520 -0.301814 0.091365 0.217914 0.376825 -0.241756 0.408365 0.501356 -0.119823 -0.071435 -0.554139 0.451229 -0.184834 -0.094943 -0.327518 0.206972 -0.098364 0.619596 0.205362 -0.380058 -0.396451 0.385052 0.478451 0.150325 0.117700 0.286167 -0.046524 0.076426 -0.129472 0.462332 -0.071349 0.059146 -0.198059 -0.375177 -0.046528 0.166328 0.011355 0.293717 -0.146874 -0.144447 -0.571173 0.146181 0.156075 -0.109188 -0.520595 -0.288737 0.307237 0.300198 -0.004879 0.341331 0.044835 0.677281 0.375528 -0.067104 0.551803 0.361806
46 0.155635 -0.028897 -0.556186 0.649348 -0.284255 0.105954 0.335699 -0.187388 0.533247 0.315657 -0.399545 -0.023388 0.358454 -0.078450 -0.444856 -0.155182 0.246760 0.163142 -0.340020 0.475435 -0.444172 -0.497093 0.372348 -0.479143 0.419215 0.164472 -0.263653 -0.143504 -0.486870 0.257292 -0.084454 0.002358 -0.281267 0.035506 0.109693 0.303422 -0.223168 0.594046 0.032965 0.274869 -0.015512 0.181582 0.412655 -0.200798 -0.135622 -0.029979 0.148265 -0.485932 0.517709 -0.235302 -0.279189 0.174189 -0.071569 -0.347165 -0.076599 0.017045 0.008222 -0.069075 0.030082 0.049569 0.545269 -0.019345 -0.112558 0.051695 0.225280 -0.050479 -0.313177 -0.071559 0.085739 -0.333296 0.521587 0.096752 -0.042063 -0.007153 0.187597 0.083877 0.309129 0.109771 0.448137 0.125893 0.451186 0.355352 -0.300369 0.148563 0.118892 -0.062682 -0.271899 0.398534 -0.128039 0.203817 0.130927 -0.125564 -0.216162 0.474846 0.195428 0.140682 0.066544 -0.105346 0.089814 -0.099075 -0.278793 0.008618 -0.448192 -0.152478 -0.085123 -0.157419 -0.146558 0.410448 -0.064515 -0.022473 -0.328605 0.030035 -0.209173 0.089080 0.005349 0.163522 0.245824 0.009944 0.012590 0.599781 -0.030308 0.302748 0.285129 0.365530 0.026130 0.515960 0.416483 0.051073
77 0.486885 0.016078 -0.193731 -0.117157 -0.457102 0.519802 -0.130454 -0.033182 -0.057882 0.305467 -0.183128 -0.079951 0.037963 0.411923 -0.037749 -0.546111 0.149022 -0.121814 -0.316824 0.275795 0.793304 -0.199732 0.184411 -0.077583 -0.632174 -0.222067 0.340829 -0.251532 -0.377786 0.377238 -0.009480 -0.518516 0.075831 0.175305 -0.381940 0.572462 0.254947 0.310882 -0.074626 -0.670125 -0.345141 -0.014733 -0.139364 0.314795 0.067987 -0.096078 0.355519 -0.121605 -0.008013 0.439093 -0.193655 0.055305 0.054783 0.084506 0.268938 -0.046098 -0.004260 -0.396758 0.098628 0.353454 -0.297987 -0.013313 0.517028 -0.204473 -0.299477 0.355011 -0.218642 0.528952 -0.296103 -0.262449 0.174975 -0.150511 -0.213894 -0.248858 0.453559 -0.042002 -0.110138 0.944891 -0.042769 0.229591 -0.425879 -0.369795 -0.230144 -0.164875 -0.069309 0.492220 -0.665851 0.079459 -0.449488 -0.228371 0.020758 -0.135904 -0.188088 -0.124004 0.428026 0.145842 0.045339 0.552400 -0.223273 0.028039 0.255630 -0.165808 -0.288223 -0.068393 0.119645 0.029513 0.335311 0.019532 -0.584895 -0.064443 -0.238560 -0.148414 -0.251707 0.054646 0.272222 -0.540031 -0.175841 -0.328687 -0.416304 0.468520 0.067908 0.326605 -0.005706 0.292564 0.590220 0.747958 0.497630 0.063752
54 0.070110 -0.045722 -0.323705 0.714129 -0.213670 -0.186554 0.422230 0.312494 -0.034030 0.136148 -0.479258 0.017916 0.193417 -0.259084 -0.217492 -0.189413 0.643815 0.402895 -0.075749 0.707789 -0.340977 0.160429 0.510105 -0.387105 0.408755 -0.183355 -0.040296 -0.264632 -0.250124 0.299513 -0.259450 0.107029 -0.310218 -0.150621 -0.025044 0.352705 -0.048905 0.167058 0.250653 0.118497 0.218006 0.512272 0.237887 -0.131403 -0.113080 -0.143804 -0.023132 -0.207494 0.226673 0.238084 0.402442 0.116066 0.374070 -0.290750 0.141871 -0.275427 0.081195 0.155671 -0.283074 -0.093010 0.125345 -0.144011 -0.014016 0.107163 0.342549 -0.234070 -0.197146 -0.293650 0.406509 0.143190 0.341158 0.298157 -0.000631 -0.018621 0.099418 0.050620 -0.179662 0.197262 0.297790 0.294922 -0.195055 -0.124584 -0.398857 0.225885 -0.140094 0.095815 -0.437758 0.290848 -0.177844 0.376700 0.155676 -0.397072 -0.201036 0.388965 0.143571 -0.189962 -0.246006 0.049374 0.337338 -0.014887 -0.061148 0.433027 0.051035 0.111732 -0.092475 -0.499960 0.183396 -0.150782 0.162634 0.401424 -0.182994 -0.135956 -0.251198 0.300953 -0.020679 0.239883 -0.527261 -0.232567 0.233009 0.257949 -0.189878 0.086582 0.110322 0.221830 0.333441 -0.307507 0.781241 0.339592
15 0.514986 -0.607804 -0.237596 0.076242 -0.234027 -0.143990 0.222596 0.183023 0.473517 0.158198 -0.490506 0.191696 0.231672 -0.396241 -0.311170 -0.167169 -0.116498 0.054403 -0.476077 0.295227 -0.167248 -0.062781 0.490751 0.164190 0.129047 0.090560 0.351211 0.222470 -0.074396 0.135729 0.156282 -0.032379 -0.040122 -0.071930 0.030446 0.351733 -0.307028 0.168250 0.293647 -0.593415 -0.388050 0.178181 0.112017 0.277056 0.010706 0.217597 0.031232 -0.247530 -0.050587 0.327291 -0.206766 0.185607 0.001296 -0.141537 0.003453 -0.145451 -0.687714 -0.002317 0.158058 0.015076 0.075730 -0.653578 0.115826 -0.290671 0.429787 -0.190578 0.130257 -0.116101 -0.159383 -0.070143 0.216675 0.090259 -0.344463 -0.202650 -0.080184 0.081572 0.719241 0.083880 -0.163915 0.009308 -0.353525 -0.081886 -0.365857 -0.363964 -0.150920 0.510810 0.269601 -0.242394 -0.355070 -0.154660 0.459790 -0.340256 0.438158 0.396951 -0.309450 0.726088 -0.239561 0.149097 0.217374 0.235967 -0.101978 -0.052854 -0.523719 -0.512956 -0.440487 -0.174027 0.097756 0.377681 -0.033320 0.361699 -0.205196 -0.093816 -0.060291 -0.589567 0.191988 -0.200699 0.114995 0.350683 -0.387466 0.558317 -0.307899 -0.470260 -0.027772 -0.444460 0.029203 0.275947 -0.386647 -0.151305
87 0.448974 -0.244918 -0.380449 0.349313 -0.053912 0.264776 -0.150073 0.046168 0.750054 0.260047 -0.424539 0.031032 0.845041 -0.199634 -0.160568 -0.079503 0.451321 -0.085413 -0.226765 0.414826 -0.209887 -0.592379 0.087325 -0.610759 -0.200679 0.244004 -0.084846 0.058443 -0.129879 0.089564 0.284681 -0.275433 -0.089086 0.046539 -0.109090 0.449856 -0.364443 0.324783 -0.055335 -0.464020 -0.224190 -0.197395 -0.026332 0.300066 -0.204326 -0.185448 -0.056108 -0.329685 0.226260 0.101174 -0.568983 0.081562 -0.337318 0.052590 -0.052529 -0.090789 -0.120056 -0.048844 0.607104 0.406448 -0.161693 -0.334919 0.150829 -0.060113 0.309244 0.385027 -0.515848 0.414553 -0.138041 -0.394689 0.077628 -0.207781 -0.488832 -0.188114 0.190303 0.042444 0.343152 0.603176 0.201883 0.049592 0.225676 -0.015485 -0.403912 0.142962 0.362713 0.254602 -0.020995 -0.037650 0.012623 -0.034526 -0.127611 -0.351942 -0.751460 0.057600 0.177772 0.411060 -0.022052 -0.341846 -0.025869 0.068787 0.267310 -0.381442 -0.181526 -0.536458 0.067189 0.043339 -0.283706 0.160731 -0.381965 -0.097976 -0.106916 -0.034971 0.248008 -0.133213 0.275019 -0.395044 0.259338 -0.222658 -0.570313 0.793115 0.211233 0.378695 0.028657 0.292586 0.080740 0.530666 0.587355 -0.383730
62 0.238664 -0.099188 -0.336221 0.582409 0.211453 -0.295547 0.264425 0.388094 0.204982 0.218276 -0.351495 0.203336 0.203257 -0.354679 -0.123621 -0.189638 0.439126 0.273902 -0.385416 0.673760 -0.316863 -0.034807 0.720751 -0.385124 0.442679 -0.115713 0.200510 -0.273831 0.004768 0.049562 -0.313599 0.175643 -0.232676 -0.049645 -0.097086 0.278462 -0.221465 -0.002964 0.108745 -0.449669 -0.242907 0.433144 0.124677 0.104884 -0.272049 0.207216 0.190269 0.283796 0.082800 0.118263 0.580080 0.035400 0.061737 -0.133432 0.189420 0.037457 0.094814 0.159396 -0.105839 -0.117572 0.163011 -0.206762 0.130226 -0.071467 0.521584 0.094428 -0.186031 0.018274 0.391057 -0.241475 0.219135 -0.052642 0.111460 -0.290097 0.095313 -0.065119 0.343030 0.256981 0.210532 0.420867 -0.124957 -0.255740 -0.310389 0.029642 -0.320790 0.169554 -0.017264 0.058584 -0.284272 0.053920 0.035695 -0.423178 0.170866 0.345843 -0.370398 0.167499 -0.339092 0.252123 0.349107 0.005283 0.124851 0.467611 0.115713 -0.157905 -0.162462 -0.640311 0.156049 0.074672 0.231561 0.271509 -0.145647 0.170717 -0.222939 -0.012211 0.414256 0.360084 -0.518667 -0.336847 0.001080 0.029577 -0.413162 -0.097548 0.117808 -0.118242 0.472900 -0.338905 0.685494 0.248583
6 0.405963 -0.693241 -0.309561 -0.268001 -0.170922 0.620975 0.357664 0.087637 0.261332 0.296405 -0.666552 0.042834 0.120612 -0.159621 -0.188276 -0.106068 0.148628 -0.304575 -0.153546 0.483242 0.294224 -0.497132 0.007968 -0.231269 0.029935 0.290563 -0.508100 0.410004 -0.410168 0.674567 0.525048 -0.300164 0.072355 0.000958 -0.283763 0.182663 -0.141220 0.500909 -0.027291 -0.156170 -0.040111 -0.253338 -0.269220 0.335006 0.208425 0.053179 -0.433598 -0.457490 0.062350 0.625887 -0.473280 0.004356 -0.116744 0.031978 0.210735 0.027088 -0.602530 0.106744 0.554659 0.145723 -0.249342 -0.609283 0.252392 0.078851 0.471534 -0.315521 -0.281262 -0.036493 -0.168797 -0.069520 -0.018990 -0.281060 -0.340572 -0.131188 -0.000392 -0.013191 0.195844 0.348611 -0.281925 -0.034202 -0.505744 0.009626 -0.537051 0.193909 0.264461 0.130540 0.216233 -0.058336 0.019050 -0.144100 0.321382 -0.257564 -0.095272 -0.011614 -0.051129 0.424088 -0.047924 -0.063865 0.130105 0.076810 0.174082 -0.267824 -0.511169 -0.296835 0.164653 0.382485 0.229633 -0.023143 -0.786476 -0.018430 -0.059898 -0.401940 0.156485 -0.312556 0.109905 -0.400492 -0.040170 -0.007451 -0.458180 0.686539 0.140000 -0.466210 0.061833 0.059441 -0.162825 0.367919 0.173584 -0.788171
43 0.088362 -0.054705 -0.332347 0.425969 -0.332500 -0.022556 0.479718 -0.422107 0.002569 -0.083577 -0.555622 -0.269141 0.046399 -0.459923 -0.116459 -0.261502 0.082563 0.461675 -0.403896 0.125228 -0.309080 -0.139837 0.599925 -0.610432 0.030376 0.266100 0.442868 0.047427 -0.591120 0.091757 -0.256984 0.196563 0.050581 0.002234 0.110224 0.434096 -0.131191 0.199313 0.486852 0.284351 0.191666 0.055831 0.261979 0.378963 -0.045597 -0.547853 0.303262 -0.176576 0.301962 0.115307 -0.086917 0.174587 0.288280 -0.259641 -0.028331 -0.483294 -0.506402 -0.089182 -0.046629 0.079073 0.086190 -0.025474 0.204119 0.290253 0.058791 -0.321996 0.449211 -0.459255 -0.233040 -0.115916 0.440840 0.599893 0.062685 0.007763 -0.043420 -0.099003 -0.039963 0.161198 0.155843 0.336293 -0.160758 -0.089575 -0.101547 0.305399 -0.283602 0.410082 -0.551126 0.359956 -0.013150 -0.272182 0.401169 -0.009074 0.148089 0.182360 0.128027 -0.081647 -0.258723 -0.093969 0.115984 -0.154424 0.343090 -0.243039 -0.398222 -0.236363 -0.191002 -0.439319 0.601881 0.300458 -0.471557 -0.129323 -0.379013 -0.069555 -0.225604 -0.112167 0.172344 0.083082 -0.161769 -0.208664 0.107841 0.515204 -0.127761 0.021957 -0.038486 0.112878 0.132796 0.341442 0.795202 0.431798
65 0.098477 -0.014936 -0.303254 0.449798 -0.192858 0.035138 0.084132 0.034122 0.011059 -0.007138 -0.395046 0.179003 0.203958 0.125247 -0.312691 -0.224505 0.271375 0.037977 -0.040041 0.759441 0.035340 -0.483808 0.226456 -0.602581 0.406004 -0.108501 -0.049313 -0.479589 -0.157480 -0.071968 -0.587359 -0.015113 -0.189266 -0.249037 -0.089838 0.365506 -0.245831 0.248408 0.054274 -0.452569 -0.223217 -0.056727 0.272832 0.096769 -0.071797 -0.038380 0.362166 0.033712 0.111383 -0.210725 0.318590 0.028681 -0.177400 -0.414788 0.765493 0.205945 0.159202 0.276202 -0.034467 -0.168883 0.371352 0.398488 0.519854 0.308798 -0.098070 -0.004605 -0.271014 0.264736 0.423940 -0.156844 0.581977 0.136901 0.176774 0.021510 0.105073 -0.027828 0.109134 0.525368 0.409956 0.503856 0.041457 -0.337185 -0.507580 0.256826 -0.110225 -0.274499 -0.383888 0.294220 -0.262873 0.158705 -0.047635 -0.000534 -0.158362 0.234119 0.255440 -0.195355 -0.056623 0.194056 0.399716 -0.189898 0.130764 0.385171 0.103334 0.049455 -0.295496 -0.418832 0.097458 0.458237 -0.160481 0.056952 -0.415234 -0.189812 -0.152149 0.352021 0.393616 0.427895 -0.392190 -0.279125 0.068939 0.210415 -0.187294 0.374025 0.112490 0.275177 0.212842 -0.018689 0.957774 0.405923
99 0.798388 0.244833 -0.350966 -0.082111 0.540226 0.060320 0.128828 -0.432384 0.366333 0.473374 -0.108695 -0.034971 0.233470 -0.059772 0.008972 -0.346545 0.472540 -0.573586 -0.620092 0.503035 0.209450 -0.585843 0.175435 -0.256646 -0.149777 -0.196029 0.379250 -0.410435 -0.066621 0.282937 0.255810 -0.278180 -0.034624 -0.493357 -0.736570 0.227429 -0.044333 0.451240 0.125603 -0.813777 -0.099744 0.401869 -0.222831 -0.267695 -0.314404 -0.067382 0.239440 -0.023968 0.092243 0.312914 0.045048 0.511548 -0.392731 -0.399636 0.344064 0.107150 0.436305 -0.414392 0.282873 0.052679 -0.100495 -0.569079 0.318437 0.166304 0.053588 0.455635 -0.199937 0.013872 0.074793 -0.121754 0.363861 0.326426 0.102908 -0.182683 0.526356 -0.474462 -0.276643 1.005930 0.513894 0.669114 -0.282040 -0.096214 -0.224743 -0.297913 0.155627 0.549405 -0.159471 0.148583 -0.483824 -0.214869 -0.058609 0.022386 -0.381121 0.123002 0.407122 0.509717 -0.018692 0.415162 0.215582 -0.464003 -0.087431 0.146307 -0.261873 0.101007 0.325519 0.017055 0.182833 0.053644 -0.182798 0.080040 -0.115598 -0.028834 -0.458190 -0.071461 0.417856 -0.348472 -0.114799 -0.499234 0.166306 0.208729 -0.164851 -0.130740 -0.202391 0.378739 0.438489 0.996222 0.240925 -0.402985
36 0.152691 -0.166374 0.051504 0.254445 0.134824 -0.133067 0.670080 -0.129093 0.325590 -0.015893 -0.314358 -0.090513 -0.085878 -0.484584 -0.240967 -0.504155 0.096169 0.060829 -0.416950 0.383570 0.004317 -0.237343 0.703684 -0.169194 0.451625 -0.058735 0.009081 -0.175627 -0.400211 -0.057264 -0.272456 -0.115914 -0.036645 -0.581143 0.094413 0.420015 -0.408351 0.192509 0.349502 -0.473568 0.167122 0.692624 0.440871 0.416931 0.291131 0.063991 0.136741 -0.261056 0.579224 0.617708 -0.042770 0.175563 0.107021 -0.291360 0.088090 -0.230015 -0.039497 0.134715 -0.114238 -0.061410 -0.217944 0.069212 0.211708 0.226830 0.351905 -0.309718 0.148168 -0.614230 0.324324 -0.080040 0.587533 0.406506 0.540016 -0.154534 -0.102088 -0.368238 0.224412 -0.100404 0.292986 0.434823 -0.559119 -0.145306 -0.614532 0.256960 -0.776643 0.197138 -0.156962 -0.023046 -0.072024 0.191968 0.483763 -0.276716 0.320560 0.235586 0.080240 -0.023426 -0.382796 0.086863 0.048323 0.110267 0.364317 0.263455 -0.163612 -0.179399 -0.390959 -0.358341 0.434753 0.249518 -0.072602 0.305721 -0.359889 0.143233 0.045393 0.122136 0.178036 0.011061 -0.321108 -0.049945 0.340782 0.146633 -0.645498 0.062124 -0.234876 -0.090314 0.177237 0.217631 0.539559 0.375296
76 0.390158 -0.130939 -0.492834 -0.064661 -0.435678 0.404798 0.228530 -0.123005 -0.287666 0.351701 -0.407916 -0.309163 0.018598 0.204372 0.079658 -0.477736 0.215238 0.232322 -0.739597 0.064695 0.440290 -0.057080 0.305301 -0.303669 -0.636692 -0.198492 0.316355 -0.211935 -0.590936 0.373246 0.051869 -0.611069 0.001349 0.310664 -0.438849 0.386976 0.287559 0.260021 -0.139248 -0.166891 0.189299 -0.126227 -0.330485 0.217833 0.059105 -0.511615 0.158612 -0.017171 -0.109204 0.338148 0.027603 0.186534 0.135999 0.051789 -0.191499 -0.216826 -0.064211 -0.255881 0.185482 0.337987 -0.245698 -0.314511 0.335912 -0.382931 -0.178245 0.375576 -0.204032 0.384071 -0.245860 -0.050240 -0.106931 0.015719 -0.091144 -0.357425 0.435204 0.028022 -0.370875 0.717313 0.156183 0.449982 -0.377784 -0.255529 0.118012 -0.115969 0.020555 0.360065 -0.623349 0.371404 -0.207605 -0.257017 0.095805 -0.209332 -0.270016 -0.100707 0.418867 0.090811 0.163772 0.520868 -0.131460 0.127701 -0.033387 -0.273305 -0.165525 -0.007658 0.430941 0.159162 0.584577 -0.063761 -0.828053 0.024366 0.073324 -0.114300 -0.441300 -0.032592 0.257380 -0.703573 -0.526284 -0.702609 -0.180048 0.334420 0.377153 0.271790 -0.134727 0.509598 0.599961 0.728238 0.578831 0.183431
26 0.452874 -0.160591 -0.596435 -0.018546 0.202444 0.069248 0.450298 -0.133083 0.223416 0.134391 -0.799879 -0.017833 -0.132087 -0.329880 0.105853 -0.114334 -0.200442 -0.293003 -0.734064 0.398910 0.247939 -0.465069 0.461735 -0.381659 0.307184 0.055112 0.152572 0.234967 -0.194448 0.724446 0.503946 0.000637 0.238611 -0.236552 -0.342719 0.253801 -0.037477 0.530786 0.047147 -0.264636 -0.209226 0.021526 -0.242917 0.033096 -0.232598 -0.005013 -0.080836 0.457245 -0.112699 0.645577 0.382339 0.383560 -0.013557 -0.188871 0.099519 0.130503 -0.440711 -0.284907 0.460613 -0.121485 0.159887 -0.853403 0.243125 0.537770 0.620270 -0.329832 -0.202003 -0.319498 -0.104284 -0.163597 0.220006 0.105002 -0.345349 -0.231687 0.496027 -0.346098 0.146621 -0.281241 -0.060814 0.492638 -0.526927 -0.358194 -0.239881 -0.325608 0.370434 0.560372 0.182217 0.008012 -0.115164 -0.314747 0.154422 -0.376418 0.367543 0.214636 0.146784 0.726073 -0.195323 0.616260 0.119225 -0.252719 0.101014 -0.064378 -0.687783 -0.115996 0.170335 -0.046474 0.096744 0.088338 -0.001992 -0.121569 0.056604 -0.140751 -0.704680 -0.397628 0.255089 -0.387446 -0.214438 -0.250982 -0.030093 0.115411 -0.235120 -0.611078 -0.002433 -0.279610 0.370281 0.562811 -0.082505 -0.833028
61 0.234793 -0.089739 -0.156294 0.090213 0.070615 -0.052638 0.455554 0.164939 0.063001 0.115343 -0.224075 0.227391 -0.318374 -0.081780 -0.313402 -0.119410 -0.086947 -0.127337 -0.372128 0.323717 0.028352 -0.231829 0.198079 -0.416840 0.605743 -0.137101 -0.009872 -0.282167 -0.139616 -0.107216 -0.124766 -0.167657 0.229185 -0.269193 0.375298 0.449746 -0.358356 0.304578 0.193921 -0.374002 0.169822 0.095449 0.563576 0.146423 0.339622 -0.471356 0.180828 -0.155512 0.095189 0.260356 0.348310 0.548836 0.181882 -0.341385 0.527708 0.377145 -0.436388 0.281482 0.306061 -0.389788 0.299040 -0.016269 0.306508 0.403133 -0.047315 -0.332372 -0.010470 -0.456818 0.430062 0.043653 0.193773 0.604496 0.806053 0.101574 0.069116 -0.172298 0.280937 0.036377 0.285354 0.381539 -0.485904 -0.176310 -0.373083 -0.037920 -0.306092 0.151566 0.036332 0.033565 -0.144585 0.272170 0.392160 0.349781 0.035165 0.144857 0.507771 0.051485 -0.183759 -0.021679 0.517286 -0.056148 0.038186 0.347784 -0.154052 0.187106 -0.649697 -0.064499 0.341152 0.666376 -0.065681 0.255324 -0.305589 -0.184253 -0.016525 -0.010217 0.559406 0.089946 -0.096769 0.131245 0.152935 0.089267 -0.304624 0.104899 0.086077 -0.031696 -0.019641 0.159828 0.176572 0.472487
90 0.591086 -0.408208 -0.212505 0.330034 -0.126994 0.211722 -0.165291 0.178567 0.312919 0.141676 -0.224897 0.119787 0.358145 -0.387274 0.119188 -0.179431 0.428117 0.245529 -0.247984 0.357797 -0.239606 -0.228708 0.229425 -0.664664 -0.412765 0.089499 0.479562 -0.137213 -0.122404 -0.110788 -0.185950 -0.386571 -0.159543 -0.020994 -0.133887 0.400163 -0.389508 -0.072472 0.254912 -0.688631 -0.004779 -0.166559 0.056016 0.447042 -0.219370 -0.487973 0.150813 -0.195569 -0.132611 0.279104 -0.205724 -0.097527 -0.444897 -0.131125 0.177692 -0.169597 -0.062415 0.150072 0.253320 0.379094 -0.503275 -0.250385 0.281535 -0.006970 -0.103527 0.355692 0.005374 0.402256 -0.278744 -0.129889 -0.172486 0.301154 -0.356096 -0.309329 -0.017598 0.241742 0.181023 0.862804 -0.118592 0.088256 0.132707 -0.551296 -0.449522 0.411929 -0.033375 0.510804 -0.155575 -0.005005 -0.049990 -0.291577 -0.087339 -0.347522 -0.465632 -0.098429 0.235002 0.185130 -0.088717 -0.170725 -0.210697 0.158123 0.492536 -0.423527 -0.099957 -0.405162 0.043988 -0.259530 -0.113541 0.010743 -0.309011 -0.102428 -0.127026 -0.014882 0.231360 -0.257627 0.428113 -0.390193 -0.244841 -0.509403 -0.785579 0.759799 -0.003136 0.352377 -0.074626 0.449576 0.267375 0.208420 0.432794 0.102095
48 -0.129820 -0.436972 -0.616098 0.588280 -0.540182 0.124620 0.870362 0.040862 -0.077782 -0.123141 -0.904130 0.135876 -0.041348 0.081631 -0.255482 -0.258390 -0.067163 0.392699 -0.350668 0.567124 -0.211481 0.061150 0.379229 -0.468768 0.566795 -0.093133 -0.476511 -0.230423 -0.766360 0.345978 -0.122097 -0.355040 -0.043568 -0.060911 -0.097912 0.344130 -0.199286 0.334407 -0.013968 0.324281 0.189754 -0.069018 0.470521 0.051711 0.210053 0.113016 0.050130 -0.222348 -0.120400 0.160953 0.301209 0.048237 0.365844 -0.280821 -0.070916 -0.321940 -0.472591 0.335000 -0.150433 -0.123207 0.445155 -0.073021 0.105171 0.099025 0.379703 -0.474540 -0.541456 -0.472547 0.556113 0.140281 0.182257 0.192739 0.026646 0.079870 0.080904 0.215582 0.157969 -0.392440 0.215713 0.553796 -0.444529 -0.227394 -0.211626 0.299352 -0.135682 -0.265218 -0.407256 0.332706 -0.034223 0.604185 0.324366 -0.183456 0.003429 0.352485 0.281944 0.060049 -0.002913 0.316323 0.413018 0.234820 -0.049973 0.165579 -0.098999 -0.126812 -0.074274 -0.111329 0.311439 0.227721 -0.276668 0.238927 -0.300512 -0.385404 -0.426765 -0.029663 -0.067408 -0.037996 -0.454568 -0.220263 0.283285 0.083344 0.007143 0.116696 0.016309 0.435280 0.166475 -0.289166 0.810836 0.273829
13 0.561819 -0.733783 -0.598860 -0.046509 -0.378811 0.157915 0.096674 0.334219 0.356609 0.358738 -0.394212 0.347494 -0.056234 -0.396670 0.009768 -0.209347 0.222794 0.156411 -0.441138 0.398995 -0.135347 -0.063975 0.435461 0.001141 -0.128230 0.011098 0.576065 0.219584 -0.096557 0.423544 0.247630 -0.038883 0.029996 0.381813 -0.298492 0.302895 -0.335408 0.311589 0.353403 -0.735672 -0.501911 0.098526 0.109847 0.325250 -0.247386 0.214374 -0.015942 0.101544 -0.079781 0.399550 -0.248983 0.340784 0.096670 -0.110504 -0.271734 -0.112579 -0.759236 -0.007590 0.100892 0.266654 -0.065050 -0.810900 0.095810 0.080696 0.344081 -0.103847 -0.013574 -0.121841 -0.386119 -0.437172 -0.012793 0.105951 -0.063307 -0.115680 0.337640 0.200152 0.340284 -0.012140 -0.245444 -0.049147 -0.231610 -0.401904 -0.588372 -0.159744 -0.205090 0.721825 0.128062 -0.411588 -0.127948 -0.459897 0.617888 -0.331170 0.209053 0.185167 -0.178314 0.638724 -0.273876 -0.139979 0.321915 0.312992 -0.008551 -0.428852 -0.640396 -0.104322 -0.112612 -0.328324 0.394309 0.477916 -0.274783 0.084644 0.007983 -0.125841 -0.031579 -0.695002 0.132559 -0.330080 -0.115395 0.141106 -0.781882 0.307287 -0.317878 -0.408324 0.157762 -0.225932 0.398254 0.306939 -0.233877 -0.111693
97 0.624344 -0.619409 -0.539367 -0.036298 -0.192972 -0.016101 0.159770 -0.064251 0.494121 0.336329 -0.598256 -0.191176 0.473025 -0.204909 -0.346129 -0.227184 0.332290 -0.137724 -0.496611 0.321058 -0.176190 -0.384039 0.327111 -0.222161 -0.207336 -0.181633 -0.095718 0.075427 -0.404564 0.305343 0.419422 -0.325592 -0.301027 -0.320529 -0.488800 0.266819 -0.057646 0.451266 -0.035201 -0.548745 0.085585 0.080874 -0.313056 0.362218 -0.148145 -0.142498 -0.207186 -0.482026 -0.015785 0.287801 -0.452600 0.234219 -0.025714 -0.155377 -0.103904 -0.401130 -0.082483 0.067435 0.308659 0.395303 -0.504235 -0.549044 0.067821 -0.440210 0.534113 0.150394 -0.280481 0.097010 -0.031610 0.239574 0.118700 0.060127 -0.442154 -0.417353 -0.194676 0.102266 0.068800 0.765134 0.123671 0.439427 -0.268679 -0.011205 -0.420509 0.106326 0.263465 0.102323 0.224306 -0.118052 -0.210468 -0.115921 0.437100 -0.551074 -0.438918 0.234331 0.132496 0.519185 -0.100418 -0.129922 0.026110 0.022065 -0.158730 -0.263655 -0.220391 -0.569197 0.012657 0.150885 0.174296 -0.013053 -0.874895 0.534903 -0.040089 -0.079631 -0.019806 -0.351687 0.045993 -0.705354 -0.146270 -0.368630 -0.213506 0.766895 0.319841 -0.096934 -0.207497 0.348002 -0.089840 0.796914 0.228008 -0.309796
72 0.519886 -0.443696 -0.441953 0.118071 -0.139880 0.246816 -0.265288 0.363919 -0.188694 0.232576 -0.248100 0.422946 0.092238 -0.166698 0.133284 -0.092926 0.603971 0.099202 -0.496492 0.348630 -0.282609 -0.073175 -0.031572 -0.082564 -0.054701 -0.190654 0.209008 -0.228043 -0.084032 -0.304518 0.088710 0.183688 0.011697 -0.120676 -0.096974 0.512004 -0.230699 0.174708 0.285538 -0.942446 -0.222194 0.353923 -0.020391 -0.024568 -0.254633 -0.754129 -0.047034 -0.036381 -0.372850 0.305632 0.079467 0.509609 -0.160434 -0.167610 0.460006 -0.148319 -0.227975 0.024895 0.410750 0.400879 -0.817939 -0.637801 0.424334 0.225094 0.429085 0.151418 -0.340281 0.263836 -0.038557 -0.047084 -0.007369 0.478164 0.071658 -0.292972 0.523582 0.264240 -0.016977 0.660270 -0.159893 0.460877 0.152969 -0.345888 -0.758442 0.004788 0.378051 0.560895 0.162783 0.049326 -0.196758 0.058126 0.080814 -0.298740 -0.719821 -0.015380 0.280544 0.316362 -0.235036 -0.193740 0.310781 0.457505 0.305464 -0.530055 -0.153723 0.276773 -0.208403 -0.060876 -0.088460 0.015210 -0.600099 0.519600 0.195078 -0.089803 -0.108886 -0.662612 0.459852 -0.636835 -0.234858 -0.384356 -0.480901 0.308614 0.040998 -0.044277 -0.117323 0.272366 0.525869 0.571888 0.070397 0.059040
8 0.347835 -0.505526 -0.096243 -0.093304 0.024891 0.582995 0.452259 0.010906 0.239370 0.194121 -0.576059 0.132036 -0.348222 -0.236845 0.228456 -0.560229 -0.147458 -0.329375 -0.091558 0.407541 0.396773 -0.464680 0.299447 -0.645395 0.204385 0.507653 -0.098518 0.362330 -0.274493 0.693348 0.032930 -0.140847 0.221037 0.037488 -0.154328 0.086732 0.037778 0.063890 0.344579 -0.192687 -0.216648 -0.238230 -0.052967 0.831383 0.185943 0.256408 -0.423963 0.020756 0.120323 0.881224 -0.197892 -0.256195 -0.035326 0.204383 0.165322 0.305667 -0.739891 0.005835 0.354303 -0.333480 -0.098740 -0.616991 0.331912 0.563214 0.362299 -0.343465 0.071086 -0.174126 -0.059418 -0.403343 0.097287 -0.083503 -0.290610 -0.341650 0.328386 0.010785 0.249117 -0.126300 -0.115702 0.124573 -0.436188 -0.558581 -0.530916 0.236673 -0.345957 0.579349 0.293962 0.094523 0.169414 -0.321937 0.323974 -0.456728 0.234116 -0.144689 0.078285 0.161530 -0.191769 0.117506 -0.119553 -0.364939 0.587052 -0.168401 -0.634725 -0.371953 0.117033 -0.125310 0.361564 0.049645 -0.365825 -0.487023 -0.467237 -0.114992 -0.075197 -0.117322 -0.001428 -0.223496 -0.289499 -0.179189 -0.543657 0.391586 -0.484214 -0.611895 0.197005 0.073742 0.407246 0.060491 0.508826 -0.576738
31 0.318681 -0.418401 -0.217463 0.490308 -0.637839 -0.215538 0.623772 -0.100980 0.113200 0.136671 -0.754941 -0.093699 0.175160 -0.291927 -0.470700 -0.263975 -0.101141 0.177238 0.034845 0.536561 -0.309212 -0.185508 0.352805 -0.218950 0.479655 0.247859 0.289530 0.051117 -0.420627 0.107967 -0.303173 -0.092135 -0.046436 -0.140817 0.076663 0.312754 -0.249019 0.280791 0.419936 0.024633 -0.006838 0.084415 0.250799 0.058272 0.248209 0.044133 0.302887 -0.442314 0.199090 0.005521 -0.276967 0.156129 0.283178 -0.439212 0.160168 -0.096013 -0.619067 0.069093 -0.003838 -0.181107 0.362398 -0.128755 0.233404 -0.070879 0.095291 -0.687638 0.121444 -0.326923 -0.010445 -0.065260 0.232800 0.263239 -0.146793 0.152190 -0.427060 0.049931 0.248111 0.125217 0.305829 0.151850 -0.265096 -0.087386 -0.105958 -0.126476 -0.297134 0.044983 -0.033356 0.270410 -0.360552 0.020890 0.427046 -0.063018 0.363275 0.500686 -0.086633 0.084199 -0.152823 -0.091362 0.159271 -0.060659 -0.116652 0.248177 -0.538172 -0.395874 -0.365487 -0.225247 0.368534 0.275165 -0.103748 0.216360 -0.418869 -0.065051 -0.043511 -0.141032 -0.046498 0.393673 0.023958 0.166580 0.048093 0.520865 -0.208511 -0.109671 0.146017 -0.104627 -0.063362 -0.089866 0.202582 0.237850
68 0.220474 -0.154342 -0.126572 0.548379 -0.070595 -0.243842 0.569437 0.104616 0.164241 -0.088531 -0.550224 0.178504 -0.116329 -0.154669 -0.160373 -0.236884 0.134705 0.087841 -0.144911 0.767498 -0.143160 0.008706 0.316277 -0.636874 0.614297 -0.097447 -0.233464 -0.484059 -0.209239 0.207450 -0.295037 -0.219013 0.110711 -0.246097 -0.086411 0.244334 -0.465888 0.009393 0.115135 -0.259101 0.223942 0.258083 0.281002 0.085180 0.184412 -0.007422 0.137102 0.050659 -0.159953 0.267089 0.494015 0.128759 0.191737 -0.106520 0.186650 -0.026331 -0.099615 0.256129 0.034309 -0.433134 0.141093 0.007056 0.491203 0.081906 0.325270 -0.161010 -0.102188 -0.232610 0.669695 0.147659 0.042037 0.230836 0.075259 0.064197 0.028411 -0.018660 -0.009037 -0.023900 0.238192 0.519802 -0.378975 -0.399771 -0.267038 0.051373 -0.267835 -0.193985 -0.164859 0.127640 -0.354858 0.389928 0.386629 -0.246738 -0.153491 0.269777 0.182563 -0.145671 -0.386494 0.356677 0.386988 -0.020536 0.293071 0.336548 -0.049583 -0.284997 -0.130789 -0.225292 0.186094 0.163081 -0.104582 0.321583 -0.274970 -0.034336 -0.131439 0.107374 0.233457 0.007547 -0.376592 -0.555350 0.289494 0.018924 -0.112981 0.078418 -0.024871 0.187713 0.223120 -0.387565 0.770190 0.210561
89 0.336841 -0.166488 -0.555507 0.251172 -0.202186 0.134531 0.094408 -0.152151 0.443523 0.070936 -0.416876 -0.085159 0.594036 -0.215865 0.023482 -0.245760 0.297767 0.096832 -0.414637 0.344898 -0.185903 -0.344414 0.458394 -0.279069 -0.406580 -0.115617 -0.036182 -0.081515 -0.615970 0.371764 0.340990 -0.387201 -0.133406 -0.177797 -0.490022 0.409020 -0.259491 0.476903 0.009777 -0.439159 0.116275 -0.183839 -0.043936 0.071589 -0.231130 -0.303989 0.000837 -0.225701 -0.039459 0.351796 -0.266623 0.103985 -0.267409 -0.252598 0.058852 -0.672289 -0.088300 0.045561 0.166249 0.525289 -0.133556 -0.293172 0.072948 0.129545 0.210972 0.306786 -0.492804 0.027978 -0.106888 0.024274 -0.020840 0.121477 -0.427384 -0.253389 0.128712 0.090739 0.070574 0.742213 -0.163425 0.184305 -0.168409 -0.117616 -0.314367 0.321087 0.348175 0.391632 -0.453818 -0.033134 0.061617 -0.041718 0.037466 -0.203787 -0.539011 0.061866 0.453614 0.441819 0.096600 -0.103714 0.177582 0.104681 0.258339 -0.475486 -0.065452 -0.287410 0.217519 0.152917 -0.052501 -0.086672 -0.427365 0.034515 -0.267348 -0.360365 -0.156705 -0.335065 0.110351 -0.622180 -0.073768 -0.180575 -0.301666 0.692371 0.251841 0.506200 -0.283698 0.491313 -0.043343 0.807306 0.604690 -0.069468
42 0.127539 0.054376 -0.431113 0.435593 -0.127765 0.157248 0.397605 0.118247 0.289540 0.511642 -0.203209 0.214100 0.226524 0.105315 -0.375363 -0.305706 0.487328 0.222427 -0.233933 1.008770 0.285793 -0.332957 0.200871 -0.489455 0.489117 -0.262048 -0.304972 -0.344643 -0.213811 0.346775 -0.107699 -0.310869 -0.227347 0.034384 0.137143 0.640028 -0.206271 0.497796 -0.145904 -0.103874 -0.149704 0.289927 0.186362 -0.349396 0.117571 0.232908 0.164226 -0.257958 0.129634 0.017725 0.396398 0.114354 0.083163 -0.263570 0.157837 0.343602 0.287504 0.266208 -0.055177 -0.176572 0.574367 0.117316 0.269291 -0.063530 0.066664 0.016216 -0.542502 0.031534 0.441439 -0.256963 0.501773 -0.061349 0.220427 0.025458 0.470294 -0.085611 0.146638 0.457397 0.369842 0.566142 -0.212374 -0.001962 -0.521642 0.055711 -0.258733 -0.117170 -0.461996 0.246030 -0.500679 0.180117 -0.210839 0.059100 -0.124880 0.177593 0.003744 -0.101925 0.007533 0.589414 0.549064 0.124742 -0.176696 0.559572 -0.295050 0.129398 0.041782 -0.207830 0.165607 0.239472 0.388426 0.052299 -0.160096 -0.166612 -0.008842 0.393785 0.441541 0.402001 -0.306603 -0.147906 0.093851 0.378309 -0.223182 0.333729 0.154153 0.031402 0.242018 -0.010034 0.776975 0.126262
51 0.150566 -0.246297 -0.335508 0.321023 -0.146903 0.103419 0.280755 -0.186188 0.305885 -0.141593 -0.250358 0.225278 0.242961 -0.118596 -0.684330 0.108113 0.166061 0.322286 -0.015982 0.659473 0.161651 -0.327672 0.304550 -0.639414 0.196995 -0.526975 -0.064716 -0.282795 -0.224326 0.032552 -0.041935 -0.157613 -0.492522 -0.417133 0.191825 0.651090 0.002724 0.196493 -0.083061 -0.309177 -0.034090 0.094074 0.471514 0.197342 -0.023499 0.282507 0.208408 -0.499524 0.223564 -0.022589 0.190791 -0.174976 0.056049 -0.698124 0.240876 -0.052811 0.239809 0.493645 -0.315937 -0.057379 0.151356 0.414670 0.150221 0.168010 0.041040 -0.148032 -0.313772 -0.549597 0.226944 0.153944 0.853538 0.266534 0.070292 0.089351 -0.072867 0.019574 0.295708 0.215703 0.291086 0.618267 -0.522546 -0.330922 -0.808307 0.753807 -0.364019 0.020581 -0.453290 -0.028302 -0.272208 -0.074279 0.023468 -0.055742 -0.033649 0.236037 0.312242 -0.158533 -0.284402 0.167637 0.270119 0.051411 -0.037904 0.358744 0.138324 -0.253445 -0.623663 -0.441218 0.428462 0.498978 0.158189 0.357715 -0.527035 -0.313075 0.126501 0.284173 0.169552 0.064523 -0.278413 -0.079168 0.000328 0.568294 -0.554058 0.103965 -0.188724 0.191135 0.032753 0.048011 0.625285 0.098162
41 0.548962 -0.340129 -0.552532 0.403645 -0.150298 -0.136471 0.386421 -0.058473 0.203429 0.079677 -0.277434 -0.073156 0.006508 -0.184071 -0.391884 0.130025 0.231093 0.211697 -0.515466 0.347612 -0.179815 -0.190265 0.663784 -0.237992 0.021219 -0.329612 0.271185 -0.347702 -0.279148 0.292539 -0.274265 -0.092234 -0.575361 -0.160647 -0.483430 0.133419 0.119789 0.170496 -0.147212 -0.348911 0.206886 0.121184 0.160181 -0.088926 -0.422167 0.255967 0.362013 -0.034599 0.176185 -0.190701 0.185518 0.074378 -0.075287 -0.731008 0.004557 -0.248320 0.456976 -0.043864 -0.509923 0.137142 0.120180 -0.084619 0.110339 -0.166794 0.126911 0.164593 -0.155988 -0.158807 0.004506 0.136444 0.404336 0.135038 0.062928 -0.245828 -0.217210 -0.074689 0.175092 0.360276 0.267102 0.354095 -0.166347 -0.177241 -0.375135 0.275237 -0.071180 -0.010844 -0.596769 0.088178 -0.331996 -0.143768 0.366468 -0.363543 0.132641 0.472698 0.173062 0.335432 -0.124064 0.392631 0.008698 -0.014079 -0.339215 0.112846 0.086632 -0.120758 0.134079 -0.407971 0.271516 0.146475 -0.238363 0.421228 -0.218800 -0.014452 -0.466145 -0.204360 0.008637 -0.238723 -0.489548 -0.364631 -0.043556 0.353425 -0.175207 -0.109032 -0.028792 0.480983 0.338360 0.276430 0.134044 0.105042
88 0.676233 -0.311974 -0.204102 0.065685 -0.578030 0.208412 -0.078516 0.012339 0.047340 0.189887 -0.300668 -0.116865 0.409330 0.297778 -0.134116 -0.077530 0.325573 -0.019207 -0.452109 0.300696 0.152019 -0.143592 -0.386857 0.121945 -0.270052 -0.066313 0.227006 -0.077693 -0.233726 -0.190502 0.212853 -0.349843 0.274354 -0.049934 -0.180072 0.700323 -0.055690 0.275101 0.082492 -0.488576 -0.384226 0.038658 -0.062155 0.002032 0.102992 -0.287125 0.358668 -0.431770 -0.359353 0.185970 -0.307071 0.526345 0.129842 -0.109107 0.131630 -0.166656 -0.409958 -0.381134 0.459182 0.313382 -0.379111 -0.469580 0.626818 -0.334030 -0.039761 0.049458 -0.050414 0.421244 -0.106992 -0.045746 0.100203 0.121680 -0.347850 0.106341 0.132255 -0.148038 -0.061581 0.807525 0.056403 0.461583 -0.061434 -0.105591 -0.353375 -0.436506 0.380774 0.454684 -0.330692 0.157759 -0.655633 -0.000565 0.100421 -0.125380 -0.436043 0.168980 0.295255 0.344075 0.015408 0.295872 -0.049190 0.355990 0.057019 -0.487658 -0.437354 -0.269643 -0.151084 -0.006641 -0.040135 0.050211 -0.585913 0.392867 -0.041052 -0.077906 -0.010041 -0.415611 0.412022 -0.619521 0.077130 -0.262473 -0.156869 0.503150 0.213286 0.140488 -0.061741 0.108257 0.270330 0.683572 -0.051494 -0.171421
69 0.247954 0.051907 -0.438052 0.605835 -0.049578 -0.002737 0.456518 -0.159701 -0.081669 -0.043124 -0.404160 0.075400 -0.397770 -0.277474 -0.191410 -0.057781 0.149179 0.190000 -0.300514 0.172442 -0.419761 -0.006077 0.581589 -1.198683 0.451718 -0.031129 0.414690 -0.387579 -0.118977 0.132064 -0.503474 0.197688 -0.074447 0.136176 0.126390 0.261556 -0.031749 0.019709 0.240697 -0.024273 0.074014 0.092446 0.559812 0.425143 -0.255344 -0.415203 0.308214 0.216927 0.354772 -0.073803 0.434551 0.159663 0.185815 -0.201042 0.046302 0.190724 -0.247703 -0.009501 -0.056165 -0.187876 0.218029 0.113867 0.272636 0.363671 0.250586 -0.136785 -0.074445 -0.465225 0.091041 -0.348607 0.403427 0.561082 0.167770 -0.163629 0.338063 0.136461 0.089405 -0.352982 0.585817 0.417793 -0.115033 -0.403526 -0.102244 0.480225 -0.400555 0.274253 -0.350590 0.291495 0.048104 -0.267653 0.226778 -0.245426 -0.054784 0.258194 0.337580 -0.171703 -0.483917 0.075451 0.125878 -0.394079 0.285059 0.230040 -0.176733 -0.071276 -0.403649 -0.515679 0.401448 0.441581 -0.114410 -0.127683 -0.349332 0.032929 -0.473758 0.076828 0.198079 0.175432 -0.239762 -0.453132 -0.007219 0.236033 -0.335009 -0.095308 0.319736 0.410774 0.584968 -0.132229 0.921867 0.453851
45 0.260500 -0.198614 -0.583963 0.485148 -0.072783 -0.044980 0.515758 -0.257733 0.347016 -0.049974 -0.462031 -0.025663 -0.113041 -0.121069 -0.305885 -0.084757 -0.100589 0.127201 -0.664375 -0.063688 -0.437605 -0.221336 0.642981 -0.631275 0.365132 -0.030863 0.069621 -0.313841 -0.433543 0.082953 -0.333746 -0.091126 -0.255660 -0.220546 -0.107593 0.131280 -0.115425 0.176588 -0.080252 -0.128809 0.184612 0.168082 0.449782 0.395867 -0.206044 0.016650 0.364432 -0.044912 0.366043 -0.119796 -0.024870 0.046350 0.014562 -0.316804 -0.263835 -0.228162 0.086667 -0.154085 -0.105723 0.083038 0.125580 0.016585 0.046226 -0.098166 0.454136 0.065601 -0.218398 -0.258934 0.149325 -0.133286 0.475564 0.241129 0.157668 -0.327470 -0.041975 -0.017890 0.421630 -0.348915 0.525216 0.483711 -0.033507 -0.093786 -0.165440 0.410165 -0.223144 -0.087534 -0.218925 0.193819 -0.043962 0.138633 0.357564 -0.426720 -0.022627 0.420373 0.167903 0.217414 -0.184443 0.080812 -0.142218 -0.114628 0.055871 0.046630 -0.037855 -0.397333 -0.177801 -0.415123 0.241619 0.429400 -0.456983 0.203363 -0.234546 0.171341 -0.486672 -0.114738 0.089952 -0.221746 -0.152938 -0.404741 0.147322 0.269310 -0.042976 0.084216 -0.018445 0.522095 0.341310 0.240913 0.529221 0.303810
56 0.330248 -0.142218 -0.647406 0.553500 -0.219531 -0.010582 0.507306 -0.077902 -0.111625 0.210886 -0.611573 -0.034862 -0.160732 -0.002524 -0.598177 0.177264 -0.205556 -0.117438 -0.126211 0.074498 -0.389722 -0.520562 0.209805 -0.795291 0.538526 0.238687 0.114741 -0.011224 -0.229078 0.213698 -0.268264 0.211776 -0.086746 -0.110330 0.251102 0.410161 0.064554 0.638259 0.052009 0.005632 0.134358 -0.085612 0.150697 0.273190 -0.166059 -0.399991 0.464178 -0.212585 0.167654 -0.255683 -0.250740 0.084652 0.216480 -0.583945 0.397409 0.161070 -0.174208 -0.225806 0.357806 -0.012698 0.308031 0.040104 0.278965 0.160272 0.329576 -0.440384 -0.339332 0.005001 0.028382 -0.053715 0.520063 0.309479 0.001586 -0.183348 -0.408706 -0.014235 0.474195 0.182135 0.597824 0.626321 -0.158000 -0.046604 -0.213864 0.285349 0.289453 -0.190476 -0.033952 0.388415 -0.352200 0.083255 0.303161 -0.106400 -0.063963 0.398255 0.153986 0.086926 -0.144670 -0.034800 -0.136986 -0.432381 0.109606 0.335235 -0.434577 -0.199264 -0.236228 -0.216831 0.410999 0.304009 -0.625281 0.341687 -0.229046 0.083150 -0.452917 -0.055867 0.321944 0.269883 0.063438 -0.322454 -0.024162 0.675392 0.108222 0.013664 0.247340 0.498045 0.220300 0.073747 0.562630 0.117321
58 -0.019788 -0.543543 -0.557989 0.373078 -0.895438 0.026470 0.435536 0.129239 0.119379 0.050621 -0.962378 0.015493 0.526070 0.068569 -0.381052 -0.410272 -0.016168 0.459605 -0.288314 0.592618 -0.089439 -0.276957 0.324421 -0.435829 0.251354 0.219987 -0.076278 -0.063723 -0.705472 -0.013160 -0.358548 -0.408730 0.008744 0.144231 0.131762 0.481833 -0.320356 0.235580 0.102900 0.038137 -0.011455 -0.465958 0.336391 0.459793 0.386496 -0.169168 0.212455 -0.217658 -0.005070 -0.171563 -0.034538 0.203715 0.383317 -0.139599 0.132579 -0.124425 -0.765677 0.454997 0.060304 -0.181571 0.651258 -0.083298 0.366795 -0.034267 -0.140255 -0.397849 -0.101331 0.107745 0.285324 0.031466 0.138856 0.090990 0.221458 0.188522 -0.172852 0.122074 0.185917 0.241568 0.305633 0.378534 -0.257517 -0.272372 -0.105542 0.018562 -0.287494 -0.276154 -0.316523 0.294214 -0.015401 0.323706 0.422222 0.081732 -0.022267 0.270516 0.196964 -0.017663 0.037266 -0.176466 0.561623 0.132439 -0.111904 0.088903 0.006731 -0.278066 -0.403358 -0.257128 0.422369 0.740409 -0.657726 0.157121 -0.340683 -0.369568 0.123170 0.079025 0.196098 0.165727 -0.410356 -0.020748 -0.024846 0.243027 0.231152 0.339215 0.084927 0.024215 -0.008211 -0.117727 0.785571 0.745321
57 0.255863 -0.376131 -0.574076 0.591513 -0.702496 0.048880 0.794293 0.026889 -0.004014 0.296731 -0.673406 -0.063643 0.012496 -0.340836 -0.241755 -0.226221 0.179847 0.616606 -0.207262 0.597835 -0.400253 0.027097 0.385229 -0.767727 0.253003 0.371187 0.203357 0.063402 -0.534880 0.462997 -0.308926 -0.259562 0.029174 0.546550 0.054115 0.310944 -0.273327 0.251137 0.268754 0.516153 0.408138 -0.129545 0.206224 0.083804 0.178808 -0.248880 0.218601 -0.244433 0.055202 -0.097745 -0.043969 0.099195 0.418421 -0.238308 -0.253221 -0.070062 -0.653622 0.188346 -0.001152 -0.181857 0.538228 -0.255664 0.208728 -0.094458 0.013138 -0.472367 0.115626 -0.268319 -0.041688 -0.119067 -0.098109 0.263181 0.004086 0.116110 -0.160222 0.203642 0.007900 0.084854 0.286248 0.192089 -0.224195 -0.097654 0.058675 0.203216 -0.315293 0.028851 -0.451605 0.437410 -0.131505 -0.134079 0.491547 -0.005981 0.120621 0.311970 -0.039761 -0.108330 -0.143735 0.015617 0.299444 -0.010045 -0.038005 0.074502 -0.514618 -0.216433 0.101649 -0.212970 0.594271 0.230606 -0.429397 -0.051500 -0.203616 -0.168033 -0.063824 -0.120683 0.112780 0.305099 -0.315998 -0.272220 -0.101070 0.508368 0.071923 -0.029927 0.283812 0.243742 0.201725 -0.352717 0.692294 0.400144
63 0.350930 0.197508 -0.167859 0.552296 -0.256782 0.107442 0.134520 -0.087875 -0.300615 -0.027109 -0.295583 -0.038068 -0.138057 -0.088004 -0.397867 -0.013420 0.292715 0.109469 0.132744 0.440766 -0.317297 -0.017308 0.205421 -1.050208 0.183682 -0.157213 0.268358 -0.322310 0.004130 0.170153 -0.362552 0.286817 -0.200982 0.010547 0.214537 0.486186 0.217781 0.154896 0.275066 -0.203480 -0.099250 0.156141 0.307126 0.217265 -0.205393 -0.485705 0.375293 -0.081069 0.176841 -0.144457 0.403161 0.007311 0.011459 -0.315470 0.613921 0.215449 0.001612 0.011734 -0.117407 -0.123784 -0.025797 0.393147 0.383253 0.281255 0.151359 -0.206756 -0.135734 -0.151790 -0.042972 -0.046832 0.571865 0.519013 -0.460877 -0.154778 0.101784 0.214887 -0.096812 0.274940 0.247630 0.433042 -0.045731 -0.452814 -0.237697 0.566204 -0.056758 0.218710 -0.290327 0.299582 -0.295718 -0.407888 0.048039 -0.374351 -0.077679 0.408393 0.347912 -0.377439 -0.537330 0.152917 -0.193925 -0.366736 0.292474 0.280732 -0.242546 -0.217257 -0.677914 -0.314484 0.100759 0.100364 0.005995 0.179272 -0.462436 -0.036153 -0.358922 0.191343 0.023977 0.239221 -0.193251 -0.479635 -0.019807 0.455857 -0.369180 -0.261706 0.323030 0.485460 0.396195 -0.021942 0.776186 0.171187
7 0.151351 -0.601908 -0.565760 0.028084 -0.104420 0.037534 0.174142 0.492458 0.063064 0.236704 -0.380265 0.584698 -0.086061 -0.380807 0.374552 -0.389375 -0.007677 0.192063 -0.295184 0.229251 -0.109070 -0.074668 0.513146 -0.281897 0.093147 0.127977 0.307855 0.131961 -0.087540 0.298072 0.211382 0.103490 -0.034742 0.193002 0.097437 0.351753 -0.174336 0.035793 0.398779 -0.663662 -0.215550 -0.114251 0.230553 0.501710 -0.146975 -0.080680 -0.401854 0.262549 -0.201851 0.596616 0.094470 0.201377 0.011639 -0.085105 -0.003898 0.017223 -0.637217 0.445293 0.112417 -0.116632 0.234819 -0.934909 -0.088181 0.651131 0.290074 -0.176184 -0.370732 -0.160777 0.051065 -0.113570 -0.123780 0.355578 0.123799 -0.274478 0.649290 0.324742 0.442257 -0.205459 -0.098461 0.317192 -0.360201 -0.608658 -0.476924 0.012702 -0.218616 0.679146 0.263543 -0.152041 0.252217 -0.073181 0.370855 -0.267446 0.005758 -0.090140 0.160090 0.312739 -0.088959 -0.289872 0.519660 0.132598 0.138298 -0.229747 -0.141268 0.099197 -0.152609 -0.192629 0.393751 0.421490 0.124988 0.170734 -0.151456 -0.211293 -0.210895 -0.358777 0.105850 -0.350529 -0.406888 0.071137 -0.694116 0.006837 -0.451447 -0.322946 0.056727 -0.094247 0.454573 0.011129 0.173719 0.099921
83 0.542810 -0.136568 -0.183507 0.360335 0.205154 0.029852 0.098661 0.040996 0.147337 0.204874 0.031025 -0.114753 0.172899 -0.162466 -0.173696 -0.215303 0.540058 0.050128 -0.370915 0.625409 0.254309 -0.181693 0.660745 -0.030335 -0.431577 -0.394212 0.187353 -0.394314 -0.175904 0.376171 -0.160851 -0.051863 -0.519803 -0.040624 -0.552651 0.358158 0.127045 0.236095 -0.042805 -0.723007 -0.187509 0.182011 -0.111821 -0.180408 -0.605515 0.351113 0.291464 0.092216 0.064077 0.286484 0.266254 -0.015626 -0.279860 -0.563596 0.284171 -0.178689 0.705375 -0.133598 -0.551602 0.273635 -0.199655 -0.040030 0.249412 0.080559 0.008264 0.468286 -0.077947 0.148854 0.021366 0.070204 0.383586 0.036521 -0.123027 -0.414125 0.153776 -0.200445 -0.063697 1.194963 -0.092852 0.429764 -0.183258 -0.263266 -0.614837 0.067461 0.063700 0.396986 -0.758110 -0.097545 -0.545262 -0.135717 0.072323 -0.303950 0.084702 0.107876 0.118161 0.438569 -0.138312 0.842891 0.026328 -0.040456 -0.029521 0.072208 -0.037450 0.096077 0.544029 -0.340440 0.159459 -0.255019 0.010988 0.294573 -0.327819 0.091930 -0.328289 -0.094415 0.125887 -0.272223 -0.627529 -0.504506 -0.354533 0.433390 -0.423454 -0.047919 -0.048349 0.429667 0.631964 0.565725 0.348490 -0.119411
35 0.430326 -0.389148 -0.340893 0.404032 -0.410834 -0.104850 0.502742 -0.168083 -0.117595 0.255009 -0.706293 0.014818 0.116017 0.226955 -0.850712 0.068770 0.238517 -0.131642 -0.003817 0.641418 0.019415 -0.446502 0.019719 -0.283221 0.570044 -0.022415 -0.267797 -0.349573 -0.441803 0.133841 -0.108112 -0.002955 -0.111511 -0.334072 -0.128629 0.389568 0.044900 0.520286 -0.060755 -0.256968 -0.040973 0.168143 -0.013729 -0.007240 0.116557 0.087538 0.370125 -0.521804 0.100683 -0.174458 -0.225769 0.290114 0.380851 -0.403711 0.406760 0.064572 0.050089 -0.136251 0.205033 -0.154568 0.022024 -0.006102 0.536865 -0.173981 0.354366 -0.423601 -0.369858 0.038077 0.346980 0.028140 0.406665 -0.012077 -0.004994 0.158228 -0.255796 -0.215750 0.060804 0.513167 0.602561 0.747236 -0.428574 -0.019402 -0.231547 -0.232844 0.157470 -0.470909 -0.056199 0.351919 -0.811927 0.333934 0.418442 -0.157199 -0.116474 0.438594 0.021323 -0.062342 -0.308344 0.235869 0.214042 -0.076700 -0.094390 0.352672 -0.256557 -0.269410 -0.185014 0.012958 0.440810 0.238773 -0.675177 0.811400 -0.277235 0.004339 -0.056504 0.094250 0.239287 0.121235 0.126711 -0.380244 0.323257 0.358606 0.178105 -0.128546 0.111571 0.104175 0.135864 0.114817 0.512217 -0.126508
20 0.725160 -0.497155 -0.238262 0.574236 -0.363785 -0.452736 0.337508 0.119334 0.423105 0.235689 -0.876042 0.088204 0.177186 -0.477581 -0.276554 -0.430718 -0.166453 -0.066907 -0.075173 0.859292 -0.121283 -0.468358 0.771699 -0.391645 0.475220 0.255673 0.528476 0.057906 -0.125457 0.430065 -0.091586 0.130417 0.090429 -0.177956 -0.081723 0.503993 -0.344484 0.346021 0.502371 -0.614292 -0.468591 0.172714 -0.002822 0.113608 -0.157465 0.282823 0.254827 0.040370 0.049022 0.452117 -0.072420 0.169170 0.097125 -0.329877 0.311453 0.096051 -0.668962 -0.059997 0.255909 -0.331965 0.271391 -0.527031 0.446049 0.353380 0.383720 -0.415166 0.177667 -0.064174 -0.081614 -0.361997 0.192546 0.218751 -0.642441 -0.133442 -0.011206 0.003444 0.533427 0.246116 0.012586 0.212269 -0.192439 -0.405815 -0.365688 -0.622675 -0.103952 0.561666 0.306000 -0.033703 -0.574501 -0.293477 0.423779 -0.423550 0.609309 0.499920 -0.160044 0.501999 -0.409872 0.258644 0.138158 -0.247814 0.182833 0.117565 -0.885642 -0.511120 -0.312127 -0.331737 0.008196 0.220590 0.227185 0.172819 -0.533716 0.220124 -0.222936 -0.337165 0.134312 0.228300 0.165124 0.063226 -0.439095 0.614920 -0.554078 -0.286143 0.183821 -0.558618 0.252214 0.231111 0.051803 -0.300267
53 0.193688 -0.254758 -0.129913 0.226774 -0.413765 -0.210027 0.296804 -0.624799 0.230768 -0.269576 -0.774986 -0.100625 0.386775 -0.132317 -0.456093 -0.333449 0.157334 0.060655 0.030532 0.510737 -0.063317 -0.223053 0.083173 -0.439625 0.198425 -0.240874 0.067196 -0.257833 -0.437629 -0.123041 -0.053578 -0.049799 -0.283215 -0.872760 -0.207648 0.309378 0.006022 0.016674 0.378508 -0.240108 -0.007040 0.366812 0.101097 0.280897 0.094796 0.032789 0.056263 -0.481527 0.141338 0.125494 -0.168083 0.037175 0.255567 -0.321886 0.161531 -0.446329 0.024524 0.070911 -0.231320 -0.117299 -0.331505 0.043426 0.307325 0.023261 0.201559 -0.417261 0.084193 -0.516220 0.216978 0.374735 0.685746 0.466869 -0.388123 0.180815 -0.103182 0.016103 -0.371509 0.088939 0.510612 0.695255 -0.327961 -0.419276 -0.385427 0.301601 -0.259632 -0.005446 -0.013879 0.238063 -0.304379 0.090216 0.278815 -0.419308 -0.283152 0.312704 0.359190 -0.275530 -0.308912 -0.067493 0.008039 -0.205895 0.027587 0.110149 -0.052226 -0.501966 -0.493516 -0.313437 0.355650 0.128771 -0.229956 0.464246 -0.535452 -0.147352 -0.056193 0.244856 -0.360780 -0.205834 -0.194945 -0.371465 0.533746 0.340134 -0.192572 -0.159449 -0.384877 0.179791 0.052348 0.222599 0.546178 -0.060146
84 0.333034 -0.188934 -0.242782 0.382098 -0.224640 0.063259 -0.012565 0.149530 -0.323323 0.110271 -0.210184 -0.265844 0.359993 0.026186 -0.296477 -0.148911 0.592506 0.342944 -0.367678 0.429467 -0.227704 0.111350 0.098020 0.013147 -0.365054 -0.605016 0.131746 -0.179264 -0.126370 -0.022320 0.201352 -0.009735 0.005899 0.284797 -0.180988 0.729279 -0.053543 0.242205 0.204300 -0.460203 -0.478240 -0.057212 -0.066395 0.064041 -0.359471 -0.400599 0.139057 -0.210184 -0.380062 0.135357 0.286566 0.318707 0.085722 -0.127150 0.097503 -0.397591 -0.251704 0.035574 0.159784 0.486411 -0.513677 0.074215 0.221609 -0.214619 0.182411 0.392328 -0.147577 0.302879 0.097578 -0.038028 0.126024 0.234662 -0.526652 -0.188983 0.108748 0.246892 -0.263955 1.095303 -0.135355 0.627081 0.053518 -0.155965 -0.412492 -0.145923 0.508299 0.403051 -0.273053 -0.038054 -0.591197 -0.127243 0.133460 -0.321035 -0.241692 0.233141 0.045130 0.252555 -0.235393 0.433052 0.178940 0.529577 -0.024353 -0.474322 -0.378506 -0.198900 -0.214703 -0.090227 0.268236 0.091316 -0.474848 0.623444 0.013592 0.000531 -0.032055 -0.373126 0.275890 -0.392070 -0.158190 -0.487775 -0.270526 0.614209 0.030288 0.120867 0.021642 0.331977 0.301938 0.688086 0.611289 0.108134
14 0.524967 -0.780464 -0.378246 -0.296742 -0.392650 0.515359 0.202593 0.518800 -0.162429 0.483084 -0.421619 0.499164 -0.258900 -0.106331 -0.106028 -0.087139 0.143592 0.010541 -0.096657 0.586458 0.411256 -0.159060 0.364609 -0.018722 -0.078510 0.256271 0.000214 0.154947 -0.266538 0.656495 0.217511 -0.015549 -0.056559 0.395207 -0.139543 0.226859 0.024511 0.360996 0.103226 -0.373263 -0.108002 -0.099013 -0.139243 0.169671 0.103060 0.178046 -0.197272 -0.168512 -0.032822 0.522881 -0.127049 0.043096 0.049625 -0.169538 0.421185 0.303718 -0.644552 0.223843 0.162941 -0.064676 -0.002584 -0.805047 0.345638 0.265827 0.250625 -0.390470 -0.149022 -0.097706 -0.274367 -0.153619 -0.077235 -0.096546 0.166012 -0.130311 0.294263 0.084878 0.381647 0.383354 -0.351513 -0.080532 -0.736061 -0.174995 -0.497774 -0.044516 -0.204019 0.429999 -0.009396 -0.027471 -0.150700 -0.277443 0.478455 -0.061930 0.332921 0.027849 -0.128559 0.385967 -0.152387 0.080455 0.502682 0.073158 0.013499 -0.034120 -0.299012 0.229463 0.045505 0.108670 0.513497 0.109433 -0.495727 0.149993 -0.153692 -0.400511 -0.042715 -0.402259 0.293822 -0.175341 -0.317714 0.164452 -0.775157 0.375945 -0.275500 -0.694720 0.181847 -0.219976 0.333625 -0.022576 -0.101590 -0.335253
18 0.350632 -0.132383 -0.485137 -0.257993 -0.103063 0.805296 0.215126 0.274660 0.167390 0.415100 -0.578649 0.514603 -0.191175 -0.027788 0.200699 -0.479985 -0.209239 -0.145268 -0.670356 0.435392 0.681463 -0.233731 0.455304 -0.435008 0.169750 0.440084 0.123665 0.059094 -0.220661 0.516872 -0.032405 -0.202836 0.195289 0.088233 0.006889 0.251603 0.025723 0.207495 -0.021269 -0.102999 -0.247965 0.147089 -0.013880 0.304112 0.244732 -0.023158 0.000715 0.129082 0.021574 0.501403 0.274819 -0.113017 -0.049099 0.297846 0.442573 0.470342 -0.571174 -0.279366 0.327031 -0.136738 0.185699 -0.682326 0.453774 0.081623 0.306931 -0.267723 -0.172836 0.055212 -0.205352 -0.343915 0.210006 -0.174551 0.236756 -0.367480 0.696180 -0.120123 0.532983 0.070421 -0.180960 0.028357 -0.698032 -0.210171 -0.199475 -0.092839 -0.423648 0.489037 -0.104227 0.266715 -0.047854 -0.044921 -0.031015 -0.063476 0.292062 -0.101497 -0.099286 0.425354 0.075368 0.524830 0.173017 -0.166820 0.399791 0.294101 -0.374793 0.085791 0.049127 -0.134747 0.081943 0.054178 -0.292548 -0.661714 -0.021805 -0.410299 -0.481953 -0.247056 0.573261 -0.056297 -0.464126 0.004124 -0.387285 0.329107 -0.161234 -0.523497 0.103267 -0.147555 0.561019 -0.113339 0.263028 -0.191225
22 0.382303 -0.432478 -0.495176 -0.116361 -0.108277 -0.229136 0.108648 0.066696 0.399552 0.179498 -0.769507 0.119485 0.130280 -0.430153 0.298580 -0.433572 -0.229465 -0.442466 -0.308775 0.227983 0.289785 -0.422281 0.449596 -0.352602 0.229272 0.365606 0.338524 0.159382 0.057412 0.498135 0.141199 -0.031420 0.082176 -0.279161 -0.219224 0.048430 -0.290766 0.254636 0.161522 -0.687812 -0.075482 -0.178634 -0.263345 0.440588 -0.049213 -0.122495 -0.386597 0.485412 0.115890 0.652000 -0.158252 0.452502 -0.161223 0.001293 0.140738 0.142588 -0.469529 -0.036913 0.562519 -0.221472 0.209052 -0.950109 0.302103 0.617410 0.386063 -0.240219 -0.328712 0.131461 0.019425 0.027591 0.027745 0.169860 -0.100843 -0.339197 0.521298 -0.215667 0.183424 -0.324609 0.330146 0.201981 -0.425011 -0.514139 -0.205508 -0.621957 0.057076 0.279488 0.351722 -0.174502 0.200255 -0.083764 0.263693 -0.470620 -0.040946 -0.096060 0.303267 0.432228 -0.126007 0.097136 0.349062 -0.296022 0.039105 0.045567 -0.364883 0.038141 0.167646 0.061341 -0.014856 0.232536 -0.011744 -0.091530 0.157859 -0.084763 -0.357947 -0.094262 0.056078 -0.539556 -0.251293 -0.004860 -0.385158 0.104217 -0.046133 -0.280869 -0.009669 -0.281046 0.328344 0.401491 -0.051879 -0.341559
95 0.319880 -0.377574 -0.394732 0.299292 -0.550555 0.088269 0.135178 0.066419 0.047172 0.081985 -0.390289 -0.459436 0.174041 0.058801 0.018862 -0.216553 0.168715 0.195636 -0.196386 0.308548 -0.019764 -0.242253 0.170770 -0.324750 -0.202218 -0.395150 -0.323661 0.176034 -0.440162 0.336506 0.362400 -0.293238 -0.156263 -0.201241 0.015059 0.721285 0.229451 0.549734 -0.149585 -0.025055 0.062897 0.041656 -0.205905 0.042640 -0.128157 -0.429635 -0.235214 -0.247817 -0.400744 0.458590 -0.000618 0.154151 0.111682 -0.299701 -0.247857 -0.485197 -0.094112 0.234820 0.134770 0.378208 -0.494871 -0.182772 0.151984 0.203173 0.269428 -0.035158 -0.405469 0.064388 0.071991 0.410948 0.133748 0.409162 -0.720292 -0.391879 -0.078472 0.129379 -0.104422 0.535708 -0.222507 0.808271 -0.021646 -0.208942 -0.636259 0.334215 0.558974 0.295400 -0.336256 0.027960 -0.089162 -0.126472 0.091682 -0.536703 -0.470275 0.091784 0.703353 0.126288 0.036350 0.387636 -0.307774 0.111684 0.093442 -0.539546 -0.510251 -0.379191 0.121403 0.179264 -0.290427 -0.503540 -0.357786 0.480628 -0.174651 -0.126097 -0.289769 -0.176330 -0.073240 -0.728617 -0.369244 -0.477380 -0.218695 0.843431 0.032947 0.459170 -0.124368 0.614550 0.020949 0.867283 0.299799 -0.173473
64 0.260998 -0.098824 -0.686958 0.370708 -0.288268 0.061327 0.356841 -0.124332 0.581674 0.312362 -0.526353 0.063546 0.239003 -0.222982 0.072802 -0.550915 0.058240 0.210362 -0.696318 0.274027 -0.216396 -0.187296 0.592633 -0.843219 0.107585 0.102357 0.404800 -0.187510 -0.437404 0.235189 -0.298642 -0.466619 -0.263002 -0.070877 -0.057837 0.253309 -0.166851 0.194774 0.175509 -0.072492 0.161342 0.060771 0.338230 0.388673 -0.006722 -0.205303 0.170331 -0.069279 0.135653 0.062027 0.086718 0.077001 -0.053857 -0.202228 -0.107565 -0.014509 -0.184965 0.106531 -0.016217 -0.019453 0.525704 -0.379130 0.061534 -0.165017 0.022590 0.051192 -0.173789 -0.054729 0.128295 -0.088590 0.347180 0.296988 0.063897 -0.321096 0.242711 0.147299 0.270619 0.138957 0.523869 0.321364 -0.091445 -0.286356 -0.132119 0.354964 -0.450990 0.312836 -0.299016 0.365376 0.073088 -0.035435 0.078844 -0.281090 -0.280116 0.285262 0.377606 0.188890 0.110661 0.025568 0.111174 -0.311916 -0.036286 0.231882 -0.129822 -0.319773 -0.089258 -0.484309 0.249613 0.398689 -0.147735 -0.288878 -0.300660 -0.148707 -0.441426 0.024815 0.191104 -0.111792 -0.521324 -0.317438 -0.081189 0.452734 -0.032060 0.220558 0.064429 0.526439 0.365057 0.176428 0.661339 0.504758
94 0.491965 -0.322112 0.043188 0.104562 -0.447955 0.322752 -0.278122 0.168254 -0.163432 -0.121192 0.043559 -0.024880 -0.134965 0.160935 0.276088 -0.194805 0.162069 0.020130 -0.146245 0.173598 0.413106 -0.141447 0.301705 -0.134797 -0.443653 0.101320 -0.184110 -0.208779 -0.315729 0.089647 -0.207727 -0.047230 -0.134157 -0.189900 -0.038267 0.390181 0.276570 0.207117 -0.115676 -0.473491 0.019397 0.183928 -0.068243 0.149331 -0.057188 -0.269682 0.005214 -0.063339 -0.096285 0.560252 -0.108242 -0.027368 -0.299804 -0.294876 0.425309 -0.107605 0.200898 0.002106 -0.052385 0.187273 -0.560453 -0.207523 0.671155 0.435990 0.033646 0.106631 -0.078161 0.311404 -0.130369 0.171320 0.280092 0.253415 -0.313883 -0.466909 0.376328 -0.033707 0.075813 0.551052 -0.323613 0.331442 -0.045836 -0.303328 -0.704098 0.368685 0.126392 0.520813 -0.725162 0.202963 -0.078766 -0.130700 0.003310 -0.450170 -0.284301 -0.122556 0.697737 -0.012409 -0.041018 0.512383 -0.326298 -0.092177 0.570699 -0.409981 0.027917 0.051395 0.107232 0.037562 -0.405614 -0.500813 -0.395865 0.178164 -0.478012 -0.076237 -0.372063 -0.056353 0.181350 -0.754218 -0.503495 -0.408616 -0.456926 0.419927 -0.249447 0.242357 -0.159122 0.415624 0.500305 0.650560 0.120782 -0.111466
27 0.797775 -0.698045 -0.115724 0.410913 -0.593097 0.005849 0.562128 0.036195 -0.193535 0.170957 -0.573182 0.042660 -0.307766 0.046815 -0.593039 -0.061216 0.350694 -0.010768 -0.018005 0.749350 0.055755 -0.150331 0.296214 -0.331518 0.459654 -0.187685 0.166614 -0.527084 -0.362906 0.116256 -0.570971 -0.246707 -0.245762 -0.177314 -0.517729 0.089916 0.086980 0.008363 0.066645 -0.363712 0.014692 0.181960 0.145469 0.018896 0.123207 0.282881 0.402305 -0.395502 0.068111 -0.067345 0.089583 0.130213 0.300018 -0.454166 0.325167 0.146946 -0.058528 0.029884 -0.296252 -0.139048 -0.179563 0.022974 0.696668 -0.389001 0.040386 -0.376989 0.038791 -0.174705 0.125546 -0.125986 0.003147 -0.008374 0.040422 0.089153 -0.366195 0.080358 -0.063985 0.486827 0.316309 0.198858 -0.384960 -0.376935 -0.339580 0.030707 -0.444180 -0.172552 -0.325060 0.324343 -0.731699 -0.048630 0.525610 -0.243130 0.123498 0.430477 0.052503 -0.079620 -0.301013 0.302194 0.114093 0.014893 -0.065709 0.299905 -0.149330 -0.209026 -0.149561 -0.261466 0.461568 0.027864 -0.473119 0.379009 -0.461416 -0.019905 -0.084380 -0.135930 0.105512 0.096051 -0.348552 -0.367574 -0.051508 0.345317 -0.130934 -0.251177 0.227879 0.190266 0.276909 -0.280124 0.282575 0.116290
40 0.136193 -0.197005 -0.320533 0.382477 0.253348 -0.175782 0.508986 -0.081718 0.126771 -0.045378 -0.436891 -0.038219 0.142062 -0.108668 -0.808237 0.067573 0.439151 -0.069409 -0.206750 0.540628 -0.110565 -0.317524 0.444422 -0.415738 0.480885 -0.471770 -0.285183 -0.348720 -0.167448 0.143472 -0.044570 0.094736 -0.416892 -0.482921 -0.170663 0.337776 0.035847 0.293216 -0.026830 -0.472889 -0.055907 0.278810 0.243407 0.391287 -0.199738 0.231843 0.060524 -0.239039 0.320350 0.053840 0.256775 0.108943 0.251702 -0.481667 0.276209 -0.121011 0.381185 0.152211 -0.178364 -0.079351 -0.073180 0.208876 0.131709 0.001125 0.531302 -0.004280 -0.376627 -0.357375 0.604386 0.217784 0.715700 0.109552 0.188629 -0.067290 -0.170244 -0.227269 0.030850 0.271384 0.556773 0.831708 -0.536170 -0.178626 -0.661050 0.337539 -0.063216 -0.273401 -0.161061 -0.102478 -0.393559 0.274061 0.383419 -0.399956 -0.121259 0.360962 0.105124 -0.011314 -0.463912 0.230637 0.314610 -0.064826 -0.105165 0.475462 0.242893 -0.210128 -0.371279 -0.435958 0.570894 0.391438 -0.315807 0.790520 -0.296295 -0.057206 -0.088155 0.322365 0.097154 0.024337 -0.363298 -0.372477 0.363427 0.213918 -0.312402 -0.154869 -0.026176 0.259736 0.186641 0.091721 0.875376 0.041261
86 0.230717 -0.199640 -0.176278 0.062846 -0.051749 0.311924 -0.068403 -0.175336 0.020260 -0.008165 -0.368936 -0.280287 0.433715 0.307059 -0.133034 -0.181062 0.038747 -0.112064 -0.311280 0.093575 0.330451 -0.466493 0.045437 -0.400395 -0.472065 -0.252939 -0.171487 -0.067176 -0.371018 -0.011119 0.245266 -0.381550 -0.170372 -0.342648 -0.088192 0.618160 0.282895 0.372522 -0.218029 -0.332890 -0.147175 -0.340831 -0.151122 0.436825 -0.126196 -0.353430 -0.015322 -0.292526 -0.197769 0.285932 -0.065215 -0.009774 -0.174598 -0.200964 0.140727 -0.243165 0.193498 0.081701 0.234031 0.344019 -0.344261 0.022111 0.177027 0.096540 -0.032963 0.322873 -0.385419 0.330983 0.095456 0.306156 0.298247 0.207007 -0.394418 -0.314279 0.090027 -0.102008 0.025583 0.901887 0.073047 0.872709 -0.227580 -0.340482 -0.389283 0.240186 0.401563 0.207906 -0.353807 0.070022 -0.168775 0.084677 -0.126900 -0.246650 -0.495719 -0.133596 0.655593 0.262788 0.213879 0.420802 -0.259448 -0.048543 0.115252 -0.329837 -0.013300 -0.344754 0.043121 0.121480 0.000213 0.007500 -0.485063 0.268415 -0.309673 -0.128719 -0.247674 0.145093 0.269917 -0.636924 -0.330017 -0.559403 -0.234765 0.606300 0.080950 0.417026 -0.254289 0.594264 0.125814 0.862538 0.618191 -0.203596
80 0.777422 -0.276255 -0.452633 0.056281 -0.466426 0.444921 -0.001599 0.225374 0.012624 0.356135 -0.220482 0.160960 0.248680 -0.037502 0.217181 -0.154875 0.657682 0.114640 -0.601959 0.415916 -0.050596 -0.067814 -0.184843 -0.001789 -0.233139 0.133001 0.394981 -0.210234 -0.170409 -0.024585 -0.021311 -0.361586 0.200382 0.151571 -0.470271 0.358281 -0.253897 0.180328 0.149056 -0.581397 -0.004458 0.314445 -0.043233 -0.250333 0.071245 -0.497880 0.233840 -0.120696 -0.137561 0.163767 -0.192414 0.561936 -0.113409 -0.125147 0.107680 -0.125404 -0.325303 -0.378051 0.375948 0.370637 -0.331226 -0.799413 0.643743 -0.176331 0.021959 0.208114 -0.212947 0.364177 -0.274132 -0.288492 -0.153535 0.150642 0.112413 0.032047 0.467709 -0.048170 -0.211028 0.558249 0.054173 0.045263 0.031953 -0.140785 -0.382997 -0.208102 0.156672 0.541868 -0.441074 0.284409 -0.250625 -0.105407 0.129599 -0.112396 -0.620237 0.116021 0.236817 0.268837 0.037837 -0.075641 0.161560 0.444350 0.129128 -0.435630 -0.270330 0.224527 0.164425 -0.016538 0.007724 -0.026289 -0.659286 0.080209 0.265145 -0.205978 -0.099316 -0.556859 0.450854 -0.559961 -0.231180 -0.298354 -0.319416 0.262960 0.281034 0.070510 -0.074770 0.277216 0.544825 0.430477 -0.038949 0.034715
38 0.383656 -0.346639 -0.830258 0.478619 -0.451116 -0.282466 0.639813 -0.205066 0.269486 0.093890 -0.888359 -0.164882 0.175517 -0.315155 -0.475926 0.035547 -0.130666 0.166517 -0.535671 0.246091 -0.560364 -0.410702 0.503772 -0.532820 0.533537 0.189683 0.270346 0.009153 -0.508769 0.172248 -0.211507 -0.107029 -0.100048 -0.260381 -0.117952 0.246725 -0.270692 0.489908 0.131959 0.083669 0.324267 -0.056283 0.241253 0.152927 -0.004412 -0.390919 0.337879 -0.223734 0.248001 -0.242593 -0.143063 0.418824 0.244172 -0.616854 0.015335 -0.258160 -0.416156 -0.034542 0.178124 -0.022078 0.539834 -0.287047 0.088122 -0.040621 0.275416 -0.415582 -0.084888 -0.280468 -0.040641 0.110463 0.320472 0.427295 0.149615 -0.006804 -0.432326 -0.035573 0.303928 -0.002142 0.508295 0.405018 -0.229276 -0.012924 -0.094118 0.110560 0.041311 -0.079976 -0.184321 0.266832 -0.115824 -0.005231 0.572739 -0.058455 0.039532 0.528572 0.175017 0.290063 -0.051401 -0.266106 0.241492 -0.202108 -0.258406 0.130719 -0.313390 -0.324100 -0.329835 -0.303654 0.388192 0.546068 -0.587988 0.268714 -0.133537 -0.160598 -0.410444 -0.232413 0.216109 0.083543 -0.141347 -0.066959 0.178104 0.505927 0.216354 0.049287 0.007026 0.225706 -0.084717 0.263796 0.275708 0.344100
11 0.000230 -0.508842 -0.397298 0.096344 0.232700 0.370074 0.760849 0.071270 -0.040595 0.092183 -0.383765 0.137836 0.144989 -0.322637 -0.068199 -0.185602 -0.124078 0.326238 -0.356585 0.460582 0.142647 -0.238283 0.470028 -0.215122 -0.239549 -0.161866 -0.010492 0.487157 -0.338079 0.592618 0.724209 -0.315616 0.006025 0.260622 0.084184 0.724260 -0.105214 0.507631 0.269263 -0.066481 -0.269768 -0.504350 0.270144 0.183039 -0.180978 0.333938 -0.154756 -0.261826 -0.247183 0.679727 0.136163 -0.121279 -0.106244 -0.566773 -0.139265 -0.190572 -0.626768 0.577865 -0.004901 0.166672 0.396118 -0.453416 -0.271284 0.579240 0.127789 -0.211466 -0.347893 -0.747956 -0.055796 -0.133594 0.183116 0.272877 -0.244119 -0.034017 0.333507 0.132254 0.424787 0.249334 -0.348114 0.611097 -0.789303 -0.299536 -0.581957 0.363645 0.036188 0.801044 -0.144303 -0.228084 0.028455 -0.255516 0.093472 0.118453 0.536871 0.032139 -0.042298 0.603349 0.106181 0.380905 0.427527 0.368436 -0.040564 -0.314004 -0.596834 -0.128584 0.075669 -0.004975 0.803572 0.333912 0.306589 -0.017515 -0.318564 -0.381434 -0.059128 -0.313945 0.172236 -0.106995 -0.332325 0.178723 -0.550081 0.461299 -0.736586 -0.382531 -0.041543 0.013011 0.055939 0.248256 0.380138 -0.431432
37 0.439501 -0.220729 -0.701347 0.562508 -0.261662 0.019875 0.507142 0.388050 0.020761 0.729387 -0.485195 0.091150 0.056240 -0.000397 -0.648612 0.094696 0.555948 0.145520 -0.270619 0.617979 -0.165697 -0.263405 0.244729 -0.590174 0.448186 0.022211 -0.232516 -0.168768 -0.285541 0.536670 0.062619 -0.011578 -0.223783 0.164514 0.171579 0.600719 0.032123 0.788506 -0.104213 0.033961 0.322483 0.338968 0.036232 -0.145650 -0.046819 -0.478488 0.126706 -0.488270 0.148283 -0.058334 -0.055965 0.423283 0.544483 -0.323715 0.178664 0.162894 0.096625 -0.030196 0.265779 0.090449 0.252403 -0.308651 0.130752 -0.220184 0.408173 -0.258976 -0.546047 0.062724 0.233159 0.105558 0.306620 0.195695 0.219495 -0.119813 -0.033859 0.016632 0.188667 0.663120 0.479738 0.562465 -0.383273 0.139795 -0.374388 0.050634 0.267403 -0.149023 -0.303789 0.315863 -0.547332 0.319269 0.411582 -0.101782 -0.447251 0.329274 0.157665 0.044335 -0.189475 0.041674 0.349164 -0.050195 -0.204158 0.435411 -0.375151 0.088661 0.029937 -0.047199 0.425825 0.104525 -0.506759 0.662905 0.000204 -0.101496 -0.179798 0.067579 0.493846 0.097250 -0.114039 -0.347747 -0.011619 0.643895 0.353798 0.067154 0.348366 0.351373 0.248623 0.067710 0.616988 0.115987
25 0.523830 -0.290459 -0.667446 0.196257 -0.508809 -0.190911 -0.158484 0.304084 0.541838 0.353699 -0.588028 0.318553 0.271157 -0.169238 -0.105459 -0.483274 -0.208721 0.052343 -0.321237 0.462380 0.255302 -0.238335 0.840005 -0.089029 -0.112828 0.157971 0.784787 0.012250 -0.082028 0.507089 0.067529 -0.027618 0.017770 0.210575 -0.135165 0.501099 -0.289423 0.451382 0.166275 -0.786829 -0.652293 0.121600 0.110079 0.288946 -0.250846 0.279312 0.313980 0.284959 0.162629 0.312331 -0.216585 0.229338 0.179723 -0.011511 -0.010153 0.083991 -0.453549 -0.256858 0.100962 0.131660 0.457095 -0.552354 0.157872 0.129232 0.149676 -0.072183 -0.208413 0.236510 -0.388694 -0.374207 0.201261 0.016546 -0.175531 -0.189393 0.447025 0.043121 0.625832 0.124618 0.006212 0.051769 -0.361302 -0.415687 -0.121711 -0.616330 -0.189258 0.566718 -0.117560 -0.350103 -0.336613 -0.204875 0.312614 -0.239668 0.383162 0.125787 -0.068480 0.655207 -0.163643 0.187659 0.254773 -0.119244 0.011161 0.115524 -0.469564 -0.119116 -0.209085 -0.352553 0.063201 0.498158 0.147600 -0.038390 -0.129483 -0.013933 -0.334915 -0.236990 0.245128 -0.130858 0.085665 0.224014 -0.707607 0.341932 -0.206430 0.088906 0.100695 -0.538286 0.511453 0.335884 -0.045764 0.080751
17 0.691584 -0.450327 -0.427676 -0.118131 -0.036328 0.430808 0.393452 -0.014897 0.543635 0.389866 -0.575692 0.060581 -0.240633 -0.135545 -0.023153 -0.218568 -0.026715 -0.264335 -0.769572 0.329593 0.252274 -0.301612 0.332657 -0.332207 0.047815 0.192872 0.249760 0.361833 -0.265847 0.729817 0.373211 -0.231381 0.296551 0.181368 -0.408103 0.193880 0.105311 0.338925 0.123566 -0.170880 -0.433665 0.076901 -0.192370 0.455545 -0.099888 0.335117 0.065049 0.071523 -0.169838 0.493827 -0.105960 0.151698 0.283216 0.184752 -0.258901 0.052186 -0.717564 -0.549982 0.352136 0.033400 -0.135844 -0.806163 0.310358 -0.174874 0.461866 -0.040226 0.306499 -0.167088 -0.262156 -0.466537 0.066743 -0.148418 -0.371250 -0.187373 0.222178 -0.129240 0.253479 -0.008043 -0.226219 0.077655 -0.376838 -0.197649 -0.381293 -0.186234 -0.117572 0.725125 0.118750 -0.120404 -0.319621 -0.442222 0.482006 -0.345840 0.344711 0.204079 -0.135619 0.779790 -0.207609 0.432573 -0.141791 -0.131849 0.185658 -0.331497 -0.936310 -0.473307 0.139317 -0.349152 0.307446 0.154595 -0.577647 -0.337506 -0.172097 -0.035528 -0.309041 -0.638102 0.238252 -0.302975 -0.064660 -0.149997 -0.361369 0.438825 -0.191037 -0.695228 0.263249 -0.110521 0.382835 0.337397 -0.069694 -0.619112
82 0.645753 -0.082596 -0.183883 0.430310 0.116386 0.166347 0.044942 0.097899 0.203082 0.019356 -0.360489 -0.268035 0.640934 -0.284609 -0.009834 0.097306 0.424671 0.141176 -0.574350 0.440951 -0.054776 -0.361432 0.166298 -0.745324 -0.406960 -0.117020 0.493274 -0.045874 0.015172 0.031840 0.168039 -0.439122 0.089724 -0.027557 -0.115904 0.791100 -0.255134 0.100271 0.027084 -0.588884 -0.190331 -0.515913 -0.096693 0.376615 -0.304822 -0.515458 0.321019 0.028006 -0.284183 0.405686 0.304375 0.192921 -0.463283 -0.295015 0.214914 -0.149596 -0.208259 -0.034560 0.624333 0.247348 -0.170793 -0.375485 0.478145 0.084548 -0.041119 0.410223 -0.096975 0.444997 -0.104545 -0.134033 -0.034779 0.119309 -0.721735 -0.184207 0.054042 -0.371884 0.150570 0.969362 0.058923 0.552287 -0.208192 -0.530920 -0.245751 -0.019609 0.430942 0.632818 -0.462926 0.114074 -0.366284 -0.352932 -0.356799 -0.418723 -0.222855 0.135983 0.335876 0.460570 -0.094640 0.592662 -0.141355 0.182602 0.351789 -0.359934 -0.166534 -0.615078 0.079272 -0.240973 -0.087760 0.062035 0.047726 0.012085 -0.086903 -0.051749 -0.037441 -0.172687 0.731310 -0.500811 -0.306069 -0.688985 -0.477418 0.764970 -0.121976 0.253902 -0.085746 0.247708 0.277062 0.440906 0.639348 -0.361619
0 0.130084 -0.485721 -0.741007 -0.179052 -0.090549 0.394541 0.008693 0.202376 0.115617 0.229759 -0.388565 0.441054 0.051847 -0.313597 -0.037688 -0.185511 0.097708 -0.021876 -0.377567 0.265451 -0.069252 -0.245056 0.249552 -0.065956 0.049797 0.009199 0.080648 0.296108 -0.049041 0.276066 0.436559 0.259703 0.036780 0.103148 -0.001219 0.333760 -0.231379 0.510748 0.172758 -0.561885 -0.512099 0.113811 0.115123 0.335887 -0.249136 -0.017967 -0.345775 0.079793 0.015063 0.363690 -0.167683 0.295569 0.005156 -0.097293 -0.083891 0.013105 -0.620575 0.125312 0.274747 0.309474 -0.169849 -0.646888 -0.080576 0.479212 0.729705 -0.301868 -0.556688 -0.286348 -0.221888 -0.228091 0.341900 0.182840 0.240214 -0.245390 0.601396 0.152502 0.356475 -0.274793 -0.031515 0.458315 -0.270719 -0.334748 -0.639804 0.076334 0.119662 0.460953 0.365925 -0.370250 0.219616 -0.087496 0.338133 -0.270638 -0.103308 -0.071054 -0.046181 0.542302 -0.275221 -0.109750 0.482212 0.246836 0.027546 -0.314301 -0.439777 0.218243 -0.210410 -0.027340 0.255397 0.505359 -0.289803 0.158829 0.239788 -0.218347 -0.124172 -0.510571 0.128720 -0.483576 -0.162946 0.100015 -0.541525 0.243761 -0.267357 -0.439628 -0.034013 -0.111212 0.392632 0.462741 0.062829 -0.262783
50 -0.097304 -0.037583 -0.253796 0.285426 -0.160392 0.148114 0.462151 0.112110 0.347267 0.322304 -0.429031 -0.056754 0.577855 -0.208897 -0.124963 -0.625358 0.398462 0.300637 -0.314019 0.604993 0.102762 -0.180630 0.497835 -0.327097 0.099141 -0.042376 0.051028 -0.028335 -0.347195 0.017489 -0.297983 -0.440733 -0.482371 -0.314608 0.106356 0.484101 -0.105455 0.172785 0.114526 -0.174462 0.108902 0.381434 0.222042 0.143520 0.232189 0.169257 0.112364 -0.273504 0.389084 0.260882 0.082259 -0.161680 0.011220 -0.290927 0.156366 -0.051726 0.181580 0.316590 -0.326169 0.038457 0.281370 -0.153739 0.101611 -0.248750 0.024444 -0.248225 -0.324976 -0.117861 0.243699 0.088525 0.548747 0.027677 0.212119 -0.211319 0.034989 -0.140837 0.150518 0.498665 0.409418 0.381740 -0.463233 -0.118437 -0.393101 0.442284 -0.654076 0.049526 -0.390313 0.263831 0.011892 0.272303 -0.239645 -0.185376 0.004164 0.156654 -0.014643 -0.023122 0.166971 0.132799 0.175073 -0.047767 -0.071672 0.698253 0.173300 -0.088280 0.001267 -0.492922 0.287216 -0.106722 0.235100 -0.037869 -0.243789 -0.218117 -0.045342 0.419214 0.049706 0.331425 -0.830366 -0.048831 0.166032 0.319630 -0.352210 0.218676 -0.104817 0.212426 0.282806 -0.235262 0.795479 0.498042
21 0.506319 -0.187461 -0.301115 0.628777 -0.186000 -0.449189 0.072538 0.437556 0.406996 0.221537 -0.692607 0.056037 0.119388 -0.714764 0.319191 -0.496199 0.168998 0.098153 -0.190659 0.765225 -0.224483 -0.183469 0.864194 -0.440675 0.375145 0.213795 0.519357 -0.049360 0.059301 0.500478 -0.253529 0.115967 0.069530 -0.024670 -0.273668 0.337356 -0.558817 0.099947 0.445819 -0.702236 -0.272140 0.234342 -0.225449 0.105530 -0.336653 -0.118526 -0.001742 0.610488 0.038052 0.656367 0.352502 0.129845 -0.163076 0.068666 0.334188 -0.038226 -0.399485 -0.096192 0.324902 -0.113858 -0.072444 -0.559186 0.379236 0.441159 0.561019 -0.075097 -0.081456 0.356172 -0.031498 -0.464381 -0.104348 0.031631 -0.677420 -0.546763 0.236218 -0.001061 0.315838 0.174453 -0.208842 -0.079660 0.002773 -0.560457 -0.356200 -0.559237 -0.010217 0.521784 0.197847 -0.058432 -0.152108 -0.319576 0.109717 -0.846151 0.324835 0.326362 -0.142887 0.360624 -0.404088 0.314960 0.053746 -0.065235 0.564785 0.030615 -0.591076 -0.317818 0.145523 -0.366681 -0.417843 -0.271557 0.344200 -0.098629 -0.075780 0.200094 -0.309114 -0.297595 0.222046 0.068965 -0.244945 -0.218375 -0.511527 0.451100 -0.321530 0.017579 0.165005 -0.366123 0.513184 0.091708 0.388728 -0.164713
79 0.258878 -0.223752 -0.501574 0.178621 0.160556 0.552098 -0.149749 -0.020596 0.505018 0.328137 -0.212975 0.190237 0.461752 -0.062444 -0.207263 -0.313588 0.656467 -0.132854 -0.347246 0.644164 -0.168565 -0.645280 -0.070967 -0.319211 0.019509 -0.171004 -0.434534 0.094543 -0.181182 0.020767 0.408210 0.136105 0.048507 -0.051789 -0.175174 0.559865 -0.307868 0.628918 0.074546 -0.562943 -0.680512 0.286563 0.099825 0.013538 -0.382159 -0.051055 -0.168850 -0.351142 0.057096 0.134823 -0.414545 0.173645 -0.145995 0.044287 0.046328 -0.086478 -0.061340 -0.088019 0.420248 0.606277 -0.601165 -0.047652 0.096164 0.157344 0.566940 0.318430 -0.482894 0.111271 0.031420 -0.519792 0.468884 0.052330 -0.126634 -0.203527 0.563122 0.234218 0.117874 0.688447 -0.101973 0.465496 0.524007 0.107787 -1.043595 0.319894 0.462456 0.324704 0.192737 -0.245020 -0.134375 0.093152 -0.008256 -0.117476 -0.740224 -0.079557 0.005100 0.449233 -0.036385 -0.216809 0.209179 0.277486 0.302281 -0.622895 -0.642881 -0.047632 -0.042384 -0.033965 -0.215073 0.220580 -0.577757 -0.049948 -0.049679 -0.013852 0.213777 -0.411007 0.290051 -0.222288 0.206477 -0.119222 -0.424357 0.754202 -0.057837 0.255745 0.038947 0.343342 0.160723 0.960364 0.627504 -0.362958
29 0.198791 -0.148643 -0.263399 -0.063049 0.356894 0.117445 0.694036 -0.044418 0.489741 0.198190 -0.200595 0.115498 -0.450414 -0.257671 -0.315773 -0.529737 -0.342014 -0.362227 -0.455599 0.376279 0.484271 -0.408043 0.539088 -0.184728 0.480201 -0.097278 -0.415479 -0.130733 -0.237600 0.506935 -0.078087 -0.254391 -0.154417 -0.594479 0.079466 0.203989 -0.305644 0.569387 -0.020857 -0.525055 0.288183 0.681901 0.212734 0.240999 0.328138 0.289772 -0.094526 -0.172939 0.452808 0.646810 -0.106688 0.012934 -0.076449 -0.359893 0.179774 0.188178 0.403078 0.085401 -0.061135 -0.091599 0.010847 0.145179 0.059790 0.189659 0.401177 -0.236331 -0.253132 -0.437484 0.408777 0.179707 0.738387 0.203164 0.651835 -0.400625 -0.009297 -0.205314 0.403232 -0.332374 0.270746 0.484429 -0.652175 -0.138834 -0.811032 0.336640 -0.572568 -0.105227 0.051602 -0.164724 -0.129648 0.313280 0.540083 -0.299627 0.190003 0.073536 0.200234 0.089200 -0.161053 0.419168 -0.071452 -0.009242 0.092071 0.594458 -0.349744 0.090735 -0.070330 -0.044079 0.427324 0.228788 -0.076082 0.223165 -0.102385 0.117365 -0.240611 0.240418 0.120325 -0.291625 -0.484542 -0.166686 0.226747 0.165299 -0.453513 -0.080615 -0.240417 0.183580 0.251195 0.282309 0.164863 -0.030983
67 0.447222 -0.410661 -0.480597 0.369921 -0.452210 0.029460 0.321013 -0.184707 -0.249828 0.106872 -0.764168 0.127086 -0.047293 0.075942 -0.310202 0.062028 0.223679 -0.061545 0.049123 0.437328 0.009020 -0.289114 0.072734 -0.902525 0.272159 0.158014 0.319981 -0.262858 -0.126553 0.123212 -0.378256 0.056535 -0.160567 0.048618 -0.243699 0.249129 0.164124 0.098229 0.066186 -0.290854 -0.124035 -0.262785 -0.092809 0.479128 -0.086319 -0.138575 0.288832 0.081577 -0.103258 -0.314959 0.086657 0.130647 0.329816 -0.233498 0.319570 0.195768 -0.142220 0.068360 0.095302 -0.099527 0.156836 -0.214702 0.723336 -0.087653 0.176363 -0.371804 -0.306961 0.007986 0.042372 -0.052156 0.231152 0.070524 -0.128722 0.052140 0.040861 0.092065 -0.086941 0.358028 0.605080 0.677212 -0.575551 -0.537008 -0.075563 0.209367 -0.121887 -0.192817 -0.332291 0.352942 -0.427132 -0.258658 0.272499 -0.155448 -0.270985 0.118633 0.102658 -0.105032 -0.310790 0.183442 0.363483 -0.420594 0.164016 0.268782 -0.022122 -0.271847 -0.105652 -0.352836 0.718089 0.245181 -0.683060 0.130289 -0.320084 -0.244697 -0.366646 0.056629 0.285934 0.123059 -0.427795 -0.659002 -0.033669 0.245334 0.124646 -0.350612 0.217813 0.273351 0.466605 -0.383745 0.942696 0.044274
96 0.543649 -0.545530 -0.431431 0.031846 -0.246509 -0.126016 0.128331 -0.054845 0.531709 0.199595 -0.309225 -0.292395 0.526897 -0.158371 -0.441296 -0.098599 0.144190 0.224734 -0.715764 0.149846 -0.061918 -0.073766 0.475407 0.198382 -0.529531 -0.333755 0.080663 0.103746 -0.420279 0.214142 0.494673 -0.436065 -0.355747 -0.124723 -0.278324 0.591412 -0.107798 0.563289 -0.120167 -0.575528 -0.209603 0.125629 -0.068384 0.242283 -0.209719 0.119530 0.152528 -0.582204 -0.067091 0.338018 -0.407457 0.167118 -0.027184 -0.273129 -0.304212 -0.561738 0.021745 -0.041300 -0.049717 0.650858 -0.267404 -0.358640 -0.092054 -0.672466 0.377474 0.160563 -0.100378 0.056198 -0.202213 0.342296 0.332371 0.086250 -0.546451 -0.377254 -0.218969 0.007387 0.418147 0.794407 -0.255608 0.459166 -0.427914 0.085103 -0.421392 -0.022706 0.228048 0.350869 -0.272502 -0.398703 -0.500683 -0.146724 0.358834 -0.400619 0.105614 0.246163 -0.059137 0.816915 -0.039035 0.437985 -0.113554 0.291063 -0.215637 -0.306160 -0.331782 -0.645265 -0.063146 -0.012640 0.040282 0.059462 -0.420905 0.591431 -0.080204 -0.095059 -0.100188 -0.433441 0.212032 -0.690060 -0.066358 -0.083170 -0.267020 0.801687 0.046804 0.035545 -0.267924 0.081973 -0.070108 0.937203 -0.133340 -0.211331
1 0.064623 -0.753468 -0.059198 0.009634 -0.037342 0.371339 0.438992 0.023544 0.031351 -0.022907 -0.490227 0.093799 -0.031270 -0.476394 0.076478 -0.551236 -0.087512 -0.074794 0.327275 0.523829 0.376352 -0.489400 0.473815 -0.538079 -0.111886 0.290930 -0.055844 0.344073 -0.177762 0.639920 0.042991 -0.127941 -0.056820 0.154779 -0.037832 0.300760 -0.395298 0.253077 0.433614 -0.561180 -0.209904 -0.656904 0.170701 0.766578 0.021595 0.299902 -0.489686 -0.024462 0.328367 0.949283 -0.363629 -0.263504 -0.444572 -0.264363 0.191570 0.126683 -0.643637 0.718636 0.156749 -0.098115 0.125887 -0.264085 0.203228 1.029872 0.100791 -0.348546 -0.308997 -0.283638 -0.106719 -0.338642 0.204290 0.118425 -0.219669 -0.255975 0.371534 0.153750 0.284785 0.014305 -0.073310 0.182374 -0.554930 -0.735027 -0.756859 0.409327 -0.321170 0.441325 0.088645 -0.228042 0.376505 -0.402931 0.261079 -0.339976 0.295455 -0.273805 0.100116 0.036519 -0.189805 0.002973 0.316235 0.018246 0.429143 -0.197988 -0.497090 -0.115408 0.087958 0.084070 0.672944 0.363723 0.000914 -0.267141 -0.440682 -0.213604 0.260948 0.132421 -0.095844 -0.251911 -0.363975 0.021139 -0.940990 0.469948 -0.694856 -0.264236 0.032586 0.046898 0.231786 0.199482 0.700801 -0.369834
49 0.072210 -0.335068 -0.344174 0.653906 -0.284386 0.082851 0.499650 0.021659 0.242193 0.032185 -0.449918 0.291835 -0.159773 0.076654 -0.440009 -0.233655 0.095046 0.113432 -0.128315 0.541044 -0.210314 -0.216676 0.316998 -0.652346 0.736953 -0.023725 -0.460930 -0.393002 -0.390039 0.155619 -0.232599 -0.119584 0.031609 0.075928 0.181342 0.378206 -0.349517 0.308164 0.048551 0.000229 -0.146778 0.040393 0.680001 0.250971 0.127406 0.082003 -0.027972 -0.328743 0.253138 0.048704 0.028392 0.174199 0.298259 -0.067353 -0.095332 0.134782 -0.334445 0.280535 0.056389 -0.220549 0.367761 0.182167 0.149441 0.248991 0.307236 -0.163665 -0.410248 -0.349782 0.523782 -0.329180 0.245309 0.211084 0.241512 0.092681 0.333467 0.249125 0.340204 -0.376004 0.405877 0.357758 -0.077224 -0.118809 -0.423444 0.140683 -0.268981 -0.156609 -0.204702 0.092543 -0.110561 0.456578 0.402407 -0.102147 -0.192180 0.181112 0.345623 -0.071230 -0.247312 0.082573 0.450519 0.106303 0.066088 0.070957 -0.284874 -0.109655 -0.396132 -0.138999 0.138682 0.657855 -0.130604 0.123873 -0.484638 -0.089502 -0.054574 0.148873 0.155978 0.056150 0.115004 -0.048163 -0.015971 0.252146 -0.200901 0.314596 0.268701 0.206381 0.170459 -0.006227 0.796669 0.271184
75 0.371069 0.002767 -0.309003 -0.037674 0.032128 0.711524 0.117997 -0.315197 0.284306 -0.140296 -0.368009 -0.310259 0.517525 0.086141 0.044043 -0.050300 0.112032 -0.128050 -0.886790 0.147471 0.461650 -0.526483 0.025869 -0.421621 -0.455059 -0.078823 -0.100885 0.097040 -0.416414 0.090194 0.383655 -0.358927 0.183022 -0.210531 -0.125603 0.661541 0.091866 0.367601 -0.283075 -0.278949 -0.294983 -0.405425 -0.110991 0.289938 -0.072687 -0.252754 0.201595 0.023563 -0.157797 0.492926 0.056643 0.218560 -0.340193 -0.189208 0.101440 -0.189600 -0.267712 -0.363664 0.532671 0.406585 -0.260162 -0.340767 0.599194 0.219072 0.149439 0.257593 -0.269652 0.139523 -0.153187 -0.198435 0.373046 -0.116318 -0.366163 -0.186328 0.435618 -0.523769 0.063129 0.478650 -0.023937 0.629186 -0.207537 -0.215286 -0.441386 0.175912 0.420771 0.600582 -0.630826 0.242739 -0.135566 -0.172616 -0.390645 -0.204771 -0.360289 -0.062267 0.522110 0.486450 0.131282 0.690919 -0.166854 0.208628 0.373143 -0.567938 -0.210431 -0.296773 0.195050 -0.034140 -0.048995 -0.034187 -0.309598 -0.302274 -0.136742 -0.191798 -0.234760 -0.257809 0.475982 -0.882617 -0.331216 -0.459992 -0.205768 0.593109 -0.061466 0.158753 -0.243517 0.308764 0.329810 0.888200 0.457988 -0.547274
4 0.041839 -0.256743 -0.287129 -0.040575 0.134516 0.661513 0.411342 0.017790 0.101740 0.136846 -0.424893 0.151445 0.014178 -0.246235 -0.029764 -0.143373 -0.006744 -0.180865 -0.007652 0.591412 0.334533 -0.602555 -0.003776 -0.410143 0.229726 0.127997 -0.392481 0.478798 -0.218859 0.609147 0.560097 -0.126200 0.257715 0.062890 0.091979 0.517040 -0.273669 0.581759 0.126028 -0.104959 -0.305694 -0.328619 0.093101 0.169946 0.074238 0.074664 -0.339055 -0.163708 0.059359 0.750273 -0.052878 -0.052093 -0.216175 -0.200118 0.252080 0.254478 -0.650408 0.313199 0.488366 0.030119 0.088077 -0.312613 0.135709 0.795308 0.370850 -0.449067 -0.533639 -0.371710 -0.151553 -0.402753 0.203660 -0.061440 -0.222486 -0.038129 0.383984 -0.046092 0.294232 -0.003498 -0.259293 0.288968 -0.416536 -0.274474 -0.668339 0.406813 0.287586 0.444708 0.166656 -0.096516 0.219950 -0.241170 -0.098049 -0.043932 0.071540 -0.134869 0.060311 0.301436 -0.105792 0.135492 0.228419 0.125550 0.363116 -0.198954 -0.689215 -0.021298 0.003555 0.272406 0.236970 0.166883 0.042395 -0.277576 -0.124745 -0.363721 0.108668 -0.157546 0.194928 -0.141031 0.002514 0.073336 -0.468020 0.544863 -0.402297 -0.242895 0.070043 -0.066970 0.003798 0.339663 0.427693 -0.756229
66 -0.084017 -0.353986 -0.239266 0.171897 -0.090308 -0.037207 0.779218 0.074665 -0.017299 0.058678 -0.614589 -0.123085 0.205801 -0.412595 0.016924 -0.295504 -0.180751 0.295644 -0.075142 0.483118 0.030703 -0.166546 0.458411 -0.130149 0.120560 -0.066862 -0.003343 0.235462 -0.437750 0.334682 0.171825 -0.524140 -0.212433 -0.401945 -0.019070 0.466157 -0.388910 0.444025 0.233849 0.050146 0.390275 -0.151790 0.168428 -0.199355 0.226588 -0.052922 -0.084223 -0.365926 0.049565 0.715626 0.032960 -0.148594 -0.224727 -0.652525 0.221607 -0.323788 -0.252502 0.570310 -0.087883 0.102801 0.348212 -0.254535 -0.116579 0.296495 -0.024357 -0.602950 -0.388305 -0.545397 0.026482 0.341372 0.108460 0.402535 -0.078077 -0.088344 -0.201210 -0.023264 0.299239 0.283589 -0.122201 0.294404 -0.802306 -0.185712 -0.326758 0.314410 -0.171778 0.215036 -0.265623 0.049605 0.125195 0.104556 -0.113515 0.082034 0.403756 0.051642 0.125715 0.264895 0.357536 0.242169 0.277741 0.136418 -0.097865 0.304117 -0.290082 -0.001532 0.225730 0.093737 0.329308 -0.217065 0.473978 -0.025565 -0.138418 -0.443614 -0.201166 0.058913 0.055277 0.113449 -0.542270 0.200067 -0.060799 0.513535 -0.372590 0.213526 -0.282262 0.159963 -0.251055 -0.044408 0.322512 0.015226
19 0.662044 -0.045839 -0.628961 -0.051885 -0.030296 0.354307 0.104778 0.150136 0.433857 0.361810 -0.708177 0.420081 -0.037024 0.102804 -0.108206 -0.186085 -0.510704 -0.285084 -0.697039 0.465601 0.557624 -0.554298 0.624701 -0.270172 0.135701 0.235325 0.294506 0.053653 -0.317401 0.610487 0.400873 -0.192441 0.301972 -0.208156 -0.062644 0.562805 -0.052585 0.655917 -0.052431 -0.349760 -0.334890 0.129577 0.059325 0.102642 -0.007517 -0.000364 0.338420 0.044770 -0.059472 0.564887 0.215682 0.103267 0.036867 -0.111643 0.501079 0.339738 -0.506994 -0.373893 0.536934 -0.090812 0.334856 -0.763711 0.324623 0.253692 0.341648 -0.257923 -0.242087 -0.083063 -0.338471 -0.268825 0.341592 0.010649 -0.036846 -0.262596 0.454984 -0.274606 0.846572 0.256819 -0.242261 0.309302 -0.839006 -0.219586 -0.093731 -0.328689 0.066700 0.698829 0.005248 0.098700 -0.384285 -0.082498 0.079282 0.003250 0.417954 0.188829 0.164632 0.916425 0.000376 0.540195 0.147771 -0.399279 0.298315 0.213091 -0.470738 -0.199245 -0.215830 -0.061660 0.000172 0.275812 -0.169832 -0.203885 -0.227976 -0.314003 -0.693815 -0.418875 0.750709 -0.259818 0.083206 0.022434 -0.353018 0.443511 -0.153998 -0.278856 -0.093818 -0.357494 0.384645 0.448863 -0.106846 -0.508149
23 0.375868 0.006492 -0.658119 0.513466 -0.009377 -0.163691 -0.020410 0.478935 0.562078 0.399388 -0.657031 0.407242 0.240926 -0.178136 0.060930 -0.310830 -0.067614 0.110968 -0.853804 0.277854 -0.344053 -0.156013 0.886591 -0.395048 0.505194 0.189326 0.502017 0.011765 -0.142108 0.080595 -0.027288 0.255550 0.012446 -0.141957 0.194355 0.564975 -0.025519 0.177609 0.165295 -0.345821 -0.483568 0.517884 0.171429 0.252298 -0.305516 -0.163903 0.239537 0.304481 -0.121907 0.305799 0.462910 0.096270 0.248601 0.161364 0.201143 0.003160 -0.439371 -0.344405 0.236446 -0.072168 0.253586 -0.849457 0.048401 -0.166171 0.712499 -0.021108 -0.197009 0.193609 0.000600 -0.317881 0.206517 0.017761 -0.219856 -0.539593 0.355480 -0.001132 0.990119 0.088352 -0.081827 0.291282 -0.075563 -0.144426 -0.074261 -0.322118 -0.074272 0.724273 0.216679 0.160227 -0.267183 0.134514 -0.090735 -0.469081 0.151803 0.376134 -0.197900 0.774473 -0.120506 0.213976 0.077275 -0.228675 0.329699 0.281234 -0.147750 -0.405017 -0.422187 -0.653804 -0.381899 0.050548 0.237494 0.042746 -0.256779 0.066027 -0.754167 -0.467042 0.589462 0.090743 -0.089682 -0.008162 -0.197603 0.367272 -0.210780 -0.089989 0.094534 -0.356826 0.527447 0.015807 0.219502 0.120591
59 0.382731 0.036622 0.042341 0.016028 -0.092350 0.277443 0.416182 -0.119119 0.239149 0.222593 -0.364819 0.128112 -0.117326 -0.131410 0.037184 -0.611697 -0.135704 -0.131863 -0.368515 0.538882 0.480328 -0.303477 0.314037 -0.667848 0.296694 0.135732 0.228064 -0.290875 -0.219134 -0.147711 -0.539691 -0.423192 -0.025575 -0.510153 0.162826 0.410018 -0.173745 0.031234 0.113534 -0.459010 0.132941 0.531244 0.144623 0.160007 0.496807 -0.072503 0.406726 -0.054156 0.220333 0.377691 0.189229 -0.076860 -0.182850 -0.121840 0.503071 0.388200 0.082920 0.028225 -0.007365 -0.241161 -0.060095 0.013642 0.706036 -0.100968 -0.049493 -0.401802 0.028853 -0.150537 0.032966 -0.108522 0.422315 0.175904 0.334775 -0.260745 0.123172 -0.240309 0.229771 0.248009 0.294823 0.359861 -0.551829 -0.352226 -0.234048 0.300065 -0.905027 0.156043 -0.151351 0.365921 -0.213118 -0.094881 -0.131449 -0.029532 0.173871 0.041777 0.108729 -0.121283 -0.042223 0.408402 -0.182146 -0.258683 0.485366 0.646033 -0.175778 -0.181954 -0.218485 -0.208043 0.158349 -0.130710 0.093119 -0.322248 -0.327589 -0.002237 -0.176767 0.202596 0.387725 0.208486 -0.587258 -0.332070 0.198554 0.235685 -0.441397 -0.048822 -0.185304 0.072495 0.398969 -0.226675 0.425570 0.260152
81 0.438058 -0.479587 -0.338103 0.009299 -0.555886 0.801439 -0.149496 0.366877 -0.629886 0.157073 -0.430630 0.449199 -0.389476 0.355997 0.181289 -0.469141 0.510106 -0.042875 -0.276544 0.363562 0.338163 -0.073914 0.161488 0.018691 -0.156206 0.182202 -0.018936 -0.379211 -0.499948 0.139569 -0.380878 0.138209 0.103529 0.087998 -0.440241 0.216723 0.217914 0.192314 0.265387 -0.592047 -0.254250 0.371585 0.068218 0.218523 -0.019894 -0.436536 -0.016985 -0.071151 -0.034796 0.429710 -0.150072 0.146593 0.149435 0.065986 0.710984 -0.108295 -0.306913 -0.302198 0.040786 0.308840 -0.733970 -0.432923 0.724766 0.395780 0.165425 0.039136 -0.203413 0.337063 -0.095565 -0.243387 0.148600 0.238162 0.305697 -0.185580 0.761277 0.276473 -0.201252 0.557238 -0.226750 0.136856 -0.069632 -0.361568 -0.720265 0.120759 0.042683 0.435877 -0.492515 0.336245 -0.089793 0.280890 0.370538 -0.212371 -0.526505 -0.165918 0.420590 0.015022 -0.106306 -0.042671 0.179073 0.139833 0.552097 -0.443740 -0.048198 0.628048 0.031995 -0.096616 0.189457 -0.073073 -1.289227 0.129261 -0.184372 -0.324784 -0.415947 -0.294775 0.232714 -0.486123 -0.435289 -0.318520 -0.487116 0.115654 0.116494 -0.079324 0.054505 0.443830 0.886504 0.379557 0.503380 0.237101
60 0.242876 -0.131534 -0.362534 0.208964 -0.262298 0.359554 0.407230 -0.200905 0.434519 0.119756 -0.369791 0.118434 0.026251 -0.027344 -0.210963 -0.473656 0.365557 0.164624 -0.564510 0.534617 0.351564 -0.295781 0.562209 -0.694759 0.143483 -0.140122 -0.107180 -0.495113 -0.621062 0.321866 -0.310255 -0.480147 -0.252406 -0.228107 -0.145035 0.368637 -0.119860 0.210074 0.012526 -0.264735 0.166126 0.254019 0.519954 0.490730 0.240576 -0.077872 0.089173 -0.324142 0.479941 0.276137 0.128570 0.142109 0.010730 -0.133156 0.099949 -0.051156 0.134568 0.188597 -0.198574 -0.038390 0.174763 0.116836 0.317361 0.082341 -0.036613 0.157922 -0.152717 -0.223988 0.307543 -0.111434 0.638558 0.255501 0.423748 -0.087088 0.454069 -0.113454 -0.000355 0.081741 0.449119 0.359475 -0.393538 -0.311719 -0.571872 0.527850 -0.661746 0.134812 -0.768340 0.264685 0.014239 0.042840 0.298085 -0.235054 -0.321952 0.134900 0.650150 -0.218216 -0.168852 0.216693 0.253874 -0.031820 0.139341 0.117253 0.022771 -0.088889 -0.249695 -0.367218 0.396962 0.593781 -0.349383 -0.077229 -0.486120 -0.333093 -0.134652 0.400232 0.256654 -0.299184 -0.459469 -0.283141 0.101507 0.289542 -0.216208 0.301969 0.043884 0.428016 0.321052 0.389485 0.959023 0.462107
24 0.522179 -0.217304 -0.314532 0.232583 -0.264702 -0.227145 -0.015006 0.318897 0.393580 0.176571 -0.736782 0.325210 0.012920 -0.290438 0.356516 -0.625115 -0.341777 -0.158203 -0.197744 0.355240 0.178794 -0.288469 0.710414 -0.281330 0.299092 0.482022 0.496710 -0.088148 -0.107863 0.373704 -0.209423 -0.090474 0.163949 -0.265553 -0.204134 0.208454 -0.253277 -0.040068 0.352109 -0.720650 -0.175737 0.181167 -0.046054 0.482818 0.029039 -0.093797 -0.054330 0.375619 0.125472 0.661376 0.006524 0.043271 -0.007546 0.228554 0.413926 0.136736 -0.447449 -0.213676 0.358758 -0.295566 0.073855 -0.766295 0.323605 0.426830 0.337398 -0.183212 -0.144239 0.291384 -0.092030 -0.251074 -0.040523 0.109237 -0.306369 -0.487069 0.387525 0.027746 0.513333 -0.088211 -0.035330 0.015520 -0.388029 -0.630450 -0.129566 -0.519379 -0.228508 0.539287 0.265723 0.075094 0.004930 0.001895 0.263990 -0.592606 0.212772 0.097687 0.205968 0.375554 -0.150349 0.036192 -0.040758 -0.362554 0.538196 0.118517 -0.276184 -0.299206 -0.116081 -0.206521 -0.261017 0.031750 -0.019606 -0.108914 -0.240538 -0.016767 -0.454300 -0.178304 0.205362 -0.247410 -0.109907 -0.050274 -0.422425 0.187475 -0.178757 -0.050823 -0.016846 -0.322812 0.567240 0.120906 0.163619 -0.067580
39 -0.115358 -0.139695 -0.211089 0.292911 0.191251 0.000085 0.640025 0.025537 0.013991 0.150392 -0.364023 -0.364248 0.300377 -0.437470 -0.428425 -0.085990 0.622630 0.136298 -0.052637 0.317405 -0.206818 -0.130740 0.431860 -0.082135 0.092597 -0.104893 -0.178689 0.168600 -0.352394 0.377679 0.136710 -0.078658 -0.358549 -0.305576 -0.131286 0.262791 -0.046292 0.513327 0.239039 0.123765 0.399978 0.281185 0.246414 0.205440 -0.038096 -0.158136 -0.225696 -0.581181 0.668814 0.440082 -0.294093 0.246160 0.275380 -0.472155 0.002901 -0.475085 0.026289 0.179173 -0.068772 0.295636 -0.056489 -0.121595 -0.348391 0.212989 0.292693 -0.299888 -0.216621 -0.572927 0.240850 0.286411 0.585040 0.410346 0.289875 0.013646 -0.256074 -0.272320 -0.211325 0.336924 0.455794 0.292363 -0.594760 0.146117 -0.520308 0.423060 -0.003510 0.056987 -0.401727 -0.054637 0.185028 0.324328 0.357026 -0.158900 -0.099723 0.180562 0.221122 0.003141 -0.151739 -0.282475 0.288764 -0.045618 -0.281237 0.284239 -0.078765 0.121367 0.050295 -0.216194 0.625664 0.077824 -0.275473 0.427599 -0.042434 -0.252749 0.063140 0.361805 -0.120496 0.059903 -0.326588 0.083568 0.241180 0.359309 -0.174516 0.037421 0.033291 0.371385 -0.069163 0.243205 0.725184 0.170069
93 0.503492 -0.172015 -0.243637 0.374317 -0.288625 0.172801 -0.138434 0.253487 -0.022896 0.262801 -0.250688 -0.377645 0.342662 0.165968 -0.214132 -0.278018 0.485764 0.049861 -0.270780 0.381330 0.003040 -0.298900 0.267450 -0.327934 -0.380378 -0.505994 0.053078 -0.068684 -0.104398 0.235273 0.296806 -0.211518 -0.027327 0.115239 -0.126120 0.833023 0.229127 0.407031 -0.086225 -0.508992 -0.317791 0.051508 -0.135615 0.314727 -0.325512 -0.411358 -0.037018 -0.291384 -0.152223 0.354214 0.003282 0.226653 0.063303 -0.036466 -0.078612 -0.358041 -0.093755 0.025138 0.391189 0.390817 -0.573399 -0.089996 0.200115 -0.080722 0.186343 0.474739 -0.344845 0.507506 0.036564 -0.072222 0.180008 0.150798 -0.708475 -0.383278 0.153401 0.027413 -0.031669 1.037370 0.011401 0.667834 -0.006700 -0.175711 -0.459070 -0.125811 0.522746 0.395758 -0.278408 -0.043121 -0.388189 -0.140401 0.139769 -0.585399 -0.432581 0.200832 0.491447 0.229814 -0.143670 0.364233 -0.225992 0.138829 0.068791 -0.460388 -0.369368 -0.492642 -0.135486 0.088033 -0.067589 -0.032563 -0.540174 0.586435 -0.169838 0.067265 -0.189189 -0.075772 0.220028 -0.597590 -0.029691 -0.538381 -0.354934 0.786036 -0.013985 0.430278 0.009894 0.449241 0.237781 1.010556 0.695215 -0.112014
47 0.216276 -0.053944 -0.119811 0.554501 -0.368148 0.041612 0.094392 -0.064416 0.220910 -0.327787 -0.375839 0.190405 0.151690 -0.109882 -0.106449 -0.196621 0.329746 0.289738 -0.203465 0.426324 -0.124084 -0.032442 0.368878 -0.804259 0.173055 -0.050183 0.114636 -0.548302 -0.291786 -0.038095 -0.423660 -0.217321 -0.031895 -0.234851 0.032317 0.479852 -0.321042 -0.164750 0.212989 -0.407970 0.061467 0.070573 0.599451 0.680291 0.144838 -0.391564 0.176665 -0.179945 0.204382 0.140943 0.275560 0.104914 -0.028411 -0.034455 0.245070 -0.290471 -0.104115 0.289756 -0.029182 -0.124209 0.037672 0.188579 0.446258 0.216664 0.012580 0.106618 -0.052588 -0.108362 0.310998 -0.016568 0.411779 0.416790 -0.100830 0.070750 0.272892 0.020543 0.033830 -0.112929 0.299560 0.291556 -0.318805 -0.574264 -0.337651 0.470558 -0.436540 0.128674 -0.678348 0.207777 -0.015290 0.062340 0.239089 -0.446607 -0.368589 0.244400 0.656595 -0.350064 -0.444119 0.059770 0.191662 0.069119 0.513955 -0.083919 0.267101 -0.425322 -0.688911 -0.433059 0.063946 0.585591 -0.168865 0.135832 -0.553982 -0.316247 -0.090987 0.312900 0.277300 -0.293154 -0.233138 -0.390815 0.120127 0.165631 -0.176990 0.328090 -0.067420 0.255789 0.225631 -0.019227 1.044484 0.483106
