100 128
27 -0.347635 -0.232589 -0.236919 -0.360211 -0.228765 -0.366849 0.315963 0.189058 -0.293496 -0.096066 -0.111208 0.434868 0.016408 -0.081816 -0.043551 -0.702245 0.332730 -0.078366 0.036295 0.066207 -0.169833 -0.391842 0.038961 -0.590596 0.130527 -0.308952 -0.138433 0.285019 0.326625 0.185422 0.397592 -0.130078 0.246619 0.719349 0.221136 0.070483 -0.045844 -0.510838 0.038217 -0.382655 -0.550198 -0.385969 0.244960 0.186186 -0.570709 -0.337434 0.305911 0.277204 -0.146563 0.323137 0.084869 -0.658940 0.337345 -0.067360 -0.048192 0.285110 0.024422 0.138244 0.059639 0.124307 -0.649029 0.362254 -0.406220 -0.134977 -0.336843 0.018800 -0.134529 0.126753 -0.828248 -0.092324 -0.382391 -0.326218 0.235326 -0.484363 0.420163 0.113173 -0.044168 -0.241181 0.208794 -0.689671 -0.326404 -0.232019 -0.020175 -0.094459 0.695806 0.426872 0.813908 -0.242454 -0.178605 -0.097071 -0.429152 -0.130967 -0.085934 -0.174709 -0.417660 -0.244915 -0.703954 0.164985 0.020238 0.413751 -0.033289 -0.703292 -0.002185 -0.386004 0.302629 0.442351 0.379042 0.977175 -0.273411 0.007543 0.211166 0.227233 0.122297 0.127729 -0.535387 -0.174766 0.162117 0.258312 -0.456148 -0.021372 -0.419511 -0.074164 0.150894 -0.143986 0.137134 0.133505 -0.058657 0.182205
67 -0.104539 0.051818 -0.100850 -0.232230 -0.148172 -0.732340 0.013766 0.037700 0.718111 0.060852 0.116402 0.223487 -0.068257 -0.068435 0.133704 -0.350815 0.409521 0.167871 0.409318 0.357438 -0.067305 0.053845 -0.706822 -0.017289 -0.074682 0.026814 -0.272739 0.179993 0.189710 -0.285364 0.564177 0.173493 -0.021925 0.492117 0.130603 0.298258 -0.752491 -0.283525 0.786627 0.381858 -0.068460 0.155986 -0.207942 0.228161 0.159714 0.120518 -0.469760 0.239368 -0.163452 -0.327182 -0.046917 -0.559352 0.492628 -0.018627 0.208609 0.149948 0.115852 0.381205 -0.110290 -0.006581 0.121168 0.357473 -0.550041 -0.613639 -0.383009 0.248912 0.284482 0.096519 0.166408 0.580697 0.058973 -0.011662 0.897707 0.198517 -0.194511 0.115354 -0.383482 -0.166842 -0.326270 -0.351095 0.761632 -0.310944 -0.663729 -0.037100 -0.023334 0.181361 0.407781 0.210041 -0.032247 -0.353432 0.378189 0.283385 -0.442302 -0.155246 -0.557988 -0.284689 0.185229 0.097413 -0.232842 -0.357122 0.458228 0.421756 0.047128 -0.022705 0.589338 -0.032977 0.496212 -0.198554 0.000106 0.314623 -0.504208 0.300041 0.112049 -0.451291 0.360039 0.474780 -0.179823 0.043697 -0.126088 -0.140664 -0.232731 -0.015372 -0.015267 0.413769 -0.103458 0.344461 0.104713 0.194435
4 -0.181092 -0.107250 0.273015 0.068840 -0.379887 -0.812266 0.338853 0.203506 0.195931 -0.144833 -0.250035 0.300329 0.108298 -0.496520 0.099967 -0.395872 0.110810 -0.104079 0.446399 0.344033 0.339190 -0.798469 -0.185079 -0.751572 0.145315 0.322153 -0.164967 0.085074 0.162462 -0.100573 0.345468 -0.154175 0.553014 0.392194 0.652853 0.396095 -0.120479 0.054970 0.356690 0.077461 -0.655675 -0.236298 -0.181153 0.285277 -0.031224 0.047293 0.124968 0.444882 -0.206164 0.035338 0.032001 -0.352596 0.376578 0.035470 0.001480 0.366041 0.146655 0.142545 0.098108 -0.200020 0.452322 0.327583 -0.092385 -0.220915 -0.434392 -0.253844 0.212599 -0.171863 -0.578793 0.084532 -0.146038 -0.387805 0.246516 0.035378 0.226434 0.351900 -0.160148 -0.061417 -0.352062 -0.546288 0.121191 -0.130654 -0.127791 0.091125 0.192440 -0.140738 0.530203 0.008131 0.100369 0.025917 0.088956 0.424179 0.155162 -0.121516 -0.245714 0.234339 -0.208113 0.193332 0.078021 -0.128304 0.526493 -0.116872 -0.260050 0.265090 0.134967 0.132530 0.192387 0.383596 0.132693 -0.141828 -0.035579 0.450994 0.565684 0.376048 0.073431 0.541241 -0.084018 0.333759 -0.302158 0.170036 -0.370135 -0.205639 0.319859 -0.540504 -0.099134 0.089076 0.274879 -0.058750
68 -0.388303 -0.027672 -0.030021 0.165055 -0.012043 -0.422946 0.519929 0.020026 0.330336 -0.405325 0.016724 0.246046 0.278248 0.097252 0.229718 -0.349303 0.244332 0.509373 0.242645 0.231846 -0.307033 -0.255566 -0.299948 -0.397499 -0.192297 0.143161 -0.410508 -0.030789 0.088326 -0.553779 0.303070 0.044350 0.034207 0.699860 0.224513 0.489677 -0.097482 -0.361430 0.192648 0.340619 -0.007915 -0.042708 0.270145 0.103749 -0.121161 -0.033205 0.066999 -0.121881 0.098963 -0.472865 -0.303120 -0.079665 0.476753 0.032046 0.085055 -0.337220 0.317183 -0.023724 -0.552773 0.313177 0.226666 0.752954 -0.478761 -0.193130 -0.710878 0.203218 -0.400435 0.229178 -0.050101 0.173374 0.199528 -0.244217 0.843676 0.280235 -0.093604 0.037843 -0.142419 0.047203 -0.117805 -0.143842 0.438411 0.100459 -0.602374 0.281758 0.299794 -0.066336 -0.255533 0.880953 0.224185 0.042948 0.714851 0.677670 -0.739856 0.145120 -0.099207 -0.742206 0.494029 -0.266152 -0.068710 0.194536 0.312954 0.010150 -0.041813 -0.136668 0.470692 0.682467 0.722697 0.218144 0.151585 0.124468 -0.379282 0.361284 0.175739 0.243800 0.388155 0.238779 -0.204472 0.282681 -0.171187 0.411844 -0.179945 0.213500 -0.057779 0.773366 -0.010172 0.091746 0.755587 0.311850
98 -0.414465 0.199533 0.388222 0.174242 0.210856 -0.048444 0.871660 0.238115 -0.144871 -0.293071 0.330705 0.211155 0.316085 -0.000500 -0.128536 -0.479729 0.392840 0.439611 -0.357248 -0.074814 -0.162706 -0.130861 0.010023 -0.338507 -0.276801 0.245461 -0.536937 -0.244047 0.235863 -0.578790 0.146609 0.323544 0.209620 0.136717 0.480841 0.150830 -0.215473 -0.222266 0.204450 0.274804 0.398226 0.192551 0.203797 -0.079658 0.110075 0.072616 0.437738 -0.509988 0.285860 -0.290566 0.041280 -0.348823 0.143260 -0.180856 0.526586 0.248209 0.412996 -0.252474 -0.062758 -0.002814 -0.369470 0.580717 -0.157014 -0.580456 0.291224 0.468367 0.093692 -0.159996 -0.092721 0.192621 0.848805 0.149711 0.448884 -0.219708 0.353296 -0.026722 -0.270000 0.009398 -0.006283 0.142123 0.572419 0.461298 -0.020731 0.225314 0.017047 -0.385262 0.059945 0.396894 0.121904 0.366210 0.126512 0.274094 0.166651 -0.000090 -0.557579 -0.363493 -0.112624 -0.173624 0.270507 0.447664 0.167975 0.298172 0.333796 0.175274 0.068596 0.178013 -0.084740 -0.165002 0.372026 0.069278 0.084776 0.221406 0.619797 0.043354 0.084139 0.179436 -0.425239 0.208711 0.376612 0.225399 -0.157929 -0.048615 0.116082 0.541379 -0.056444 -0.398224 0.951727 0.479436
88 -0.796487 0.298189 0.108564 -0.139257 -0.185161 -0.405081 0.627599 0.230646 0.051922 0.009056 0.307836 -0.118369 0.287344 -0.194563 0.026714 -0.548928 0.422474 0.528940 -0.348882 -0.406234 0.308524 -0.197147 -0.097602 -0.100233 -0.242472 -0.028988 -0.095261 -0.126587 -0.025193 -0.305327 0.426691 0.233362 0.399677 0.292570 1.049749 0.333562 -0.416615 -0.038414 0.211751 0.007934 -0.060148 0.377292 0.022757 0.032686 0.044872 0.133381 0.245088 0.229223 0.333469 -0.683410 0.029176 -0.181611 0.389892 0.177346 0.236714 0.458560 0.369968 -0.346160 -0.224798 0.199876 0.175043 0.644970 -0.378435 -0.567748 0.040163 0.173567 0.185210 -0.141883 -0.098683 0.371780 0.447684 -0.054801 0.825467 0.430339 0.580815 0.210194 -0.489134 0.034424 -0.050527 -0.052994 0.607406 0.396198 -0.010482 -0.071349 0.054111 -0.359938 -0.333845 0.023119 0.043355 0.168992 0.557688 0.426795 0.398211 -0.340074 -0.447458 -0.253617 -0.014692 0.110866 -0.047672 0.089787 0.251216 0.134743 0.396747 0.302020 0.294021 0.461916 -0.161865 -0.195124 0.534087 -0.065224 -0.143256 0.307225 0.744928 -0.055479 -0.087189 0.058828 -0.468757 0.096696 0.431991 0.064939 -0.334894 0.086849 0.214461 0.257418 -0.002660 0.011033 0.317532 0.803997
0 -0.463159 0.019993 0.222853 -0.084099 -0.300146 -1.007856 0.255696 0.187958 0.144822 -0.582340 0.121718 0.014823 -0.315907 -0.341566 0.050313 -0.273434 0.511547 -0.323160 0.161885 0.249612 -0.123436 -0.397873 -0.288229 -0.423353 -0.010814 -0.035415 -0.086853 0.086188 0.554916 -0.141603 0.656519 -0.128701 0.078471 0.555695 0.204358 0.006337 0.113536 -0.094439 0.386793 0.145954 -0.706397 -0.839879 -0.049410 0.890742 -0.391255 -0.025148 -0.137933 0.444634 -0.769830 0.448260 -0.051283 -0.644115 0.181144 -0.407060 0.128438 -0.235952 -0.434798 1.008446 -0.190192 0.378006 -0.077023 0.536708 -0.136801 -0.080861 -0.691426 0.004882 0.147735 0.031526 -0.099179 0.126005 0.061914 -0.132121 0.398581 0.510983 0.337685 0.079518 -0.093330 -0.611155 0.295827 -0.797526 0.329999 -0.224981 -0.261109 0.295253 0.416939 0.405232 0.191002 -0.047718 0.428532 -0.185093 -0.153443 0.477351 -0.515096 0.118592 -0.264552 -0.109563 0.113908 0.823375 0.197645 -0.023734 0.503647 0.028270 -0.176547 -0.021911 0.525500 0.432786 0.789377 0.633968 0.357106 0.305196 -0.316862 0.584961 0.246967 0.239571 0.173512 0.261396 0.012698 0.244862 -0.202423 -0.287293 -0.410524 0.188549 -0.188004 0.098339 -0.362043 0.325441 0.416478 0.214940
26 -0.252481 0.269181 0.266211 0.078615 0.106501 -0.300512 0.056976 -0.102813 0.421193 -0.159602 -0.032390 0.491012 -0.148460 -0.285212 0.424401 -0.584802 0.242393 -0.452894 0.506068 0.433941 0.011300 -0.319374 -0.491059 -0.281585 -0.191972 0.389423 -0.442620 0.259890 0.114214 -0.046408 0.008610 0.688206 0.186405 0.548223 -0.035180 -0.040784 -0.369005 -0.550554 0.628042 0.336758 -0.034864 -0.249332 -0.681508 0.222560 0.217734 0.231698 -0.399067 -0.099340 -0.201961 0.309587 -0.020669 -0.636411 0.387116 0.216557 0.170741 0.167559 -0.265418 0.227922 -0.043928 -0.307703 -0.217424 0.361498 -0.412668 -0.006234 -0.270096 0.016541 0.318005 -0.171036 -0.534058 0.105594 0.219301 0.148737 0.620680 0.113043 0.312874 -0.097645 -0.571622 0.074627 -0.295906 -0.923092 0.304063 -0.289782 -0.265007 -0.125435 0.186893 0.462091 0.199078 0.315263 -0.055338 -0.435678 -0.037251 0.648145 -0.151627 -0.225283 -0.394776 -0.213376 -0.277711 -0.018034 -0.041681 -0.413547 0.311900 -0.264337 -0.506067 -0.101789 0.730103 0.254489 0.675602 0.254527 -0.251347 -0.276555 -0.467684 0.048949 0.090350 -0.218217 0.050306 0.574652 0.176321 0.271371 -0.537249 -0.037335 -0.328150 -0.232554 -0.346113 -0.049268 0.048013 0.148426 0.119613 0.061731
62 -0.562049 0.169129 -0.077811 -0.226190 0.004909 -0.498898 0.279013 0.006313 0.402717 -0.390922 -0.086398 -0.163441 0.497416 -0.251093 -0.252421 -0.147185 0.533593 0.452440 0.345061 -0.035878 -0.198559 -0.112719 -0.371043 -0.265979 -0.350863 -0.349368 0.002891 0.218003 -0.124050 -0.440949 0.626641 0.014280 -0.178765 -0.095350 0.259526 0.608407 -0.554568 -0.076668 -0.028246 -0.082723 0.180604 -0.046287 0.182275 -0.038077 0.020697 0.133442 0.693703 -0.024376 0.261895 -0.143386 0.011559 0.065796 -0.286218 -0.391802 0.008894 -0.354133 0.455472 0.335423 -0.306454 0.236858 0.056097 0.593416 -0.752452 -0.046487 -0.150218 0.326096 -0.006957 0.015237 -0.212633 0.211979 0.575123 0.193168 0.374171 0.443492 0.136289 -0.082494 -0.018933 0.039136 -0.045924 0.108929 0.681703 0.207626 -0.407777 0.190222 0.336482 -0.210623 0.134940 0.095550 0.083495 -0.039860 0.222425 0.422622 -0.240059 0.184081 -0.222861 -0.252846 0.242662 -0.416808 0.092326 0.125540 0.009828 0.157375 0.203769 0.002976 0.117236 0.033174 0.092882 0.057941 0.327621 0.287582 -0.127605 0.387970 0.404976 0.269996 0.193884 0.274030 -0.297785 0.145440 0.084277 0.057601 -0.381483 0.021762 0.021017 0.110023 -0.317471 0.428364 0.116549 0.028578
41 -0.382067 0.134867 0.434190 0.224219 -0.028965 -0.711089 0.622641 0.162400 -0.153402 -0.189280 -0.015062 0.517268 0.068707 -0.463489 -0.247603 -0.177145 0.550228 -0.052719 -0.163668 -0.006032 0.354453 -0.574820 0.256257 -0.692433 -0.382984 0.088718 -0.501898 -0.087006 0.222355 -0.013438 0.749821 0.042689 0.480480 0.263777 0.570815 0.277643 0.133204 -0.248387 0.284103 -0.259411 -0.255977 -0.137635 0.041938 0.340566 -0.121691 -0.450405 0.298912 0.562925 -0.231843 0.224933 0.433172 -0.523862 0.046253 -0.120720 0.128075 0.347576 0.591118 0.222415 0.489235 -0.255725 -0.433266 0.598567 -0.051117 -0.441684 -0.183190 0.690162 0.002586 -0.020239 -0.615148 -0.131176 -0.038597 -0.290145 -0.038938 -0.296899 0.744637 0.560011 -0.394978 -0.186134 -0.204709 -0.648352 0.088084 0.338730 0.039813 0.248575 0.383894 0.089717 0.339958 -0.314274 0.135009 0.055606 -0.505065 0.100211 0.279143 -0.230667 -0.059338 -0.127017 -0.371618 0.331068 0.058644 0.420758 0.562177 -0.630260 0.559664 0.112198 0.103861 -0.226363 0.415021 0.438049 -0.204858 0.295260 0.122032 0.501595 0.680746 0.520560 -0.162076 0.182235 -0.134265 0.370071 -0.118600 -0.187610 -0.401100 -0.060559 0.471664 -0.362489 0.066049 0.154990 0.507998 0.245177
90 -0.362798 0.085322 0.100739 -0.312368 0.195304 -0.144182 -0.105955 -0.541063 0.448910 -0.254337 -0.265560 0.055218 0.104820 -0.237189 -0.129044 -0.340971 0.125846 0.211077 0.088321 0.432611 0.194160 -0.041755 -0.463438 -0.659443 -0.305665 0.154746 -0.178890 0.596826 0.000315 -0.365353 0.141701 0.016311 0.188425 0.119231 0.155858 0.579315 -0.528737 -0.158463 -0.046267 0.317479 0.226701 0.752022 -0.101524 -0.383112 0.077880 0.347220 -0.129417 -0.055390 -0.067080 0.199969 -0.208992 0.153592 0.478960 0.046821 -0.338496 0.261617 0.679720 0.176426 0.016226 0.071809 -0.657564 0.529424 -0.828776 -0.245795 -0.097398 -0.105511 0.002335 -0.192802 -0.559466 0.283584 0.505214 0.212823 0.532816 -0.081716 0.531488 -0.346558 -0.325186 0.066773 0.245523 0.454609 0.273767 0.008077 -0.346292 -0.092315 0.349018 -0.107259 0.077437 -0.395468 -0.262855 -0.079579 -0.176226 0.444464 -0.195461 -0.469300 -0.182949 -0.091440 -0.271823 0.249353 -0.418194 0.081141 -0.082061 0.228793 -0.459489 -0.371987 0.499752 0.200661 0.410761 0.576173 -0.177908 -0.203372 0.498308 0.061591 0.103178 0.304130 -0.017848 0.396577 -0.217680 -0.092946 -0.017865 -0.102460 -0.368681 -0.145125 -0.408278 -0.066679 0.325011 0.095441 -0.084017 -0.330035
77 -0.509748 -0.051335 0.029770 0.395454 0.288922 -0.030492 0.907429 0.223448 -0.038172 -0.146751 0.241753 0.071110 0.043641 -0.262531 0.240389 -0.415154 0.118331 0.296980 -0.123421 -0.554258 -0.282154 -0.314834 -0.492669 -0.047141 -0.097360 0.139171 -0.196401 -0.140330 0.379708 -0.518847 0.400641 0.258895 -0.172465 0.154385 0.628492 0.313008 0.100593 -0.305625 0.321321 -0.318843 0.259785 -0.202745 0.009924 0.059041 0.056383 -0.048965 0.226426 -0.381891 0.172060 -0.182560 -0.008613 -0.519578 -0.319524 -0.382742 0.375529 -0.379518 0.151171 -0.078167 -0.275270 0.203042 -0.006294 0.412910 -0.362287 0.137966 -0.206793 0.271010 -0.401283 0.292848 -0.102025 0.032993 0.652532 0.465405 0.549951 0.537544 0.370849 -0.160722 0.026819 0.035191 0.013739 -0.065662 0.355617 0.351933 -0.156769 -0.142964 0.641930 0.245730 0.061476 0.440892 0.084050 0.123093 0.335171 0.658646 -0.247620 -0.045997 -0.519882 -0.378388 0.273104 -0.173270 -0.127442 0.378110 0.313872 0.031427 0.227780 -0.029919 0.649624 0.701038 0.587985 0.418882 0.564211 0.324917 -0.005024 0.139053 0.003104 -0.248062 -0.226112 0.373250 -0.063010 0.055104 -0.046988 0.398950 -0.323546 0.036508 -0.334222 0.529855 -0.185253 0.189266 0.540342 0.687384
74 -0.074341 0.132709 -0.010522 -0.791693 -0.100761 -0.378387 0.539692 0.235996 -0.312423 -0.223944 -0.141298 -0.416454 0.047676 -0.077758 -0.283582 -0.351080 0.427156 0.286914 -0.131684 -0.074092 0.236813 0.035566 -0.198497 -0.182622 -0.240483 -0.125443 0.146989 0.119644 -0.008981 -0.276224 0.609210 -0.511437 0.070504 0.079811 0.448320 0.346831 -0.517213 -0.095026 0.135637 -0.256892 0.094423 0.412064 0.084979 -0.198919 0.217491 -0.197287 0.181859 0.100137 0.141105 0.162888 -0.314757 -0.410249 0.305699 -0.551332 0.882611 0.390291 0.486657 0.100794 0.225995 0.287046 -0.515091 0.519584 -0.232309 -0.973586 -0.228044 -0.005129 -0.220629 -0.089030 -0.511307 0.370993 0.223144 -0.248881 0.769487 -0.286002 0.271541 -0.180592 -0.229041 -0.106514 0.261595 0.092486 0.160463 -0.149893 -0.072843 0.039462 0.238152 -0.111157 0.707069 -0.160957 -0.176833 -0.006571 -0.047400 -0.242641 0.079207 -0.031386 -0.669889 -0.247121 0.125691 0.059323 -0.260886 0.476242 0.263007 0.581309 0.410094 0.064449 0.426129 0.556708 0.458301 0.028236 0.351194 0.284901 0.225001 0.265350 0.261903 0.139451 0.067211 0.166731 -0.485230 -0.199162 0.506604 -0.347545 -0.234916 0.158083 -0.057961 0.127171 0.079929 0.020220 0.280202 -0.114971
86 -0.492293 0.209195 0.061067 0.427983 0.447009 0.106584 1.090679 0.118865 -0.128420 -0.457458 0.156626 -0.000861 0.121408 0.090969 -0.072091 -0.401450 0.100334 0.058406 -0.312425 -0.420477 -0.272632 -0.367638 -0.071154 -0.313695 -0.252298 0.212835 -0.491745 -0.162699 0.323302 -0.227071 0.273270 0.351649 0.145257 0.173798 0.113993 0.032305 -0.061532 -0.426916 -0.101972 -0.363657 0.315620 0.069851 -0.063282 -0.292348 -0.057000 0.044880 0.452733 -0.561132 0.513821 0.028402 -0.316478 -0.703134 0.051963 -0.389706 0.451778 -0.110872 0.004539 -0.459997 0.189441 -0.148114 -0.493628 0.488807 -0.113142 -0.111342 0.193450 0.442590 -0.326297 0.149529 -0.448861 -0.092012 0.480861 0.276107 0.204397 0.137826 0.390060 -0.080024 -0.311091 0.025625 0.096985 -0.119139 0.258524 0.345636 0.028909 -0.120134 0.663544 0.384416 0.243442 0.361044 -0.209570 -0.295924 -0.221906 0.379556 0.108616 -0.069209 -0.497796 -0.659280 0.110693 -0.500861 -0.268857 0.553624 0.298081 -0.164263 0.147295 -0.082261 0.551867 0.580406 0.677155 0.059308 0.093752 0.086085 -0.062164 0.104413 0.068608 0.046852 -0.388612 0.171430 0.218802 0.044169 0.103628 0.135777 0.157664 0.137707 -0.369581 0.272115 0.072435 0.091090 0.389983 0.258766
94 -0.133962 -0.084386 -0.516950 -0.028504 0.016628 -0.141527 0.560356 0.281826 0.230743 0.363081 0.079658 0.186188 0.215554 -0.014893 0.240229 -0.171147 -0.029366 0.446743 -0.213473 -0.339081 -0.073740 -0.244933 -0.486209 0.153963 0.133215 -0.076636 -0.296247 0.255144 0.430819 -0.207172 0.749130 0.175757 -0.115609 0.434926 0.365972 0.351168 -0.163965 -0.332937 0.614500 0.047871 0.090934 -0.262724 -0.089006 0.083748 -0.157745 -0.035615 -0.158442 0.416637 -0.045794 -0.411806 0.299778 -0.821427 -0.127905 -0.177079 0.217367 -0.234378 -0.005178 0.120090 -0.106931 0.461662 0.151346 0.177663 -0.662086 -0.039419 -0.370752 0.388336 -0.469393 0.348730 0.362584 0.316052 0.018291 0.028062 0.912472 0.239813 0.177938 -0.032728 -0.026651 -0.143172 0.056026 -0.436964 0.361181 0.180502 -0.319727 -0.109140 0.789951 0.754510 0.427596 0.254705 0.156156 -0.132751 0.248904 0.441645 -0.524057 0.115917 -0.803871 -0.206609 0.352950 0.155086 -0.520461 0.077227 0.596462 0.182997 0.338779 -0.266365 0.686930 0.515508 0.792908 0.361752 0.156723 0.631495 -0.210601 -0.078095 -0.206774 -0.638852 -0.132292 0.270313 0.040241 0.002278 -0.399541 0.393847 -0.202699 0.089049 -0.270439 0.843099 0.079207 0.322538 0.089198 0.790569
83 -0.686594 0.109432 -0.385605 -0.252522 0.093838 -0.268928 0.471138 -0.274875 0.650636 -0.228141 -0.090385 0.421850 0.647739 0.200012 -0.450504 -0.364593 0.518182 0.594281 0.137045 0.343677 -0.368070 -0.462264 -0.095954 -0.461318 -0.060281 -0.092212 -0.647328 0.358899 -0.105969 -0.249381 0.759542 0.454831 0.057900 0.095560 -0.279187 0.124452 -0.916501 -0.344939 0.135922 0.244077 0.306920 0.088728 0.116171 -0.162306 -0.215761 0.037124 0.640300 0.149535 0.603121 -0.375274 0.037298 -0.777364 0.362654 -0.405918 -0.162947 0.162321 0.487557 -0.237542 -0.049614 -0.165070 -0.594854 0.112365 -0.546650 -0.406199 0.314269 0.732063 0.498101 -0.076310 -0.262541 0.498366 0.249461 -0.104897 0.394734 -0.337859 -0.159984 -0.018589 -0.563225 -0.331147 -0.184278 -0.190507 0.792916 0.105186 -0.445068 0.169551 0.272079 -0.000925 0.769764 0.186273 0.050397 -0.430383 -0.421194 0.128666 -0.042305 -0.228866 -0.655198 -0.522351 -0.302706 -0.553798 0.020187 0.203940 0.195403 0.038255 0.370267 -0.030081 0.302060 -0.456159 -0.280595 -0.389976 -0.409901 -0.004369 -0.327369 -0.083634 0.491837 -0.228165 -0.221299 0.020868 -0.108005 0.241073 -0.026317 0.271701 0.138158 -0.008951 0.058736 0.588530 -0.014020 0.277058 -0.224482 0.223018
63 -0.069225 0.138370 -0.171773 -0.574135 -0.056796 -0.185248 -0.274460 0.071520 0.196416 -0.636797 -0.302620 -0.018448 0.477781 0.049527 -0.160901 -0.225417 0.471573 0.484267 -0.125685 0.406987 -0.592866 -0.107520 -0.218983 -0.705910 -0.146843 0.176517 -0.357057 0.554842 0.359110 -0.204215 0.214069 -0.049837 0.212709 0.553803 -0.254313 -0.078518 -0.483299 -0.420060 0.120887 0.749846 -0.137843 -0.121689 -0.137371 -0.108446 -0.462729 -0.009165 -0.055246 0.061516 -0.027847 0.100328 0.100983 -0.251505 0.397944 0.075702 -0.065977 0.194754 0.168353 0.316390 0.281611 0.315109 -0.597662 0.352572 -0.859248 -0.403338 0.068092 0.244384 0.543737 -0.020468 -0.419522 0.616861 -0.095247 -0.098782 0.356542 -0.431675 0.273093 -0.133539 -0.196244 -0.176143 0.278178 0.022718 0.456074 0.045457 -0.447119 0.385818 0.366249 0.119555 0.726041 0.169708 -0.134851 -0.082470 -0.368702 0.221030 -0.547225 -0.050719 -0.651492 -0.337598 0.008511 -0.234026 0.266005 0.225682 -0.030069 -0.038410 0.069833 -0.120136 0.061960 -0.099992 0.403834 0.340773 -0.500001 -0.045150 0.254891 -0.037898 0.008461 0.237903 0.241462 0.238721 -0.304962 0.105849 -0.248727 -0.221384 -0.136663 -0.159495 -0.114924 0.195750 0.138730 0.229036 0.292674 -0.375991
2 -0.359718 0.096319 0.068548 0.139847 -0.196909 -0.500922 0.113350 0.069581 0.411981 -0.084823 -0.128789 0.505160 -0.203327 0.098455 0.256954 -0.568858 0.470362 -0.424014 0.474475 0.371220 -0.246396 -0.352583 -0.441041 -0.362942 0.177432 -0.140397 -0.454815 0.071584 0.446500 0.069401 0.489082 0.317902 0.338215 0.716093 -0.086336 -0.047405 -0.064499 -0.635717 0.288654 0.027710 -0.766315 -0.376720 -0.124723 0.401054 -0.101114 0.041137 -0.337217 0.116050 -0.052239 0.087091 0.192882 -0.896634 0.662549 0.242355 -0.068945 0.361728 -0.219176 0.197909 -0.079156 -0.072059 -0.199962 0.421346 -0.127271 -0.220665 -0.156441 0.237509 0.127261 0.235303 -0.453187 0.060611 -0.210305 -0.232238 0.370174 0.238500 0.200849 0.126481 -0.351291 -0.216517 -0.324347 -0.753420 0.060985 -0.456937 -0.393276 -0.086241 0.377594 0.404053 0.528355 0.171636 -0.071332 -0.335668 -0.129721 0.096165 -0.354649 -0.305945 -0.354388 -0.528162 -0.390366 0.162198 0.040660 -0.001390 0.380042 -0.739494 -0.350853 -0.234634 0.519896 -0.089994 0.268204 0.462504 -0.176596 0.020403 -0.402244 0.350077 0.030150 -0.275354 -0.185968 0.383838 0.382110 0.297286 -0.539446 -0.290580 -0.389675 -0.034343 0.351339 -0.090248 -0.075217 0.327605 0.314859 0.083734
47 -0.931979 0.031596 -0.304102 0.159777 -0.073071 -0.502832 0.273245 -0.592343 0.078939 -0.444132 -0.254501 0.347111 -0.165926 -0.085142 0.026648 -0.395580 0.208066 0.239716 0.505895 0.625071 0.143020 -0.447414 -0.514578 -0.445134 0.171041 0.011333 -0.101303 0.448326 -0.241048 -0.495845 0.334776 0.351681 0.505587 0.457817 0.484051 0.573003 -0.297178 -0.333069 0.034235 -0.238991 -0.615447 0.342018 0.366745 -0.058341 -0.076684 -0.118188 0.108162 0.296779 -0.170671 -0.227803 0.052370 0.011444 0.744799 -0.273828 -0.116034 0.381521 0.506591 -0.820878 -0.307879 -0.488228 -0.238973 0.360045 -0.394977 -0.105851 -0.686412 -0.480752 -0.192497 0.320216 -0.667123 0.113264 0.121787 -0.424369 0.055839 0.192678 -0.184519 -0.245584 -0.472342 0.104843 -0.252025 -0.104428 0.062254 -0.259686 -0.424208 -0.389726 0.867618 -0.155915 0.053223 0.256702 -0.367741 -0.049696 -0.107764 0.219945 0.070959 -0.456404 0.299200 -0.529176 -0.619498 0.280561 -0.645535 0.211055 0.106717 -0.314886 -0.401062 -0.343439 0.427779 0.206564 -0.098089 0.653463 -0.115804 -0.223000 0.185697 -0.199978 0.047290 0.162879 -0.357785 0.418430 -0.038702 0.096193 -0.284607 0.638425 -0.304784 -0.198798 0.014843 0.242477 0.532214 0.111218 -0.460556 -0.019439
10 -0.297850 0.344792 0.341743 -0.246056 -0.067403 -0.203426 0.335676 -0.234376 0.071777 -0.086164 -0.238000 0.193828 -0.082399 -0.153894 0.463463 -0.096495 0.490697 -0.043090 0.361359 0.346370 0.232130 -0.438446 -0.311975 -0.018606 -0.320102 0.401854 -0.265521 0.510532 -0.542577 -0.135482 0.235648 0.433283 0.239244 0.170606 0.209953 0.208022 -0.194161 -0.572263 0.724010 0.286481 0.343417 -0.517190 -0.140129 0.434085 0.527334 -0.114344 -0.063886 0.173506 -0.521763 0.299949 0.263680 -0.173693 0.049260 -0.048435 0.540685 0.094376 -0.269912 0.529130 -0.037583 0.084733 -0.289769 0.032610 -0.244974 0.248926 -0.438444 -0.147338 -0.054934 -0.173252 -0.249802 -0.349007 0.223016 -0.247483 0.565565 0.256491 0.533911 -0.383612 -0.380604 0.469906 -0.093813 -0.943107 0.251459 0.172204 -0.075861 0.289052 0.353892 0.502378 -0.201364 0.490842 0.355526 -0.138945 0.081247 0.629135 -0.372298 0.306835 -0.206204 -0.307293 -0.083674 0.065886 -0.060445 -0.219732 0.672235 -0.111289 -0.054568 -0.410623 0.533900 0.569295 0.851376 0.400432 -0.067502 -0.014795 -0.463272 -0.246077 0.278003 0.050407 0.087006 0.475951 -0.142173 0.292097 -0.456333 0.462010 -0.206973 -0.054487 -0.260070 0.353546 0.039883 0.065634 0.201584 0.537660
89 -0.381816 0.198255 -0.047601 0.277150 0.283546 -0.214892 0.460765 -0.041295 0.452542 -0.271642 0.131358 0.708803 0.153800 -0.074220 -0.056011 -0.424369 -0.142466 0.035772 0.227874 -0.017158 -0.041521 -0.249707 0.214312 -0.312056 -0.410837 0.186289 -0.430579 -0.194498 0.254425 -0.246390 0.491368 0.209449 -0.124207 0.072392 -0.130820 0.004211 -0.158734 -0.574682 -0.011453 -0.019673 0.397172 0.013438 -0.131439 -0.047891 -0.017730 -0.285260 0.052486 -0.139137 0.206713 -0.069491 -0.269648 -0.710354 0.051739 -0.071034 0.133043 -0.560485 0.412752 0.204801 -0.158681 -0.087467 -0.453244 0.664418 -0.198240 -0.435648 -0.268893 0.930638 -0.320109 0.019034 -0.266815 -0.039427 0.015430 0.089788 0.674727 -0.213437 0.220618 0.476717 -0.202554 -0.002952 -0.047036 -0.456074 0.054396 0.006579 -0.269814 0.395351 -0.109906 0.386438 0.147842 0.223174 0.352696 -0.075271 -0.095679 0.429149 -0.670329 -0.305747 -0.043074 -0.886161 0.451198 -0.442659 0.038775 0.377963 0.532871 -0.116920 0.277246 -0.274028 0.596262 0.096727 0.763399 -0.012707 -0.314993 0.044086 -0.302046 0.215639 0.220837 -0.055535 -0.110111 -0.109518 -0.166502 0.266742 -0.297598 0.007965 0.106239 0.441050 -0.268714 0.525964 -0.125395 0.057611 0.593629 0.484696
19 -0.172145 -0.165632 0.436528 -0.318430 -0.254957 -0.475591 0.288714 -0.004863 0.030578 0.295034 -0.113177 0.472303 -0.320426 -0.325021 0.268400 -0.632923 0.474830 -0.130396 0.285947 0.484717 -0.032495 -0.365474 -0.455543 -0.350690 -0.069545 0.291933 -0.244908 0.612419 -0.043810 -0.153220 0.128173 0.132636 0.352867 0.644865 0.477311 0.251005 -0.492164 -0.195491 1.111726 0.290654 0.022599 -0.205112 0.072328 0.367523 0.145330 -0.045541 0.034612 0.061099 -0.649684 0.200379 0.157302 -0.441335 0.358544 0.082208 -0.033057 0.470393 -0.126127 0.582265 0.031367 -0.252018 -0.250778 -0.029609 -0.438742 0.013120 -0.411607 -0.386257 0.466860 -0.154743 -0.415179 -0.233418 -0.145344 -0.052604 0.697266 -0.099816 0.366740 -0.005962 -0.227809 0.163576 -0.317629 -0.707172 0.493020 -0.246714 -0.198738 -0.146637 -0.008590 0.336155 0.657911 0.151334 -0.170493 -0.176704 0.110523 0.477617 0.016689 -0.050086 -0.593791 0.036692 -0.645020 0.098318 -0.057967 -0.370561 0.365724 -0.137743 -0.292351 -0.330898 0.457242 0.273588 0.679811 0.384797 -0.089289 -0.155091 -0.164681 0.342140 0.506438 -0.004460 0.034915 0.528622 -0.210610 0.442230 -0.400174 0.181038 -0.567567 -0.530724 -0.015191 -0.193859 0.059350 -0.088674 -0.072613 0.372533
73 -0.390304 -0.120807 0.360232 0.391292 0.238988 -0.118216 0.924352 0.135918 -0.194287 -0.485917 0.206094 0.285801 -0.015340 -0.078520 0.025624 -0.613801 -0.047039 0.316833 -0.058239 0.098563 -0.147599 -0.463324 0.112278 -0.489205 -0.112208 0.592174 -0.426694 -0.182083 0.308630 -0.618723 -0.061291 0.238460 0.174924 0.550510 0.580631 0.251201 -0.016718 -0.255468 0.303146 0.247360 0.109270 -0.141978 0.292756 0.224399 -0.124170 -0.107076 0.296391 -0.331964 -0.040318 -0.116021 -0.237857 -0.333010 0.349468 -0.221995 0.315635 -0.173121 0.154280 -0.256232 -0.393562 -0.099841 -0.144514 0.595274 0.064139 -0.039513 -0.492160 0.010510 -0.099189 -0.007118 -0.193301 -0.181348 0.439436 0.002510 0.468163 -0.206247 -0.105613 -0.101017 -0.043987 -0.071335 -0.041655 -0.216261 0.238945 0.192765 -0.123931 0.189637 0.134139 -0.166218 -0.112677 0.743771 0.125084 0.438516 0.369560 0.563437 -0.186048 0.024033 -0.217031 -0.496761 0.060091 -0.108416 0.093450 0.478035 0.361335 0.190100 -0.008448 -0.080993 0.364833 0.610218 0.608123 0.302538 0.241680 -0.162360 -0.028404 0.265903 0.463872 0.228994 0.049220 0.117306 -0.204940 0.383572 -0.069374 0.666229 -0.101209 0.024066 -0.292745 0.547870 0.043503 -0.508900 0.835670 0.421490
29 -0.698524 0.186992 -0.140758 -0.033853 0.085010 -0.510658 0.105352 -0.584699 0.045618 -0.593702 -0.178253 0.415589 -0.173202 -0.260268 0.031276 -0.464818 0.209927 0.083057 0.603211 0.624360 -0.038977 -0.533489 -0.662878 -0.525232 -0.075127 0.174947 -0.250156 0.478603 -0.030463 -0.455637 0.559833 0.212579 0.371507 0.313662 0.389517 0.395892 -0.268005 -0.321651 0.368250 -0.315066 -0.265416 0.083756 0.121930 0.126821 0.180162 -0.118024 -0.123910 0.085990 -0.551168 -0.018397 0.050734 -0.248181 0.408608 -0.421556 0.056325 0.454436 0.496197 -0.310350 0.145755 -0.426009 -0.468345 0.101221 -0.224270 -0.172564 -0.380675 -0.192575 -0.154815 0.349204 -0.411373 0.134181 0.110735 -0.417691 -0.251105 0.163467 -0.010502 -0.170326 -0.258361 0.090619 -0.076226 -0.112545 0.006440 0.029735 -0.468995 -0.283223 0.760572 -0.008991 0.385732 0.177887 -0.444961 -0.176542 -0.422549 -0.011362 -0.287253 -0.276728 0.098398 -0.457532 -0.644493 0.115587 -0.278979 0.159323 0.256367 -0.111150 0.085810 -0.461809 0.263392 0.162085 0.107304 0.620361 -0.326199 -0.244750 0.167090 -0.236927 -0.155846 0.054646 -0.268316 0.392287 -0.310182 -0.071091 -0.301263 0.493775 -0.307737 -0.199666 -0.298696 0.062305 0.393082 0.223792 -0.059015 -0.266818
36 -0.428722 0.273075 -0.830768 -0.016757 0.259843 -0.506654 0.370992 -0.017250 0.081061 -0.286638 -0.175397 0.540023 -0.269262 -0.213515 -0.109901 -0.070597 0.236323 -0.223721 -0.157572 0.192721 0.058657 -0.119015 -0.546569 -0.357800 -0.277689 -0.174657 -0.135858 0.208852 0.387711 -0.282303 0.673526 -0.072795 0.248630 0.477326 0.069331 0.245488 -0.330082 -0.183405 0.332302 -0.540403 -0.451835 0.226369 -0.092843 -0.235592 -0.249527 -0.391696 0.184905 0.530627 -0.308281 -0.039270 0.125190 -0.434147 -0.054966 -0.479055 0.308031 -0.131319 0.709243 -0.207402 0.501907 -0.382825 -0.124667 0.376870 -0.800278 -0.528795 -0.806818 0.438148 -0.648409 0.392340 -0.127745 0.698323 -0.085212 -0.086745 0.088469 -0.174269 0.332809 0.418070 -0.398886 -0.116804 -0.016736 -0.342050 0.138728 -0.229116 -0.140608 -0.379138 1.014252 0.302747 0.880841 -0.041904 -0.374923 0.042597 -0.476931 0.042125 -0.278536 -0.121235 0.011539 -0.027054 0.271792 0.341200 -0.466699 0.238167 0.405533 -0.211224 0.036221 -0.000441 0.711972 -0.009196 0.762189 0.253403 -0.358191 0.542048 0.363940 -0.214014 -0.369927 0.443773 -0.092867 0.347849 -0.104701 -0.030330 0.097255 -0.065719 0.057908 -0.239313 0.004782 0.467756 0.864155 0.289612 -0.234981 -0.256120
56 -0.462909 0.091945 -0.056324 -0.414952 0.129008 -0.731032 0.487684 -0.253339 0.242997 -0.484174 -0.163363 -0.014701 0.440664 -0.451796 -0.383268 -0.172148 0.417280 0.450565 -0.074868 0.103518 0.333565 -0.512007 -0.056973 -0.251770 -0.303830 0.348762 -0.248643 0.100563 -0.295555 -0.448150 0.725324 0.085496 -0.004681 -0.393001 0.198905 0.080748 -0.286018 -0.003379 0.507992 0.058429 0.266536 -0.038427 0.028666 0.179525 0.028457 -0.028799 0.489331 0.372851 -0.171829 -0.087489 0.053209 -0.305877 -0.132100 -0.729601 0.227007 -0.159806 0.666595 -0.042690 0.089583 -0.068050 -0.413501 0.269713 -0.376006 -0.283785 -0.166842 0.626017 0.295895 -0.070417 -0.208666 0.600250 0.548352 0.075256 0.346389 0.023581 0.199595 -0.039852 -0.428726 -0.160765 0.041575 0.121163 0.898816 0.560144 -0.123730 0.095611 0.273975 -0.220159 0.436451 0.012834 0.263335 -0.058131 -0.365381 0.656514 0.142851 -0.134128 -0.476562 -0.072591 0.216098 0.055725 0.034675 0.290247 0.343049 0.474428 0.738914 0.399459 0.386362 0.003148 0.342039 -0.070664 -0.180521 0.143067 0.048279 -0.067589 0.349475 0.257353 -0.108507 0.416312 -0.352961 0.097132 0.307693 0.430623 0.119480 -0.116156 -0.265185 0.415144 -0.107706 0.506005 0.102445 0.288113
96 -0.499404 -0.018035 0.001239 0.071464 0.082871 -0.477293 0.568486 -0.186869 0.496213 -0.616160 -0.197521 0.251936 0.360749 0.109323 -0.367799 -0.014991 0.554130 0.470121 0.077047 0.374208 -0.556416 -0.265517 -0.041228 -0.364819 -0.159894 0.382147 -0.514393 0.212897 0.203753 -0.386215 0.661262 0.100228 0.030689 0.075371 -0.375884 -0.150462 -0.254916 -0.549438 0.057693 0.236688 -0.029803 0.061777 0.305894 -0.044847 -0.334320 -0.189369 0.231837 -0.244898 0.315917 -0.153981 -0.269326 -0.497057 0.312112 -0.392661 -0.023446 -0.359494 0.286500 0.061525 -0.065880 0.003803 -0.724947 0.309870 -0.330747 -0.392625 -0.064803 0.650668 0.257067 0.192483 -0.433549 0.297682 0.072248 0.051637 0.487986 0.030604 -0.027649 0.014417 -0.152600 -0.093239 -0.008293 0.101471 0.612180 0.127111 -0.498931 0.406449 0.210188 0.264465 0.560826 0.369804 0.231250 -0.309756 -0.227454 0.473055 -0.489342 -0.237368 -0.551313 -0.978514 0.334463 -0.376510 0.072881 0.618318 0.401477 -0.189316 0.115714 -0.234218 0.613940 -0.190260 0.640181 -0.007394 -0.269128 0.291061 -0.155200 0.106242 0.252619 0.199309 -0.173392 0.381277 -0.105287 0.382503 -0.069205 0.158702 0.149172 0.057592 0.104606 0.493259 -0.224875 0.424114 0.345454 0.162140
99 -0.178218 0.401159 -0.052664 0.055946 0.170784 -0.444246 0.070433 0.035995 -0.023642 -0.863763 -0.024331 -0.285137 -0.099764 -0.543104 -0.037549 -0.031482 0.215662 0.257327 -0.271397 -0.266321 -0.142539 -0.037057 -0.581557 -0.577499 -0.498167 0.348158 0.124734 0.103360 0.351365 -0.330981 0.151259 -0.144077 0.430926 0.332837 0.497618 0.122230 -0.490180 -0.205319 0.278684 -0.097466 -0.076153 0.203725 -0.435645 -0.350919 -0.129821 -0.100407 -0.088493 -0.032646 -0.342339 0.164586 -0.078402 -0.183961 -0.163217 -0.244045 0.362214 -0.046916 0.248025 -0.051605 0.736769 -0.186863 -0.104874 0.567228 -0.691616 -0.409364 -0.180511 0.139249 0.327631 0.266165 -0.422235 0.480152 0.148791 0.272458 0.033874 0.233819 0.543390 0.154069 -0.223180 0.136157 0.092465 0.207630 0.566846 0.242307 -0.122515 -0.173288 0.682361 0.300437 0.466363 0.027695 -0.670790 0.038283 -0.195931 0.327819 -0.256625 -0.188638 -0.205292 -0.091800 0.356675 -0.006407 -0.166198 0.089741 0.373944 0.205466 0.176748 0.123374 0.397323 0.264466 0.888725 0.366643 -0.007136 0.137102 0.540978 0.078945 -0.255395 0.348222 0.366700 0.438370 -0.226653 -0.329081 0.224858 -0.248739 0.019952 -0.041256 -0.530201 -0.194547 0.361486 0.482535 0.144903 -0.383785
71 -0.551831 0.093261 -0.081858 -0.404129 0.199995 -0.537320 0.376367 -0.333403 0.538861 -0.262805 -0.059680 0.328691 0.505959 -0.406536 -0.322088 -0.441825 0.237961 0.412687 0.193750 0.348662 0.226196 -0.384172 -0.256609 -0.723137 -0.370525 -0.012433 -0.254907 0.400034 -0.170563 -0.486397 0.571452 0.125728 0.024544 -0.112332 0.257878 0.628470 -0.785341 -0.040442 0.186758 0.079880 0.513070 0.328701 0.078432 -0.186439 0.005484 0.208232 0.592251 0.149141 0.074954 0.003151 -0.207221 -0.203982 0.123082 -0.451779 -0.109067 -0.023337 0.848431 0.188282 -0.053553 0.005022 -0.515699 0.477630 -0.710391 -0.363402 -0.129674 0.414742 0.129690 -0.303361 -0.368996 0.420342 0.815209 0.121736 0.516573 -0.220365 0.277695 -0.117462 -0.350330 -0.217282 0.111552 0.052754 0.680212 0.276634 -0.233301 0.063331 0.302084 -0.288102 0.407970 -0.258959 0.115658 -0.072519 -0.230846 0.355929 -0.047250 -0.100948 -0.393876 0.094381 -0.257851 -0.009804 -0.056612 0.132613 0.087831 0.465496 0.062758 -0.066257 0.402965 0.052909 0.051758 0.177536 -0.039036 -0.092680 0.169236 0.222961 0.506216 0.236699 -0.014520 0.149723 -0.374693 0.095430 0.151271 0.291453 -0.174154 -0.018254 -0.314333 0.207230 0.086993 0.137943 0.006106 0.010019
65 -0.073376 0.068802 -0.451680 -0.324693 0.038034 -0.737521 -0.039254 -0.120779 0.724404 -0.069479 -0.175655 0.641023 0.668517 -0.364037 -0.090348 -0.154068 0.127143 0.484594 0.325464 0.507844 0.112885 -0.044074 -0.131604 -0.587562 -0.236545 0.193971 0.009601 0.184739 0.009155 -0.266876 0.619783 -0.165490 -0.140192 -0.146979 0.057764 0.500836 -0.630218 -0.613672 0.000130 0.033320 0.385783 0.294115 0.159082 -0.297385 -0.059460 -0.152240 0.098292 0.131991 0.201320 -0.065512 -0.271043 -0.141282 0.161542 -0.388900 -0.010458 -0.258477 1.028932 0.421026 0.099674 0.040764 -0.540901 0.405805 -0.556941 -0.680477 -0.387263 0.673044 -0.043801 -0.142109 -0.147880 0.862103 0.690943 0.140472 0.575949 -0.434074 0.346331 0.012958 -0.075366 -0.102675 0.346282 0.127729 0.288050 0.189528 -0.264382 0.159657 0.372326 -0.175111 0.463577 -0.309869 0.297882 0.441104 -0.082033 -0.149498 -0.664181 -0.027380 -0.296579 0.042763 0.118906 0.212131 0.309953 0.302556 0.066100 0.227173 0.081216 -0.159930 0.603962 -0.372936 -0.012486 0.568816 -0.094863 0.232648 0.300766 0.090134 0.009140 0.109708 -0.186375 0.051834 -0.545486 0.046427 0.137401 0.205593 0.202277 0.228208 -0.001329 0.324183 0.176626 0.294846 0.348996 -0.072263
44 -0.707494 0.228068 -0.103162 0.055222 0.186651 -0.426037 0.245427 -0.423613 0.075723 0.022382 0.753638 0.910295 -0.476008 -0.259579 -0.054047 -0.635957 0.066369 -0.119869 0.007222 0.294151 0.132427 -0.088793 -0.497504 -0.104672 -0.138858 0.000578 -0.380938 -0.030022 0.287696 -0.327564 0.383746 0.340323 0.286253 0.392073 0.536897 0.069484 -0.201025 -0.208840 0.612627 -0.510355 0.000292 0.440446 0.035996 0.268072 0.126132 -0.340413 -0.595578 0.277520 -0.712949 -0.338480 -0.047429 -0.619122 0.285032 -0.318561 0.437141 0.610774 0.529523 -0.365746 0.241808 -0.525524 -0.583069 0.119330 -0.178788 -0.804037 -0.222592 0.367884 -0.346287 0.371590 0.186667 0.328276 0.105702 -0.276573 0.074524 -0.293391 0.276997 0.482059 -0.339232 -0.093520 -0.003167 -0.389913 0.071841 0.147732 -0.072187 -0.439705 0.251676 0.044211 0.174273 -0.143273 -0.337814 -0.038276 -0.268952 -0.237663 -0.210243 -0.562825 0.052719 -0.262975 -0.703382 0.758320 -0.332503 0.071691 0.331002 0.200346 0.457138 -0.207235 0.387843 0.454497 0.106062 0.298842 -0.213670 0.090566 0.059611 -0.205017 -0.137536 -0.312517 -0.337850 -0.051809 -0.450154 -0.223785 0.044803 0.244724 -0.176061 -0.056012 -0.292791 0.617218 0.492716 -0.148478 0.018122 0.492979
46 -0.394616 0.219424 -0.601519 0.223404 0.112220 -0.011212 0.508951 0.028841 -0.191643 0.123782 -0.240786 0.441199 -0.424554 0.281155 0.044534 -0.066896 0.335994 -0.079333 -0.574641 0.136769 -0.065938 0.012030 -0.307350 -0.393739 -0.076289 -0.080057 -0.388517 -0.009038 0.384715 -0.115956 0.470382 -0.021088 0.587174 0.723746 0.228868 0.110976 -0.099342 -0.386790 0.145165 -0.269663 -0.658689 0.056782 0.143347 -0.140402 -0.138894 -0.367259 0.242433 0.423978 -0.281359 -0.300495 0.611969 -0.338262 0.058240 -0.133794 0.145755 0.294328 0.350789 -0.146490 0.413365 -0.477798 0.074247 0.353541 -0.460363 -0.210198 -0.393052 0.231002 -0.519538 0.274739 0.179549 0.238604 -0.269683 -0.059797 -0.032805 -0.261225 0.602244 0.492295 -0.440943 0.117311 -0.146585 -0.236107 -0.033786 -0.148492 0.068595 -0.175627 0.758902 0.291705 0.679086 0.139248 -0.439597 0.603994 -0.154349 0.066364 -0.092764 -0.102429 0.097656 -0.346795 0.186024 0.450794 -0.240673 0.241027 0.483210 -0.562722 -0.093826 -0.117020 0.338374 -0.247118 0.465765 0.282025 -0.217803 0.431257 0.338013 -0.194064 -0.129661 0.445153 -0.243073 0.248862 -0.007185 0.108772 0.231793 -0.161219 0.044619 -0.393504 0.396428 0.671303 0.907046 -0.101866 -0.017976 0.107413
31 -1.013199 -0.043075 -0.415547 0.187567 0.153147 -0.287018 0.497002 -0.548333 0.167815 -0.356562 -0.032813 0.384974 0.060012 -0.114404 -0.261246 -0.301815 0.370941 0.313667 0.041974 0.424662 -0.134607 -0.370508 -0.581322 -0.387779 -0.054963 -0.099697 -0.247723 0.596509 -0.016468 -0.468017 0.214434 0.471204 0.384134 0.424839 0.271678 0.453658 -0.360237 -0.071694 0.146867 -0.281269 -0.257730 0.684552 0.247897 -0.355145 -0.414906 0.072993 0.262800 0.122875 0.110086 -0.439017 -0.136440 -0.075643 0.520138 -0.316618 -0.269056 0.280852 0.607712 -0.983210 -0.150407 -0.467731 -0.414718 0.148747 -0.873610 -0.134988 -0.371986 -0.159075 -0.198276 0.319068 -0.636480 0.283282 0.210657 -0.083808 0.182181 0.181097 0.097684 -0.103962 -0.518610 0.098496 -0.141232 0.106852 0.407903 -0.027611 -0.384190 -0.599379 0.864308 -0.023813 0.182664 0.147915 -0.565137 -0.499193 -0.187250 0.377704 0.372397 -0.497574 -0.065522 -0.387801 -0.583977 0.097685 -0.865851 0.158347 -0.105818 -0.308694 -0.326221 -0.231440 0.583453 0.400859 0.191398 0.293278 -0.236045 -0.017786 0.242013 -0.247768 0.055225 0.291870 -0.331452 0.467836 -0.088291 0.025576 -0.106917 0.524951 -0.314318 -0.497521 -0.112685 0.279558 0.676028 0.121799 -0.794645 0.018438
25 -0.217185 -0.015180 -0.107397 0.175247 -0.205284 -0.374392 0.270998 0.011676 0.387323 -0.349434 -0.655474 0.142050 -0.054930 0.043036 0.035970 -0.269385 0.245851 -0.173402 0.330792 0.357450 0.268737 -0.602386 0.052570 -0.841463 0.020806 0.050954 -0.313951 0.010587 0.152221 0.152565 0.430348 0.102651 0.528524 0.447503 0.036052 0.404315 0.070989 -0.249560 -0.227202 0.124084 -0.849150 0.020236 -0.164573 0.053501 -0.135786 0.094904 0.122504 0.527072 0.290187 0.241891 0.044382 -0.383825 0.786650 0.219342 -0.014438 0.327577 0.157359 -0.326920 0.076763 0.036726 -0.146875 0.662955 -0.117793 -0.028129 -0.270842 0.013167 -0.184509 0.046037 -0.925893 -0.018865 -0.003458 -0.252223 0.208280 0.010884 0.333657 0.068043 -0.512476 -0.012002 -0.341915 -0.363008 -0.213917 -0.354345 -0.309023 -0.091440 0.579920 0.103300 0.282797 0.043433 -0.129312 -0.336767 -0.061382 0.201948 0.112875 -0.299071 0.031799 -0.398992 -0.080739 0.187259 -0.366815 0.169415 0.359622 -0.729415 -0.636247 0.038089 0.486395 -0.004445 0.287920 0.465387 -0.311217 -0.187709 0.031769 0.360831 0.206071 0.401844 0.024582 0.431825 0.426170 0.215817 -0.493102 -0.179439 -0.353614 -0.072235 0.510085 -0.255316 0.240548 0.239983 0.180425 -0.368676
23 -0.189865 0.022861 -0.069962 -0.092423 -0.228647 -0.504845 0.025677 0.003476 0.457803 -0.024974 -0.077340 0.348629 -0.143540 -0.221438 0.377566 -0.569710 0.393273 0.048141 0.564306 0.390043 -0.180834 -0.305125 -0.549420 -0.059233 0.277433 0.193455 -0.185520 0.003983 0.109171 -0.129804 0.319646 0.403501 0.117623 0.550946 0.257180 -0.095729 -0.407137 -0.406746 0.817745 0.300709 -0.497275 -0.548342 -0.343470 0.520464 0.171901 -0.075456 -0.381919 0.224232 -0.295993 -0.105063 0.313918 -0.933513 0.216216 -0.019583 0.364895 0.175718 -0.273535 0.029977 -0.178775 -0.156830 0.223737 0.045413 -0.161351 -0.141373 -0.230006 -0.040531 0.496160 0.097060 -0.029240 0.381687 -0.118442 -0.182587 0.596463 -0.004392 -0.253891 -0.051311 -0.140536 0.007580 -0.541362 -0.783662 0.298367 -0.379031 -0.383992 -0.072302 0.005339 0.281890 0.750100 0.534638 -0.102309 0.037722 0.189789 0.201082 -0.316675 -0.190144 -0.570825 -0.267761 -0.179449 0.214381 0.211762 -0.330652 0.565052 0.033366 -0.039103 0.142619 0.468853 -0.057132 0.171994 0.082212 0.063867 0.006527 -0.464156 -0.014954 -0.095487 -0.554663 0.145333 0.517895 -0.004935 0.179800 -0.405852 0.367520 -0.305633 -0.270514 0.084521 0.353007 -0.152581 0.255750 0.207343 0.267110
52 -0.387116 0.257719 0.105750 -0.018023 0.069804 -0.255963 0.023952 -0.012152 0.406040 -0.765374 0.156486 -0.182598 0.134488 0.083425 -0.117848 -0.403588 0.403946 0.662062 -0.049162 0.124654 -0.437335 0.113132 -0.200274 -0.272731 -0.473630 0.273249 -0.520948 0.151050 0.306545 -0.485332 0.178955 0.347723 0.232296 0.707153 0.201645 -0.046851 -0.659394 -0.387120 0.455541 0.791330 0.058022 -0.027487 0.001455 0.161927 -0.185924 0.300634 -0.060725 0.015612 -0.194923 -0.434130 0.210231 -0.240514 0.222155 0.183457 -0.036814 -0.056456 -0.106428 0.165535 -0.238756 0.103890 -0.113587 0.785535 -0.676631 -0.081796 -0.031806 0.420710 0.577468 0.144917 0.163302 0.211120 0.051024 0.221641 0.611935 0.230459 0.062037 0.133335 -0.319717 0.046545 -0.118654 0.028464 0.935268 0.280444 -0.535451 0.258751 -0.006618 0.161133 -0.057387 0.568270 -0.258882 -0.028496 0.439873 0.769055 -0.499038 -0.136380 -0.335655 -0.842803 0.337496 -0.224198 0.068835 -0.167380 0.316924 0.309398 0.299275 -0.180573 0.154037 0.195406 0.757842 -0.036706 -0.300250 -0.036783 -0.265999 0.272846 0.275411 -0.016589 0.484738 0.182756 -0.241354 0.061539 -0.202702 -0.018211 -0.207721 -0.088650 -0.331693 0.584154 -0.001504 0.132787 0.329723 0.336651
30 -0.692418 0.179919 -0.309949 0.172379 -0.074124 -0.433282 0.502973 -0.438453 0.063372 -0.334677 -0.538074 0.198943 -0.305539 0.001913 0.061925 -0.040912 0.695969 0.282031 0.330115 0.382630 -0.060328 -0.334512 -0.632686 -0.340921 -0.004835 -0.062329 -0.117791 0.234312 -0.308583 -0.441156 0.710003 0.201986 0.448604 0.135308 0.350109 0.449795 -0.237174 -0.399608 0.279364 -0.318445 -0.473176 -0.034706 0.386351 0.018211 0.275160 -0.376304 0.408863 0.173220 -0.229974 -0.160914 0.494512 -0.227914 0.140992 -0.480603 0.278507 0.194592 0.461195 -0.418242 0.052011 -0.402122 -0.132747 0.227019 -0.308157 -0.024455 -0.427443 -0.076102 -0.195848 0.439414 -0.388567 0.028372 0.180268 -0.216220 -0.027978 0.385984 0.060556 -0.157404 -0.355900 0.388361 -0.503758 -0.060713 0.270196 -0.211287 -0.437293 -0.121145 0.799708 0.105996 0.471268 0.525857 -0.340461 0.107999 -0.137789 0.166738 -0.093735 -0.127650 0.171720 -0.768022 -0.137486 0.080177 -0.406956 0.201391 0.545459 -0.385395 -0.050119 -0.209756 0.390377 -0.248240 0.132245 0.295879 0.034516 0.255575 0.057731 -0.149906 -0.029739 0.194689 -0.050380 0.688063 -0.081736 0.117693 -0.051555 0.498730 -0.235246 -0.272263 0.322866 0.475054 0.391675 0.412835 -0.070635 0.087697
70 0.001981 -0.013440 -0.416538 0.007806 -0.026809 -0.631260 0.209097 -0.043170 0.763803 -0.127833 -0.287766 0.585834 0.303017 0.156890 0.044657 -0.225520 0.403803 0.460831 0.479183 0.546416 -0.272124 -0.133468 -0.413878 -0.809356 0.055746 -0.223308 -0.224461 -0.153354 -0.074372 -0.425499 0.469907 -0.059139 0.055860 0.222744 -0.189378 0.821108 -0.592455 -0.689218 -0.010711 0.218930 -0.015194 -0.057093 0.354458 -0.183895 -0.057251 -0.300828 0.410641 0.091031 0.324790 -0.074414 0.083718 -0.174844 0.403749 -0.292136 0.395766 -0.290521 0.647805 0.187762 -0.190748 -0.039012 -0.003313 0.681926 -0.549546 -0.478682 -0.506846 0.598633 -0.164720 0.083422 -0.188771 0.384672 0.569135 0.027913 0.508241 -0.428463 -0.044991 0.060824 -0.192266 0.108855 -0.347265 -0.078818 0.459893 -0.247804 -0.570274 0.261629 0.484943 -0.190233 0.633428 0.483667 0.197077 0.325742 0.360172 0.040894 -0.862360 0.273662 -0.026623 -0.470309 0.280443 -0.182962 0.244428 0.244925 0.309299 -0.015493 -0.353117 0.053893 0.315697 -0.307184 0.025750 0.378069 0.012977 0.379101 -0.051584 0.393301 0.055359 0.127691 0.505894 0.291674 -0.035026 0.186389 -0.072503 0.146539 0.109228 0.068994 0.450926 0.668620 0.028794 0.320431 0.564290 -0.106763
92 -0.600695 0.049704 -0.273868 0.090406 -0.142483 -0.194601 0.652405 0.072884 0.171383 -0.142122 0.050455 0.104767 0.413419 0.093589 0.287985 -0.006044 0.223650 0.643384 0.067211 -0.287429 -0.338211 -0.631319 -0.542042 -0.450430 -0.011830 -0.137105 -0.317365 0.116178 -0.018883 -0.329268 0.632223 -0.028481 0.086618 0.400179 0.508964 0.713897 0.002317 -0.050086 -0.083793 -0.041856 0.073020 -0.205359 0.019505 0.036228 -0.088836 -0.158063 0.178511 0.109583 0.387887 -0.675237 -0.262960 -0.184598 0.223354 -0.146196 0.226175 -0.054741 0.371290 -0.175046 -0.172449 0.475802 0.500434 0.243491 -0.564716 -0.182005 -0.402333 0.077090 -0.538344 0.274303 -0.025442 0.186529 0.082491 -0.480034 0.508666 0.529905 0.123018 0.001613 -0.139094 0.026559 -0.055863 -0.279224 0.298116 0.310818 -0.538753 0.183263 0.730745 -0.053360 -0.115504 0.751829 0.251030 -0.234120 0.428709 0.435128 -0.529640 0.218732 -0.192574 -0.401046 0.501566 -0.447611 -0.305970 0.233632 0.443806 -0.111447 0.246729 0.098141 0.328866 0.801915 0.161873 0.089177 0.392412 0.169755 -0.418026 0.048470 0.192966 0.147559 0.358831 0.221128 -0.280567 0.142578 -0.111181 0.427501 -0.162883 0.364321 -0.014316 0.638457 -0.094794 0.351592 0.449046 0.277354
42 -0.381253 0.240706 -0.010376 -0.173567 -0.303589 -0.607310 0.145726 -0.154368 0.020394 -0.013761 -0.333278 0.154869 -0.630033 0.215301 0.250222 -0.436971 0.834619 -0.082515 0.242056 0.371202 -0.035538 -0.045473 -0.599415 -0.185670 0.122169 -0.247126 -0.175444 0.207833 -0.019650 -0.166220 0.626805 0.009179 0.652449 0.679646 0.361013 0.227138 -0.396912 -0.811945 0.444392 -0.218571 -0.905531 -0.191760 0.492681 0.377604 0.189013 -0.336324 -0.167067 0.354230 -0.482260 0.085931 0.562489 -0.448431 0.631898 0.005811 0.328060 0.603929 0.001097 0.169747 0.134572 -0.160409 -0.296441 0.411001 -0.106378 -0.319563 -0.437553 -0.093762 0.060349 0.426436 -0.201404 -0.052867 -0.260478 -0.367708 0.307767 0.210482 0.325986 -0.158675 -0.356866 0.219271 -0.361129 -0.407148 0.135448 -0.476136 -0.342838 -0.204751 0.682596 0.376446 0.519176 0.159368 -0.456049 0.298267 0.017877 -0.181765 -0.436654 -0.208375 -0.051054 -0.695688 -0.437453 0.518417 -0.073082 0.019224 0.617493 -0.630935 -0.146143 -0.479528 0.442885 -0.179520 0.319519 0.731246 -0.005878 0.270489 -0.106795 0.186206 -0.056599 -0.139588 -0.103646 0.410793 0.162940 0.142077 -0.165670 -0.116347 -0.323101 -0.062792 0.525128 0.164199 0.335837 0.407071 0.166301 0.257073
58 -0.162988 0.160544 -0.392412 -0.350498 0.047649 -0.054694 0.655305 0.203687 0.103981 -0.145682 -0.180918 0.199893 0.623669 0.224722 -0.109220 -0.395499 0.026731 0.431432 -0.201106 0.076015 -0.031029 -0.607949 0.243184 -0.393186 0.128545 0.209548 -0.504862 0.372684 0.182467 -0.001078 0.489537 0.197720 0.257539 0.350930 -0.072984 0.083451 -0.449324 -0.578079 0.117227 0.450102 0.128414 -0.332231 0.013681 -0.184064 -0.382487 0.027160 0.394937 0.196967 0.251224 0.058925 0.052774 -0.875520 0.342519 -0.209312 0.298977 -0.014488 -0.059832 -0.072680 0.076064 0.368963 -0.511236 0.278994 -0.471411 -0.160868 -0.070972 0.353415 0.004437 -0.185397 -0.207928 0.219061 0.082564 -0.335711 0.745845 -0.515410 0.271616 -0.308607 -0.201850 -0.063653 0.358263 -0.565348 0.172236 0.195377 -0.124420 0.356532 0.768200 0.726405 0.612079 0.223603 0.180573 -0.043711 -0.345657 0.276118 -0.409042 0.250419 -0.842269 -0.429197 -0.105671 -0.229205 -0.040798 0.317228 0.504115 0.105609 0.190965 -0.324152 0.423339 0.403252 0.629888 0.364409 -0.211216 0.127210 -0.162377 -0.275269 0.225319 -0.161473 -0.310446 -0.028765 0.091450 0.228805 -0.363214 0.521767 0.217444 0.235779 -0.352505 0.661630 0.184312 0.021319 0.239322 0.438637
35 -0.808273 0.155330 -0.362322 -0.085360 0.164098 -0.346931 0.293405 -0.469027 -0.034259 -0.182149 0.323007 0.531934 -0.363161 -0.122348 -0.136566 -0.446296 0.297475 0.115997 0.088713 0.252101 0.012553 -0.068385 -0.733626 -0.000146 -0.037245 -0.342384 -0.064506 0.281979 0.017549 -0.524259 0.357669 0.289331 0.318644 0.307928 0.375042 0.222035 -0.357915 -0.236559 0.387427 -0.646685 -0.289047 0.464981 0.297433 -0.083366 -0.084890 -0.310191 -0.167276 0.245249 -0.371813 -0.266245 -0.052328 -0.441179 0.287219 -0.443396 0.423586 0.335760 0.506693 -0.775729 0.063682 -0.370384 -0.551974 0.128980 -0.530567 -0.599693 -0.477770 0.100402 -0.354431 0.569959 -0.211846 0.297247 0.086164 -0.293828 0.232971 0.002975 0.043193 -0.003509 -0.293669 0.040904 -0.124831 -0.179128 0.256458 -0.228357 -0.242481 -0.659068 0.740192 0.159281 0.387389 0.053228 -0.529726 -0.168119 -0.225191 -0.194663 -0.113137 -0.455210 0.019752 -0.418697 -0.608197 0.471713 -0.691056 0.165489 0.185049 -0.047800 0.110824 -0.294989 0.595257 0.501552 0.088715 0.368982 -0.091404 0.223224 0.142512 -0.268053 -0.255906 -0.247252 -0.205324 0.179171 -0.186432 -0.187052 -0.025003 0.379383 -0.273468 -0.119526 -0.187714 0.581832 0.642823 0.171355 -0.465482 0.248159
45 -0.414568 0.015133 -0.277745 0.280214 0.056156 -0.214199 0.792327 -0.288087 0.021328 -0.294805 -0.537224 0.325134 -0.333015 0.176925 -0.244207 0.062888 0.838929 0.367539 -0.081426 0.307085 -0.282562 -0.308680 -0.330046 -0.638263 -0.174898 -0.168063 -0.308016 0.050724 0.017581 -0.350245 0.698228 0.023284 0.462569 0.282195 0.116589 0.491312 -0.093879 -0.440614 0.181637 -0.339603 -0.389720 -0.078354 0.556871 0.004319 -0.033092 -0.632377 0.588700 0.326252 -0.063900 0.026018 0.482536 -0.491469 0.075899 -0.570109 0.424159 0.025401 0.566015 -0.320886 0.254178 -0.234991 -0.468162 0.401503 -0.308427 -0.131850 -0.434808 0.407856 -0.380103 0.560047 -0.442109 -0.181558 0.110027 -0.134324 -0.017659 -0.137286 0.254861 0.082495 -0.245320 0.275875 -0.466950 -0.142873 0.222304 -0.255367 -0.395761 0.058911 0.790882 0.291863 0.654387 0.554473 -0.333146 0.138728 -0.155533 -0.007487 -0.251393 -0.018170 0.143486 -0.936798 0.024476 0.175849 -0.436589 0.514873 0.663993 -0.577316 -0.027144 -0.232057 0.439719 -0.279420 0.512515 0.381408 -0.112247 0.583933 0.156185 0.175692 0.040383 0.456149 0.211252 0.480828 0.024808 0.199312 -0.092352 0.308752 -0.232002 -0.241067 0.507739 0.686631 0.555077 0.289436 0.227481 0.078379
61 -0.329668 0.037682 -0.332925 -0.344846 0.048787 -0.329736 0.083683 -0.127734 0.400516 -0.499357 -0.079164 -0.313922 0.237233 -0.061833 -0.238376 -0.187151 0.210557 0.768001 -0.007214 0.051425 0.040534 -0.027643 -0.308498 -0.149705 -0.345287 0.045125 -0.262889 0.224638 -0.033509 -0.533084 0.608727 0.146459 -0.128636 0.194050 0.171627 0.327672 -0.636761 -0.039960 0.493974 0.490277 0.247242 0.061165 -0.092751 0.121543 0.004586 0.212725 0.158288 0.579765 -0.171829 -0.389065 0.300631 -0.138284 -0.042459 -0.304044 0.044603 -0.157979 0.228863 0.144736 -0.269905 0.181667 -0.036412 0.537809 -0.666297 -0.041365 -0.202677 0.447423 0.179644 0.052619 0.192585 0.381642 0.284330 0.232079 0.539927 0.166415 -0.143026 0.096553 -0.462255 -0.258242 -0.075843 0.143246 0.945775 0.280268 -0.465041 0.094835 0.170759 -0.088096 0.164457 0.211005 0.092938 -0.171195 0.272640 0.711687 -0.206690 -0.099915 -0.352957 -0.333838 0.518207 -0.044457 -0.334912 -0.045718 0.271208 0.716438 0.472380 0.049430 0.232279 0.093219 0.485530 -0.145690 -0.293059 0.128919 -0.065091 0.086074 0.223048 -0.134378 0.326253 0.238639 -0.291392 -0.164709 -0.035663 0.046305 -0.159127 -0.128516 -0.351636 0.771210 0.006673 0.255159 -0.165592 0.251828
8 -0.200544 -0.189442 0.399257 -0.066653 -0.478320 -0.645629 0.779911 0.330773 -0.001511 -0.099474 -0.205916 0.250997 -0.022756 -0.151564 -0.195196 -0.181427 0.540501 -0.106472 0.303493 -0.010959 0.046417 -0.622203 0.077564 -0.503461 -0.191154 0.002818 -0.284628 0.117668 0.135055 -0.028504 0.832586 -0.289750 0.259648 0.328449 0.239590 0.338670 0.077433 -0.258217 0.369555 -0.143480 -0.290154 -0.297618 0.292439 0.559383 -0.025080 -0.383850 0.409376 0.539392 -0.110292 0.220058 0.091249 -0.509377 0.251078 -0.190569 0.118689 0.055379 0.180796 0.623294 0.046387 0.173470 -0.259286 0.629413 -0.057995 -0.408600 -0.485292 0.373075 -0.116428 0.113796 -0.755924 -0.311004 -0.288793 -0.473792 0.323615 0.057641 0.189833 0.524581 -0.262524 -0.397015 -0.217772 -0.657943 0.327215 -0.104746 -0.196131 0.562192 0.161576 0.116037 0.392351 0.005984 0.541749 -0.285555 0.007127 0.315534 -0.201103 -0.013868 -0.266438 -0.365591 0.158941 -0.143957 -0.110399 0.445000 0.733417 -0.490683 0.305434 -0.207584 0.222620 -0.017574 0.688024 0.269734 -0.037813 0.412643 -0.237076 0.770571 0.870387 0.348495 -0.078393 0.258330 -0.031471 0.539181 -0.361658 -0.198456 -0.424377 0.186325 0.656579 -0.103128 -0.344425 0.113387 0.577708 0.354374
95 -0.772406 0.258678 0.324939 0.044106 -0.109935 -0.572056 0.713305 0.278946 0.086525 -0.627917 0.237868 -0.363081 0.197579 -0.212702 -0.501892 -0.380979 0.647663 0.402275 -0.003427 -0.352844 -0.222636 -0.241579 -0.277133 -0.410948 -0.411222 -0.214057 -0.277615 -0.071858 0.264401 -0.508019 0.663560 0.098910 0.326984 0.229966 0.671852 0.359915 -0.516843 0.035238 0.079441 -0.160287 -0.220544 0.133562 0.203243 0.124233 -0.050104 0.128906 0.703111 0.138387 0.212263 -0.350827 0.100300 -0.195165 0.013463 -0.295585 0.177551 0.146909 0.236810 -0.002006 -0.087299 -0.006664 0.092426 0.966612 -0.483428 -0.427054 0.088001 0.384643 0.338498 0.146495 -0.405651 0.103031 0.345416 0.127033 0.239394 0.588129 0.229833 0.436090 -0.354633 -0.158962 -0.264185 0.139156 1.010349 0.267461 -0.274569 0.186144 0.205314 -0.311835 0.097298 0.077376 -0.157521 -0.223801 0.283025 0.613432 0.217661 -0.168375 -0.316944 -0.548213 0.172903 -0.402271 -0.045249 0.237013 0.281470 0.048705 0.465191 0.203223 -0.116983 0.090877 0.115977 -0.211666 0.346119 0.230496 -0.152682 0.768663 0.901834 0.296851 0.189576 0.283827 -0.250883 0.161169 0.226510 -0.287461 -0.490860 -0.011251 0.260939 -0.056226 -0.350642 0.282152 0.274582 0.307661
43 -0.525520 -0.012415 -0.293826 0.429338 0.283231 -0.376242 0.659960 0.230623 0.136218 -0.636040 0.152049 0.465968 -0.137065 -0.099613 -0.102941 -0.430318 -0.317014 0.150564 -0.321451 0.259009 -0.256226 -0.446983 0.374505 -0.813370 -0.157418 0.802629 -0.500533 0.013206 0.757585 -0.310341 -0.021135 0.213291 0.265411 1.192035 0.515224 0.075607 -0.245200 -0.133271 0.227323 0.376309 -0.237190 0.185589 -0.034946 0.037217 -0.796226 -0.290743 0.049082 0.256050 0.032990 -0.360804 -0.357464 -0.349250 0.721364 -0.012733 -0.248470 -0.095692 0.444904 -0.409884 -0.154682 -0.445580 -0.007420 0.617813 -0.305524 -0.202560 -0.779301 -0.009002 0.023227 0.000207 -0.178118 0.439970 -0.297092 -0.018258 0.286988 -0.655233 -0.188107 0.444101 -0.286334 -0.342096 0.040914 -0.393164 -0.044835 0.220739 -0.101700 0.117488 0.196309 -0.117617 0.222336 0.567013 -0.279485 0.305556 0.011793 0.478373 -0.162966 -0.269943 -0.050617 -0.273268 0.313122 0.022114 -0.076109 0.475555 0.339831 -0.014558 -0.087953 0.117320 0.608355 0.240224 1.061564 0.150007 -0.363332 -0.330780 0.250615 0.045789 0.097723 0.770691 -0.207801 -0.068526 -0.239579 0.302108 -0.114845 0.315825 0.308075 -0.159301 -0.271504 0.333492 0.572858 -0.589141 0.249201 -0.052882
80 -0.466152 -0.197330 -0.152173 -0.553762 -0.133320 -0.079806 0.214943 -0.269191 -0.102534 -0.536205 -0.550085 -0.092294 0.094591 -0.119954 0.035960 -0.192455 0.515141 0.765211 0.104309 0.147314 -0.207042 -0.292683 -0.436511 -0.355891 -0.086286 0.120460 0.032090 0.255245 -0.285862 -0.683484 0.577056 -0.236436 -0.161506 -0.046232 0.208819 0.244505 -0.238197 -0.074174 0.190928 0.259074 0.050557 -0.185040 -0.024802 0.170544 0.198537 -0.521005 0.244580 0.146542 0.038724 -0.035728 0.072931 -0.189834 0.042659 -0.466543 0.468918 -0.086557 0.597693 0.103420 -0.221452 0.397498 -0.388407 0.143867 -0.446596 -0.356850 -0.333938 0.041987 0.029980 0.002957 -0.571045 0.336890 0.189706 -0.121978 0.639438 -0.181201 -0.092300 -0.352879 -0.218914 -0.179591 -0.083049 0.055703 0.311072 -0.231112 -0.460774 0.239392 0.174326 -0.481855 0.697593 0.476229 0.462554 0.232082 -0.030184 0.438383 -0.322062 -0.363368 -0.429781 -0.439200 0.433327 -0.162730 0.041484 0.615869 0.273101 0.246567 0.226101 0.204375 0.466851 0.165233 -0.049380 0.102938 0.036433 -0.036559 0.251813 -0.203631 0.237540 0.075197 0.374820 0.445492 -0.539473 0.183827 0.077652 0.158849 -0.389330 -0.042560 0.088427 0.815534 -0.228035 0.245827 0.345371 0.033243
87 -0.627173 -0.072539 -0.121498 0.290998 0.106416 -0.337849 0.547697 -0.074882 0.433523 -0.477565 -0.097585 -0.017224 0.090585 -0.230275 -0.015708 -0.127971 0.009558 0.246735 0.218756 -0.015568 -0.152249 -0.430776 -0.288509 -0.243406 0.148986 0.262766 0.017565 -0.027731 0.573993 -0.384839 0.797599 -0.095007 -0.068743 -0.144408 0.411573 0.192081 0.227198 -0.084465 -0.228058 -0.148401 -0.446990 -0.026195 0.026761 0.066665 -0.092413 0.133617 -0.077612 -0.281776 0.128649 -0.126309 -0.338140 -0.583445 -0.099033 -0.521218 0.106322 -0.415479 0.219923 -0.004380 -0.204210 0.370332 -0.107284 0.204694 -0.068439 0.001504 -0.086402 0.066014 -0.407583 0.173826 -0.028992 0.248014 0.417504 0.017110 0.396128 0.601829 0.201226 -0.264184 0.439606 -0.017812 0.279532 0.235330 -0.201057 0.143217 -0.385923 0.048737 0.456771 0.283135 0.346284 -0.015506 0.106983 0.168220 -0.006703 0.217291 -0.472866 -0.210855 -0.430505 -0.545172 0.381790 0.299269 -0.057074 0.504194 0.530185 0.154885 -0.081511 -0.201958 0.681928 0.320604 0.385591 0.418697 0.578012 0.254087 0.115494 0.037412 -0.185266 -0.008577 -0.360092 0.463507 -0.195883 -0.025369 -0.037304 0.397744 -0.277275 0.149215 -0.223868 0.326499 -0.263141 0.250795 0.501260 0.002090
11 -0.115282 -0.084586 0.088178 -0.435653 -0.161834 -0.594118 0.237465 0.210271 -0.256108 -0.057367 -0.352795 0.324252 -0.243245 -0.494747 0.081164 -0.418251 0.476010 -0.293784 0.031693 0.429044 0.180743 -0.288175 -0.294341 -0.516877 -0.357154 0.008735 -0.085205 0.753302 0.080862 -0.160160 0.164289 -0.014383 0.317079 0.645186 0.328748 0.335540 -0.434913 0.014433 0.899234 0.088786 -0.145533 -0.181848 0.002568 0.218676 -0.182481 -0.103759 0.387706 0.483817 -0.695122 0.492737 0.247684 -0.116155 0.179750 -0.054863 -0.016697 0.233788 0.124003 0.580519 0.207863 -0.153402 -0.272381 0.237710 -0.739591 -0.049576 -0.775770 -0.279845 0.147713 -0.155752 -0.684888 -0.006455 -0.087820 0.038489 0.431330 -0.273248 0.509889 0.106522 -0.421726 -0.099104 -0.095878 -0.774195 0.418596 -0.372962 -0.082781 -0.165693 0.431589 0.246014 0.642517 -0.145685 -0.133445 -0.246456 -0.210272 0.473990 0.281615 0.090409 -0.341319 0.390882 -0.436034 0.218877 -0.257110 -0.257908 0.100262 -0.227981 -0.367543 -0.174647 0.371929 0.186463 0.842450 0.500771 -0.292825 -0.001254 0.198768 0.364963 0.450386 0.506607 0.151146 0.427387 -0.184822 0.426867 -0.383886 -0.133156 -0.606046 -0.574152 0.061431 -0.354459 0.435026 -0.053857 -0.333225 0.021324
57 -0.063904 0.239087 -0.036361 -0.175158 0.156730 -0.397729 -0.237848 -0.486152 0.694817 0.243754 -0.171971 0.538327 0.287392 -0.134640 0.084190 -0.381362 0.248758 0.545872 0.207617 0.657484 0.207934 0.170127 -0.375223 -0.388049 -0.127784 0.374381 -0.227701 0.212600 -0.185484 -0.417943 0.296271 0.202697 0.231610 0.018424 0.237529 0.658011 -0.797434 -0.900604 0.255278 0.390466 0.302871 0.481149 0.309091 -0.201531 0.369846 -0.028848 -0.212319 0.008903 -0.111661 -0.049139 0.274813 0.165219 0.447336 -0.017990 0.043709 0.151778 0.805773 0.285793 -0.014502 -0.200662 -0.523300 0.469011 -0.502327 -0.380589 -0.195756 0.399694 0.174890 -0.082623 0.123825 0.463091 0.790192 0.274015 0.579819 -0.374223 0.461940 -0.318749 -0.215475 0.378447 0.053272 0.347565 0.449155 0.158262 -0.312516 -0.037728 0.333817 -0.135385 0.019186 -0.172677 -0.016550 0.812053 0.267297 0.139788 -0.710994 -0.209531 -0.112684 -0.319685 -0.240120 0.432893 0.236143 0.115702 0.181144 0.152667 -0.166731 -0.426775 0.396963 -0.469243 -0.063588 0.805833 -0.108438 0.142618 0.245418 -0.020127 0.051342 -0.177043 -0.080726 0.303879 -0.305082 0.068621 0.079378 0.304218 0.047206 -0.054164 0.010204 0.465296 0.326954 0.203284 0.373019 0.210794
40 -0.172987 0.356721 -0.261396 0.012426 0.213175 -0.602885 0.043219 -0.175695 0.013104 -0.768071 -0.208114 0.324517 -0.112706 -0.598784 -0.367320 0.394124 0.269477 0.016863 -0.045443 0.305692 0.159352 -0.228447 -0.305383 -0.437487 -0.657207 0.373803 -0.113708 0.302342 0.149609 -0.321544 0.595926 -0.112077 0.287948 0.022985 0.099004 0.060164 -0.257903 -0.016571 0.556971 -0.178185 -0.053193 0.146316 -0.262332 -0.051418 -0.062021 -0.441641 -0.019694 0.530629 -0.708004 0.189762 0.134205 -0.178483 -0.337097 -0.547532 0.293190 -0.191401 0.676605 0.089887 0.871662 -0.459205 -0.383654 0.207200 -0.499931 -0.475703 -0.552714 0.558199 -0.031168 0.310598 -0.250287 0.494078 -0.072821 -0.089840 -0.286341 -0.054002 0.278895 0.434012 -0.348804 -0.062594 -0.027769 -0.105248 0.433968 0.194516 -0.136430 -0.018405 0.604211 0.220398 0.591922 -0.074370 -0.223185 -0.122938 -0.663620 0.113207 -0.272791 -0.073228 0.136537 0.031868 0.365305 0.207274 -0.287883 0.197065 0.588285 0.037578 0.460968 0.006930 0.396466 -0.266122 0.868024 0.102147 -0.594697 0.416917 0.446115 -0.189472 -0.070459 0.602754 0.317516 0.439851 -0.415960 -0.105142 0.053329 -0.091274 0.101983 -0.163437 -0.259152 0.033907 0.593934 0.358750 -0.059590 -0.488157
81 -0.195699 0.215772 -0.202749 -0.206290 0.286758 0.130914 0.412193 -0.028975 0.053050 -0.269103 -0.199484 -0.140667 0.169811 0.041307 0.113496 -0.175553 0.027195 0.388706 -0.289755 -0.038928 0.179891 -0.211029 -0.075346 0.000043 -0.232754 0.341107 -0.358574 0.410729 0.144869 -0.296692 0.397974 0.368152 0.047553 0.233084 0.121333 0.151751 -0.202014 -0.533434 0.446732 0.464286 0.287187 -0.186406 -0.141894 0.018994 -0.018876 0.132793 -0.060912 0.296103 -0.216988 0.123677 0.362861 -0.434911 -0.020002 -0.148368 0.419478 -0.193794 -0.138968 0.134556 -0.079108 0.468484 -0.520549 0.399824 -0.520747 0.230463 -0.241570 0.273798 -0.304662 0.016453 0.059539 0.025096 0.376324 0.150546 0.729282 0.013650 0.486853 -0.433027 -0.262464 0.141246 0.344896 -0.293171 0.255289 0.374380 -0.127990 0.109694 0.762044 0.722626 0.025856 0.238429 0.171750 0.007524 -0.016084 0.664995 -0.469319 0.119235 -0.576833 -0.457191 0.274479 0.217013 -0.373155 0.197859 0.529399 0.285430 0.136588 -0.456214 0.666548 0.625738 1.106780 0.526552 -0.217309 0.190651 0.046206 -0.345609 -0.103815 -0.224034 -0.133566 0.258549 0.020961 -0.062536 -0.413706 0.380415 -0.080547 -0.009386 -0.592769 0.824984 0.294520 0.037693 0.171727 0.538818
16 -0.603014 0.318074 0.247216 0.252493 -0.217780 -0.784528 0.272292 -0.053320 0.153458 -0.361077 0.248920 0.532632 -0.503431 -0.321614 0.313314 -0.233152 0.308884 -0.393628 0.230707 0.261371 -0.129261 -0.382041 -0.796580 -0.551164 0.018161 0.191605 -0.255054 -0.136695 0.224005 -0.436748 0.520481 0.085274 0.387159 0.378964 0.432420 0.060729 -0.012870 -0.229376 0.625281 0.033659 -0.475384 -0.781423 -0.263735 0.683032 0.254021 -0.318519 -0.051159 0.316699 -1.100393 0.157351 0.410811 -0.561995 -0.295159 -0.498943 0.574055 -0.035785 -0.243986 0.834494 0.136707 -0.526373 0.445109 0.464687 -0.254186 -0.267209 -0.572606 0.138124 0.038474 0.089803 0.112903 0.168444 0.101193 -0.136774 0.040031 0.391362 0.478592 0.595086 -0.358520 -0.213620 -0.273933 -0.762435 0.679403 -0.138033 -0.113987 0.358470 0.303119 0.145663 0.505982 0.301616 0.372979 0.264365 -0.168061 0.726130 -0.575203 0.114340 0.085661 -0.172549 0.337759 0.502917 0.236556 -0.177067 0.860094 0.144716 0.002342 0.175403 0.099712 0.106387 0.431345 0.327799 0.287871 0.320483 -0.248891 0.244189 0.227531 0.184580 0.300977 0.622671 -0.261835 0.228439 0.023258 -0.146411 -0.193741 -0.062538 -0.134125 0.563835 -0.223641 0.196895 0.470140 0.393480
78 0.081506 -0.051145 -0.113850 0.130375 0.239721 0.050767 0.681057 0.431454 -0.019918 0.185143 0.130716 0.291421 0.178862 0.002587 -0.120360 -0.139477 -0.076147 0.060328 -0.328465 -0.424204 -0.193812 -0.075337 -0.053325 0.152562 -0.197130 -0.083065 -0.257661 0.037233 0.550778 -0.244134 0.454514 0.095933 -0.212450 0.064372 -0.046549 0.146781 0.057618 -0.429578 0.391397 -0.146584 0.443123 -0.070552 0.196891 -0.071835 -0.188018 -0.168779 0.129172 -0.019737 0.114656 0.053305 0.106769 -0.599285 -0.182858 -0.270006 0.308320 -0.467461 0.100218 0.258456 -0.037187 0.297438 -0.382193 0.381089 -0.368640 -0.226939 -0.239875 0.764715 -0.492263 0.374097 -0.028546 -0.016250 0.230541 0.360755 0.632923 0.001123 0.329675 0.188635 -0.016659 -0.149160 0.141221 -0.166977 0.397650 0.160598 -0.057278 0.011925 0.480097 0.585961 0.277536 0.140163 0.266369 -0.153607 0.091825 0.332141 -0.509291 0.144205 -0.564706 -0.358932 0.388823 -0.244611 -0.255947 0.514568 0.308817 -0.031270 0.314255 -0.334255 0.507903 0.325369 0.860394 0.304362 0.001381 0.640049 0.041911 0.256537 0.050114 -0.400602 -0.145132 0.016390 0.085338 0.126163 -0.299993 -0.051184 -0.066482 0.161289 -0.135050 0.504848 -0.043055 0.062710 0.361784 0.695389
97 -0.782453 0.287695 -0.029136 0.234553 0.228949 -0.225530 0.653694 -0.049530 0.133846 -0.358859 0.056422 -0.348590 0.131790 -0.291051 0.104524 -0.239850 0.386218 0.362913 -0.255184 -0.473327 -0.106131 -0.258472 -0.655305 -0.436659 -0.335012 -0.061341 -0.092012 0.183393 0.208835 -0.314909 0.451340 0.180854 0.268290 0.247444 0.725052 0.604946 -0.274211 -0.259887 -0.125959 -0.375519 0.042984 0.303168 -0.161890 -0.330700 -0.033097 0.261701 0.233315 -0.206785 0.289287 -0.153802 -0.111445 -0.132276 -0.026679 -0.144475 0.056619 0.065052 0.220463 -0.108008 0.137816 0.155808 -0.086057 0.563647 -0.744542 0.053811 0.054780 -0.014824 -0.220971 0.122968 -0.341422 0.091498 0.617570 0.386877 0.366801 0.818058 0.938839 -0.207002 -0.255312 0.288632 0.212135 0.181150 0.369196 0.468608 -0.183163 -0.330144 0.953923 0.303590 -0.118353 -0.054675 -0.455072 -0.158335 0.148756 0.558627 0.046817 -0.182187 -0.343570 -0.322435 0.036314 0.006688 -0.433363 0.132004 0.177119 -0.182404 -0.087217 -0.146333 0.622966 0.675766 0.602631 0.532867 0.463152 0.166159 0.188576 0.199772 0.034741 0.244249 -0.213746 0.438302 -0.048639 -0.207550 0.185832 -0.036331 -0.352242 -0.030668 -0.341438 -0.111442 0.178150 0.467980 0.020426 0.158327
69 -0.078303 0.422517 -0.198841 0.013885 0.286887 0.004112 0.229587 0.187514 0.232797 -0.656483 -0.093813 0.315948 0.139096 -0.071622 0.364705 -0.557588 -0.152909 0.113583 -0.099831 0.145079 -0.050258 0.062623 -0.138417 -0.663938 -0.418909 0.331271 -0.269369 -0.154136 0.541908 -0.386945 -0.015166 0.109491 0.185172 0.530054 0.209319 0.009271 -0.194715 -0.437313 0.066140 0.422269 0.199157 0.210007 -0.370108 -0.438721 0.042801 0.359713 -0.169608 -0.531385 0.032895 -0.020474 -0.255011 -0.595145 0.219779 0.192071 0.467822 -0.012995 0.322998 -0.143722 0.123249 0.295813 -0.358729 0.822354 -0.451116 -0.541751 0.016189 0.367431 -0.426370 -0.065648 -0.095680 0.535684 0.584026 0.076358 0.705459 -0.293313 0.601258 -0.038116 -0.082954 0.138702 0.329011 0.001979 -0.068101 0.191812 -0.105768 -0.016937 0.241942 0.121039 0.428858 0.399644 -0.283177 0.363421 -0.069362 0.068466 -0.569368 0.033938 -0.499301 -0.298268 0.274313 0.083705 0.154943 0.225470 0.257673 0.440466 -0.217856 -0.100389 0.639579 0.535219 0.680579 0.281906 -0.010341 -0.273650 0.385465 0.014898 -0.462037 0.072480 0.242642 0.173073 -0.307079 -0.220649 -0.024823 0.042049 0.006687 0.093007 -0.400735 0.513231 0.468772 -0.312187 1.067153 -0.225996
9 -0.450473 -0.021933 0.059339 -0.325940 -0.067676 -0.190463 0.148190 0.221265 -0.002719 -0.416806 0.009679 0.260924 0.209282 0.035622 -0.204274 -0.697826 0.666941 0.381976 -0.096388 0.398739 -0.781955 -0.104155 -0.006779 -0.667362 -0.241048 0.080680 -0.634537 0.592043 0.490032 -0.091026 0.156143 0.327380 0.250832 0.939179 0.161310 -0.205669 -0.491484 -0.392910 0.336094 0.548373 -0.118074 -0.196305 0.164076 0.122259 -0.586873 0.076518 0.281766 -0.216293 -0.120030 -0.116393 0.150252 -0.499617 0.396590 0.243668 -0.362150 0.401421 -0.100246 0.309706 -0.005465 -0.017009 -0.742079 0.361198 -0.818968 -0.029378 0.209478 0.077671 0.666419 -0.044793 -0.508523 0.051283 -0.276055 0.102896 0.494010 -0.342358 0.367184 0.055139 -0.171454 -0.014936 0.074562 -0.296247 0.413000 0.058157 -0.382680 0.179638 0.069743 0.311396 0.695520 0.204129 -0.485179 -0.296788 -0.235570 0.345674 0.018787 -0.142471 -0.783236 -0.680713 -0.614094 -0.354332 0.195403 0.043429 -0.194829 -0.406287 0.090589 -0.434163 0.042528 0.123588 0.537831 0.298269 -0.501728 -0.224799 -0.007100 0.315337 0.449633 0.260919 -0.093379 0.085978 -0.297922 0.368219 -0.440070 -0.104038 -0.580530 -0.464701 -0.072382 -0.044955 0.066870 -0.107000 0.049753 0.159322
5 -0.826527 -0.071691 -0.239659 -0.457924 -0.134780 -0.204070 0.394353 0.127686 -0.178971 -0.151552 -0.200944 0.188233 0.032566 -0.348001 0.268427 -0.973504 0.487035 0.328989 -0.144391 -0.058483 -0.037816 -0.580702 0.157060 -0.236786 0.105398 0.061043 -0.022422 0.111404 0.096999 -0.140562 0.426302 0.277935 0.099609 0.603043 0.833001 -0.169164 -0.072420 -0.111692 0.516224 0.109430 -0.454589 -0.527948 -0.085344 0.468872 -0.258638 -0.252616 0.296168 0.286465 -0.111304 -0.119906 0.350334 -0.805693 0.156324 0.060093 0.109888 0.291289 0.067663 -0.202112 -0.372876 0.373231 -0.319975 0.071695 -0.295540 0.161709 -0.102460 -0.148541 0.232354 -0.147983 -0.361741 0.199368 -0.050128 -0.199175 0.753888 -0.200993 0.451078 -0.209201 -0.094808 -0.018585 0.062145 -0.675540 -0.222178 0.083429 0.027095 -0.211253 0.191615 0.054950 0.656144 0.221133 -0.051697 0.355870 -0.119792 0.233715 0.190285 -0.406211 -0.703291 -0.222344 -0.568774 0.305191 0.441171 0.228514 0.156265 -0.239593 0.274492 0.124641 0.567804 0.540925 0.067844 0.416629 0.094631 -0.460841 0.108908 -0.188866 0.193239 -0.106070 -0.436527 -0.001549 -0.288002 0.230358 -0.185265 0.506234 -0.595464 -0.331788 0.037258 0.362608 -0.002756 -0.080123 0.208228 0.658776
55 -0.143104 0.109134 0.297831 -0.108521 0.270091 -0.149977 0.452540 -0.225113 0.078755 -0.269634 0.139326 0.129710 -0.230955 -0.186714 -0.091757 -0.364158 -0.067587 0.210768 -0.101015 0.174893 0.261545 0.124759 -0.465652 -0.458595 -0.409945 0.279874 -0.184784 0.055319 0.135082 -0.621706 0.141491 -0.086722 0.186811 0.044663 0.480966 0.403072 -0.511802 -0.012879 0.337233 0.147054 0.561708 0.655591 -0.016134 -0.350808 0.396570 0.258676 -0.052075 -0.424246 -0.352737 0.006183 -0.311293 -0.237217 0.157766 -0.314146 0.380762 0.179491 0.535937 0.166351 0.126654 -0.161510 -0.397511 0.506611 -0.312066 -0.645792 -0.059542 0.081719 -0.141063 -0.173605 -0.077198 0.144146 0.639047 0.221674 0.592002 -0.144966 0.337726 -0.042853 -0.203337 0.031704 0.074556 0.430492 0.466556 0.091277 -0.096351 -0.082734 -0.100224 -0.156252 0.361784 -0.043592 -0.269158 0.172374 0.009279 0.237721 -0.112957 -0.157126 -0.383301 -0.134927 0.061641 0.185501 -0.307234 0.206061 0.341389 0.931738 -0.066351 -0.183483 0.445379 0.416251 0.570973 0.036511 0.248072 -0.030749 0.423349 0.212070 0.183514 0.043344 0.313199 0.313343 -0.480900 -0.234207 0.414763 -0.047564 -0.111597 -0.042255 -0.562168 0.301401 0.229800 -0.346085 0.402444 -0.056673
84 -0.890493 0.281922 0.354108 0.139137 0.322693 -0.213032 0.963966 -0.164971 -0.136358 -0.692931 -0.009704 0.207256 0.165680 -0.245489 -0.454136 -0.171584 0.845767 0.352381 0.060171 -0.003637 -0.278526 -0.466619 -0.268098 -0.483963 -0.610409 -0.133527 -0.630756 0.153346 -0.062906 -0.735589 0.847503 0.379440 0.067355 -0.078282 0.187346 0.276047 -0.368149 -0.052310 0.267890 -0.192285 0.283250 -0.260235 0.121051 0.180108 0.208060 -0.313257 1.020784 -0.123319 -0.064799 0.034546 0.345862 -0.496219 -0.502612 -0.656219 0.370748 -0.215523 0.475168 0.145882 0.082181 -0.115073 -0.504704 0.568643 -0.437214 -0.214376 0.084626 0.731071 0.001020 0.036315 -0.473436 -0.291806 0.532111 -0.003405 -0.017823 0.075362 0.130160 0.135845 -0.325433 -0.101145 -0.342454 -0.353778 0.790802 0.223967 -0.306535 0.509801 0.329780 -0.040508 0.457130 0.363198 0.256667 -0.168142 -0.489690 0.609998 0.038762 -0.015538 -0.267417 -0.640529 -0.046968 -0.573368 0.023035 0.510726 0.525279 -0.067173 0.558767 -0.058616 0.037018 -0.181009 0.282863 -0.281892 0.040943 0.314280 -0.173307 0.249330 0.858638 0.368162 0.216850 0.417801 -0.260972 0.450028 0.032913 0.231018 -0.444187 -0.069492 0.055432 0.475069 -0.227525 0.152579 0.513474 0.276756
18 -0.451180 -0.169405 -0.334644 -0.242982 -0.486805 -0.997816 0.255866 0.172442 0.507908 -0.159519 -0.227534 0.131886 0.019547 -0.364164 0.233814 -0.598807 0.073270 0.144753 0.491573 0.350208 0.293907 -0.726591 -0.222585 -0.511159 0.470356 0.223294 0.170580 0.118492 0.309626 -0.116460 0.715845 -0.229820 0.302230 0.552752 0.803636 0.483177 -0.284785 -0.050614 0.286918 0.152007 -0.942650 -0.150311 -0.027253 0.385138 -0.243266 0.036295 -0.140154 0.597086 -0.136353 -0.133254 -0.191288 -0.557771 0.692810 -0.151002 0.083129 0.257900 0.152167 0.065671 -0.271380 0.287132 0.340061 0.293272 -0.184583 -0.253629 -0.662486 -0.476183 0.014539 -0.093525 -0.228429 0.533748 -0.045133 -0.523526 0.698474 0.161253 0.042791 -0.051121 0.032034 -0.212458 0.073161 -0.454107 -0.166659 -0.210346 -0.361622 -0.083526 0.455642 0.009143 0.547375 -0.064795 0.073816 0.211211 0.248285 0.116796 -0.275522 -0.197343 -0.443923 0.041907 -0.094606 0.643222 0.038434 -0.007471 0.565492 0.211641 -0.253390 0.086095 0.619355 0.411241 0.187062 0.591577 0.408260 -0.078708 -0.026049 0.195735 0.122001 0.019441 -0.216834 0.331234 -0.174666 0.088177 -0.214283 0.415861 -0.331764 0.054271 0.135062 0.032582 -0.077448 0.149089 0.202501 0.057714
64 -0.280954 0.258276 0.116817 0.180926 0.520208 0.162964 0.774164 -0.061901 -0.140479 -0.465339 0.195231 0.437936 0.030416 -0.097193 0.026746 -0.634166 -0.006543 -0.008666 0.011744 0.210071 -0.138670 -0.090205 -0.155973 -0.458787 -0.294294 0.248834 -0.412479 -0.069017 0.208463 -0.517682 -0.087009 0.336925 0.026730 0.151635 0.099681 0.145608 -0.215043 -0.353289 0.146222 0.009254 0.634016 0.161994 -0.037431 -0.344508 0.229532 0.053970 0.358091 -0.789143 0.006470 0.243751 -0.210320 -0.533871 -0.090914 -0.436675 0.741071 -0.082495 0.350415 -0.258045 0.014654 -0.214341 -0.676510 0.580278 -0.275795 -0.320764 0.005783 0.265462 -0.459897 -0.120423 -0.332716 0.042609 0.870446 0.173456 0.354210 -0.562162 0.254723 -0.241512 -0.125011 0.182493 0.153344 -0.128642 0.030715 0.170138 -0.005556 0.088257 0.314263 0.055447 0.447457 0.429879 -0.154419 0.246308 -0.285558 0.176222 -0.131593 0.123120 -0.362835 -0.412611 -0.213837 -0.185673 0.009664 0.393646 0.145128 0.459048 -0.069566 -0.195565 0.333485 0.555563 0.542994 0.220747 0.129247 -0.044568 0.238031 -0.043752 -0.033089 0.143422 -0.053588 0.230833 -0.230098 0.007106 0.094345 0.435675 -0.067760 -0.091083 -0.517546 0.614532 0.257272 -0.497411 0.765380 0.036338
76 -0.529271 0.299683 0.001801 0.003998 -0.101381 -0.263828 0.108043 0.072209 0.175231 -0.789215 0.017767 -0.508973 0.394782 -0.209130 -0.146646 0.010866 0.400004 0.773139 -0.300953 -0.423954 -0.341966 -0.191075 -0.396493 -0.418096 -0.354479 0.306486 -0.119801 0.143087 0.270961 -0.309960 0.417710 0.044884 0.439976 0.255173 0.540887 0.049588 -0.453385 -0.261373 -0.007786 0.176491 -0.178003 0.159417 -0.256169 -0.145684 -0.199956 0.115973 -0.005418 0.199658 0.279244 -0.427905 0.043755 -0.099708 0.086272 -0.065554 0.072815 0.200705 0.153390 -0.199318 0.351590 0.133536 -0.011735 0.521726 -0.629356 -0.332288 0.247908 0.317693 0.621517 0.223414 -0.357426 0.549787 0.138547 0.174105 0.177282 0.612405 0.521835 0.185440 -0.421581 -0.057421 0.053750 0.362737 0.863591 0.495208 -0.303371 0.031599 0.540223 -0.019485 0.043851 0.088089 -0.256681 -0.150094 0.190790 0.545938 -0.070459 -0.395973 -0.430783 -0.434603 0.480945 -0.269374 -0.082137 0.173201 0.278581 -0.071800 0.446867 0.224844 0.161446 0.127710 0.148102 0.102577 0.010724 0.012024 0.159700 0.113573 0.255411 0.086370 0.158750 0.335817 -0.323924 -0.147305 0.149223 -0.279417 -0.123039 0.058183 -0.086285 0.037529 -0.004987 0.599612 0.071112 0.055403
12 -0.595571 -0.022807 -0.130531 -0.541345 -0.156710 -0.313274 0.432306 0.350200 -0.192898 -0.116751 -0.446365 0.164364 0.265602 -0.319017 0.230941 -0.920242 0.448009 0.242795 -0.136573 0.118419 0.212995 -0.735135 0.289561 -0.663053 -0.112488 0.041919 -0.257248 0.395916 0.034686 0.031621 0.390833 0.379774 0.344676 0.715940 0.724840 0.125454 -0.180358 -0.096737 0.456191 0.339481 -0.402636 -0.511243 -0.163153 0.307025 -0.357811 0.106056 0.595288 0.466567 -0.050099 0.075201 0.349423 -0.625987 0.440608 0.298139 -0.000964 0.442496 -0.088651 -0.089291 -0.177331 0.343456 -0.323267 0.276165 -0.508516 0.325276 -0.089306 -0.169463 0.274765 -0.380445 -0.675382 -0.009366 0.052783 -0.107766 0.819585 -0.207778 0.788550 -0.201602 -0.406029 0.081767 -0.003258 -0.820759 -0.030194 0.092030 0.030527 -0.296842 0.409316 0.214473 0.612212 0.045767 -0.120919 -0.093411 -0.098535 0.440165 0.554236 -0.088270 -0.775760 -0.066580 -0.673801 0.082043 0.140877 0.019128 0.043214 -0.508856 -0.112424 0.061453 0.491708 0.608296 0.259774 0.490554 -0.187807 -0.634328 0.056764 0.134360 0.541999 0.209159 -0.232626 0.120301 -0.120436 0.381914 -0.466593 0.226551 -0.702737 -0.494852 0.097775 -0.145346 0.191251 -0.105636 -0.026205 0.403924
51 -0.112791 0.399191 -0.126412 -0.093411 0.105001 -0.433972 0.334464 -0.222324 0.045844 0.270596 -0.196228 0.220018 -0.270433 0.114254 0.098670 -0.383041 0.574997 0.538490 -0.315772 0.423567 0.269654 0.259992 -0.237454 -0.328443 -0.070939 0.245741 -0.159889 0.012023 -0.041841 -0.297269 0.384977 0.068997 0.699022 0.469261 0.767958 0.630964 -0.736303 -1.023065 0.285172 -0.027910 -0.191409 0.431765 0.706943 -0.174419 0.323665 -0.356075 -0.042024 0.112265 -0.286794 -0.055640 0.511752 -0.075443 0.596112 -0.162195 0.580509 0.568498 0.595980 -0.064215 0.338086 -0.295589 -0.530516 0.519542 -0.181498 -0.467400 -0.290084 0.087441 -0.082334 0.140778 0.271753 0.220960 0.517754 0.025174 0.455859 -0.445494 0.710864 -0.378239 -0.179887 0.674414 0.052777 0.180544 0.093385 0.123723 -0.021096 -0.283696 0.749804 0.183086 0.188290 -0.037811 -0.633539 1.167740 0.224875 -0.321043 -0.414445 -0.043312 -0.108781 -0.590948 -0.439847 0.851022 0.055774 0.318195 0.526954 -0.063677 -0.034109 -0.506183 0.462318 -0.241757 0.287686 0.962382 0.183710 0.391850 0.407019 -0.014321 -0.070102 0.056392 -0.184739 0.232020 -0.195959 -0.036400 0.354943 0.338051 0.120037 -0.094794 0.255588 0.501094 0.809324 0.020155 0.432856 0.383512
33 -0.534464 0.214906 0.132439 0.059116 0.010711 -0.687691 0.542094 0.010515 0.081887 0.202924 0.491776 0.624058 0.069384 -0.364967 -0.351052 -0.276844 0.313992 0.159131 -0.393437 0.047557 0.421897 -0.234837 0.056373 -0.296902 -0.296775 0.210507 -0.479020 -0.028321 0.281231 0.000970 0.622190 0.204636 0.517809 0.243574 0.727188 0.159404 -0.230944 -0.165745 0.380409 -0.308150 -0.032535 0.637387 0.087712 0.040748 -0.111881 -0.213574 -0.172335 0.438826 -0.178108 -0.400901 0.021169 -0.450704 0.409044 -0.121680 0.101012 0.732967 0.697042 -0.258086 0.501265 -0.441369 -0.483148 0.273271 -0.219839 -0.840999 0.061467 0.566913 0.071766 0.039972 -0.131532 0.379543 0.084072 -0.161421 0.234666 -0.249013 0.707973 0.641432 -0.449036 -0.047249 0.021970 -0.189501 0.303165 0.499807 0.099908 -0.218590 0.203544 0.041638 0.106299 -0.534122 -0.221166 -0.083225 -0.235804 -0.063344 0.399266 -0.512078 -0.275696 -0.096433 -0.545014 0.559558 -0.260196 0.251255 0.355204 -0.152597 0.603693 0.079984 0.328821 0.033912 0.179567 0.128860 -0.140848 0.269591 0.133394 0.152680 0.532733 0.125868 -0.455619 0.047914 -0.411526 0.052523 0.255596 -0.069259 -0.097162 -0.083764 0.188041 -0.068706 0.360351 0.006989 0.002292 0.508385
28 -0.584734 0.099223 -0.108527 0.088253 0.118161 -0.651355 0.105062 -0.365805 0.099969 -0.567848 0.053666 0.711692 -0.277775 -0.397640 -0.013960 -0.517846 -0.064770 -0.017695 0.430539 0.776827 0.030812 -0.548296 -0.294712 -0.830473 -0.084982 0.443711 -0.384184 0.279975 0.291009 -0.407652 0.407860 0.169244 0.325275 0.671339 0.552403 0.390786 -0.220481 -0.128351 0.472132 -0.001116 -0.252215 0.084764 -0.033636 0.302230 -0.070047 -0.348684 -0.296699 0.390397 -0.699526 -0.001467 -0.004064 -0.303166 0.554624 -0.333330 0.007830 0.455317 0.661110 -0.145615 0.112794 -0.551489 -0.356792 0.287075 -0.127628 -0.354272 -0.632510 -0.134727 -0.093355 0.155252 -0.315222 0.299882 -0.001205 -0.420138 -0.229274 -0.468011 -0.127140 0.218606 -0.289455 -0.235888 -0.061622 -0.395299 -0.182649 0.092243 -0.333443 -0.035871 0.425954 -0.247985 0.414978 0.161838 -0.283365 0.103790 -0.431568 -0.049687 -0.294055 -0.317468 0.229154 -0.160408 -0.550735 0.428480 -0.106562 0.226875 0.296087 0.101430 0.077637 -0.188963 0.237845 0.064477 0.279253 0.605703 -0.414490 -0.350085 0.331342 -0.086106 -0.052607 0.357028 -0.171687 0.174102 -0.486938 0.011152 -0.276015 0.392087 -0.216213 -0.226375 -0.284284 0.110819 0.469397 -0.248493 0.169724 -0.329918
37 -0.682319 0.139472 -0.243141 0.215677 0.102595 -0.752827 0.612256 0.005129 0.131712 -0.433369 0.059419 0.426884 0.003913 -0.488389 -0.603128 0.060591 0.376562 0.074259 -0.391160 0.160926 0.043178 -0.367660 0.241874 -0.310122 -0.374938 0.541475 -0.269137 0.288831 0.508871 -0.030146 0.540187 0.168720 0.431327 0.357126 0.470897 -0.135261 -0.184076 -0.101951 0.404235 -0.260109 -0.319308 0.550554 0.120892 -0.014338 -0.652476 -0.360462 0.047556 0.516511 -0.110306 -0.281106 -0.131686 -0.423889 0.316475 -0.364649 -0.201409 0.186912 0.730956 -0.474551 0.506694 -0.563591 -0.621154 0.181987 -0.459068 -0.490679 -0.393850 0.411251 0.202671 0.294897 -0.449718 0.627217 -0.265302 -0.000052 0.044036 -0.157992 0.382061 0.502731 -0.382453 -0.089229 0.077573 -0.109558 0.274580 0.388516 -0.006276 -0.243946 0.484628 0.212050 0.383522 -0.218899 -0.448405 -0.203214 -0.548501 0.151262 0.345086 -0.545341 -0.210748 -0.220127 -0.091568 0.383633 -0.406451 0.451154 0.376971 -0.383648 0.423316 0.052436 0.729282 -0.150224 0.874515 0.120103 -0.472805 0.331697 0.379555 -0.096535 0.245919 0.697524 -0.559351 0.268950 -0.305996 0.181478 0.099752 0.138572 0.132604 -0.305981 0.096002 -0.149923 0.590349 0.135185 -0.370830 0.126329
48 -0.563640 0.513241 -0.559405 -0.088388 0.238736 -0.113944 0.337974 -0.308189 0.026554 0.188572 -0.057162 0.724824 -0.267636 0.195897 0.235581 -0.518149 0.152054 -0.097662 -0.101809 0.321359 0.167385 -0.087596 -0.693998 -0.304191 -0.082997 -0.026295 -0.596861 -0.119080 0.119024 -0.314887 0.851893 0.130636 0.446795 0.397885 0.308604 0.183005 -0.210825 -0.507225 0.342313 -0.415538 -0.281860 0.221409 -0.016280 -0.107059 0.584718 -0.188473 -0.062987 0.138792 -0.510676 -0.463359 0.576830 -0.495061 0.104622 -0.256424 0.402493 0.657254 0.660492 -0.173621 0.415028 -0.540845 -0.097281 0.281344 -0.279742 -0.536441 -0.035579 0.456687 -0.755432 0.262439 0.433100 0.491905 0.175860 -0.283176 -0.051171 -0.146246 0.613140 0.415325 -0.524886 0.191207 -0.097015 -0.035656 0.001325 0.152122 -0.039703 -0.300762 0.641866 -0.009108 0.760600 0.086233 -0.396686 0.554649 -0.345903 -0.086620 -0.384326 -0.201664 -0.048709 -0.447989 -0.149953 0.312566 -0.026120 0.272646 0.497104 -0.084568 0.374522 -0.218302 0.256509 -0.160347 0.002325 0.231218 -0.279856 0.151877 0.240200 -0.472739 -0.299645 -0.110595 -0.499270 0.294524 -0.344734 -0.162478 0.358979 0.025385 0.074688 -0.295458 0.102245 0.881595 0.710317 -0.003606 0.362819 0.130245
7 -0.347656 -0.029741 0.249751 -0.436088 -0.218354 -0.270556 0.394783 -0.030086 -0.173036 -0.055691 -0.251089 0.004582 -0.556909 -0.185656 0.334262 -0.753225 0.863361 -0.183259 0.242326 0.109455 -0.088846 -0.155760 -0.260894 0.225127 -0.163086 0.138283 -0.086312 0.451594 -0.120642 -0.120159 0.242598 0.255326 0.083484 0.658595 0.370217 -0.039360 -0.397972 -0.584396 1.027207 0.020178 -0.158056 -0.300614 0.134623 0.621448 0.261792 -0.308908 -0.091466 0.129517 -0.376948 0.388665 0.311707 -0.527391 0.327686 0.049244 0.321653 0.354704 -0.172726 0.345239 -0.158451 0.158130 -0.662812 0.172458 -0.231606 -0.012929 -0.515991 -0.319904 0.243852 0.098721 -0.559937 -0.149607 -0.170601 -0.088400 0.672878 -0.040324 0.191014 -0.396903 -0.334587 0.123984 -0.145516 -0.832482 0.119775 -0.311061 -0.198827 -0.068712 0.205041 0.386559 0.335279 0.340128 -0.152973 -0.037960 -0.009562 0.287621 -0.089666 -0.339120 -0.531668 -0.364738 -0.477647 0.174476 0.029829 -0.045724 0.391240 -0.294287 0.057856 -0.395232 0.727616 0.278388 0.910559 0.462164 -0.066525 0.006026 -0.186508 0.012120 0.173193 -0.193828 -0.312577 0.359486 0.003860 0.321821 -0.407771 0.224540 -0.536118 -0.274494 0.168778 0.169936 0.031941 0.083491 0.160377 0.632288
85 -0.143332 0.319914 0.122961 -0.050937 0.100251 0.037287 -0.248739 -0.001601 0.115220 -0.661354 -0.034752 0.081902 0.222033 0.029558 0.312784 -0.182243 0.143503 0.517686 -0.220166 0.157478 -0.601755 -0.199879 -0.424720 -1.028069 -0.209214 0.335517 -0.461696 0.299251 0.441176 -0.293248 -0.139394 0.115326 0.426243 0.726402 0.212432 0.230418 -0.272107 -0.416832 -0.014472 0.740936 0.096276 -0.191706 -0.297733 -0.083575 -0.243341 0.017891 -0.335811 -0.140406 -0.121977 -0.008502 0.128241 -0.035090 0.426157 0.349936 0.042478 0.417026 0.125542 0.179527 0.387537 0.289601 -0.216753 0.378756 -0.651641 -0.237121 0.178255 0.059318 0.354774 0.058151 -0.142993 0.336447 0.172127 -0.066637 -0.050033 -0.288629 0.520582 -0.117368 -0.125509 0.024779 0.222389 -0.036083 0.261755 0.394001 -0.374388 0.287897 0.555940 -0.065788 0.168800 0.461375 -0.237706 0.175167 -0.137087 0.176129 -0.746679 0.062432 -0.269960 -0.174361 -0.018270 -0.141310 0.282418 0.165435 0.084371 -0.062360 -0.126576 -0.045870 -0.064543 0.188882 0.180223 0.603839 -0.258577 -0.372392 0.356246 -0.046858 -0.192172 0.248269 0.543797 0.177237 -0.315865 -0.034890 -0.318101 -0.079414 -0.067655 0.002804 -0.249911 0.145315 0.242499 0.056664 0.718108 -0.397476
6 -0.436103 0.140181 0.384045 0.335325 -0.437769 -1.179230 0.691378 0.181587 0.266360 -0.324218 0.203434 0.089615 -0.290613 -0.173054 -0.027995 -0.268128 0.337603 -0.089008 0.316847 0.203792 0.066389 -0.546504 -0.416885 -0.745086 0.249731 0.134580 -0.223601 -0.305542 0.221925 -0.267944 0.521129 -0.135929 0.751701 0.484890 0.747669 0.510811 -0.216750 -0.210025 0.200121 -0.083914 -0.833886 -0.332540 0.291904 0.424161 -0.051050 -0.093297 0.250287 0.385533 -0.488093 -0.031322 0.050879 -0.311446 0.363081 -0.425841 0.551209 0.218341 -0.214351 0.330065 0.021491 -0.440937 0.629856 0.771624 -0.034857 -0.360124 -0.554479 -0.169150 0.127435 0.086999 -0.172468 -0.029682 0.021138 -0.308105 0.192857 0.444100 0.315085 0.503664 -0.216738 0.092652 -0.375074 -0.374078 0.585171 -0.015599 -0.145861 0.204424 0.451623 0.031505 0.327576 0.190816 -0.040596 0.094091 0.331680 0.590808 -0.205179 0.203432 0.009917 -0.375766 0.162186 0.392396 0.025788 -0.035465 0.891067 0.048497 -0.198596 0.213167 -0.002936 0.344158 0.453231 0.441521 0.543200 0.365140 -0.297517 0.758946 0.582934 0.479527 0.293806 0.577218 0.062115 0.209055 0.072584 -0.040896 -0.098672 0.033502 0.288576 -0.075823 -0.319586 0.270964 0.374285 0.282668
79 -0.110504 -0.210588 -0.050442 -0.189529 -0.162973 0.040324 0.759194 0.414623 -0.567196 -0.435701 -0.399394 -0.058182 0.325788 -0.167446 -0.186701 0.047952 0.043427 0.492654 -0.379727 -0.400241 0.081447 -0.554542 0.091454 -0.568200 -0.363288 0.047274 0.033824 0.060626 0.222383 -0.405602 0.617234 -0.413542 0.095605 0.073586 0.284054 0.321588 0.409536 -0.025737 -0.054412 -0.209827 0.013688 -0.004796 0.079125 -0.000801 -0.190708 -0.465082 0.408456 0.505688 0.230630 0.054790 -0.155416 -0.260470 0.193715 -0.317169 0.424071 -0.159214 0.516604 -0.114297 0.165233 0.635171 -0.445374 0.618662 -0.194862 -0.619793 -0.450063 0.447804 -0.539546 0.281917 -0.882609 0.049129 0.163785 -0.282397 0.413225 -0.011286 0.308514 0.299772 -0.340647 -0.584724 0.211965 -0.046581 0.269652 0.019103 -0.029355 0.211064 0.524440 -0.231723 0.239560 0.170213 0.645061 -0.126562 0.040303 0.284035 -0.111218 -0.092550 -0.362752 -0.250259 0.662403 -0.235551 -0.446923 1.060902 0.318579 -0.223692 0.350774 0.006771 0.405289 0.476056 0.303608 0.311359 -0.022947 0.145380 0.463592 0.369437 0.521586 0.209594 0.190342 0.046972 -0.338291 0.173257 -0.128633 -0.190143 -0.311584 0.354191 0.259833 0.386871 0.109959 -0.045350 0.641670 0.131770
91 -0.245337 0.079530 -0.174549 -0.198812 0.133930 -0.518932 0.486708 -0.170572 0.510352 -0.479048 -0.033110 -0.044086 0.678540 -0.099895 -0.146474 -0.374209 -0.271437 0.657905 0.104058 0.184414 0.176606 -0.535922 0.129473 -0.732740 0.079850 0.680111 -0.101982 0.101854 -0.118264 -0.182071 0.266755 -0.164140 0.274819 0.109392 0.262013 0.405254 -0.664093 -0.553753 -0.297667 0.329891 0.144829 0.115669 0.044654 -0.462912 -0.337949 0.139152 0.284297 -0.154879 0.280958 0.025127 -0.710029 -0.291246 0.427824 -0.442835 0.182717 -0.353774 0.195537 -0.038465 -0.071506 0.060261 -0.183760 0.542159 -0.410910 -0.139427 -0.381392 0.003134 0.187180 -0.369032 -0.299785 0.327002 0.407912 -0.138719 0.797816 -0.224161 0.202417 -0.337047 0.012326 0.201072 0.441233 0.094156 0.302874 0.383937 -0.166966 0.349216 0.581771 0.374761 0.250988 0.079308 0.032668 0.310155 0.150373 0.498721 -0.607901 0.142909 -0.429657 -0.439423 0.272963 -0.157359 0.072205 0.312274 0.482474 0.549038 -0.098263 -0.170747 0.640316 0.709791 0.797397 0.587984 0.187639 -0.090423 -0.021075 -0.037295 0.196655 0.287637 -0.260105 0.047927 -0.125140 0.025092 0.175575 0.679007 0.534713 0.422044 -0.815254 0.362780 0.018270 0.248876 0.225889 0.040340
72 -0.163803 -0.081122 0.072859 -0.089748 -0.247535 0.124113 0.399543 0.401761 -0.542539 -0.605625 -0.326929 -0.136840 0.244137 -0.160243 0.280021 -0.098997 0.354261 0.724961 -0.236766 -0.471905 -0.485827 -0.373476 -0.418108 -0.672980 -0.121668 0.127018 0.043200 -0.031581 0.165491 -0.527647 0.128803 -0.228151 0.224667 0.282942 0.542171 0.251758 0.075084 -0.279540 -0.036215 0.098571 -0.070214 -0.395976 -0.074750 0.005584 -0.027761 -0.485488 0.346065 -0.041078 0.305369 -0.061928 0.155565 -0.097426 0.037983 -0.091713 0.637203 0.091212 0.279879 -0.129651 0.177539 0.461016 -0.001083 0.431148 -0.416611 -0.417618 -0.126836 0.072685 0.065729 0.212074 -0.810741 0.236979 0.252268 -0.033005 0.232087 0.014748 0.379098 -0.031220 -0.199452 -0.159776 -0.060343 0.011007 0.372736 -0.004802 -0.185928 0.175866 0.599023 -0.464568 0.429860 0.633168 0.309519 0.304194 0.202219 0.373600 -0.210784 -0.103955 -0.470775 -0.207401 0.500127 -0.479036 0.169874 0.729440 0.162279 -0.304070 0.149098 0.390549 0.085195 0.347887 -0.236734 0.414313 0.252455 -0.055788 0.470342 0.126650 0.308553 0.122710 0.549379 0.353494 -0.360512 0.208337 -0.085851 -0.082296 -0.346386 0.085775 0.375508 0.312809 -0.131312 0.175427 0.804417 0.053400
82 -0.400445 0.112070 -0.200895 -0.440423 0.126501 -0.532812 0.212630 -0.385270 0.118242 -0.219030 -0.281828 0.436310 0.066725 -0.527980 -0.303579 -0.058912 0.409745 0.252111 0.064545 0.328626 0.348383 -0.206159 -0.098826 -0.239926 -0.526516 0.080619 -0.000836 0.460785 -0.461804 -0.346199 0.595873 0.062839 -0.023581 -0.263832 0.092264 0.168899 -0.692169 -0.041453 0.662548 -0.147818 0.488464 0.079551 0.014342 -0.011849 0.117193 -0.420114 0.538112 0.467690 -0.392733 0.198983 0.193545 -0.231511 -0.298750 -0.598244 0.108753 -0.176953 0.748438 0.242937 0.250560 -0.345210 -0.630002 0.031767 -0.513355 -0.297321 -0.409294 0.523353 0.245439 -0.119502 -0.396377 0.267432 0.218922 0.097185 0.287297 -0.372375 0.129081 0.098678 -0.436045 -0.104005 -0.112592 -0.325965 0.608356 0.003863 -0.073215 0.022944 0.152942 0.022379 0.641536 -0.203045 0.158461 -0.065821 -0.531368 0.222459 0.102757 -0.178920 -0.132692 0.082017 -0.116824 0.019864 -0.124624 0.091243 0.289230 0.250194 0.417559 -0.028315 0.474716 -0.350249 0.322488 -0.058964 -0.427295 0.115328 0.183673 -0.134142 0.362878 0.193847 0.017469 0.162951 -0.454723 0.191132 0.097118 0.222861 -0.045269 -0.161735 -0.181742 0.292977 0.272544 0.261466 -0.402420 0.180874
24 -0.281634 0.063087 -0.718258 -0.099170 0.185124 -0.297590 0.127540 0.274009 0.246521 -0.102554 -0.014816 0.453734 0.158017 -0.458386 0.619185 -0.739712 -0.147901 0.124208 0.153690 0.019584 -0.078556 -0.357681 -0.478086 -0.100782 0.204284 0.197366 -0.071068 0.084546 0.507574 -0.254990 0.252916 0.411954 -0.155727 0.755168 0.543127 -0.006839 -0.273463 -0.240510 0.782430 0.120264 -0.348484 -0.560183 -0.607243 0.183017 -0.202075 -0.024998 -0.208950 0.245114 -0.208726 -0.279642 0.311212 -0.957546 -0.200432 -0.025156 0.325501 -0.244780 0.042497 -0.279529 -0.186002 0.114977 0.474590 0.115810 -0.627192 0.075454 -0.546856 0.036387 -0.162145 0.104864 0.219369 0.821054 0.062917 -0.044423 0.679565 -0.226518 -0.096240 -0.111941 0.087352 -0.110601 -0.118052 -0.844599 -0.080322 -0.086305 -0.251197 -0.314128 0.555548 0.368107 0.878393 0.511264 -0.154447 0.356198 0.023757 0.292751 -0.335324 -0.043360 -0.716349 0.173707 0.072319 0.248068 0.129110 -0.177318 0.347096 0.251228 0.082597 0.239060 0.671431 0.399854 0.496295 0.337224 0.050368 -0.063010 -0.025692 -0.386453 -0.647528 -0.428866 -0.119023 0.330365 -0.140262 0.041817 -0.427248 0.752796 -0.201906 -0.366444 -0.372962 0.627074 0.300142 0.139413 0.202458 0.233288
75 -0.323157 0.220467 0.120628 -0.404242 -0.027541 -0.632224 0.381026 -0.262548 0.466821 -0.353934 0.144489 -0.023523 0.377197 -0.061803 -0.277448 -0.337214 0.130978 0.524719 0.022730 0.395638 0.182884 -0.235909 -0.289467 -0.724587 -0.076498 0.267787 -0.287926 0.108514 -0.021846 -0.446077 0.366095 -0.205311 0.378430 0.040313 0.427114 0.454069 -0.631587 -0.048906 -0.044444 0.362963 0.207781 0.508515 0.191373 -0.330076 0.056241 0.381273 0.152047 -0.156924 -0.061093 -0.274788 -0.490474 -0.119365 0.492896 -0.392129 0.223552 0.326047 0.537748 0.108458 0.071975 0.013635 -0.179962 0.503389 -0.415158 -0.713060 -0.000542 0.038732 0.154821 -0.318460 0.046229 0.537667 0.545598 -0.234155 0.661114 -0.051209 0.371422 -0.102557 -0.158288 0.133087 0.322301 0.506755 0.611328 0.392415 -0.257471 0.221359 0.117976 -0.232859 0.316017 -0.053146 -0.182016 0.091315 -0.006229 0.305038 -0.288102 0.062717 -0.477069 -0.246189 0.015634 0.160047 -0.000138 0.096629 0.353265 0.897980 0.081904 0.023053 0.178491 0.443610 0.280781 0.079229 0.282517 -0.016324 0.081448 0.201599 0.356184 0.346508 0.185754 0.266247 -0.533035 -0.159493 0.504417 0.223387 0.154810 0.132705 -0.416589 0.283258 0.038006 0.051744 0.376187 -0.066280
21 -0.480007 -0.239473 0.213263 -0.238981 -0.334205 -0.880929 0.167910 -0.033461 0.365963 -0.185019 0.179169 0.190860 -0.377598 -0.035781 -0.047506 -0.625505 0.298502 0.024113 0.207676 0.456453 -0.133289 -0.333972 -0.249507 -0.400503 0.213804 0.005728 -0.058200 0.178334 0.518009 -0.270846 0.562688 -0.500068 0.226628 0.655147 0.399855 0.255380 -0.171360 -0.127300 0.299699 0.078942 -0.704079 -0.081019 0.523436 0.617918 -0.422417 0.035649 -0.420096 0.236865 -0.486947 -0.016053 -0.436531 -0.396903 0.900826 -0.093537 -0.320476 0.196358 -0.045067 0.762165 -0.350435 0.426886 -0.256234 0.305362 0.003081 -0.403727 -0.639733 -0.233621 0.156502 0.138875 0.168064 -0.003613 -0.226081 -0.402722 0.616505 0.310328 0.052732 0.050972 0.265924 -0.457657 0.388362 -0.197287 0.111981 -0.303125 -0.465862 0.067643 0.011360 0.096876 0.122769 -0.100869 0.125288 0.113371 0.243959 0.036325 -0.806343 -0.201480 -0.241167 -0.280528 -0.264225 0.772280 0.203927 0.113549 0.375400 0.210046 -0.225988 -0.463016 0.595185 0.430918 0.514524 0.697496 0.288637 0.047052 -0.223540 0.625197 0.234381 -0.004592 -0.049827 -0.059134 -0.223551 0.147568 -0.107154 -0.059659 -0.311224 0.317671 -0.055546 0.047352 -0.170244 0.105864 0.484322 0.217505
49 -0.359040 0.041178 0.462673 0.296049 0.287215 -0.222487 0.242191 -0.152017 0.131984 -0.624030 0.169829 0.411258 -0.042665 -0.202015 -0.092041 -0.577280 -0.151108 0.381573 -0.201850 0.447299 -0.103762 -0.468862 0.333165 -1.051824 -0.281051 0.845365 -0.626122 0.046928 0.497206 -0.370018 -0.148018 0.229505 0.457980 0.882588 0.610960 0.262041 -0.183142 -0.326712 0.151443 0.612043 0.028443 0.160631 -0.003021 0.218574 -0.390996 -0.124856 -0.339937 0.111804 -0.216243 0.031914 -0.219326 -0.214123 0.863336 0.209284 -0.222523 0.375999 0.400091 -0.079772 0.021015 -0.186187 -0.580510 0.615774 -0.059766 -0.223374 -0.273301 0.044765 0.375073 -0.106933 -0.269577 -0.048210 0.071286 -0.091137 0.169018 -0.712176 0.233426 0.088341 -0.179906 -0.158107 0.160527 -0.226747 -0.028027 0.434000 -0.171684 0.194063 0.031758 -0.202937 -0.168233 0.292332 -0.223101 0.419104 -0.039486 0.273909 -0.349869 -0.367358 0.012975 -0.331801 -0.350526 0.303422 0.166151 0.442450 0.270252 -0.000180 -0.083209 -0.174511 0.321296 0.243292 0.612027 0.698746 -0.385048 -0.596284 0.311264 0.240322 0.320041 0.490170 0.059802 -0.104772 -0.322077 0.204503 -0.308404 0.243814 -0.069705 0.003358 -0.377299 0.014563 0.376370 -0.497861 0.692684 -0.080139
13 -0.060189 0.108342 -0.070400 -0.361443 0.033868 -0.861954 0.268987 0.303805 -0.177213 -0.762590 0.030902 -0.197681 -0.222943 -0.460425 -0.016875 -0.416061 0.269393 -0.254957 0.108612 0.029533 0.109292 -0.289819 -0.251672 -0.280143 -0.072030 0.042544 0.108781 -0.083401 0.492175 -0.259989 0.504536 -0.207106 -0.088574 0.385015 0.194490 -0.020699 -0.136620 -0.163281 0.442443 -0.244269 -0.504216 -0.699727 -0.190461 0.628286 -0.168601 -0.265451 -0.013313 0.482395 -0.579534 0.662847 -0.082378 -0.689263 -0.013229 -0.728731 0.801838 -0.273244 -0.136647 0.475067 0.221860 0.267629 -0.171689 0.580660 -0.036611 -0.410784 -0.767921 0.133967 -0.061112 0.134327 -0.165917 0.474815 0.233273 -0.188002 0.106926 -0.116185 -0.032059 -0.096062 -0.029745 -0.652482 0.315293 -0.735678 0.168943 -0.294212 -0.137751 0.099178 0.657498 0.207634 0.577257 -0.011816 0.185960 0.083250 -0.401693 0.094535 -0.389896 0.157343 -0.370239 0.109295 0.213316 0.593203 0.170862 0.248314 0.436156 0.413399 0.248741 0.224437 0.395420 0.346800 0.763307 0.553055 0.136950 0.327380 -0.010302 0.288505 -0.170176 0.125887 0.156881 0.178480 0.042656 0.018178 -0.070078 -0.047261 -0.064943 0.229360 -0.309196 0.177970 -0.070844 0.398625 0.506683 -0.117683
