136 128
12.9059398745 -0.188546 -0.055983 -0.061403 0.019631 0.299425 0.197584 -0.110602 0.168370 -0.304257 0.102470 -0.385870 0.088960 0.108854 -0.146086 0.033061 -0.116475 0.151963 -0.331430 -0.143729 -0.115195 0.127395 -0.344442 0.235983 0.073089 -0.112184 0.052952 -0.457814 0.109788 -0.555936 0.441793 -0.288059 0.339710 0.252253 0.121217 -0.200136 -0.204127 0.323346 -0.061983 -0.108878 0.107665 -0.077322 0.014549 0.220449 -0.259171 0.083330 -0.256156 0.089923 0.161644 -0.276758 -0.454623 0.507007 0.400259 0.037605 0.145755 -0.220553 0.008064 0.039779 -0.350176 0.068795 -0.137278 -0.256566 0.128926 0.354658 0.125787 -0.104286 -0.090685 -0.149658 0.470367 -0.021121 -0.414040 0.492700 -0.042654 0.119842 0.739763 0.033327 0.055585 0.046933 0.235232 -0.148515 0.045926 -0.041098 0.039246 -0.360469 0.111070 -0.613245 0.103389 -0.169966 0.143529 -0.264197 -0.352021 -0.599023 0.036689 -0.511230 -0.349292 -0.158372 -0.700452 -0.344599 0.310199 -0.074736 -0.102678 -0.372178 0.123479 -0.103094 -0.390671 -0.146010 0.028677 0.061920 0.319652 -0.140027 0.606398 -0.206579 -0.316353 0.186484 0.200766 -0.047060 -0.445094 0.047492 -0.225711 0.032468 0.146466 -0.035727 -0.119334 0.057210 0.106218 0.103822 -0.063554 0.161537 0.020518
7.866490921 -0.115464 -0.033952 0.203852 0.045231 0.148577 0.399152 -0.398681 -0.047879 -0.400180 0.306139 -0.299868 0.047657 0.120927 -0.364513 -0.165772 -0.199117 0.041007 0.017026 0.268175 -0.265340 -0.153755 -0.392203 0.392571 0.206767 0.175141 0.247084 -0.273831 -0.110939 -0.173647 0.483545 -0.493392 0.575957 0.376130 -0.024597 -0.171143 -0.099317 0.431585 0.311874 0.001316 0.397142 -0.032158 0.536724 0.215479 0.001903 0.379832 -0.434295 0.201063 -0.165070 -0.003814 -0.044470 0.518942 0.700021 -0.019558 0.096389 -0.117901 0.304717 0.083308 -0.551401 0.004857 0.014064 -0.400929 0.054426 0.049830 0.253054 -0.354192 -0.204554 -0.126063 0.356589 0.088998 -0.434054 0.347795 -0.115654 0.201361 0.205779 -0.177642 0.328315 -0.253704 0.158186 0.164570 -0.255964 0.006823 0.277637 -0.044595 0.029350 -0.513841 0.188322 0.144992 0.366497 -0.179729 -0.264021 -0.454795 -0.239696 -0.358642 -0.268190 -0.065260 -0.565533 -0.251534 0.007459 -0.249022 0.013522 -0.118171 0.145965 -0.018034 -0.221312 -0.189140 -0.011903 0.014314 0.370148 0.012410 0.325736 -0.062074 -0.112574 -0.109401 0.107820 0.132065 -0.356011 0.055871 -0.205473 -0.118251 0.129033 -0.090500 -0.535732 0.045068 0.205236 0.028023 0.227939 -0.052586 0.268551
19.3828054583 -0.043284 -0.248864 -0.017834 -0.091328 0.280004 0.051453 -0.180468 0.108112 -0.169929 -0.062550 -0.227401 0.236144 -0.202436 -0.021846 -0.152182 -0.216588 0.260400 0.023762 -0.171832 -0.230156 -0.202763 -0.460465 0.021755 -0.019773 -0.095874 -0.311614 0.150905 -0.014158 -0.334819 0.109027 -0.303879 0.190847 -0.118472 0.461291 -0.236671 -0.412130 -0.072090 0.307754 0.389008 -0.145598 -0.017725 -0.298399 -0.166839 -0.192216 -0.019304 -0.733966 -0.315705 -0.337359 -0.162950 -0.495961 0.365754 0.293291 -0.098989 0.394971 0.022827 0.490291 -0.212267 -0.473046 -0.083957 -0.552051 -0.291979 0.111800 0.202185 0.315607 -0.236386 0.172591 -0.498144 0.361262 0.365595 -0.504970 0.211152 0.327467 0.514985 0.133750 0.044313 -0.048422 -0.090385 0.350457 -0.392792 -0.087303 -0.200687 -0.215322 -0.325733 0.156419 -0.136351 -0.037853 -0.018877 0.463823 -0.214985 -0.186428 0.050644 0.137075 0.197701 -0.253902 -0.343893 -0.457484 -0.821814 0.015404 0.264031 -0.117474 -0.134989 0.034622 -0.191216 0.198655 0.322735 -0.166180 -0.235051 0.089166 0.342288 0.421214 -0.077160 -0.345220 -0.138576 0.094503 0.542943 -0.374744 0.195774 -0.270630 0.234931 0.002172 -0.195893 0.056748 0.402530 0.030849 0.354524 -0.100077 -0.657308 0.340294
9.46612475355 0.368380 -0.238545 0.059889 0.035528 0.057555 0.062841 -0.127182 -0.097960 -0.593395 0.040706 0.240939 -0.094119 -0.058384 0.052662 0.113395 0.351399 0.118731 -0.184569 -0.070573 -0.142245 0.009834 -0.191305 -0.314873 0.002146 -0.076880 -0.045416 -0.036370 -0.153980 0.005113 0.071584 -0.234860 0.156896 -0.123586 0.236136 -0.165660 -0.531383 0.393610 0.079780 0.470287 0.139510 -0.120607 0.084695 -0.039243 0.117512 0.528022 -0.252824 -0.129018 -0.101533 0.077477 -0.183514 0.360909 0.361979 -0.002566 0.255852 0.285678 0.004889 -0.404220 -0.189167 0.008027 -0.246439 -0.471734 -0.111692 0.367789 0.057389 -0.194793 -0.287136 -0.416084 0.410561 0.320806 -0.165011 0.200109 0.008903 0.205953 0.348320 -0.076629 0.264077 -0.288110 0.193402 -0.517577 -0.121696 -0.260503 -0.160794 -0.322796 0.378945 -0.122105 0.034024 0.100487 0.240172 -0.308206 0.143150 0.232955 0.108519 -0.205393 -0.046286 -0.049124 -0.457378 -0.430041 0.003779 0.384633 -0.011629 -0.273255 -0.099673 -0.261018 0.060759 0.419745 -0.405967 -0.343038 -0.029300 0.436526 -0.090991 0.177006 -0.467033 -0.095216 0.065223 0.446560 -0.088412 0.028282 -0.373409 0.157295 -0.085726 -0.045646 -0.039513 0.446749 0.230393 0.216590 0.302995 -0.345746 0.051131
6.20839704319 -0.289523 0.105588 0.155763 -0.106384 0.452243 0.322061 -0.142528 0.143327 -0.578206 0.033232 -0.265443 -0.095283 -0.017253 -0.379731 -0.084037 -0.091725 0.277655 0.142033 -0.266108 -0.359561 -0.158022 -0.539796 -0.082003 -0.020065 0.167487 0.098720 -0.190098 -0.034124 -0.242291 0.382405 -0.443000 0.258854 0.512157 0.233140 -0.084162 -0.116753 0.305430 0.378304 -0.094348 0.304745 -0.281049 0.081809 0.015027 0.111594 -0.017279 -0.404257 0.072477 -0.233763 -0.194524 -0.354513 0.560814 0.507164 -0.338408 -0.054948 0.250355 0.374040 -0.113304 -0.383743 0.010330 -0.359844 -0.096662 -0.032099 0.006391 0.302339 -0.261279 -0.067311 -0.496843 0.473962 0.060520 -0.566183 0.331214 -0.204656 0.434369 0.412076 -0.097994 0.007954 -0.206642 0.170378 -0.324312 0.097219 -0.143005 -0.072417 0.010287 0.305236 -0.367336 0.378929 -0.076767 0.263506 0.058039 -0.134885 -0.051604 -0.020972 -0.427211 -0.406400 -0.410556 -0.804085 -0.129579 -0.318007 0.087969 -0.027691 -0.271831 0.158149 -0.120700 -0.233222 -0.055363 0.002656 0.101991 -0.104007 0.293574 0.090328 -0.276242 -0.266214 -0.122236 0.132990 0.430848 -0.526070 0.364752 -0.044882 0.145686 0.128960 -0.182353 -0.049304 0.174517 0.165295 -0.240550 -0.068629 0.212906 0.153021
16.3707321706 0.330452 -0.127351 -0.105809 0.115862 -0.108030 0.173234 -0.103935 -0.190559 -0.131954 0.093554 -0.294574 -0.007614 -0.027605 0.086286 -0.162072 -0.114355 0.429813 0.093050 -0.323935 -0.134610 0.269764 -0.233895 -0.123915 -0.102187 0.194763 -0.241864 -0.027334 0.179677 -0.134397 0.336356 -0.244066 0.498401 -0.049614 0.071906 -0.404023 0.070833 0.503219 0.108944 0.213678 0.352749 -0.161689 -0.279104 0.072088 0.073933 0.074049 0.000548 0.335196 -0.048452 0.061991 -0.651361 0.197599 0.212466 0.123139 0.349788 0.201591 0.323047 -0.587587 0.117385 -0.098648 -0.203248 -0.202096 -0.132698 0.310057 -0.028900 -0.218225 -0.239229 -0.413699 0.120422 0.083086 -0.397953 0.301223 -0.034809 0.319916 0.329798 -0.072718 0.281273 -0.151062 -0.190462 -0.579383 -0.017332 -0.028343 -0.022080 0.086147 -0.007760 -0.648944 0.326724 0.015469 0.265112 0.002863 -0.035778 -0.364436 0.030973 0.124091 -0.082428 -0.419961 -0.266322 -0.398674 0.084721 -0.364721 -0.002114 -0.099728 0.012255 -0.218747 -0.245078 -0.316555 0.056077 -0.338479 0.087418 0.154065 -0.380050 0.260945 -0.135512 0.365607 0.260401 0.315209 0.392168 -0.075450 -0.109927 0.024558 0.403725 -0.215482 -0.185221 0.019839 0.321170 -0.206256 0.038889 0.365544 -0.063028
7.16807446291 -0.198921 0.285480 0.191066 0.293928 -0.189098 -0.819976 -0.160763 -0.082415 0.416306 0.119439 -0.704405 0.248669 -0.409426 -0.286895 0.237305 -0.354250 0.705651 0.346001 -0.348285 0.055122 0.300601 -0.463150 -0.073023 0.085925 -0.301959 0.015734 -0.323199 -0.396801 0.282135 0.102564 -0.504679 0.545309 -0.558087 -0.478879 -0.318128 0.075314 -0.304655 -0.019531 0.357364 -0.009873 0.393799 -0.016613 -0.184707 -0.372498 0.395383 0.463732 0.140038 -0.213115 -0.087699 0.097625 -0.583758 -0.018804 -0.109020 0.453242 0.474816 0.434795 -0.411703 -0.189439 -0.384749 -0.239387 -0.862654 0.199445 0.089712 -0.205869 0.047476 -0.142505 -0.293108 -0.297868 -0.158445 0.114951 -0.384336 0.327555 0.398721 -0.240146 -0.198189 0.406052 -0.024536 -0.167364 -0.099262 -0.094241 -0.211347 0.606016 0.190022 -0.208920 -0.588766 0.136870 -0.356923 0.083810 -0.347995 0.039007 -0.289768 0.345123 -0.106041 0.025188 -0.646758 -0.451911 -0.226592 0.679131 -0.418949 0.127731 0.032859 0.083894 -0.549796 -0.154915 0.658920 0.273528 0.139961 0.027813 -0.314682 -0.043111 0.350035 0.373283 -0.616360 0.259466 0.316773 0.461281 -0.510312 0.209738 -0.346496 0.049657 -0.190531 -0.439889 0.639825 0.444599 0.066125 -0.296262 -0.490410 -0.271496
18.6301534013 -0.273208 0.430493 0.364877 0.067691 -0.141347 -0.626983 -0.243097 0.174673 0.315142 -0.223283 -0.640746 -0.136406 -0.545500 -0.146332 0.004029 0.365055 0.404065 -0.070160 -0.334913 -0.449898 0.306145 0.011816 -0.097816 -0.007219 -0.192830 0.362855 -0.419358 -0.325697 0.468053 0.163716 0.026220 0.232361 -0.614628 -0.457123 -0.383671 -0.529824 0.230721 0.179915 0.391793 0.000413 0.109583 0.185815 0.074817 0.220765 -0.263380 0.223603 -0.292208 0.040002 -0.278334 -0.420901 -0.379374 -0.040946 -0.216710 0.225069 0.299714 -0.059744 0.021068 -0.067959 -0.306839 -0.656537 -0.153784 0.344037 0.155409 -0.455529 0.058261 -0.745796 -0.041012 -0.085439 -0.541283 -0.070114 0.579120 0.088683 0.365562 -0.133647 -0.298896 0.426750 0.307816 -0.310131 -0.247613 0.332027 -0.440647 -0.220727 -0.084960 -0.224663 -0.271118 0.367267 -0.276616 -0.313083 -0.237009 0.147912 0.086361 0.077459 -0.263740 -0.254119 -0.362314 -0.334170 -0.239226 0.744522 -0.119021 0.364345 -0.708415 0.129973 0.112867 0.012731 0.505522 0.566952 -0.111528 0.137841 0.070488 0.291495 -0.010697 0.537606 -0.203609 -0.068681 0.076583 0.318408 -0.402230 -0.101441 -0.062256 -0.104011 0.296450 -0.121273 0.430767 0.052244 0.172575 -0.503711 -0.225622 0.043483
14.7072233368 0.153124 -0.498586 -0.051867 0.077739 0.237579 0.236943 0.101323 0.205968 -0.096020 -0.360561 -0.516677 0.093299 0.054714 -0.427135 0.020743 -0.075032 0.242189 -0.096618 -0.241328 -0.783401 -0.077330 -0.321465 0.196437 0.155007 0.132606 0.040644 0.043016 0.030235 -0.208380 0.109275 -0.402751 0.290488 -0.271565 -0.063197 -0.068582 0.335486 -0.181615 0.219283 0.198379 0.049154 0.093613 -0.221963 -0.018297 -0.227820 -0.171853 -0.261665 -0.117697 -0.194119 -0.400386 -0.280616 0.108944 0.212719 -0.039680 0.267551 0.026441 0.132888 -0.398254 -0.386886 0.127611 -0.031230 -0.272152 0.232941 0.190350 -0.173820 -0.391989 0.119936 -0.388247 0.053655 -0.037698 -0.901269 0.271393 0.156271 0.450761 -0.022655 -0.142796 -0.316593 0.016768 0.128314 -0.652539 0.146563 -0.487848 0.002159 0.390314 0.068367 -0.177791 0.272914 -0.330853 0.712215 -0.012304 -0.356433 -0.169052 0.052864 0.216851 -0.212170 -0.433910 -0.344516 -0.727061 -0.226109 -0.257124 0.097876 -0.227079 -0.190655 -0.311782 0.181762 -0.048662 0.564342 -0.451924 0.138303 0.251617 0.073857 0.112748 -0.409075 0.043317 0.199889 0.346954 0.021722 0.208284 -0.142336 0.175935 0.089434 -0.007827 -0.160786 0.135006 0.024978 -0.082944 -0.214561 -0.176400 0.399580
4.45349209068 0.026857 -0.281154 0.000279 -0.391749 0.264804 -0.092450 0.087794 -0.288956 -0.280167 -0.242330 -0.177645 -0.247651 -0.506925 -0.567453 -0.122027 -0.187489 0.115817 0.103321 -0.196428 -0.360190 0.172104 -0.747194 0.206900 0.389477 -0.080438 -0.274539 -0.321293 -0.150563 0.207844 0.096977 -0.140093 0.259073 -0.719491 -0.135462 -0.262018 0.261754 0.088159 0.623951 0.210796 -0.075754 0.463775 -0.243808 0.376130 -0.354078 0.628164 -0.284147 -0.200373 0.062077 -0.473697 -0.444722 -0.009352 -0.187024 -0.290088 0.467428 0.202217 0.009528 -0.499657 -0.133140 0.207851 0.202399 -0.315420 -0.366506 0.522517 0.239813 -0.452815 -0.128422 -0.468406 0.486107 0.148614 -0.042490 0.171818 0.407557 0.471891 0.420613 0.094533 -0.447516 0.185533 0.269312 -0.737939 0.351960 -0.216963 0.023339 0.200548 0.207230 -0.216694 0.071403 -0.461651 0.536244 0.244103 -0.426702 0.238158 0.222217 -0.210293 0.132147 -0.045833 -0.300339 -0.200401 0.215843 0.553070 0.261676 -0.085294 -0.074028 -0.061469 0.135149 -0.282417 0.176282 -0.270091 0.109229 -0.049965 0.385893 0.033227 -0.243379 0.400409 0.001175 0.241056 0.029215 0.119779 0.230359 0.096144 0.245000 -0.117760 -0.252344 0.433192 0.107789 0.244710 -0.047506 -0.263258 -0.038176
16.174516322 0.256037 -0.134124 0.244477 -0.030391 0.335420 0.200686 -0.572567 -0.334049 -0.247518 -0.007459 -0.495785 0.418558 -0.014038 0.039939 -0.738304 -0.214561 0.172879 -0.052116 -0.478905 0.170147 0.030258 -0.486564 0.485025 0.224028 -0.129541 -0.261811 -0.025514 0.055636 -0.144823 0.321377 -0.081735 0.312929 -0.073435 0.412550 -0.461647 -0.659357 -0.060043 0.331807 0.499009 0.109922 -0.090644 -0.334784 0.193389 -0.155252 0.157488 -0.386880 -0.104094 -0.314779 -0.265668 -0.091486 0.262439 0.306946 -0.061713 0.116350 -0.010280 0.496569 0.039076 -0.171896 -0.202598 -0.233861 -0.012730 -0.216872 0.351737 0.217640 -0.327713 -0.268309 -0.427214 0.549136 0.306448 -0.534132 0.061317 0.335046 0.334246 0.148732 0.029128 0.117874 0.445415 -0.094026 -0.471293 0.008902 -0.160683 -0.248213 -0.356397 -0.069057 -0.305581 -0.105607 -0.231872 0.361737 0.148083 -0.568203 -0.325860 -0.066912 -0.096271 -0.204408 -0.509169 -0.235885 -0.668932 0.324956 0.146751 -0.017926 -0.067832 0.267838 -0.245011 -0.122241 0.048407 -0.135017 -0.444695 0.308024 -0.026716 0.145878 -0.055248 -0.460579 0.096760 -0.107578 0.381794 -0.057290 0.239155 -0.309151 0.089980 0.030946 -0.362850 -0.309503 0.250709 -0.025790 0.170355 -0.160204 -0.208998 0.233462
6.0835724485 -0.480961 0.270378 0.423903 -0.113071 0.329138 -0.057712 -0.356845 0.179339 0.307208 0.371474 -0.440829 -0.110818 -0.125042 -0.235259 0.008015 0.071073 -0.010433 -0.145910 0.185030 -0.433583 0.100109 -0.306853 0.512976 0.071453 -0.073332 0.049453 -0.124427 -0.424665 -0.020167 0.564530 -0.532918 0.390485 0.513104 0.008940 0.291084 0.126738 0.264098 0.441065 -0.016465 -0.304066 0.416837 0.121257 -0.301569 -0.109727 0.356028 -0.500916 -0.028680 0.022930 -0.102785 -0.043646 0.262222 0.191679 0.123367 0.032024 0.038068 0.379644 0.038271 -0.551071 0.232967 -0.435947 -0.329225 0.131008 -0.027995 0.528615 -0.165629 0.048625 -0.346689 -0.058675 0.226096 -0.493596 0.501336 0.133771 0.266125 0.226706 0.229309 0.011573 0.321869 0.366307 -0.046734 0.247057 -0.226200 -0.001234 -0.009585 0.079221 -0.602798 0.062796 0.060015 0.205648 -0.134892 -0.230408 -0.491465 -0.160979 -0.472385 -0.120243 0.310156 -0.707779 -0.339999 0.089240 -0.210731 0.069523 -0.139322 0.225360 0.014657 0.100631 0.112198 -0.055888 -0.188907 0.289121 0.005451 0.678603 0.150360 0.126341 -0.092253 0.262331 0.074640 -0.580771 0.658755 0.034901 -0.432878 0.049330 0.155893 -0.610063 0.143165 0.536322 0.248981 -0.206305 -0.142375 0.064714
19.5071599868 0.267825 -0.146896 -0.153873 0.122661 0.299056 0.451980 -0.197074 0.307004 -0.291404 0.050472 0.135884 -0.177096 -0.186780 -0.069629 0.154573 -0.060175 0.288123 0.077217 -0.292910 -0.921708 0.104701 -0.612226 -0.007801 0.122592 0.086103 -0.000356 0.001874 -0.395633 0.062368 0.298698 -0.169846 0.496312 -0.052652 0.063959 -0.122234 0.076983 0.489002 0.371082 0.049464 0.131856 -0.226836 0.197854 0.278172 -0.240065 -0.060968 -0.228818 -0.172662 -0.137113 0.093619 -0.587425 0.167591 0.392072 -0.010341 0.326575 0.181363 0.107159 -0.537964 -0.220269 -0.138411 -0.293142 0.009837 -0.220410 0.033763 -0.362511 -0.511031 -0.091958 -0.193322 0.307060 0.108652 -0.560876 0.635828 -0.139947 0.152969 0.184577 0.086109 0.071748 -0.638546 0.048207 -0.364219 -0.120972 0.024234 -0.009692 0.004734 0.170832 -0.382623 0.133261 0.228439 0.336279 -0.412160 0.216459 -0.349459 0.166552 0.276423 -0.340543 -0.100139 -0.434180 -0.412562 -0.155723 -0.249590 0.084998 -0.045423 -0.004600 0.079689 -0.102273 -0.280404 0.254532 -0.139079 0.041816 0.249457 0.113598 0.057549 -0.330425 0.080844 0.424334 0.198115 0.079999 0.218668 0.082449 0.006013 -0.082653 0.019771 -0.216843 0.300316 -0.107957 -0.280669 0.168659 -0.184013 0.383875
14.7372388688 -0.250193 0.349328 0.374955 -0.026134 0.078331 -0.317313 -0.295673 -0.407988 0.392335 0.711432 -0.304073 -0.456945 -0.099794 0.051621 0.359674 0.141455 0.515488 0.277138 -0.313123 -0.199881 -0.097006 -0.037704 0.308658 0.210659 -0.107511 0.517235 -0.501071 -0.694126 0.612159 0.218990 -0.264387 0.585960 -0.148939 -0.649439 -0.319496 -0.077097 0.008676 -0.087409 0.750686 0.033746 0.271178 -0.331902 -0.028646 0.086361 0.255872 0.428073 0.179055 -0.208099 0.467888 -0.000022 -0.425266 -0.312839 -0.160129 0.449569 0.969003 0.221125 -0.406407 -0.299014 -0.170097 -0.441383 -0.905826 0.047718 0.159802 -0.475215 0.382623 -0.803593 -0.321788 -0.637137 -0.214739 -0.187794 -0.046176 0.595154 -0.044924 0.101779 -0.020148 0.592354 0.228955 -0.494039 -0.508213 0.044514 -0.349633 -0.133778 0.087183 -0.367915 -0.357757 0.194305 -0.243332 -0.002686 -0.602243 0.250679 -0.547852 -0.152869 -0.425200 0.267369 -0.112390 -0.403887 -0.002637 0.945943 -0.408568 0.066963 -0.303497 -0.128727 -0.129334 0.006080 0.527110 -0.124527 -0.091903 0.008136 0.259044 -0.469491 0.461144 0.381596 -0.227694 0.393211 0.110405 0.524207 -0.493121 0.120513 -0.238889 -0.049854 0.016845 -0.331714 0.451181 0.114594 0.294077 -0.275348 -0.615484 -0.011120
17.7092915752 -0.177933 0.492155 0.122111 -0.295439 -0.185248 -0.425660 -0.047034 0.027456 -0.204361 0.283503 -0.392326 0.106102 -0.229761 -0.098973 -0.231146 -0.378339 0.642832 0.398246 0.015146 -0.211572 -0.220167 -0.020756 -0.280075 0.146218 -0.383864 0.125332 -0.428212 -0.325544 0.487913 0.298271 -0.214844 0.261947 -0.496845 -0.716271 -0.752896 -0.169642 0.065110 0.209074 0.088660 0.289375 0.292780 0.432230 0.039709 -0.017969 0.103409 -0.101169 -0.419207 -0.357363 -0.033593 -0.088889 -0.128093 -0.150528 -0.135258 0.550365 0.488813 0.187660 -0.505518 -0.033423 -0.303495 -0.767601 -0.530043 0.021453 0.150442 -0.356426 -0.061023 -0.209130 -0.292192 -0.489072 -0.419174 0.102880 0.500917 0.374235 0.060045 0.173311 -0.252460 0.345619 -0.210916 0.096449 -0.397477 0.163988 -0.066019 0.331235 -0.108764 -0.245081 -0.214102 0.258165 -0.370587 0.057642 -0.376024 0.222069 0.116465 0.101092 0.279898 0.173739 -0.533093 -0.290828 -0.034157 0.505662 0.081606 0.074373 -0.118698 -0.288116 -0.293974 0.231145 0.698111 0.702202 0.332706 0.238357 0.274133 0.096322 0.140583 0.692901 -0.527028 0.358943 0.291772 0.488840 -0.805290 0.397299 -0.078878 -0.347386 -0.224187 -0.420785 0.872604 0.009316 0.312260 0.013693 -0.961460 -0.245598
16.3304974999 -0.630715 0.570620 0.182113 -0.269624 0.245560 -0.343693 -0.318503 0.044475 -0.003626 0.194526 -0.134040 -0.022245 -0.532591 0.077445 -0.239576 -0.346914 0.461496 0.267950 -0.439691 -0.123408 0.367282 -0.810097 0.338882 -0.183074 -0.188379 -0.347307 -0.254832 -0.466553 0.113739 0.708148 -0.219049 0.489123 0.482599 0.033822 -0.175447 -0.391924 0.524346 0.576552 -0.270793 -0.239882 0.112585 -0.272103 0.137492 -0.086229 0.368219 -0.537683 0.169322 0.013246 -0.340669 -0.033269 0.394246 0.235764 -0.328333 -0.230649 0.359366 0.708515 -0.023713 -0.212598 0.226007 -0.744205 -0.212014 -0.050074 -0.008682 0.184620 -0.097214 0.050147 -0.459241 0.133816 -0.180337 -0.357965 0.412301 0.117413 0.230088 0.408842 0.269493 0.074128 0.229372 0.043212 -0.217550 0.367398 -0.058743 0.164865 -0.363438 -0.182553 -0.533698 0.106606 0.188665 0.180361 -0.076832 -0.023948 -0.402718 -0.081297 -0.465726 -0.443618 -0.002473 -0.825020 -0.238013 0.590838 0.275124 0.078233 0.115725 0.289326 -0.097380 -0.189987 0.093472 0.006601 0.236245 0.312886 -0.321150 0.637856 -0.019583 -0.041582 -0.003368 0.188466 0.352939 -0.344991 0.449798 -0.124291 -0.210728 0.056569 -0.293717 -0.323402 0.543949 0.429926 -0.128848 -0.252456 -0.122147 -0.090151
7.78012141966 -0.292065 0.217164 0.531953 -0.132147 0.126660 0.290904 -0.182263 -0.073139 0.358247 0.091107 -0.388189 -0.295947 -0.541417 -0.567840 -0.078503 0.027666 0.040922 0.315037 0.180525 -0.343829 0.116069 -0.412882 -0.488891 0.231340 0.550886 0.519253 -0.417320 -0.314426 0.847830 -0.157269 -0.579047 0.494725 0.324911 -0.899263 -0.497806 0.401984 0.267969 0.741036 -0.063612 0.498111 0.349694 0.134265 -0.131149 0.210491 0.232378 -0.615340 -0.284561 0.432612 -0.166255 -0.900565 -0.420827 -0.139633 -0.438757 0.138398 0.668187 0.348920 -0.340472 -0.308843 0.226737 -0.220948 0.003084 -0.253122 0.196660 0.076928 -0.336925 -0.656421 -0.316806 -0.317660 -0.291416 0.291984 0.054912 0.092141 -0.076746 0.112112 -0.582474 0.368113 0.044386 0.046627 -0.313050 0.134119 -0.376127 -0.086602 0.680672 0.429305 -0.568744 0.293579 -0.191420 -0.074231 -0.066985 -0.384446 0.262567 0.363773 0.259235 -0.396820 -0.322843 0.025471 -0.159114 0.435972 -0.426915 0.119445 -0.253716 0.522468 0.518694 0.124147 -0.111519 0.000759 0.158816 0.420265 0.381521 0.229122 -0.158349 0.647025 -0.168804 0.040561 0.617946 0.102502 -0.243296 0.161017 -0.221132 0.584434 -0.006730 -0.321370 0.067034 0.149328 0.346927 -0.436954 -0.333970 0.112389
19.1382480839 0.017266 0.387443 0.090485 0.061291 -0.110265 -0.509867 -0.357571 0.148384 0.010784 0.063397 -0.237329 -0.499798 -0.756134 -0.409886 -0.032282 0.405869 0.453071 -0.079795 -0.539171 -0.838469 0.360368 -0.372153 0.221992 -0.000667 -0.163137 0.432569 -0.420737 -0.160359 0.028069 0.320082 -0.104877 0.570144 -0.326786 -0.704650 -0.237061 -0.112628 0.436895 0.801081 0.350437 0.018647 0.033097 0.032140 0.003425 -0.058018 -0.309891 -0.091032 -0.516207 -0.059204 -0.211129 0.224992 0.117152 0.149659 -0.172751 0.224648 0.648034 0.027695 0.244810 0.249723 0.000624 -0.662816 -0.059877 0.201505 -0.040977 -0.588695 0.083702 -0.424932 0.057214 0.327216 -0.049861 -0.252295 0.958495 0.250216 0.166967 0.140590 -0.432035 0.464829 0.520030 -0.072999 -0.358764 0.184863 -0.388444 -0.290604 0.307755 -0.469212 -0.472036 0.451197 -0.620051 -0.332977 -0.293852 -0.040634 -0.364454 0.699108 -0.210439 0.187215 -0.511402 -0.302763 -0.276304 0.513546 -0.221070 0.409662 -0.630236 0.138149 0.146002 -0.234440 0.824239 0.311682 0.330411 0.447934 -0.035355 0.545603 -0.223668 0.627125 -0.546595 0.215288 0.192286 0.486515 -0.286426 -0.418689 -0.161282 0.239392 0.431054 0.040619 0.270487 -0.001146 -0.076851 -0.546807 -0.367443 0.086734
12.979558696 -0.104456 0.440454 0.052917 0.042299 -0.028905 -0.371993 -0.155311 -0.230056 0.130190 -0.484655 -0.426539 -0.162418 -0.317096 -0.538087 -0.028689 0.176950 0.594205 0.221557 -0.210372 -0.516933 0.111375 -0.258810 0.099385 0.118301 -0.141896 0.381477 -0.373272 -0.365441 -0.269860 0.185806 -0.437322 0.519054 -0.223523 -0.877479 -0.905936 0.024043 0.388875 0.852896 0.260572 0.319326 0.455830 0.081162 0.054016 0.004849 0.293969 -0.253328 -0.677404 0.455095 0.089010 0.248405 0.086849 -0.336491 -0.368668 0.156113 0.319556 0.108541 -0.363138 0.209826 0.203300 -0.260756 -0.097989 -0.518166 0.400388 -0.703965 -0.024120 -0.488406 -0.457066 0.175439 -0.032273 -0.240860 0.220946 -0.013446 -0.254489 0.623317 -0.302789 -0.145162 0.713461 0.161765 -0.886565 0.492279 -0.655361 0.332783 0.372387 -0.000671 -0.491467 0.318778 0.097924 -0.509020 0.332777 -0.446957 0.006590 0.038428 0.382589 -0.189997 0.038763 0.240254 -0.540887 0.545245 -0.394111 0.369834 -0.221814 0.481073 -0.239127 -0.306098 0.413578 0.008535 -0.019617 0.571153 0.140294 0.115914 -0.331547 0.057411 -0.197876 -0.179103 0.565172 0.355805 -0.496151 -0.280469 -0.198192 0.509085 0.023980 -0.437659 0.290163 0.121246 0.533062 -0.787589 -0.227695 0.476073
11.4058875822 -0.239581 -0.252570 0.164192 -0.098094 0.131741 -0.080377 -0.379714 0.301618 0.031410 -0.094577 -0.883547 0.354958 0.036421 -0.486349 -0.138753 -0.552874 0.298785 -0.014944 -0.278557 -0.343966 0.053392 -0.601500 0.337670 0.013228 0.234606 -0.004645 -0.085533 0.356389 -0.553926 0.675916 -0.735368 0.497426 -0.175307 0.105598 -0.067551 0.300172 0.124653 0.149973 0.412644 0.148495 0.101400 -0.152437 -0.217937 -0.420005 -0.018196 -0.372512 0.399436 -0.186648 -0.344751 -0.177182 0.263495 0.306345 0.041796 0.216498 -0.125962 0.479544 -0.452195 -0.620656 0.146332 -0.175672 -0.722180 0.742435 0.306294 0.358759 -0.083951 0.325489 -0.558447 0.133842 0.111800 -0.755337 0.352216 0.003550 0.562053 0.398810 0.267589 0.040173 0.032930 0.300185 -0.447868 0.127058 -0.579105 0.393818 0.203645 0.136001 -0.419050 0.129623 0.116455 0.872272 0.119364 -0.361179 -0.152800 -0.126969 -0.087690 -0.302018 -0.425102 -0.764668 -0.554168 -0.080092 -0.101588 -0.129610 -0.163642 -0.064250 -0.617459 -0.091453 0.033152 0.329796 -0.304739 0.425713 0.030059 0.595175 0.225097 -0.429323 0.330484 0.205573 0.317025 -0.252119 0.031437 -0.395771 0.093861 0.316276 0.126372 0.020577 -0.001474 0.267183 0.040085 -0.130713 -0.022345 0.058794
12.9494657923 0.101678 0.082259 0.268322 -0.171534 0.024336 -0.442528 0.224523 -0.025226 -0.013700 0.177396 -0.271300 0.076976 -0.581239 -0.005665 -0.005208 0.090027 0.810737 0.422405 -0.189843 0.082908 -0.211870 -0.327972 0.114042 -0.100112 0.193972 0.006519 -0.417841 -0.732726 0.122227 -0.151062 -0.007572 0.231822 -0.430788 -0.597025 -1.284967 -0.206130 0.102515 0.423181 0.298804 0.564476 0.417787 0.466398 -0.300401 0.367603 0.618720 -0.399186 0.038333 -0.053364 -0.232292 0.057386 -0.146246 0.149652 -0.377035 -0.007283 0.380383 -0.006223 -0.235759 -0.262742 -0.293587 -0.243046 -0.635891 0.347621 -0.027600 -0.342224 -0.459650 -0.202660 -0.274223 -0.266203 -0.529838 -0.181979 -0.078554 -0.179745 0.458469 -0.077086 0.002126 -0.011660 -0.023798 -0.715564 -0.692706 0.139757 -0.326201 0.500711 -0.059746 0.189610 0.029248 0.268827 -0.585687 0.265389 0.315077 0.586470 0.421016 -0.093364 0.258220 -0.156336 -0.680173 0.156392 -0.212313 0.342037 0.157916 0.370373 -0.034220 -0.150630 0.090966 0.169881 0.459937 0.438395 0.176976 0.613856 0.300094 0.097378 -0.090494 0.679240 -0.359996 -0.058016 0.392817 0.491122 -0.792256 -0.066229 -0.180000 -0.028274 -0.633716 -0.149002 0.549133 0.428687 0.794003 -0.388211 -0.280068 -0.534951
9.62756461044 0.018968 0.344087 0.235380 0.075589 -0.178585 -0.195157 -0.051717 0.307017 -0.002430 0.327821 -0.459038 -0.036638 -0.323383 -0.038063 0.203688 0.354820 0.351618 -0.059955 0.199019 -0.577960 0.106463 0.221479 -0.344804 -0.012916 0.183653 0.484680 -0.493300 -0.759519 0.651604 0.176078 -0.112063 0.330283 -0.249803 -0.207061 -0.437919 -0.497955 0.188641 0.052984 0.206430 0.466970 0.343417 0.186513 0.380948 0.022643 -0.101191 -0.099801 -0.430087 -0.099099 -0.237819 -0.280711 -0.395914 0.180790 -0.140073 0.168499 0.377540 -0.138324 -0.043701 -0.121597 -0.520219 -0.897166 -0.527109 0.119366 0.246402 -0.438880 -0.141974 -0.499911 0.053816 -0.328246 -0.565968 -0.147354 1.181878 0.168558 0.308297 -0.026161 -0.157842 0.598092 0.416386 -0.379021 -0.074287 0.466935 -0.501122 -0.134136 -0.281045 -0.028163 -0.118706 0.400461 -0.646732 -0.079762 -0.836055 0.263548 -0.200414 0.322300 -0.089861 0.072060 -0.356887 -0.477216 -0.188831 1.059045 -0.020259 0.095539 -0.877907 -0.054830 -0.012937 0.020466 0.618233 0.599451 -0.106975 0.278210 0.319906 0.176585 0.272406 0.727034 -0.244253 0.251284 0.114388 0.355114 -0.374188 -0.087397 -0.254555 -0.152780 0.195472 -0.644902 0.159518 0.450541 0.398155 -0.167066 -0.416761 -0.386912
14.061382745 -0.043216 0.108233 0.469251 -0.699612 0.084042 -0.023108 -0.365416 0.286504 0.214904 0.267365 -0.087243 -0.146281 -0.490393 -0.125755 -0.164571 0.109016 0.319360 -0.171388 0.204729 -0.478659 0.070123 -0.609907 0.178938 0.155428 0.177364 0.250418 -0.292564 -0.405404 0.137381 0.217793 -0.258860 0.043415 -0.280268 0.041616 -0.408393 -0.409362 0.322673 0.175243 0.603380 0.606959 -0.150679 0.098737 -0.069328 0.007375 0.468363 -0.363727 -0.431314 -0.438232 -0.073790 -0.443291 -0.117833 -0.147251 -0.459628 0.393132 0.419204 0.096467 -0.095600 -0.600560 0.409772 0.256693 -0.366108 -0.124437 0.028597 0.355896 -0.232534 -0.478944 -0.090724 -0.007973 0.188469 -0.155247 0.524747 -0.300109 0.167133 0.346296 0.038917 0.506240 -0.246881 -0.067917 -0.115419 -0.119925 -0.196231 -0.044641 -0.104986 0.666804 -0.326808 -0.320721 0.338106 0.107353 0.434487 0.321622 0.267282 -0.202301 0.009114 -0.143386 0.159813 -0.425602 0.075524 0.034586 0.083483 -0.053751 -0.669960 0.581197 -0.153675 0.269931 0.522473 -0.007782 -0.238752 0.500649 0.645451 0.936316 0.128376 0.172707 0.082122 -0.307897 0.737697 -0.489460 -0.133666 -0.295590 -0.213362 -0.302643 -0.242589 -0.548887 0.320998 0.184881 0.853167 -0.380364 -0.339947 0.198722
6.450592238 0.049503 0.043309 -0.306152 -0.448926 0.170688 0.116034 -0.105489 0.067048 -0.345453 0.189161 -0.401910 -0.320290 -0.407077 -0.070777 -0.020462 -0.357663 0.404596 0.245178 -0.280774 -0.541293 -0.310696 -0.320801 -0.013186 0.166900 -0.116164 0.206153 -0.097940 -0.228005 -0.376010 0.080226 0.098327 0.286991 -0.234023 -0.088199 -0.797908 -0.403505 0.497693 0.180626 0.120826 0.574577 0.096142 0.273476 0.323544 0.138914 0.093514 -0.544445 -0.601141 0.153483 0.073335 -0.881910 0.240949 -0.012197 -0.440308 0.652649 0.040557 0.147227 0.191642 -0.213960 -0.157808 -0.055838 -0.002082 -0.421754 0.208059 0.030349 -0.526443 -0.551299 -0.228292 0.498931 0.512792 -0.321077 0.417986 0.197450 0.302209 0.534657 0.383389 -0.119057 -0.102216 0.010118 -0.161323 -0.201489 -0.062913 -0.331191 -0.127405 0.490902 -0.178237 -0.008826 0.077427 -0.236692 -0.151988 0.127202 0.106029 -0.069198 0.402350 -0.371398 -0.067619 -0.312963 -0.593094 0.025104 0.207978 0.025083 -0.620213 0.312502 0.270642 0.031397 0.105674 -0.037018 -0.203452 0.425888 0.662067 0.464545 -0.197344 0.107436 -0.166305 -0.042366 0.256244 -0.494517 -0.253565 -0.069087 0.456693 0.060719 -0.240609 0.007387 -0.064917 0.015262 0.422962 -0.390398 -0.563259 0.374858
4.11218936253 -0.353971 0.827187 0.199119 -0.065994 -0.197685 -0.537188 -0.016272 -0.182112 -0.123356 -0.136481 -0.275340 -0.407643 -0.629846 -0.705346 -0.300875 -0.130984 0.162123 0.347727 -0.173628 -0.636917 -0.107640 -0.076505 -0.026696 0.428109 -0.256251 0.540875 -0.702453 -0.691498 0.395567 0.217273 -0.077865 0.323021 -0.427854 -0.741186 -0.711286 0.085679 0.262191 1.003109 0.451484 0.182222 0.134402 0.333138 -0.055618 0.379591 0.033969 -0.097658 -0.579895 -0.350034 -0.127181 0.418090 0.023843 -0.697974 -0.259560 0.165333 0.400122 0.036806 -0.446966 0.157588 -0.263577 -0.598248 -0.425155 -0.321019 0.159390 -0.428935 0.157606 -0.594233 -0.416467 0.098432 -0.286333 0.186460 0.452783 0.028626 -0.225690 0.273976 -0.112883 0.055226 0.240524 -0.243782 -0.713951 0.555933 -0.392229 0.000137 0.468031 -0.265364 0.000462 0.059753 -0.173005 -0.293404 0.393508 -0.090094 0.466105 -0.159679 -0.056332 0.349587 -0.327137 -0.257627 0.041775 0.669094 0.090515 0.406296 -0.254468 0.583037 -0.324316 0.054460 0.874117 0.243305 0.116142 0.633338 0.162727 0.063690 -0.400901 0.386765 0.188674 -0.258292 0.541245 0.267461 -0.583875 0.233942 -0.235988 0.076226 -0.112771 -0.501682 0.677905 -0.103131 0.775511 -0.455661 -0.576436 0.351883
11.120474777 -0.295391 0.283508 0.297590 0.018556 0.245873 0.065196 -0.193345 0.144176 0.196115 0.139675 -0.337974 -0.105394 -0.346939 -0.393521 -0.057795 -0.170548 0.142556 0.313283 -0.047470 -0.397351 -0.206734 -0.355975 -0.163497 0.159345 0.252272 0.308810 -0.390805 -0.469722 0.457231 0.100263 -0.410507 0.505033 0.303405 -0.669899 -0.594296 0.238743 0.238940 0.653598 0.000540 0.281522 0.234636 0.135373 -0.065572 0.123660 0.194349 -0.581954 -0.290102 0.236427 -0.100148 -0.538661 -0.260099 -0.015236 -0.277051 0.099698 0.459923 0.303378 -0.372996 -0.337411 -0.047360 -0.479864 -0.258054 -0.124298 0.219041 -0.157098 -0.231689 -0.365294 -0.262900 -0.203236 -0.292784 -0.042222 0.197113 0.187090 -0.011534 0.150691 -0.245348 0.260038 0.078088 0.018418 -0.412036 0.290408 -0.429377 0.047808 0.351582 0.147564 -0.456031 0.310363 -0.338446 -0.037857 -0.181921 -0.261027 0.025819 0.127594 0.151339 -0.190032 -0.377889 -0.262126 -0.313181 0.546714 -0.332587 0.178751 -0.150646 0.248852 0.241466 -0.007890 0.118162 0.213952 0.120315 0.391929 0.246254 0.207856 -0.083644 0.438628 -0.110236 0.136406 0.367861 0.148775 -0.215066 0.069797 -0.205864 0.357984 0.017612 -0.350804 0.298435 0.262435 0.349185 -0.326142 -0.376468 -0.058637
16.3571878246 -0.185492 0.290438 0.219902 0.004139 0.602895 -0.002114 -0.023017 0.042681 0.066403 -0.019940 -0.126066 -0.251937 0.102419 -0.463805 0.582691 0.355425 0.706888 0.339212 -0.221874 -0.506413 -0.288462 -0.079090 -0.022801 -0.019394 -0.141303 0.674000 -0.200726 -0.729859 -0.364555 0.355042 -0.616279 0.322802 0.161600 -0.565257 -0.615263 -0.030301 0.459652 0.394295 0.503853 0.253699 0.440414 0.082687 -0.196120 -0.273335 0.022089 -0.266621 -0.757802 0.200703 0.525285 0.201877 0.182119 -0.027389 -0.286273 0.059657 0.749671 -0.137284 -0.683048 -0.380109 -0.015499 -0.633605 -0.660533 -0.017674 0.309897 -0.782041 0.248540 -0.175301 -0.375081 -0.022100 -0.126623 -0.458436 0.463226 0.034367 -0.448229 0.886865 -0.096160 -0.108440 0.602875 0.358838 -0.822876 0.635555 -0.736786 0.081037 -0.099008 0.329551 -0.226686 0.467118 0.464017 -0.144459 -0.383611 0.079768 -0.168429 0.007685 0.369027 -0.074703 0.183208 -0.090287 -0.529943 0.470285 -0.387398 -0.069003 -0.600779 -0.134921 -0.404465 -0.211309 0.627444 -0.161553 -0.033200 0.346765 0.709668 -0.056473 -0.302319 -0.139157 -0.477001 0.185889 0.433649 0.164131 -0.270816 -0.243993 -0.189828 0.135457 0.197375 -0.360202 0.121960 0.042947 0.801487 -0.755135 -0.230798 0.316769
8.16812191597 -0.038921 -0.108837 -0.270346 0.041340 0.389389 -0.024753 -0.131438 -0.180198 0.050838 0.045430 -0.730307 -0.014006 -0.127401 -0.256379 0.001938 -0.495690 -0.077274 0.096813 -0.310136 -0.157486 0.367398 -0.292682 0.395782 0.319402 0.011556 -0.077374 -0.030967 -0.229970 -0.120400 0.466480 -0.124435 0.535529 0.121446 0.143391 -0.261373 0.070053 0.397504 0.518778 0.158104 -0.109651 0.485910 -0.244595 0.188912 -0.078720 0.313466 -0.504707 -0.017336 0.314307 -0.494676 -0.460757 0.145223 0.014422 0.045127 0.233163 -0.024330 0.409229 -0.094469 -0.395751 -0.129185 -0.333376 -0.504535 -0.009063 0.644116 0.280726 -0.292006 -0.127438 -0.512157 0.337313 0.347926 -0.451622 0.246331 0.520301 0.578991 0.452193 0.292817 -0.465534 0.488872 0.354012 -0.602376 0.425272 -0.391150 -0.175605 -0.022960 -0.121476 -0.703338 0.409402 -0.164744 0.505198 -0.287663 -0.455579 -0.377580 0.142788 -0.276400 -0.275558 -0.217961 -0.582095 -0.899417 0.664715 0.182123 0.072693 -0.044371 -0.131953 0.147941 -0.099676 -0.267794 -0.073048 -0.300181 0.484546 0.013639 0.174588 0.141280 -0.206574 0.454858 0.178697 0.357286 -0.110363 0.367249 -0.036780 0.176080 0.600290 -0.045535 -0.271899 0.188241 0.562498 0.154778 -0.259822 -0.000171 -0.144145
15.8997220151 0.046653 -0.086307 -0.131100 -0.068170 -0.043758 -0.024062 -0.288487 0.043062 -0.372671 0.078931 -0.674220 -0.070237 -0.137272 -0.044542 -0.261240 -0.498098 0.165525 -0.104518 -0.512698 -0.253902 0.094264 -0.267307 -0.148781 0.347256 0.172547 -0.107416 -0.240287 0.133485 -0.201475 0.483920 -0.194693 0.475523 0.239783 -0.157114 -0.568728 -0.340617 0.661426 0.007720 0.209655 0.293256 -0.002469 -0.003018 0.553497 0.230863 0.402619 -0.585035 -0.070964 0.536027 -0.381760 -0.688185 0.283981 0.209456 -0.127880 0.229827 -0.090891 0.277882 0.058406 0.024057 0.079177 0.012442 -0.178045 -0.247187 0.752769 0.253042 -0.254116 -0.502105 -0.251228 0.680794 0.519501 -0.304498 0.283816 0.225142 0.381055 0.826415 0.408292 -0.136653 0.346544 0.271780 -0.396257 0.268671 -0.147259 -0.311920 -0.153972 0.411273 -0.508140 0.252173 -0.117220 0.071447 -0.384598 -0.464677 -0.123772 0.200131 -0.255174 -0.265766 -0.379909 -0.637901 -0.687055 0.680858 0.033298 -0.102278 -0.383579 0.280517 0.055810 -0.253462 -0.010308 -0.091598 -0.448366 0.538391 -0.011043 0.340699 0.136415 -0.087694 0.514220 0.114501 0.166317 -0.313207 0.098055 -0.385291 0.249688 0.380928 -0.366443 -0.311185 0.056402 0.560214 0.131932 -0.156653 -0.107628 -0.136543
6.61633292702 0.002277 0.120871 0.177234 0.297749 -0.324079 0.085264 -0.667404 -0.401929 -0.081165 0.759442 -0.155121 -0.130767 -0.113785 0.400297 -0.513904 -0.285826 0.827254 0.251672 -0.274818 0.087661 -0.151972 -0.686209 0.116418 0.225992 0.499916 0.041478 0.042690 -0.196157 0.451706 0.379369 -0.238313 0.803643 0.326815 -0.506615 -0.840747 -0.342045 0.588296 0.325877 -0.016484 0.423573 -0.195184 0.079617 0.138569 0.329570 0.428484 -0.673309 0.219471 0.368589 0.295165 -0.163950 0.399666 0.283392 0.017040 0.072980 0.202497 0.651888 -0.376907 0.041233 0.146343 -0.536589 -0.126027 -0.034567 0.268084 -0.233526 -0.323087 -0.497567 -0.143067 0.072224 0.005123 -0.270291 0.240554 0.241271 0.012916 0.380067 -0.123855 0.652824 -0.116694 -0.222580 -0.389796 -0.296954 -0.087470 -0.001639 -0.212811 -0.196438 -0.566668 0.079033 0.114225 0.239720 -0.528336 -0.005740 -0.369578 0.199997 0.227350 -0.456834 -0.497010 0.129613 -0.839003 0.667287 -0.308827 0.211665 0.010408 0.068500 0.305607 -0.233462 0.184000 -0.212465 0.142869 0.775988 0.160594 -0.155594 0.332413 0.193724 -0.069547 0.426101 0.249843 0.283097 -0.204070 -0.391026 -0.071001 0.341185 -0.661688 -0.401921 0.434761 0.071287 0.133349 0.292513 -0.534259 0.055747
17.491764799 -0.447929 0.749830 0.208958 -0.162292 -0.072774 -0.401687 -0.155991 -0.199446 0.028671 -0.466847 -0.636166 -0.232935 -0.598938 -0.790355 -0.181034 -0.077307 0.504385 0.602620 -0.630210 -0.796332 -0.314786 -0.223051 -0.002950 0.182150 -0.177922 0.574233 -0.311904 -0.168788 -0.125636 0.269712 -0.241841 -0.069270 -0.196828 -0.896373 -0.740272 -0.070427 0.165704 0.616002 0.395185 0.421790 0.018402 0.293854 0.044071 0.512722 -0.327740 -0.096640 -0.655320 -0.275072 -0.181284 0.173081 -0.127848 -0.408885 -0.499982 -0.079750 0.537676 0.217650 0.002761 0.078957 0.186807 -0.214016 -0.014016 -0.056692 -0.083701 -0.326944 0.168320 -0.464337 -0.155188 0.121318 -0.161773 -0.249119 -0.065901 -0.266297 -0.044996 0.098099 -0.144152 -0.269085 0.366245 -0.231078 -0.400802 0.448820 -0.378784 0.165450 0.714879 0.265630 -0.142973 0.269637 0.432506 -0.240928 0.433303 -0.331098 0.483429 -0.413823 0.088594 -0.288656 -0.340492 0.056521 -0.101778 0.478226 -0.387761 0.298507 -0.335271 0.658616 -0.160114 0.021502 0.752130 0.367073 0.013143 0.463440 0.179272 0.349530 -0.501404 0.272889 -0.006076 -0.350716 0.466539 -0.220299 -0.428227 -0.300744 -0.031379 0.191749 -0.282160 -0.326399 0.439034 -0.221129 0.706693 -1.046805 0.057186 0.467584
8.24350476155 -0.144519 0.260662 0.136989 0.021703 0.064705 -0.220995 -0.127495 -0.226975 0.047010 -0.214313 -0.471458 -0.129489 -0.202124 -0.420776 0.013548 0.005914 0.531433 0.302799 -0.201693 -0.364795 -0.061595 -0.154549 0.047062 0.161657 -0.060504 0.361888 -0.390539 -0.398613 0.014172 0.228802 -0.372128 0.530604 -0.132427 -0.711377 -0.839086 0.020397 0.369999 0.569368 0.219505 0.310718 0.463906 0.086617 0.161244 0.074812 0.337346 -0.289562 -0.437597 0.343626 0.047692 -0.032489 0.005228 -0.204125 -0.266448 0.195138 0.351252 0.132676 -0.391522 -0.019888 0.003094 -0.299462 -0.270569 -0.310059 0.400198 -0.539808 -0.087438 -0.496315 -0.452020 0.076640 -0.108332 -0.207136 0.192350 0.082974 -0.103446 0.556460 -0.168475 -0.015777 0.502905 0.078448 -0.734643 0.393466 -0.543707 0.210613 0.211071 0.040753 -0.411391 0.360170 -0.028246 -0.227669 0.002913 -0.248289 -0.015174 0.007960 0.238945 -0.181374 -0.105863 0.050670 -0.512240 0.593180 -0.270437 0.249317 -0.279306 0.222776 -0.131371 -0.181387 0.275317 0.060812 -0.087967 0.479821 0.231222 -0.049605 -0.157522 0.094842 -0.157706 -0.022439 0.434105 0.316322 -0.458322 -0.121510 -0.100846 0.385218 -0.040889 -0.444422 0.282193 0.236504 0.458218 -0.542242 -0.261273 0.219164
1.59169272764 -0.193316 0.345546 0.363524 -0.033553 -0.147351 -0.595262 -0.228597 -0.098577 0.336899 0.159026 -0.441402 -0.308755 -0.401578 0.106641 0.205033 0.511792 0.323260 -0.163218 0.050257 -0.259140 0.377804 0.110729 0.043541 0.242172 0.080498 0.425143 -0.577121 -0.638009 0.697649 -0.128583 0.086682 0.309918 -0.514382 -0.374650 -0.492417 -0.396729 0.073157 0.124651 0.571699 0.129629 0.265811 0.082996 -0.075808 0.442880 0.173570 0.182941 -0.007293 0.027988 -0.058563 -0.209245 -0.381441 -0.208737 -0.230532 0.236682 0.463774 0.067531 -0.020953 -0.308701 -0.189968 -0.648895 -0.594710 0.294398 0.309344 -0.459942 0.035451 -1.008724 -0.223422 -0.363327 -0.515745 0.020053 0.358180 0.125944 0.240370 -0.027375 -0.271399 0.534628 0.199281 -0.491851 -0.551293 0.285340 -0.534329 -0.198567 -0.177778 -0.185068 -0.191149 0.326592 -0.324379 -0.168587 -0.183771 0.433807 0.058914 -0.022264 -0.448783 -0.099993 -0.215006 -0.324557 -0.266180 0.874553 0.020552 0.368172 -0.533523 -0.069342 0.124270 0.070613 0.546046 0.236114 -0.158528 0.242606 0.359949 -0.064340 0.290823 0.386900 -0.094378 0.117678 0.236040 0.486865 -0.678773 -0.156243 -0.113932 -0.163778 0.151013 -0.182260 0.660751 0.354793 0.320863 -0.214443 -0.548144 -0.078824
9.36286181175 -0.307541 0.506777 0.229778 -0.180792 0.074051 -0.196188 -0.200887 0.059017 -0.381305 0.175291 -0.587615 -0.013345 -0.184493 -0.403295 -0.284283 -0.445553 0.372160 0.340235 0.006292 -0.441897 -0.338400 -0.092668 -0.220842 0.353656 -0.215814 0.344185 -0.492589 -0.385905 0.560948 0.335255 -0.388269 0.442020 -0.358941 -0.570359 -0.682488 -0.116575 0.232386 0.398120 0.188773 0.276067 0.324012 0.354786 0.160122 0.089815 0.076680 -0.353669 -0.497719 -0.301157 -0.204955 -0.448013 -0.038055 -0.129501 -0.099427 0.470954 0.399172 0.303809 -0.546133 -0.298205 -0.362011 -0.845404 -0.453542 0.096082 0.405767 -0.212998 -0.174632 -0.426011 -0.454787 -0.184944 -0.268002 0.047057 0.587456 0.434970 0.124672 0.315351 -0.212693 0.328887 -0.061487 0.227724 -0.415082 0.298429 -0.344465 0.023387 0.018634 -0.104810 -0.343244 0.336597 -0.319343 0.146746 -0.484746 -0.169541 0.149378 0.129085 0.110636 0.090276 -0.539146 -0.506496 -0.249409 0.568497 0.101486 0.087874 -0.262163 -0.070679 -0.158120 0.116611 0.537192 0.490349 0.106920 0.291731 0.329226 0.080765 0.011242 0.388257 -0.210972 0.325370 0.343069 0.223913 -0.541173 0.290840 -0.013852 -0.027081 -0.049054 -0.460531 0.742027 0.067142 0.356387 0.099175 -0.832626 -0.076558
18.619706014 -0.239220 0.480385 0.287518 0.126377 0.733496 -0.008030 0.195359 0.271551 -0.054257 -0.024654 -0.132647 -0.322129 -0.122888 -0.695602 0.787149 0.355999 0.398030 0.402442 -0.169723 -0.632806 -0.405795 -0.002221 -0.130627 -0.110386 -0.027962 0.799989 -0.205379 -0.833403 -0.297579 0.209285 -0.593561 0.165231 0.245067 -0.441340 -0.503062 0.045682 0.541006 0.518901 0.542160 0.309826 0.420897 0.351250 -0.496657 -0.134776 -0.239337 -0.270411 -0.788597 -0.058238 0.148162 -0.077531 0.170333 -0.033503 -0.291218 -0.187684 0.841487 -0.246859 -0.568649 -0.552771 -0.244480 -0.732691 -0.695983 0.526290 0.080708 -0.628095 0.303788 0.005644 -0.114703 -0.067297 -0.193139 -0.234655 0.432692 -0.022175 -0.223789 0.495574 0.052066 -0.198221 0.415495 0.139548 -0.270953 0.646711 -0.793605 -0.188896 0.028748 0.469480 -0.073480 0.486185 0.343447 0.040035 -0.559646 0.280882 0.086623 0.070245 0.002009 -0.001823 -0.006328 -0.442385 -0.360394 0.389546 -0.052341 -0.079496 -0.790801 0.015970 -0.259723 -0.120727 0.667308 -0.164713 -0.060788 0.329618 0.721864 0.125917 -0.479547 0.058331 -0.395544 0.017699 0.410949 -0.022433 -0.019669 -0.366233 -0.182228 0.175209 0.402644 -0.123769 0.058718 0.056843 0.889339 -0.671425 0.030128 0.046824
3.53980599307 -0.197705 0.355610 0.265885 0.062881 0.510289 0.213241 0.085391 -0.429257 -0.414024 0.683505 -0.213225 -0.472711 0.124986 -0.163150 0.129426 0.002942 0.157003 0.146122 0.109086 -0.277184 -0.750769 -0.170927 0.498763 0.125906 -0.062445 0.477645 -0.638167 -0.643424 0.478459 0.144057 -0.312795 0.975908 0.228760 -0.646422 -0.628593 -0.111065 0.202206 0.261930 0.598611 0.261914 0.433044 -0.311794 0.199213 0.212212 0.385213 -0.059711 0.118651 -0.092289 0.186112 -0.522266 0.099696 -0.429485 -0.298594 0.429948 0.683315 0.064550 -0.691303 -0.122886 -0.233775 -0.471302 -0.679750 -0.114896 0.331231 -0.530330 0.153133 -0.643492 -0.559407 -0.438296 -0.136652 -0.268076 0.213707 0.899063 0.209155 0.154518 0.232278 0.233733 0.388870 -0.497169 -0.537149 0.244033 -0.673047 -0.480079 0.134173 -0.387252 -0.333831 0.277526 -0.938820 0.296374 -0.526585 -0.207153 -0.486213 -0.361833 -0.695390 0.506034 0.010101 -0.540511 -0.095102 0.844391 0.157302 0.121786 -0.295101 -0.014384 0.070488 -0.123012 -0.013766 -0.326525 -0.273804 -0.154903 0.200063 -0.802089 0.123112 0.164929 0.281996 0.344405 -0.013971 0.381392 -0.113038 0.124559 -0.040717 0.369935 -0.056449 -0.328544 0.343601 -0.031886 0.450763 0.190389 -0.565222 0.144241
12.4117954559 -0.110440 0.598291 0.308890 -0.063705 -0.480772 -0.641319 -0.187447 -0.398026 0.422268 -0.067990 -0.918762 -0.007630 -0.634563 -0.579944 -0.149534 0.166235 0.568461 0.237821 -0.343362 -0.549640 0.220729 0.416607 0.505480 -0.011559 -0.175823 0.627943 -0.532276 -0.717328 -0.034595 0.831652 -0.040180 0.118415 -0.222169 -0.322134 -1.171240 -0.138058 1.142045 1.005503 0.300666 0.244788 0.344829 0.435418 0.143487 0.408054 0.206679 -0.081745 -0.718473 0.015773 -0.400910 0.423951 0.515661 -0.179395 0.114612 -0.020591 0.360455 -0.121178 0.249402 -0.089470 0.116137 -0.276629 -0.821058 0.136532 0.207748 -0.384076 0.096396 -0.341501 0.181652 0.458043 -0.338888 -0.311571 0.795124 -0.473893 -0.110288 0.192337 -0.169637 0.085784 0.621951 -0.075993 -0.171426 0.328569 -0.240549 0.023543 -0.004279 -0.440576 -0.491633 0.078504 0.417679 -0.138797 -0.177818 0.383303 -0.101658 -0.168256 -0.028605 -0.307484 -0.250933 -0.257298 -0.687628 0.804216 0.050397 0.378897 -0.883738 0.417738 -0.382280 -0.077367 0.817303 0.415076 -0.592088 1.402597 0.424217 0.390051 -0.038254 0.413232 0.120201 -0.326516 0.740529 -0.021215 -0.100737 -0.723655 -0.430294 -0.053830 -0.031414 -1.143388 0.119342 0.551906 0.754193 -0.834816 0.220797 -0.138090
0.0776708402861 -0.246616 0.239892 0.359428 -0.062097 0.178419 -0.068054 -0.281568 -0.021252 -0.178810 0.147473 -0.629330 -0.100932 -0.358611 -0.435643 -0.184343 -0.149612 0.562347 0.263858 -0.342051 -0.525490 -0.184678 -0.456705 0.123797 0.195348 0.017155 0.320819 -0.493968 -0.442135 0.154585 0.385046 -0.515868 0.658596 -0.105588 -0.466972 -0.756787 -0.188004 0.377159 0.549179 0.398965 0.315608 0.221406 0.130658 0.086966 0.011583 0.257326 -0.435738 -0.297428 -0.096904 -0.216974 -0.387065 0.125268 0.149780 -0.243305 0.303777 0.480014 0.345610 -0.353545 -0.367244 -0.129869 -0.498308 -0.546458 0.069192 0.355441 -0.152861 -0.280243 -0.479081 -0.456137 0.159554 -0.104684 -0.384396 0.432450 0.220251 0.298866 0.356479 -0.119631 0.264202 0.246430 -0.014504 -0.521913 0.218031 -0.445891 0.013867 0.096672 0.086030 -0.507671 0.303813 -0.271826 0.190278 -0.275927 -0.225708 -0.097042 0.084562 -0.095539 -0.198728 -0.490174 -0.521373 -0.530841 0.550427 -0.174708 0.155176 -0.406584 0.263696 -0.096886 -0.084603 0.356042 0.156537 -0.125318 0.483112 0.247005 0.299630 -0.066066 0.193573 -0.125260 0.154338 0.457662 0.055361 -0.232050 -0.151796 -0.140532 0.230578 -0.142344 -0.513913 0.398616 0.213230 0.446030 -0.323831 -0.384593 0.096575
19.5247555637 -0.246266 0.231634 0.377543 -0.063968 0.185239 -0.064367 -0.293817 -0.029704 -0.201494 0.160531 -0.639230 -0.109201 -0.366495 -0.448746 -0.202164 -0.158136 0.575666 0.268749 -0.352109 -0.530172 -0.201300 -0.477549 0.122880 0.204502 0.013832 0.322180 -0.509740 -0.445255 0.165396 0.388023 -0.532206 0.684652 -0.110715 -0.475119 -0.785289 -0.183293 0.393371 0.564283 0.412190 0.323869 0.233666 0.122471 0.093920 0.016054 0.268373 -0.457400 -0.303045 -0.095946 -0.231835 -0.402488 0.144215 0.153846 -0.250273 0.313659 0.501753 0.362195 -0.364767 -0.378841 -0.135146 -0.511992 -0.552823 0.069162 0.373561 -0.151450 -0.299578 -0.494647 -0.477752 0.165382 -0.096373 -0.396163 0.441331 0.241814 0.314449 0.369273 -0.126009 0.263532 0.251122 -0.018822 -0.548411 0.221898 -0.462469 0.003240 0.104092 0.084038 -0.526121 0.308887 -0.290179 0.208661 -0.288160 -0.234537 -0.097618 0.098107 -0.095769 -0.199699 -0.515914 -0.533471 -0.551115 0.557518 -0.163836 0.151655 -0.412326 0.268089 -0.099686 -0.087509 0.370357 0.150613 -0.134212 0.498821 0.258221 0.296322 -0.058813 0.192590 -0.127400 0.160718 0.469498 0.055767 -0.232663 -0.149058 -0.143803 0.244173 -0.152768 -0.527574 0.403332 0.219058 0.457173 -0.317577 -0.393528 0.098486
14.1253200561 -0.528611 0.444255 0.424582 0.210587 0.050159 -0.002117 -0.495413 -0.221696 -0.484561 0.487177 -0.323754 -0.320086 0.004657 0.055632 -0.310009 -0.255676 0.676464 0.680111 -0.856099 -0.613480 -0.865789 0.011326 0.943698 0.028448 -0.423674 0.605410 -0.512215 -0.874658 0.087565 0.891759 -0.154996 0.733684 -0.129063 0.051193 -0.797115 -0.364833 0.312075 0.507859 0.622335 0.115878 -0.255532 -0.039145 0.263041 0.263406 -0.150226 -0.161311 -0.237645 -0.878972 0.049461 0.430741 0.456489 -0.581438 0.238895 -0.113212 0.464384 0.097085 -0.389938 -0.193455 -0.592777 -0.804470 -0.621042 0.501733 -0.158872 -0.684460 0.062196 -0.260404 -0.292473 0.263257 -0.157036 -0.907689 0.522765 0.153276 0.096468 0.323029 0.686831 0.307645 0.736681 -0.684516 -0.594470 0.114030 -0.504444 -0.287559 -0.086786 -0.668113 0.099611 -0.002894 -0.138286 0.191043 -0.414895 0.331405 -0.407640 -0.552232 -0.239831 0.223335 -0.210198 -0.484562 -0.296711 0.486481 -0.080448 0.362085 -0.676839 0.342130 -0.103178 -0.042300 0.809239 -0.139096 -0.298222 0.351801 0.239315 -0.033601 0.008991 -0.014445 0.346291 0.136099 0.110762 0.219142 -0.135006 -0.005261 -0.071460 -0.159769 -0.166022 -0.613113 0.291820 -0.047945 0.610860 -0.259519 -0.067461 -0.143678
2.95507843603 -0.248371 -0.073036 0.005846 -0.351769 0.445483 0.033964 -0.063147 0.462847 -0.418904 0.065705 -0.486416 0.285776 -0.463216 -0.019734 -0.070264 -0.463018 0.598400 0.042668 -0.186831 -0.093911 -0.166962 -0.688248 -0.287760 -0.038256 0.099858 -0.285090 -0.188740 0.107863 -0.311671 0.096858 -0.297606 0.289351 0.021912 0.033176 -0.643229 -0.554861 0.078422 0.032322 0.024174 0.264647 0.012835 0.108164 0.025427 -0.410419 0.096203 -0.775644 -0.257157 0.098017 -0.311054 -1.056365 0.414877 0.697270 -0.555349 0.372463 0.029675 0.419860 0.120388 -0.502243 -0.027010 -0.347782 -0.101700 0.128827 0.264069 0.560696 -0.483223 -0.107214 -0.227478 0.422627 0.235063 -0.286747 0.166709 0.276655 0.659282 0.338597 0.037663 -0.029789 -0.268681 0.348985 0.011012 -0.093452 -0.018945 -0.082290 -0.381416 0.596769 -0.432726 0.142285 -0.083525 0.320747 -0.355251 -0.254912 0.136052 0.383784 0.103374 -0.568026 -0.562990 -0.786113 -0.533053 0.069059 0.220139 -0.183223 -0.223346 0.255773 0.053022 -0.020627 -0.054554 0.106111 0.138220 0.237426 0.139144 0.921999 -0.266850 0.027337 -0.373424 0.150473 0.318178 -0.635034 -0.085641 -0.128077 0.273813 0.049595 -0.400845 0.269638 0.226703 0.125671 0.061198 -0.176162 -0.625189 0.119240
0.921525523626 -0.280360 0.089348 0.137334 -0.183562 0.307664 0.079168 -0.443246 -0.153438 -0.543327 -0.254736 -0.459646 0.175246 -0.106210 -0.632322 -0.089593 -0.134783 0.192069 0.166318 -0.205906 -0.253963 0.014472 -0.425326 0.435797 -0.012157 -0.025064 0.236386 -0.273428 0.081378 -0.442464 0.646951 -0.355649 0.216459 0.109371 0.190917 -0.283384 -0.100948 0.352840 0.476434 -0.144572 0.469564 0.123625 0.173494 0.271344 0.017373 0.123649 -0.323604 0.101215 -0.382967 -0.515797 0.018851 0.623736 0.483038 -0.193241 -0.191064 0.214222 0.312069 0.000458 -0.366487 -0.020155 -0.343513 -0.204165 0.277238 -0.040063 0.243788 -0.104590 -0.048112 -0.337128 0.442166 -0.211886 -0.672378 0.514943 -0.219780 0.428460 0.519576 -0.052408 0.129481 0.101922 0.114742 -0.048119 0.184927 -0.482580 0.151772 -0.108365 0.130943 -0.374938 0.422767 -0.003566 0.514214 0.197109 -0.180084 -0.149377 -0.255666 -0.764437 -0.490964 -0.329933 -0.816974 -0.284491 0.035182 0.611047 0.174277 -0.562358 0.003801 -0.326400 -0.108168 0.178711 0.274532 -0.026428 0.197505 0.275806 0.255381 -0.251479 -0.498265 -0.287014 -0.191463 0.532576 -0.365307 0.167038 -0.437449 0.195552 0.047861 0.086855 -0.160469 0.385612 0.253808 0.044909 -0.077199 0.326089 -0.055380
2.8704811575 -0.232656 0.243315 0.111024 -0.088641 0.372670 -0.427611 -0.413849 -0.235943 -0.240506 0.121065 -0.466365 0.073916 -0.113382 -0.546085 -0.079822 -0.846195 0.870501 0.812790 -0.684453 -0.107161 -0.622983 -0.672002 0.232013 0.373512 -0.207979 -0.092599 -0.155905 -0.091127 0.185000 0.215082 -0.588532 0.537533 -0.490639 -0.838640 -0.693938 0.317559 -0.045279 0.315129 0.435323 -0.089280 0.396805 0.011732 -0.040594 -0.199455 0.488484 -0.285855 -0.054641 -0.370893 0.240790 -0.153154 -0.201884 0.079104 -0.171217 0.399149 0.403032 0.740990 -0.628423 -0.493804 -0.242095 -0.288781 -0.397293 0.253648 0.246150 -0.098883 -0.081051 -0.233782 -0.541521 -0.096418 0.238979 0.030162 -0.614570 0.611959 0.035850 0.265601 -0.153173 0.267732 -0.334980 0.227387 -0.540437 -0.232656 -0.279749 0.420679 0.502740 0.084398 -0.475694 0.456281 0.026711 0.425941 -0.290582 -0.490870 0.069029 0.057279 0.412861 -0.082077 -0.732125 -0.022522 -0.184423 0.167807 -0.286858 0.277723 0.615551 -0.093006 -0.125455 -0.013029 0.319031 0.217907 0.326617 0.132968 0.000407 -0.129593 0.042964 -0.054310 -0.509722 0.394201 0.306393 0.366124 -0.551345 0.142817 -0.005769 0.461036 -0.292052 0.139863 0.757181 0.285838 -0.026303 0.141972 -0.817277 -0.027921
13.1926982993 -0.162831 0.386052 0.455914 0.141349 -0.178685 -0.052362 0.022305 0.133098 -0.040797 0.519366 -0.425871 -0.063510 -0.243059 -0.231005 -0.096979 -0.123279 0.133216 0.300526 0.071345 -0.317098 -0.208601 0.253228 -0.372206 0.191745 0.000048 0.556228 -0.674330 -0.825751 1.059816 0.413051 -0.207017 0.469797 -0.265922 -0.323854 -0.335175 -0.173529 0.150068 0.156032 0.274164 0.278955 0.228709 0.237359 0.268175 -0.072365 0.006308 0.043747 -0.340259 -0.390780 -0.239194 -0.238874 -0.452707 -0.150037 0.066073 0.275819 0.443424 -0.181008 -0.534826 -0.177466 -0.773541 -0.691389 -0.661303 0.037348 0.203794 -0.107285 -0.096897 -0.412615 -0.060927 -0.404991 -0.570452 0.154965 0.823247 0.333641 0.115013 -0.105554 -0.007513 0.617374 0.107655 -0.366868 0.059102 0.328225 -0.203646 -0.115042 -0.035060 -0.290231 -0.040703 0.002620 -0.677922 0.080941 -0.866725 0.141571 -0.033805 0.224057 -0.131891 0.400878 -0.466031 -0.611152 0.153799 0.907902 -0.002785 -0.004131 -0.674120 0.097270 -0.143744 0.237511 0.507014 0.428625 -0.067670 0.294262 0.183432 -0.024020 0.233030 0.831321 -0.018844 0.143557 0.062155 0.299649 -0.303564 0.561580 -0.306692 -0.246365 0.059811 -0.795584 0.172260 0.127770 0.525147 -0.048917 -0.410895 -0.416513
4.28679950121 -0.127445 0.458666 0.232936 0.059249 -0.052328 -0.455863 0.084260 -0.190441 0.025804 0.099843 -0.009647 -0.456090 -0.578677 -0.378419 -0.077117 0.150175 0.316280 0.257373 -0.144289 -0.334129 0.002035 -0.126885 0.219504 0.237327 -0.060314 0.446971 -0.762060 -1.053433 0.349566 0.068486 -0.002831 0.588359 -0.443362 -0.553026 -0.845388 0.118715 0.277454 1.003449 0.500234 0.173835 0.303106 0.168905 -0.183742 0.232806 0.382360 -0.155490 -0.293532 -0.117366 0.084958 0.537967 0.028188 -0.528695 -0.196611 0.151647 0.433205 -0.137165 -0.531136 0.043866 -0.465350 -0.551840 -0.659913 -0.274768 0.168237 -0.652810 0.006622 -0.546664 -0.463429 0.039638 -0.378858 0.026344 0.488533 0.069148 -0.151119 0.351870 -0.033729 0.185587 0.433105 -0.562302 -0.979692 0.487664 -0.473968 0.042293 0.158517 -0.351837 0.081471 0.077860 -0.548514 -0.269915 0.381757 0.294987 0.182468 -0.012761 0.028573 0.427264 -0.283679 -0.079548 -0.073062 0.675912 0.102466 0.436909 -0.242370 0.319834 -0.184789 -0.033375 0.663427 0.007644 0.089743 0.682140 0.241131 -0.150898 -0.277106 0.412021 0.063365 -0.151044 0.478795 0.658060 -0.654526 0.267078 -0.355834 0.164693 -0.093902 -0.424161 0.444329 0.163768 0.812296 -0.370892 -0.567149 0.125330
19.0942831416 0.372356 -0.357834 0.378479 -0.436050 0.143098 0.216471 -0.006669 -0.623233 -0.589324 0.124695 -0.386013 -0.378155 -0.196794 -0.499498 -0.627825 0.040093 0.322560 0.134077 -0.306149 -0.167068 -0.181729 -0.440907 0.004275 0.365503 0.098953 0.192760 -0.216076 0.160205 0.500562 -0.073215 -0.184284 0.209228 -0.522366 -0.434632 -0.733110 0.043743 0.415366 0.186435 0.274647 0.571914 0.456528 -0.154396 0.313560 0.278415 0.683487 -0.033704 -0.230124 0.087058 -0.571468 -0.708029 0.197433 -0.166999 -0.023834 0.314035 0.610625 0.019339 -0.274643 -0.110949 0.153252 0.540184 -0.173297 -0.331557 0.600451 0.210403 -0.698178 -0.682838 -0.502080 0.263128 0.386379 0.047865 -0.104944 0.310919 0.328754 0.496132 -0.266393 -0.014644 0.383072 -0.123763 -0.705637 -0.003088 -0.370894 -0.265867 0.514014 0.481195 -0.403674 0.194560 -0.570675 0.273258 0.131052 -0.424745 0.446131 0.290968 -0.211397 0.066628 -0.266532 0.073398 -0.431792 -0.143661 0.491840 0.077428 -0.440866 0.057261 -0.069315 0.097554 -0.014032 -0.101208 -0.525778 0.414202 0.513780 -0.260374 0.221576 -0.160239 0.168598 -0.039280 0.499795 -0.107384 0.013315 -0.004868 0.191003 0.515165 -0.331548 -0.466460 0.136414 0.143575 0.387158 0.004416 0.261595 -0.256968
10.237200968 -0.347806 0.016326 0.402921 0.231352 0.346058 -0.100735 -0.086798 -0.138968 -0.014651 -0.004994 -0.949624 0.281415 0.111819 -0.608380 -0.415869 -0.419279 -0.033298 0.127319 -0.001706 -0.011371 -0.203579 -0.035339 0.473562 0.204197 -0.148669 0.593205 -0.490929 -0.063606 -0.157304 0.353059 -0.542159 0.531784 -0.090902 -0.044705 -0.600576 -0.119388 0.281458 0.210269 0.467617 -0.002039 0.741150 -0.089527 -0.073485 -0.129275 0.036475 -0.203880 -0.283713 0.069110 -0.772936 -0.138841 0.323896 -0.070904 0.292799 -0.240762 0.232873 0.133707 0.109918 -0.664385 -0.122653 -0.094786 -0.921950 0.737296 0.587343 0.030875 -0.016515 0.008848 -0.327196 0.068368 -0.045382 -0.013409 -0.016666 0.264980 0.240735 0.124442 0.012744 -0.318041 0.727637 0.388624 0.006357 0.278919 -0.672825 0.173277 0.180623 -0.443195 -0.542549 -0.028987 -0.050565 0.296718 -0.463928 -0.514116 0.009905 0.062321 -0.389717 -0.084940 -0.088525 -0.154946 -0.669686 0.622541 0.022609 -0.257824 -0.155750 0.204042 -0.197354 -0.198853 0.264804 -0.309144 -0.148009 0.883606 -0.252656 0.303611 -0.215202 0.130352 0.376196 -0.086589 0.272433 -0.260544 -0.050752 -0.274176 -0.255396 0.513834 0.255633 -0.513672 -0.118067 -0.054000 0.793598 -0.395057 0.482316 -0.148111
3.42328073982 0.087217 -0.111652 -0.017118 0.255497 0.092268 0.332688 -0.574384 -0.114622 -0.475636 0.408946 -0.544427 0.122473 0.236530 -0.052461 -0.311653 -0.514370 0.391066 0.013413 -0.480688 -0.124713 -0.104436 -0.640717 0.405169 0.308110 0.341246 0.176943 -0.053827 0.052947 -0.304724 0.814869 -0.361999 0.671219 0.491415 0.033615 -0.383201 -0.020166 0.486076 0.163169 0.004322 0.482230 -0.177695 0.145353 0.124228 0.216341 0.289746 -0.534169 0.403919 0.047483 -0.243483 0.044759 0.531980 0.504954 0.165405 -0.303772 0.014644 0.532820 -0.188736 -0.254758 0.148851 -0.186603 -0.274730 0.372878 0.251953 0.057791 -0.280758 -0.011296 -0.238154 0.412227 0.056025 -0.829835 0.226333 -0.070526 0.182644 0.569239 0.225775 0.175593 -0.085389 -0.016290 -0.337761 0.003980 -0.315744 0.147644 0.024441 0.068549 -0.561782 0.113105 0.067668 0.702320 -0.270045 -0.321364 -0.590742 -0.183831 -0.321044 -0.455175 -0.512952 -0.452928 -0.792759 0.271131 -0.304277 0.095948 -0.242799 -0.145021 -0.145117 -0.295170 0.168806 0.061132 -0.104360 0.676718 0.081980 0.057494 0.227539 -0.410084 0.105496 0.329251 0.210305 -0.180760 0.134418 -0.657242 0.116054 0.226927 -0.425023 -0.274850 0.188536 0.312645 -0.106399 0.149205 0.204411 -0.115046
0.620951972522 -0.493440 0.708899 0.333604 -0.218360 -0.030017 -0.252905 -0.219717 -0.129096 -0.128961 -0.340780 -0.815349 -0.147985 -0.659146 -0.848956 -0.338860 -0.232828 0.512999 0.656653 -0.753056 -0.860380 -0.458332 -0.381302 -0.052084 0.173852 -0.118102 0.541120 -0.292100 -0.066111 -0.072866 0.393078 -0.348226 -0.122357 -0.130303 -0.766279 -0.702907 -0.163216 0.168198 0.511301 0.415581 0.508606 -0.117395 0.336512 0.067845 0.530098 -0.419273 -0.207297 -0.598757 -0.520774 -0.442134 -0.082713 -0.109360 -0.181801 -0.483478 -0.103603 0.597185 0.354946 0.089258 -0.087623 0.170410 -0.181803 -0.079083 0.165524 -0.127552 0.000077 0.031045 -0.368955 -0.101632 0.160535 -0.140173 -0.353027 -0.083254 -0.287208 0.197691 -0.045304 -0.066819 -0.240726 0.193867 -0.257166 -0.162939 0.341511 -0.270937 0.129547 0.751116 0.419195 -0.202550 0.217475 0.426971 0.043351 0.258946 -0.410805 0.530249 -0.416330 -0.074447 -0.375202 -0.574149 -0.184043 -0.101118 0.426436 -0.355956 0.203546 -0.387766 0.722293 -0.125615 0.103491 0.753159 0.468925 -0.048990 0.474581 0.146321 0.593114 -0.456134 0.333726 0.075635 -0.323414 0.451155 -0.514830 -0.249730 -0.348703 -0.013460 0.114571 -0.424226 -0.403917 0.441725 -0.252486 0.711768 -1.014747 0.203944 0.322450
18.2083070467 -0.436562 0.312081 -0.104477 -0.119201 0.204412 -0.058938 -0.163263 0.283721 -0.260738 0.022873 -0.261511 -0.298496 -0.373432 0.043384 -0.314498 -0.236520 0.112059 0.042197 -0.525017 -0.100317 0.063085 -0.355070 -0.203819 0.148372 -0.061112 -0.096733 -0.346625 -0.590627 -0.144176 0.445867 -0.010941 0.547192 0.389888 0.407580 -0.242211 -0.375320 0.419527 0.515082 0.210753 0.008635 -0.294374 -0.350650 0.216600 0.275217 0.046573 -0.828451 0.062850 0.158419 -0.193187 -0.409982 0.166602 0.013899 -0.355450 0.172520 0.087419 0.467128 -0.271703 -0.079173 -0.437152 -0.693181 -0.261605 -0.279224 0.499492 -0.060939 -0.210867 -0.138730 -0.871723 0.578493 0.031165 -0.352811 0.491469 -0.105926 0.413115 0.751320 0.433872 -0.149958 0.273688 0.076446 -0.715258 0.615226 -0.230943 -0.106384 -0.274315 -0.030221 -0.148276 0.016269 -0.175483 -0.215137 0.001273 -0.001889 0.016907 0.041520 -0.124963 -0.164898 -0.308496 -0.751336 -0.399941 0.677374 -0.001995 -0.004199 -0.169133 0.475538 0.152313 -0.385247 0.049665 -0.212262 0.095422 0.247158 0.029379 0.224146 -0.293507 -0.057050 0.626763 0.096180 0.286460 -0.238318 0.011254 0.224699 -0.038059 0.247297 -0.300305 -0.217761 0.102709 0.195550 0.240585 -0.351074 -0.182760 0.260477
14.6859053517 -0.138757 -0.195306 0.575397 0.342912 -0.209437 0.011015 -0.385709 -0.153626 -0.244582 -0.422091 -0.880497 0.322495 0.141923 -0.567108 -0.793010 -0.366945 0.182204 0.089505 -0.455711 -0.440258 -0.392811 0.064619 0.213922 0.205626 0.036589 0.175616 -0.708204 0.215375 0.154258 0.375727 -0.579071 0.786470 -0.426713 -0.364243 -0.810459 -0.292275 0.257410 0.179330 0.763460 0.033425 -0.009295 0.166160 0.628776 -0.198388 -0.121968 0.041514 -0.397799 -0.129540 -0.304043 0.036758 0.112797 0.145893 0.109819 0.276807 -0.138767 -0.034669 -0.037927 -0.002745 -0.391733 0.076629 -0.527021 -0.058504 0.749556 -0.356758 -0.001236 -0.618284 -0.013344 0.581415 -0.116016 -0.038433 0.265296 0.156668 0.117012 0.026089 -0.444472 0.226963 0.853676 0.030395 -0.305053 0.161359 -0.246828 -0.068195 0.002300 -0.386327 -0.174346 0.088838 -0.514275 0.030125 -0.230068 -0.911482 0.003122 0.218189 -0.065619 0.040957 -0.666161 -0.026643 -0.411223 0.742745 -0.385415 -0.114009 -0.077539 0.640449 -0.482496 -0.378358 0.021256 -0.025756 -0.570590 0.543496 -0.509400 0.064395 -0.155638 -0.044730 0.422926 -0.093167 0.059628 0.411178 -0.305036 -0.293714 -0.209021 0.284998 0.136825 -0.883019 -0.069784 -0.122569 0.313028 0.005021 -0.096844 0.308294
8.98805450253 0.186352 -0.036797 -0.015453 -0.258005 0.067355 0.265574 -0.194744 0.327689 -0.224002 0.372288 -0.859347 0.115367 0.164046 -0.174517 -0.351508 -0.315630 0.318601 0.023223 -0.254053 -0.520984 -0.380824 -0.242840 0.099852 0.006493 0.168072 -0.099785 0.298121 0.416168 -0.510643 0.301248 -0.488131 0.184080 0.226319 -0.343521 -0.375481 -0.516889 0.246273 -0.121076 0.345245 0.504906 -0.293622 0.224833 0.064670 0.236319 -0.214540 -0.048077 0.197272 -0.222657 -0.030570 -0.668256 0.183609 0.780175 -0.309158 0.540118 -0.262448 0.476986 0.078296 -0.249986 -0.036526 -0.108637 -0.291112 -0.026792 0.113246 0.232440 -0.307627 -0.143495 -0.151755 0.102062 0.379104 -0.908155 0.341178 0.216118 0.653024 0.023754 -0.085387 0.072935 0.096475 -0.060381 -0.278124 -0.093729 -0.030634 -0.137078 0.051840 0.220893 -0.425582 0.545193 -0.284158 0.385450 -0.094156 -0.483999 -0.371870 -0.296173 0.098243 -0.410179 -0.692535 -0.571715 -0.469789 -0.270578 -0.606686 -0.297154 -0.150769 0.113701 -0.359966 -0.221787 -0.037049 0.492920 -0.202032 0.078502 0.297382 0.151573 -0.007863 -0.004156 -0.069392 0.297724 0.253975 -0.352920 0.131389 -0.247399 0.203453 0.298823 -0.430768 -0.287946 -0.252531 0.030381 0.084749 -0.074882 -0.157818 0.551764
17.2978256262 -0.154062 0.400753 0.153473 0.045330 0.561638 0.258497 0.196127 -0.286753 -0.585515 0.530776 -0.224244 -0.369697 0.134426 -0.246025 0.098590 -0.033229 0.135422 0.131889 0.184534 -0.370775 -0.844499 -0.149609 0.434687 0.043098 -0.120008 0.438712 -0.585200 -0.599892 0.286896 0.170651 -0.276092 0.938974 0.237144 -0.634944 -0.771501 -0.207969 0.322785 0.356438 0.460465 0.315789 0.509491 -0.182986 0.321993 0.184902 0.300317 -0.192046 -0.071891 -0.000752 0.088630 -0.619615 0.242450 -0.381320 -0.321598 0.396221 0.501551 -0.049722 -0.711822 -0.017012 -0.291352 -0.566250 -0.549674 -0.177770 0.355279 -0.622334 0.091537 -0.509546 -0.538952 -0.295186 -0.147739 -0.311022 0.466015 0.875008 0.242688 0.236823 0.259414 0.065765 0.454082 -0.366583 -0.539777 0.369340 -0.750037 -0.496410 0.053953 -0.345453 -0.299347 0.364787 -0.995111 0.287268 -0.500219 -0.271746 -0.422411 -0.368869 -0.552477 0.462891 0.023702 -0.506145 -0.189023 0.790662 0.287287 0.130870 -0.370246 -0.047734 0.067393 -0.175645 -0.050981 -0.173737 -0.257381 -0.120684 0.217551 -0.741754 -0.048878 0.161854 0.292141 0.286547 -0.007882 0.339244 -0.061156 0.091796 0.037119 0.415152 -0.023336 -0.325747 0.301387 -0.069880 0.525158 0.185353 -0.523528 0.163232
8.26899496671 -0.273477 0.298242 0.092236 -0.132536 0.394157 -0.255683 -0.363990 -0.195019 -0.457125 0.076233 -0.530645 0.141875 0.058619 -0.606633 -0.205470 -0.995583 0.753453 0.816755 -0.447641 -0.135398 -0.698758 -0.431618 0.023305 0.533908 -0.252095 0.014536 -0.236831 -0.100681 0.393504 0.309892 -0.603310 0.453991 -0.522223 -0.777422 -0.713980 0.391753 -0.028358 0.321692 0.279113 -0.029873 0.466725 0.185010 0.057729 -0.232273 0.434035 -0.409271 -0.318521 -0.437682 0.170644 -0.284077 -0.140471 -0.023355 -0.018935 0.473276 0.319718 0.692395 -0.801886 -0.548411 -0.353576 -0.486826 -0.353418 0.191097 0.447457 -0.033713 -0.184648 -0.218051 -0.584831 -0.135570 0.146396 0.156930 -0.342199 0.638552 -0.119137 0.462596 -0.207999 0.252251 -0.381353 0.499867 -0.507957 -0.072334 -0.261949 0.399676 0.407541 0.132189 -0.450321 0.455885 0.108948 0.431880 -0.435718 -0.587172 0.213006 0.119212 0.537060 -0.036360 -0.679749 -0.094548 -0.195428 0.165122 -0.147228 0.180252 0.545326 -0.198228 -0.175919 0.089101 0.268703 0.337311 0.308150 0.181873 0.187688 -0.138475 0.014385 -0.108282 -0.454927 0.450555 0.324744 0.303702 -0.622277 0.362940 0.026052 0.340329 -0.238148 -0.039406 0.853867 0.238426 0.009027 0.354277 -0.931598 -0.044638
5.74421171504 -0.226444 0.395354 0.309938 -0.325125 0.024964 -0.588006 -0.096268 -0.186729 -0.022416 0.118157 -0.364438 -0.263812 -0.340981 0.111289 0.053094 0.339970 0.514158 0.089238 0.074369 -0.139221 -0.032702 0.047333 0.175985 0.277164 0.045148 0.323613 -0.513583 -0.657884 0.554033 -0.258205 0.175134 0.181509 -0.540247 -0.632560 -1.038693 -0.412062 0.127523 0.287410 0.468795 0.295798 0.398893 0.339040 -0.189835 0.797922 0.353164 -0.179654 -0.035671 -0.011147 -0.073518 -0.184648 -0.150363 -0.288636 -0.368306 0.148812 0.458235 0.106868 -0.153201 -0.385428 -0.074632 -0.692965 -0.561354 0.448612 0.287918 -0.587152 -0.142165 -0.897746 -0.425040 -0.386507 -0.598659 -0.015422 0.140805 0.051623 0.240447 0.104920 -0.198130 0.183247 0.025896 -0.465326 -0.927264 0.337731 -0.584590 -0.062186 -0.228869 -0.043004 -0.002865 0.469867 -0.323804 0.055568 0.187805 0.596443 0.452853 -0.316058 -0.151452 -0.158757 -0.313533 0.003758 -0.313337 0.589066 0.323679 0.478248 -0.254233 -0.386869 0.238322 0.211521 0.594898 0.371949 0.011377 0.378630 0.615058 -0.205950 0.060212 0.360216 -0.154473 0.167310 0.329973 0.532602 -0.966778 -0.165248 0.114882 -0.222204 -0.213527 -0.014150 1.010865 0.276751 0.592639 -0.099716 -0.715751 -0.186376
10.525414592 -0.457590 -0.180406 0.461073 0.215253 0.254941 0.116104 -0.051684 0.144115 -0.146085 -0.344047 -0.177286 0.434335 -0.444923 -0.111329 -0.211486 -0.217653 0.626648 0.038345 -0.246599 -0.197338 -0.623826 -0.600104 -0.137149 -0.124381 0.224496 0.026326 -0.573028 0.020407 0.126511 -0.013266 -0.451712 0.662949 0.247223 -0.155077 -0.705762 0.143141 -0.459056 0.060341 -0.181619 0.010841 0.287470 -0.319560 -0.107673 -0.290351 0.274993 -1.026647 -0.374371 0.123667 -0.532557 -0.413866 0.481403 0.153475 -0.079042 -0.369069 0.637789 0.486991 -0.136303 -0.082830 0.447876 -0.137777 0.035766 0.539661 0.014797 0.099541 -0.370110 0.035920 -0.248989 0.144924 -0.191644 -0.396553 -0.348469 0.219001 0.184881 0.071778 -0.104400 0.077053 0.097159 0.219023 0.177208 -0.044946 -0.398938 -0.008184 0.201723 0.422422 -0.249894 -0.169439 -0.246545 0.445038 -0.390571 -0.474332 0.112244 0.505317 -0.015027 -0.376536 -0.485465 -0.329791 -0.709866 0.310490 0.023184 0.054423 -0.120848 0.307260 0.012388 0.300062 0.236435 -0.015491 -0.164006 0.293723 -0.140342 0.513681 -0.066689 -0.095927 -0.504675 -0.001273 0.296812 -0.155405 -0.029749 -0.658397 0.013244 -0.107957 -0.415376 -0.039189 0.523873 0.150765 0.072021 -0.223365 -0.506754 -0.127113
11.7679401588 -0.172567 0.116490 0.125390 -0.166159 0.501408 0.036329 -0.228342 -0.144001 0.125166 0.231543 -0.131591 -0.343286 0.211493 -0.160497 0.402727 0.198018 0.814533 0.351361 -0.381490 -0.400633 -0.178285 -0.071335 0.161788 0.030074 -0.201743 0.478913 -0.200109 -0.660421 -0.198091 0.496048 -0.412562 0.410848 0.035661 -0.429303 -0.555583 -0.006031 0.414661 0.222768 0.422664 0.092260 0.390971 -0.190493 0.041956 -0.227306 0.145957 -0.173821 -0.490979 0.204289 0.743461 0.182436 0.149043 -0.030162 -0.152644 0.376456 0.731980 0.032301 -0.636298 -0.360725 -0.045159 -0.650421 -0.731094 -0.227734 0.376903 -0.749421 0.165903 -0.340629 -0.522961 -0.073389 -0.069295 -0.625794 0.572464 0.263270 -0.416694 1.047386 -0.074087 0.117560 0.601330 0.317235 -1.084643 0.459003 -0.526751 0.061496 -0.253394 0.070067 -0.287082 0.508267 0.369619 -0.161062 -0.452254 0.155100 -0.459593 -0.036601 0.377254 -0.074800 0.177257 -0.092942 -0.564638 0.510178 -0.435702 -0.048450 -0.454038 -0.409191 -0.328687 -0.178692 0.468187 -0.078924 -0.036186 0.273408 0.778056 -0.282537 0.036022 -0.149676 -0.435464 0.459146 0.372965 0.309498 -0.368804 0.035495 -0.112945 0.066346 0.104006 -0.424345 0.203226 0.125195 0.517491 -0.558022 -0.489496 0.301907
5.88880911426 -0.113087 0.156258 0.139337 -0.040065 0.142225 -0.140063 -0.030905 -0.209810 0.056930 -0.364422 -0.423745 -0.084042 -0.007727 -0.502433 0.070065 0.191525 0.725878 0.307546 -0.140999 -0.403106 -0.079818 -0.163807 -0.038230 0.070532 -0.096390 0.437341 -0.332617 -0.318590 -0.270036 0.276373 -0.564899 0.583567 -0.052426 -0.972033 -0.984642 -0.057962 0.472496 0.540340 0.217437 0.402064 0.575100 0.046137 0.342105 -0.138773 0.373376 -0.341035 -0.624502 0.634659 0.261671 0.142762 0.101930 -0.089377 -0.427641 0.228710 0.369852 -0.030513 -0.542731 0.058525 0.163205 -0.226310 -0.254768 -0.643151 0.541557 -0.751144 -0.043725 -0.503047 -0.564211 0.153457 -0.107928 -0.338486 0.283191 0.034799 -0.266048 0.875792 -0.307273 -0.154372 0.808105 0.354933 -1.073211 0.582223 -0.661628 0.400902 0.175525 0.141847 -0.466735 0.529876 0.057056 -0.373953 0.094169 -0.426106 -0.063706 0.048586 0.568028 -0.199565 0.119767 0.338882 -0.606631 0.550781 -0.508457 0.162847 -0.369547 0.106311 -0.288154 -0.313061 0.270556 0.024053 -0.071418 0.443730 0.277742 -0.097121 -0.315244 0.018923 -0.318263 0.002594 0.453624 0.379665 -0.531231 -0.169399 -0.106143 0.462973 -0.053826 -0.579517 0.074623 0.144848 0.611022 -0.875481 -0.174595 0.381977
15.5097410492 0.073217 -0.074669 0.384899 -0.095444 0.196531 -0.264190 0.201889 -0.056520 -0.059838 0.215234 -0.284593 0.015990 -0.690682 -0.142862 -0.047150 0.137702 0.796603 0.460529 -0.456441 0.098173 -0.242243 -0.587778 0.376837 -0.166634 0.334620 0.027814 -0.435918 -0.740488 -0.097633 -0.081526 -0.110660 0.323740 -0.247637 -0.452025 -1.182631 -0.180577 0.121806 0.515436 0.409337 0.573505 0.280962 0.309585 -0.361334 0.303737 0.633202 -0.496538 0.220359 -0.157546 -0.330306 0.135649 -0.038792 0.358641 -0.429872 -0.160503 0.476496 0.029756 -0.086146 -0.384696 -0.265738 0.021503 -0.637923 0.461469 -0.172446 -0.146261 -0.529084 -0.076259 -0.233411 -0.010396 -0.414796 -0.407933 -0.237018 -0.265851 0.624784 -0.143122 0.130517 -0.080842 0.159169 -0.933404 -0.585382 0.090671 -0.284021 0.464345 0.054313 0.313015 0.025357 0.177194 -0.642508 0.380569 0.465845 0.491901 0.304421 -0.086085 0.077580 -0.170546 -0.745161 0.096739 -0.170735 0.254187 0.041812 0.304925 -0.082206 0.079304 0.160571 0.074752 0.330571 0.194208 0.112460 0.668688 0.130952 0.297306 -0.262204 0.585926 -0.260792 -0.168350 0.353316 0.246963 -0.516978 -0.212059 -0.239280 0.153722 -0.723971 -0.162451 0.248366 0.394002 0.858218 -0.592869 0.128273 -0.491426
9.07176147541 -0.033603 0.378307 -0.048701 0.228966 -0.070326 -0.462176 -0.263489 -0.322941 0.167936 -0.412035 -0.433031 -0.238340 -0.331103 -0.403284 0.090604 0.203444 0.464359 0.062262 -0.132900 -0.427943 0.343507 -0.172069 0.237426 0.159770 -0.089016 0.325691 -0.494697 -0.505293 -0.087743 0.096726 -0.353650 0.838029 -0.266319 -0.751720 -0.879592 0.117634 0.477433 0.956488 0.236282 0.172933 0.602903 -0.067503 0.063781 0.023138 0.485837 -0.220548 -0.510893 0.679768 0.078082 0.119814 0.096310 -0.422758 -0.241434 0.248750 0.289129 0.182720 -0.361576 0.208081 0.084795 -0.382197 -0.153810 -0.452913 0.541208 -0.876675 -0.038451 -0.661647 -0.535092 0.177480 0.004757 -0.156285 0.308807 0.197146 -0.213073 0.635196 -0.325356 0.059723 0.728635 0.133180 -0.888242 0.406066 -0.789197 0.158903 0.262234 -0.288960 -0.620554 0.375499 -0.166453 -0.590565 0.108547 -0.345723 -0.247508 0.200964 0.170839 -0.164437 0.050015 0.079250 -0.735414 0.737418 -0.217317 0.533528 -0.234702 0.423315 -0.086223 -0.412530 0.259585 -0.149508 -0.081798 0.589624 0.116454 -0.135934 -0.131544 0.001642 -0.184958 -0.098382 0.585940 0.652308 -0.501143 -0.321599 -0.169859 0.658770 0.305640 -0.325538 0.351995 0.379776 0.271351 -0.468023 -0.416590 0.388801
0.886893698527 -0.218820 0.016125 0.114933 0.140020 -0.177438 -0.195212 -0.107083 0.233889 -0.229926 -0.264640 -0.796629 0.357102 0.053159 -0.402346 -0.123657 -0.588090 0.035406 -0.178488 -0.004946 -0.556064 -0.044182 0.050262 -0.099033 0.212883 0.174185 -0.109871 -0.638055 0.169927 -0.037430 0.427069 -0.647743 0.704221 0.024803 -0.664475 -0.694463 -0.226464 0.564726 0.034679 0.434754 0.016415 0.152276 0.358398 0.807733 -0.396076 0.221395 -0.099364 -0.316563 0.372991 -0.165360 -0.358352 0.197697 0.332641 -0.129935 0.519098 -0.409236 0.017037 -0.112241 0.091159 -0.008467 0.029887 -0.563028 -0.519680 0.908353 -0.180421 0.171645 -0.580523 0.068818 0.511760 0.104520 0.108166 0.439287 0.199645 0.086702 0.413452 -0.161519 -0.034432 0.357672 0.551309 -0.143651 0.374513 -0.033122 0.036997 -0.213135 -0.018530 -0.518241 0.401226 -0.211919 0.005019 -0.320521 -0.817633 -0.173050 0.261071 -0.240336 -0.039144 -0.332805 -0.665124 -0.217438 0.918880 -0.290820 -0.228956 0.119895 0.470057 -0.459249 -0.441112 -0.301748 0.139848 -0.442970 0.355544 -0.571669 0.338568 -0.094868 0.007360 0.436381 0.026313 0.011931 0.254165 -0.236945 -0.305584 -0.122916 0.225688 0.062946 -0.774884 0.184427 0.345949 0.032777 0.055102 -0.408557 0.225599
8.18055886173 -0.261634 -0.169405 0.685627 0.420249 0.029100 0.029959 -0.340089 -0.237536 -0.059242 -0.311455 -0.982486 0.267128 0.139523 -0.702598 -0.765028 -0.297289 0.133206 0.343329 -0.427610 -0.195352 -0.484723 0.158169 0.302382 0.156332 -0.105349 0.609928 -0.676925 0.033816 0.121635 0.238937 -0.549765 0.713868 -0.488952 -0.134883 -0.777862 -0.217619 0.132381 0.327267 0.809337 -0.028818 0.269344 0.084186 0.115566 -0.146553 -0.340920 -0.057353 -0.494845 -0.207085 -0.437151 0.083063 0.066799 -0.074703 0.236046 0.070389 0.172083 -0.021145 0.068729 -0.447356 -0.607953 -0.118963 -0.795539 0.548823 0.625622 -0.282346 -0.042668 -0.430114 -0.187152 0.339205 -0.179533 0.001164 0.067603 0.244312 0.175229 -0.125640 -0.425422 0.135936 0.990279 0.037469 -0.242763 0.062996 -0.561000 -0.049624 0.157330 -0.587538 -0.144789 -0.010679 -0.440455 0.026817 -0.443682 -0.701859 0.195196 0.260049 0.009395 -0.008000 -0.616268 0.169155 -0.581670 0.640521 -0.242368 -0.137552 -0.213877 0.506013 -0.252320 -0.231099 0.291629 -0.267517 -0.316255 0.757757 -0.265424 0.076512 -0.280198 0.150891 0.258469 -0.112675 0.161599 0.222140 -0.366455 -0.146968 -0.207962 0.443261 0.373489 -0.608193 -0.241870 -0.309227 0.661789 -0.264791 0.096926 0.143371
3.65117509847 0.154766 0.068495 0.929962 0.262693 -0.198537 0.003268 -0.561264 -0.091403 -0.345794 0.167135 -0.365349 -0.130822 0.248586 -0.521333 -0.489503 0.407965 0.167020 -0.043056 0.018953 -0.364706 0.081682 -0.121712 -0.099472 0.193154 0.035208 0.111160 -0.472699 -0.387729 0.427935 0.504362 -1.037051 0.691567 0.009300 -0.437964 0.017967 -0.211422 0.676362 0.575597 0.751851 0.091239 -0.115321 0.390796 -0.210716 0.113517 0.697812 -0.268799 0.131407 -0.154737 0.249092 0.451183 0.153106 0.570213 -0.019593 0.209437 0.197778 0.257272 -0.713799 -0.502325 -0.002198 -0.273606 -0.589405 -0.052075 0.445379 -0.050431 -0.237243 -0.583582 -0.683009 0.109429 -0.002013 -0.334442 0.513811 -0.112339 -0.140609 0.316268 -0.314053 0.922184 0.086886 0.043227 -0.772650 0.150167 -0.306136 0.283850 0.193398 0.044009 -0.238764 0.235220 -0.115269 0.065125 -0.154609 -0.304105 -0.122800 -0.224990 -0.177471 0.331606 -0.145143 -0.467999 -0.183727 -0.020276 -0.585576 0.189672 -0.316751 0.285271 -0.557503 -0.115197 0.397443 -0.005633 -0.623287 0.235843 0.077686 -0.058296 0.396438 0.050805 -0.043472 0.163501 0.269962 0.240917 0.015882 -0.195326 -0.655672 0.121109 0.152523 -0.946567 0.067919 0.549720 0.041970 0.136720 -0.369359 0.162430
0.358080350289 -0.301017 0.369807 0.338158 0.044721 0.138195 -0.654566 -0.344927 0.394118 0.342530 -0.349985 -0.796538 -0.010502 -0.668470 -0.163011 0.162297 0.449963 0.583246 -0.235647 -0.488762 -0.587900 0.473340 -0.304951 -0.095415 -0.150042 -0.203206 0.250290 -0.270429 -0.096005 0.096188 0.323221 -0.111757 0.190432 -0.453097 -0.402954 -0.331097 -0.704481 0.383628 0.071722 0.362303 -0.057251 0.148988 0.197568 0.005777 0.073733 -0.361131 0.069667 -0.356329 0.210713 -0.489383 -0.757758 -0.190135 0.340212 -0.273741 0.117086 0.336232 -0.003058 0.090013 -0.197016 -0.004984 -0.726914 -0.135262 0.622509 0.265608 -0.317604 0.008291 -0.598361 0.001342 0.108208 -0.432511 -0.360850 0.656455 -0.023053 0.551497 0.000095 -0.293319 0.281739 0.252889 0.000369 -0.201037 0.398574 -0.636749 -0.292400 -0.212649 0.037250 -0.697838 0.547433 -0.083415 -0.110705 -0.319860 0.068360 -0.096358 0.188245 -0.446329 -0.601502 -0.372037 -0.583702 -0.639959 0.750274 -0.171106 0.355319 -0.972219 -0.010387 0.141240 -0.116316 0.517335 0.629796 -0.174680 0.179554 0.096564 0.740551 -0.092763 0.335914 -0.397817 0.017619 0.154375 0.041397 -0.168713 -0.538127 0.007499 -0.148611 0.345664 0.012076 0.625974 0.105552 0.099252 -0.749032 0.022620 -0.004580
19.2162480636 -0.018109 -0.242587 0.307149 0.441460 0.327462 0.165901 -0.321080 0.084012 -0.085002 -0.184870 -0.394492 0.235218 -0.410639 -0.113068 0.025320 -0.119028 0.644311 0.139468 -0.724261 -0.465356 -0.465133 -0.562697 -0.133174 0.148999 0.338185 0.315778 -0.320451 -0.161077 0.324475 0.130970 -0.289120 0.595377 0.235970 -0.268621 -0.707244 0.227622 -0.325844 0.086103 -0.024928 0.193958 0.305099 -0.269227 -0.039199 0.064818 0.152174 -0.941398 -0.404601 0.185825 -0.668636 -0.439951 0.147757 0.068243 0.067349 -0.518826 0.916678 0.504507 -0.219318 -0.100770 0.237547 -0.275732 0.082424 0.824738 0.089187 -0.257357 -0.448537 -0.106508 -0.193871 0.022182 -0.045266 -0.765916 -0.308624 0.246176 0.317365 0.132785 0.094374 0.095480 0.207578 -0.018857 -0.180361 0.009379 -0.795824 -0.249159 0.429691 0.534649 -0.411315 0.119801 -0.271947 0.613866 -0.826904 -0.285795 -0.040877 0.663423 -0.005040 -0.478203 -0.796147 -0.312172 -1.107892 0.533816 -0.081740 0.244685 -0.422629 -0.036445 0.228723 0.370067 0.605832 0.255194 -0.351759 0.480577 0.219554 0.185990 0.235268 -0.098041 -0.505733 0.233111 0.399027 0.060575 0.054830 -0.766414 0.156712 -0.031854 -0.413147 0.051939 0.709568 0.338480 0.042903 -0.311319 -0.376369 -0.420420
2.2551810191 -0.259270 0.059342 0.718764 0.750857 0.578437 0.506368 -0.129649 0.166260 -0.495614 0.384041 -0.311710 -0.302739 0.131691 -0.511708 0.090717 0.188758 0.477248 -0.006146 -0.102267 -0.494392 -0.461968 -0.543540 -0.047772 0.287542 0.175311 0.669003 -0.788497 -0.466411 0.512612 0.254913 -0.788312 0.868909 0.262016 -0.271289 0.011610 0.264177 -0.065749 0.291507 0.321361 0.292211 -0.123643 0.431480 -0.168078 -0.293982 0.149999 -0.289806 -0.121426 -0.243318 -0.040355 -0.403071 0.327193 0.630293 0.126474 0.120773 0.625263 0.105270 -0.478010 -0.655591 -0.306032 -0.413698 -0.616276 0.581142 0.311499 -0.123190 -0.425097 -0.338296 -0.349420 0.244331 -0.317774 -0.209237 0.251227 0.103542 0.444827 -0.084635 -0.655762 0.296507 -0.221952 0.082564 -0.159400 0.011028 -0.247081 0.046865 0.367504 -0.078217 -0.627670 0.329333 -0.649905 0.454889 -0.897304 -0.213510 -0.318395 0.602838 -0.490619 0.203969 -0.653653 -0.685985 -0.196305 0.199929 -0.733432 0.007531 -0.362137 -0.008370 0.068643 -0.366241 0.156167 -0.138898 0.224911 -0.036237 -0.098654 -0.044973 -0.107559 0.204934 -0.384933 0.765717 -0.117676 0.017003 -0.096646 0.220773 -0.505631 0.157820 0.021087 -0.491438 0.445489 0.010022 -0.282169 0.185528 -0.175448 0.019684
1.3314153556 -0.202315 0.210474 0.335992 -0.056679 0.218451 -0.062394 -0.290157 -0.023005 -0.170394 0.143242 -0.601719 -0.085286 -0.361215 -0.412302 -0.176553 -0.148409 0.515789 0.241222 -0.308109 -0.494599 -0.169356 -0.464165 0.110334 0.187075 0.030265 0.308693 -0.477453 -0.404049 0.153467 0.372268 -0.491321 0.626317 -0.105094 -0.420446 -0.717007 -0.159851 0.369869 0.524966 0.394493 0.316578 0.229076 0.108586 0.069605 0.023968 0.236053 -0.449697 -0.281748 -0.093911 -0.223544 -0.402080 0.123126 0.146185 -0.218595 0.282087 0.492641 0.329739 -0.334087 -0.386973 -0.112790 -0.480591 -0.520562 0.089336 0.328175 -0.131323 -0.267282 -0.454120 -0.444789 0.150055 -0.080551 -0.376073 0.412979 0.213712 0.303206 0.350933 -0.121954 0.249529 0.205296 0.000164 -0.522335 0.189366 -0.445863 0.009853 0.099603 0.083883 -0.525638 0.278583 -0.236920 0.211329 -0.283320 -0.218587 -0.105648 0.108071 -0.096259 -0.181399 -0.480211 -0.511406 -0.511343 0.539636 -0.127577 0.136055 -0.391701 0.222520 -0.082700 -0.073486 0.350806 0.151508 -0.122480 0.483971 0.245921 0.288668 -0.050974 0.186908 -0.111824 0.144677 0.446170 0.028969 -0.228068 -0.148347 -0.112641 0.231531 -0.127632 -0.449694 0.397591 0.214293 0.439314 -0.316064 -0.368131 0.064178
10.6234582293 -0.005089 0.310338 0.169384 -0.259549 0.005679 -0.128767 0.128991 0.109799 -0.586528 0.143066 -0.360812 0.166707 -0.301904 -0.196726 -0.497086 -0.466396 0.605494 0.524961 -0.063224 -0.122857 -0.574915 -0.170088 -0.308090 0.136741 -0.084482 0.037113 -0.468862 -0.443112 0.372203 0.199739 -0.146329 0.258372 -0.384062 -0.532271 -1.173552 -0.106057 0.190276 0.471253 -0.024151 0.604420 0.340989 0.688129 -0.002815 0.290889 0.315126 -0.693007 -0.444776 -0.267425 -0.411349 -0.239956 0.075846 -0.038798 -0.142394 0.189400 0.258875 0.146272 -0.517028 -0.130078 -0.480941 -0.633669 -0.364931 0.198207 0.222213 -0.206535 -0.565409 -0.032404 -0.398379 -0.182123 -0.395745 0.002542 0.399597 0.079782 0.274063 0.239041 -0.006269 0.032901 -0.211632 -0.142322 -0.500441 0.233282 -0.207063 0.378599 -0.037009 0.140266 -0.012110 0.184378 -0.564271 0.315370 -0.116158 0.132599 0.540915 0.078529 0.442781 0.012217 -0.782558 -0.110213 -0.225405 0.253464 0.384773 0.160817 -0.016488 -0.143438 -0.045186 0.282897 0.491209 0.641361 0.248884 0.587263 0.388389 0.120834 -0.102433 0.603646 -0.256086 0.172455 0.377736 0.308588 -0.731559 0.310938 -0.032247 -0.113462 -0.552358 -0.351650 0.725854 0.172227 0.608894 0.130418 -0.659286 -0.508305
18.2911285799 -0.302589 0.568558 0.447115 0.159756 0.714375 -0.076142 0.178017 0.363534 -0.138275 0.069311 -0.205525 -0.278239 -0.334968 -0.770740 0.672198 0.276975 0.299445 0.412143 -0.181639 -0.681863 -0.490984 -0.121297 -0.119906 -0.079851 0.033014 0.786453 -0.295074 -0.903198 -0.107118 0.172188 -0.618891 0.146990 0.187841 -0.310694 -0.471565 -0.005627 0.480759 0.605947 0.654093 0.316799 0.307263 0.484036 -0.698407 -0.007515 -0.305419 -0.330335 -0.712010 -0.398994 -0.166654 -0.208524 0.156223 -0.009174 -0.274426 -0.294167 0.881144 -0.161398 -0.510518 -0.712135 -0.335181 -0.791424 -0.781022 0.919301 -0.053901 -0.398305 0.226712 0.071860 -0.040903 -0.081502 -0.251157 -0.144843 0.387418 -0.062332 0.010517 0.137972 0.107961 -0.116256 0.170843 -0.076214 -0.003545 0.540268 -0.775029 -0.293678 0.106828 0.477832 -0.017421 0.344459 0.196408 0.289347 -0.595751 0.374281 0.261927 0.059336 -0.237264 0.032753 -0.280892 -0.699314 -0.266885 0.354289 0.141466 -0.039603 -0.811913 0.182723 -0.209033 0.011063 0.780986 -0.098313 -0.086863 0.387910 0.643479 0.337602 -0.461655 0.187202 -0.282715 -0.054317 0.436677 -0.164635 0.091115 -0.427306 -0.227401 0.090497 0.353963 -0.078362 0.200469 0.074775 0.936707 -0.502868 0.031233 -0.109908
17.0606988229 -0.248060 0.034096 0.485782 0.102898 0.479653 -0.006359 -0.227781 -0.269428 -0.069455 0.093825 -0.827410 0.168020 -0.021899 -0.588833 -0.479947 -0.216390 -0.127571 -0.011013 0.141990 0.044978 -0.382344 -0.108089 0.558320 0.415126 -0.113153 0.740843 -0.509836 -0.291754 -0.132000 0.212582 -0.522308 0.467869 -0.055945 0.060507 -0.613974 -0.234236 0.039194 0.380430 0.785423 0.132748 0.708759 -0.141788 -0.355955 0.048678 0.230565 -0.514909 -0.440182 -0.191567 -0.669352 0.020205 0.257135 -0.209136 0.244733 -0.164821 0.373194 0.249843 0.096295 -0.769797 -0.106033 -0.186933 -0.945743 0.610793 0.541467 0.167988 -0.050038 -0.054400 -0.529392 0.023958 0.116347 -0.067400 -0.125821 0.257912 0.246281 0.065340 0.044354 -0.246651 0.647162 0.325382 -0.176929 0.222509 -0.841992 0.047934 0.274151 -0.243466 -0.414639 -0.310521 -0.045475 0.331656 -0.102360 -0.509988 0.204301 -0.107468 -0.312854 0.073410 -0.046345 -0.062054 -0.706158 0.571471 0.074999 -0.189558 -0.190057 0.378023 -0.163609 0.044422 0.669446 -0.567576 -0.177683 1.005369 0.060268 0.297225 -0.293561 0.078965 0.265371 -0.252208 0.508778 -0.359658 -0.154061 -0.276490 -0.274881 0.372470 0.125171 -0.503134 0.076032 -0.092359 1.233000 -0.422791 0.121813 0.058438
5.37640641447 -1.112106 0.407534 0.669100 -0.215841 0.024030 -0.464230 -0.069238 0.248646 -0.002249 -0.411970 -0.255015 0.254901 -0.729556 -0.235071 -0.507471 -0.385600 0.823710 0.304172 -0.379591 -0.395998 -0.397000 -0.658913 0.079160 -0.366701 -0.257090 -0.331982 -0.864392 -0.092868 0.191178 0.402006 -0.521882 0.747652 0.162287 -0.473648 -0.679497 -0.172994 -0.045827 0.283621 -0.429421 -0.350294 0.341369 -0.181232 0.252605 -0.390460 0.323566 -0.740478 -0.396708 0.105451 -0.488727 -0.232087 0.593927 0.156643 -0.407461 -0.199002 0.443542 0.514004 0.172015 0.012686 0.471848 -0.373600 0.005875 0.125444 -0.111977 0.139251 -0.170181 -0.062856 -0.232662 0.255018 -0.416498 -0.116551 0.148427 0.281114 0.128921 0.211945 -0.122855 0.139924 0.548864 0.187165 0.335794 0.270846 0.005263 0.139241 -0.106519 0.050310 -0.216574 -0.056044 -0.282699 -0.068808 -0.201532 -0.506622 -0.006204 0.263362 -0.237685 -0.335846 -0.170455 -0.647441 -0.251463 0.522172 0.087568 0.038714 -0.066916 0.744943 -0.257636 0.023785 0.138744 0.178196 0.034495 0.252707 -0.617925 1.017138 -0.239310 0.246681 -0.483734 0.012155 0.141316 -0.362013 0.074455 -0.334289 -0.254395 -0.069024 -0.324643 -0.508070 0.422680 0.275038 -0.044551 -0.397949 -0.617901 0.002628
13.701801035 0.098794 -0.082015 0.535534 -0.234224 0.833214 0.562285 0.098090 0.159966 -0.582195 0.070175 -0.538633 -0.138265 -0.328845 -0.670737 -0.105331 0.401395 0.098164 -0.364150 -0.025870 -0.212439 -0.065593 -0.524224 -0.040511 0.430439 -0.131699 0.421813 -0.875270 -0.381893 0.213785 -0.136803 -0.556840 0.502191 -0.208766 -0.303766 -0.357970 -0.130435 -0.169335 0.336261 0.502649 0.337177 0.243864 0.060238 -0.178362 -0.358819 0.529892 -0.165210 -0.125624 -0.092068 -0.568409 -1.175408 -0.147248 0.571087 -0.249169 0.527012 0.486970 -0.125715 -0.490048 -0.537200 -0.374373 -0.095729 -0.444553 -0.137158 0.600156 0.371371 -0.738946 -0.641900 -0.652983 0.160244 -0.283520 -0.319076 0.102851 0.270487 0.459030 0.348484 -0.406074 0.083771 0.124824 0.098914 -0.574889 0.282775 -0.362707 0.026593 0.130527 0.454974 -0.664824 0.094958 -0.911840 0.333047 -0.176576 -0.732383 -0.078234 0.354569 -0.566811 -0.063764 -0.501054 -0.726080 -0.102437 0.247629 -0.244563 -0.059311 -0.359125 0.351752 0.106931 -0.003078 -0.180799 0.188789 -0.059829 0.038972 0.150537 0.430343 -0.416615 -0.020873 -0.142764 0.128788 0.166583 -0.181387 -0.181409 0.416369 -0.461565 0.155081 -0.019085 -0.392527 0.289130 -0.178521 0.521780 -0.089157 -0.181587 0.295759
10.3919302042 -0.276947 0.460812 0.760387 -0.661880 0.186821 -0.090000 -0.437214 0.194161 -0.503681 0.604919 -0.736562 -0.042254 0.108179 -0.514632 -0.728406 -0.093402 0.158061 0.107685 -0.054151 -0.358795 -0.234158 -0.441437 0.100967 0.054270 -0.075106 -0.155749 -0.069954 -0.090992 0.066273 0.538982 -0.892207 0.146266 0.437836 -0.562269 -0.050827 -1.061842 0.573242 0.266997 0.555558 0.176399 -0.185383 0.469247 -0.033932 0.320562 0.395319 -0.001877 0.226138 -0.296878 -0.007015 -0.188432 0.227939 0.844535 -0.626349 0.317115 -0.097768 0.379128 0.035444 -0.521699 0.129768 -0.291137 -0.546198 -0.352509 0.180310 0.747389 -0.231458 -0.444463 -0.423870 0.214636 0.361834 -0.482643 0.516595 0.365006 0.435418 0.188843 -0.064065 0.380117 0.360941 0.032721 -0.345611 0.267159 0.019705 -0.068675 -0.161526 0.320289 -0.222910 0.467340 -0.285581 0.179650 -0.033012 -0.640256 -0.083960 -0.558573 -0.634867 -0.146354 -0.264988 -0.961161 0.157281 -0.159171 -0.156672 -0.300290 -0.131217 0.382833 -0.521447 -0.275165 0.056705 0.159964 -0.233975 -0.082039 0.133455 0.422176 0.037293 0.164879 0.083249 0.193071 0.208603 -0.733312 0.567047 -0.014270 -0.211094 0.270153 -0.325576 -0.803094 -0.149463 0.288383 0.244973 0.105482 -0.276596 0.433170
11.7170704875 -0.477854 -0.262270 0.633016 -0.174635 0.391940 -0.138883 -0.136061 0.149511 -0.529942 -0.020538 0.047395 -0.191483 -0.051060 -0.593993 -0.064549 0.106954 0.488376 -0.020924 0.083663 -0.789465 -0.391836 -0.830906 -0.165802 0.145051 0.265587 0.227622 -0.321648 -0.425611 0.668414 -0.068269 -0.876417 0.399763 -0.264279 -0.320435 -0.191132 -0.421822 -0.022648 0.142250 0.654574 0.120251 0.116729 -0.062371 0.169781 -0.163509 0.310522 -0.202463 -0.339729 -0.287304 -0.121496 0.188546 0.155324 0.112596 -0.638797 0.108936 0.623200 -0.002070 -0.583416 -0.741397 0.532865 -0.176576 -1.028125 0.224433 0.489430 -0.364948 -0.200695 -0.088086 -0.497876 0.179999 0.030666 0.092915 0.314690 0.131430 0.216998 0.013317 -0.603012 0.090841 -0.023717 0.296989 -0.739611 0.203007 -0.604102 0.091801 0.073385 0.259468 0.291848 0.193611 -0.343029 0.575437 -0.376371 -0.053764 0.638623 0.294375 -0.179740 0.077551 -0.220360 -0.352651 -0.220954 0.026735 0.370170 -0.155716 -0.170679 -0.148210 -0.745353 -0.134218 0.484822 -0.187634 -0.118217 -0.157409 0.162266 0.033503 0.181918 -0.470493 0.161609 0.423403 0.540982 -0.144989 0.096616 -0.224088 0.154141 -0.045822 -0.174698 -0.461625 0.560944 -0.022224 0.278063 0.321828 -0.620051 0.358164
16.530167071 -0.180850 0.206035 0.327801 -0.040532 0.175155 -0.110377 -0.273345 -0.058195 -0.100414 0.141123 -0.571781 -0.107880 -0.355697 -0.381997 -0.153525 -0.121515 0.513638 0.262914 -0.323490 -0.446249 -0.163220 -0.425723 0.115447 0.169787 -0.009712 0.309531 -0.446571 -0.417420 0.186413 0.350687 -0.432737 0.599197 -0.135413 -0.423228 -0.684934 -0.139531 0.318087 0.502877 0.380154 0.273527 0.263764 0.084925 0.027478 0.038679 0.215148 -0.394872 -0.266734 -0.092602 -0.207769 -0.356760 0.037072 0.074039 -0.194933 0.273508 0.488737 0.304127 -0.314703 -0.327767 -0.161903 -0.468010 -0.504290 0.107755 0.286400 -0.157435 -0.237402 -0.433124 -0.418014 0.086729 -0.091322 -0.326749 0.363147 0.216975 0.273328 0.312669 -0.079081 0.234253 0.248176 -0.076621 -0.500280 0.181049 -0.448464 0.010215 0.125673 0.051440 -0.475525 0.256091 -0.249536 0.189187 -0.284992 -0.176518 -0.098427 0.099904 -0.078283 -0.168888 -0.462577 -0.424492 -0.486477 0.560299 -0.143276 0.147737 -0.379749 0.228075 -0.065775 -0.038851 0.379095 0.158348 -0.100334 0.480074 0.233440 0.255327 -0.019969 0.224308 -0.117292 0.138257 0.406681 0.073644 -0.243769 -0.104697 -0.132578 0.224477 -0.106795 -0.443080 0.382683 0.197570 0.440454 -0.327073 -0.353113 0.045881
19.1943732811 -0.118635 -0.071143 0.910326 0.617277 0.040610 0.152247 -0.388394 0.027804 -0.421040 0.040009 -0.282267 -0.175139 0.197986 -0.680976 -0.265568 0.316941 0.168532 -0.109531 0.007588 -0.375929 -0.055366 -0.279810 -0.187638 0.316793 0.089534 0.283442 -0.852230 -0.367511 0.459859 0.452240 -1.082516 0.989824 0.035815 -0.349952 0.097940 0.434238 0.422634 0.539239 0.462190 -0.058207 0.093642 0.353144 -0.169913 -0.286104 0.675515 -0.507818 0.036665 0.088116 0.022579 0.301184 0.312997 0.478021 0.260920 0.066114 0.373465 0.105718 -0.874083 -0.489983 -0.096255 -0.238167 -0.639921 0.315759 0.558109 -0.120426 -0.325926 -0.312758 -0.695653 0.256506 -0.135587 -0.109382 0.383592 -0.103551 -0.105586 0.435677 -0.338656 0.610819 0.042228 0.336927 -0.617162 0.199795 -0.344496 0.405932 0.369775 0.039230 -0.376029 0.124402 -0.346340 0.163094 -0.495848 -0.388984 -0.134108 0.326546 -0.297200 0.472429 -0.222076 -0.500210 -0.228463 0.119800 -0.632065 0.189952 -0.258187 0.184642 -0.358612 -0.180865 0.257408 -0.109596 -0.374543 0.276106 -0.259625 0.049166 0.233669 0.046120 -0.039758 0.419907 -0.000832 0.305147 -0.089953 0.026570 -0.726240 0.157068 0.292666 -0.792727 0.197099 0.443132 -0.089057 0.237382 -0.304756 -0.091878
0.699051358822 -0.406875 0.331984 0.548286 -0.119284 0.149070 0.357447 -0.195394 0.007465 0.398000 0.092931 -0.323674 -0.312518 -0.611124 -0.529072 -0.095366 0.065705 -0.064383 0.293392 0.172700 -0.439165 0.072231 -0.364258 -0.467109 0.173591 0.551986 0.552666 -0.472934 -0.406002 0.832244 -0.068194 -0.469713 0.500482 0.490238 -0.825404 -0.450336 0.353762 0.261367 0.831043 -0.112395 0.504452 0.232170 0.151245 -0.140850 0.262572 0.100018 -0.687010 -0.312615 0.402400 -0.170655 -0.889003 -0.459455 -0.135616 -0.475993 0.103883 0.639931 0.351113 -0.295622 -0.317506 0.143732 -0.365790 0.065734 -0.252371 0.140504 0.099704 -0.326632 -0.618327 -0.264525 -0.336222 -0.413103 0.176080 0.225966 0.034792 -0.044293 0.090372 -0.515764 0.423506 0.111656 -0.013430 -0.278640 0.262454 -0.377158 -0.189669 0.626862 0.372908 -0.559618 0.296414 -0.248457 -0.126809 -0.055141 -0.310932 0.210454 0.297782 0.151158 -0.383409 -0.324528 -0.092652 -0.146592 0.525523 -0.443442 0.154408 -0.346204 0.558373 0.577094 0.112839 -0.073591 0.044670 0.188116 0.408156 0.371851 0.350081 -0.197363 0.726431 -0.097141 0.031174 0.571014 0.064551 -0.176716 0.160258 -0.279423 0.509254 0.046617 -0.333628 0.100997 0.150496 0.436434 -0.490779 -0.301244 0.089531
0.230554428193 -0.648840 0.048763 0.667816 0.119206 0.462694 0.387630 -0.796686 0.348220 -0.059974 0.147596 -0.203924 0.186998 -0.338482 -0.198122 -0.296412 0.039342 0.443446 0.138996 -0.534557 -0.560042 -0.531030 -0.782577 0.238883 -0.028224 0.057597 0.244673 -0.466054 -0.392019 0.086098 0.580624 -0.475505 0.561873 0.281265 0.491525 0.000238 -0.090483 -0.234882 0.444201 0.117330 -0.283881 -0.311406 0.129975 -0.360792 -0.254553 -0.426425 -0.725948 -0.178315 -0.699408 -0.157787 -0.045202 0.151784 0.265639 0.046862 -0.192699 0.443783 0.313722 -0.146191 -0.680537 -0.305191 -0.824837 -0.198772 0.793064 -0.348741 0.158819 -0.265163 0.117290 -0.177322 0.237639 -0.306801 -0.757310 0.528958 -0.133516 0.227308 0.059128 -0.024018 0.638619 0.014137 -0.023777 -0.022065 -0.234692 -0.319744 -0.143679 -0.061577 0.122294 -0.276627 -0.305489 -0.102940 0.388550 -0.424959 -0.116049 -0.351703 0.122187 -0.195562 -0.442180 -0.542777 -0.588192 -0.290713 0.118620 -0.315515 0.183389 -0.322038 0.386045 0.159857 0.169148 0.437222 0.123023 0.196632 0.285840 0.106556 0.856039 -0.112048 -0.004055 -0.317684 0.345951 0.014136 -0.361885 0.262322 0.040793 -0.225009 -0.355037 0.141074 -0.161297 0.429589 -0.209480 0.276131 0.025229 -0.316386 0.083681
19.4829219186 -0.324195 0.256880 0.378022 -0.032275 0.294793 0.120187 -0.186634 0.104688 0.262414 0.162321 -0.319883 -0.125183 -0.387516 -0.422397 -0.037358 -0.161805 0.072838 0.316566 0.025000 -0.365392 -0.168346 -0.397900 -0.259668 0.198352 0.357828 0.312408 -0.396575 -0.483957 0.681729 0.024636 -0.446006 0.540519 0.427617 -0.801438 -0.582502 0.346498 0.208114 0.733686 -0.054673 0.308843 0.302183 0.092455 -0.098985 0.112725 0.340663 -0.630093 -0.253273 0.352183 -0.123659 -0.660058 -0.354603 -0.079501 -0.347635 0.103080 0.524557 0.350870 -0.485397 -0.390817 0.075445 -0.456951 -0.192409 -0.189684 0.242107 -0.099776 -0.264229 -0.400602 -0.302797 -0.300767 -0.302629 0.097842 0.091944 0.245094 -0.030135 0.130642 -0.319995 0.305954 0.057086 0.058362 -0.434500 0.342867 -0.454285 0.036341 0.479116 0.245548 -0.515335 0.362013 -0.355213 -0.007352 -0.107258 -0.303110 0.091908 0.163875 0.179276 -0.177858 -0.366403 -0.229029 -0.280150 0.563249 -0.365572 0.173392 -0.083682 0.254902 0.335077 0.050026 0.016857 0.190563 0.173982 0.391825 0.251234 0.161017 -0.040580 0.500323 -0.114630 0.134247 0.428163 0.190358 -0.184700 0.141938 -0.240495 0.467520 -0.002044 -0.320624 0.310778 0.282748 0.345182 -0.322618 -0.411174 -0.079756
4.11140326694 0.121136 -0.037817 -0.256184 -0.284611 0.042866 0.147154 -0.284880 0.030037 -0.028737 0.111002 -0.465581 -0.437441 -0.564739 -0.129491 -0.276600 -0.422533 0.708654 0.701741 -0.874024 -1.044884 -0.359482 -0.456405 0.272485 0.060457 -0.275299 0.168966 0.147244 -0.293935 -0.118293 0.267131 0.256634 0.388326 -0.753730 -0.043949 -0.748814 -0.296809 0.497572 0.391197 0.156589 0.283644 0.001744 0.211761 0.475238 0.106632 -0.404933 -0.220361 -0.700126 -0.207230 0.009028 -0.929232 -0.082539 -0.077539 -0.230405 0.740908 0.131780 0.218145 0.151940 -0.214695 -0.544695 -0.254804 0.098256 -0.155839 -0.064276 -0.291926 -0.702685 -0.435515 -0.046074 0.418043 0.329970 -0.649114 0.637025 0.353875 0.531158 0.015649 0.275575 -0.023220 0.145723 -0.377334 -0.241723 -0.345926 0.013798 -0.369285 0.044193 0.032373 -0.122116 0.051129 -0.024523 -0.057880 -0.496098 0.203259 -0.137196 0.054341 0.811262 -0.493439 -0.337823 0.035109 -0.795094 0.011677 -0.191717 0.181155 -0.591278 0.240539 0.419213 0.102105 0.084035 0.391151 -0.277992 0.441957 0.569994 0.445185 -0.012064 0.319008 -0.112543 0.230793 0.121594 -0.229421 -0.062786 0.174729 0.333268 0.150826 -0.086607 -0.171734 -0.155552 -0.285254 0.331962 -0.432617 -0.450088 0.439517
5.09797815734 -0.284593 0.397255 0.276360 -0.323285 0.264391 -0.114210 -0.492808 -0.311006 0.135691 0.375393 -0.323471 -0.016604 -0.400934 -0.262606 -0.312602 -0.478776 0.372336 0.623731 -0.304247 0.052165 0.569602 -0.878535 0.396721 -0.032518 0.024114 -0.247434 -0.066764 -0.357327 0.170846 0.661028 -0.248091 0.278545 0.111322 0.215295 -0.098624 -0.254358 0.674774 0.837189 0.129062 0.047347 0.030107 -0.127571 0.055587 -0.110375 0.461175 -0.363632 0.173038 -0.356214 -0.146232 -0.280489 0.041976 0.186344 -0.354910 0.091680 0.234235 0.769573 -0.193939 -0.679415 0.010282 -0.332852 -0.249159 -0.101630 0.024272 0.654718 -0.172866 -0.169874 -0.379059 0.199905 0.088523 -0.191494 0.304384 0.124065 0.358871 0.214992 0.057148 0.430346 -0.080711 -0.062244 -0.184545 -0.039471 0.162176 0.285237 -0.078500 -0.013015 -0.745929 0.249351 0.341151 0.306087 0.118468 -0.017167 -0.364050 -0.144522 -0.233081 -0.283571 -0.120585 -0.519412 0.090805 0.352689 0.011428 0.187099 -0.049112 0.164327 0.196218 -0.182462 -0.272428 0.055734 0.093848 0.247346 -0.061408 0.614345 0.174067 0.312749 0.239724 -0.038165 0.554783 -0.296115 0.352511 0.055912 -0.310679 0.436535 -0.183683 -0.360444 0.292601 0.600724 0.062820 -0.331332 0.189046 -0.293024
