8 128
9.203210000000000000e+06 0.011657 0.243118 0.312728 0.035342 -0.180428 0.063196 -0.283909 -0.003974 0.178737 0.206165 -0.070261 0.065503 -0.430682 -0.264758 0.045820 0.155841 -0.021033 -0.074075 -0.049449 0.130426 -0.002117 0.259275 0.354607 0.318674 0.102236 0.111265 -0.203468 0.097213 -0.106284 0.166980 -0.114018 0.343243 0.279666 0.046602 -0.023655 -0.005122 -0.158250 0.285880 -0.095317 0.184982 -0.243965 -0.456189 -0.135847 0.093546 0.024742 0.270099 -0.170115 -0.056317 0.120833 -0.128579 -0.080727 0.069732 0.289963 -0.123325 0.225062 -0.192251 0.229586 -0.032731 0.389189 0.048982 0.185905 -0.231028 0.144491 -0.045891 -0.307415 -0.198339 0.129599 -0.187551 -0.005373 0.143170 -0.026448 -0.138341 -0.186554 0.100977 -0.348770 -0.087319 0.118201 0.015575 0.040983 0.318571 -0.235794 0.081383 -0.125399 -0.121942 0.044436 -0.191023 -0.382266 0.543841 0.048443 0.198934 0.165186 0.064553 0.228237 0.276865 0.130709 0.188847 0.007057 0.253019 0.231930 -0.260519 -0.255409 -0.308502 -0.004731 -0.311693 -0.013976 0.031713 -0.029202 0.364160 0.433320 -0.177310 -0.305520 0.100962 -0.369055 -0.341626 -0.239076 -0.079795 -0.022297 -0.048647 0.015781 -0.051153 0.079421 -0.145830 -0.297255 0.099822 0.191067 -0.068189 -0.279843 0.200302
9.908362000000000000e+06 0.063215 -0.459204 0.359334 -0.008441 -0.158752 0.149101 0.299009 0.043183 -0.089666 -0.380518 0.395981 0.211299 -0.074278 0.183432 -0.240129 -0.108136 -0.153128 -0.043548 0.103820 0.146938 -0.087167 0.094775 0.238028 0.011092 -0.043328 0.256610 -0.035414 0.334960 0.071246 0.234168 0.151626 0.026053 0.141381 -0.033337 0.045739 -0.217273 0.015354 0.056623 -0.039310 0.122791 -0.247035 -0.339578 0.061965 0.073709 0.114688 -0.157123 0.417370 0.175501 -0.099646 0.070461 -0.156797 0.063811 0.090933 0.066198 0.140733 -0.103418 0.307278 -0.250578 0.200868 -0.101340 -0.045128 -0.214052 0.230422 0.104078 -0.081244 -0.311662 0.378287 -0.143062 -0.017213 -0.061902 -0.081684 -0.230851 0.274085 -0.160978 -0.226527 0.468848 0.223611 0.090011 -0.350261 -0.129231 -0.099643 0.119816 0.280858 0.035291 -0.111021 -0.310048 0.006256 0.334951 -0.230711 -0.147198 0.086178 0.388204 0.132855 0.245352 0.007818 0.119952 0.194156 -0.132136 -0.152819 0.192492 -0.062864 -0.016733 0.034091 -0.189020 -0.382251 0.223533 -0.130994 0.335168 -0.014770 -0.397038 -0.334990 0.349650 -0.251451 -0.238944 0.091791 0.178969 0.108476 0.060216 0.208958 -0.143310 -0.414023 -0.363902 -0.022640 -0.070132 -0.106938 0.102261 -0.156902 -0.029331
9.506358000000000000e+06 -0.427385 -0.046263 0.136877 -0.109960 0.050593 -0.049561 0.296426 -0.456821 -0.034265 0.034905 0.180410 0.186188 -0.475711 -0.055633 -0.266109 -0.271580 0.089572 -0.077599 -0.406583 0.429387 -0.284851 0.011749 0.213745 -0.228132 -0.332752 -0.045092 -0.289933 0.165146 -0.154449 0.252465 -0.061159 -0.039579 0.221525 -0.113962 -0.470698 0.046043 -0.448740 0.037828 -0.151512 0.280844 -0.302562 -0.229880 -0.144165 0.193073 -0.232685 -0.232796 0.230037 -0.081505 -0.046257 -0.082029 0.341364 -0.055447 0.113511 0.062658 0.169944 -0.263540 -0.118224 0.012186 -0.155315 0.331817 0.144073 0.322666 0.133269 0.246133 -0.135478 -0.246628 0.496648 -0.118092 -0.001608 -0.155147 -0.093649 -0.068207 -0.446617 0.044900 0.163697 0.018136 -0.066838 0.190626 -0.384205 0.350886 0.210328 0.059884 0.006956 -0.379051 0.037034 -0.028744 0.270424 0.437089 0.068820 -0.107762 0.077637 0.331537 0.199589 0.121142 0.030302 0.066803 -0.110183 0.162168 -0.154069 0.024497 -0.183668 -0.246897 0.143465 -0.058653 -0.185742 -0.145574 -0.243586 0.275308 0.308801 -0.017021 -0.088825 0.252719 0.152596 -0.019928 -0.095493 -0.066605 0.191180 -0.261586 0.327408 -0.367636 -0.180335 -0.250754 0.097257 0.271218 0.356551 -0.035712 -0.188500 -0.031231
9.205220000000000000e+06 -0.380782 -0.060423 0.139057 -0.092589 0.043104 -0.036217 0.280146 -0.408579 -0.039465 0.017242 0.176867 0.177656 -0.430832 -0.041604 -0.250388 -0.249409 0.071659 -0.070652 -0.360414 0.388558 -0.258072 0.016767 0.203500 -0.203440 -0.299197 -0.034377 -0.259089 0.159153 -0.138586 0.240463 -0.044778 -0.033044 0.202767 -0.098827 -0.418735 0.035344 -0.400515 0.031686 -0.139508 0.256079 -0.282368 -0.222673 -0.130935 0.174211 -0.200138 -0.215367 0.221655 -0.067571 -0.042207 -0.068894 0.298996 -0.048447 0.102699 0.059454 0.162892 -0.243336 -0.091288 0.001178 -0.124899 0.289637 0.129929 0.278584 0.133117 0.230814 -0.123854 -0.233033 0.463672 -0.109240 0.001335 -0.143158 -0.082988 -0.071594 -0.386943 0.035276 0.136117 0.035787 -0.052140 0.177835 -0.360682 0.307729 0.186902 0.059118 0.020787 -0.333880 0.034026 -0.035226 0.241950 0.406436 0.048089 -0.098611 0.073338 0.319593 0.184677 0.123896 0.031277 0.062321 -0.083802 0.142903 -0.142107 0.028380 -0.166198 -0.220583 0.132077 -0.055771 -0.186465 -0.114942 -0.226263 0.259501 0.275503 -0.028448 -0.087408 0.239052 0.125162 -0.028734 -0.082356 -0.058168 0.174535 -0.231618 0.305675 -0.338760 -0.180129 -0.240939 0.085563 0.242299 0.315668 -0.026151 -0.171294 -0.034245
9.204229000000000000e+06 0.068306 -0.422461 0.313631 0.001828 -0.139453 0.137000 0.285092 0.069983 -0.072258 -0.358868 0.355772 0.209667 -0.044321 0.176088 -0.212860 -0.107694 -0.120128 -0.042220 0.095230 0.108268 -0.081543 0.068884 0.218088 -0.002915 -0.028676 0.251520 -0.019770 0.296285 0.080043 0.203580 0.140785 0.008906 0.117771 -0.038461 0.043762 -0.196490 0.035434 0.040555 -0.045942 0.088333 -0.209690 -0.290294 0.070488 0.060059 0.124267 -0.154860 0.376167 0.167079 -0.087871 0.080377 -0.168414 0.049761 0.091145 0.075977 0.119135 -0.090707 0.268835 -0.232240 0.184186 -0.126002 -0.071659 -0.214871 0.195269 0.073339 -0.077702 -0.268578 0.342758 -0.116749 -0.011902 -0.065867 -0.083771 -0.202970 0.273366 -0.138632 -0.198653 0.432910 0.196606 0.063925 -0.312594 -0.142488 -0.085409 0.116269 0.269489 0.059905 -0.113559 -0.294653 0.015859 0.279853 -0.224210 -0.130396 0.061164 0.348874 0.137619 0.214300 -0.007172 0.125317 0.182521 -0.137692 -0.161967 0.174696 -0.059006 0.013042 0.033747 -0.160162 -0.355361 0.225084 -0.127353 0.288348 -0.029819 -0.366849 -0.296125 0.322220 -0.221561 -0.215508 0.094662 0.191621 0.080220 0.087377 0.172715 -0.112978 -0.374652 -0.322076 -0.008113 -0.083824 -0.118843 0.085039 -0.127276 -0.039641
9.801208000000000000e+06 -0.068534 0.261372 0.213475 0.010091 -0.081463 -0.011856 -0.265967 -0.015894 0.169307 0.174707 -0.020096 0.050598 -0.385729 -0.191012 0.069996 0.154789 0.009518 -0.076592 -0.156637 0.111960 0.028683 0.161435 0.312708 0.285318 0.060468 0.077146 -0.144866 0.077465 -0.135121 0.188557 -0.076946 0.335654 0.247136 0.037847 -0.005258 -0.030961 -0.193422 0.233262 -0.103207 0.212782 -0.203656 -0.424734 -0.152897 0.119253 0.036851 0.272832 -0.157754 -0.088450 0.058568 -0.144433 -0.061393 0.050464 0.210093 -0.058910 0.214398 -0.226724 0.265807 -0.064467 0.366326 0.087855 0.155053 -0.158526 0.117074 0.051019 -0.301715 -0.157783 0.154133 -0.130555 -0.015956 0.176335 -0.096236 -0.171884 -0.209950 0.049908 -0.354038 -0.045591 0.064757 0.051175 0.023700 0.352903 -0.165586 0.076206 -0.157661 -0.144367 0.036329 -0.173283 -0.308399 0.548939 -0.017060 0.196966 0.090539 0.136239 0.227315 0.283000 0.097481 0.115779 0.006812 0.223939 0.170896 -0.220883 -0.252021 -0.227760 0.107169 -0.273379 -0.096961 0.070902 -0.051295 0.245938 0.410100 -0.097610 -0.208233 0.024344 -0.359755 -0.330034 -0.222800 -0.085153 0.027112 -0.114468 0.034241 -0.124199 -0.032032 -0.183995 -0.208277 0.045161 0.209198 -0.005845 -0.249594 0.190717
9.801209000000000000e+06 0.022561 0.293291 0.345707 0.040180 -0.212878 0.080411 -0.328245 -0.011790 0.207346 0.269935 -0.134854 0.062997 -0.484494 -0.332256 0.055940 0.174087 -0.018712 -0.075110 -0.024778 0.145886 -0.019496 0.304236 0.381489 0.338359 0.121286 0.100760 -0.248602 0.090723 -0.111042 0.149157 -0.152493 0.364357 0.309293 0.054095 -0.046746 0.024938 -0.161904 0.322489 -0.109120 0.191138 -0.267888 -0.475960 -0.147522 0.080994 -0.002285 0.289743 -0.217392 -0.063847 0.161385 -0.145179 -0.064661 0.062926 0.337382 -0.163177 0.229371 -0.189043 0.186134 0.004842 0.398292 0.059226 0.212036 -0.246660 0.156922 -0.089796 -0.326523 -0.214903 0.100066 -0.208231 0.008587 0.133392 0.011515 -0.111724 -0.223874 0.147218 -0.338758 -0.155041 0.124936 -0.007840 0.068309 0.349379 -0.261926 0.079112 -0.152345 -0.127681 0.056885 -0.182281 -0.426992 0.554893 0.102755 0.225460 0.201998 0.003357 0.237026 0.269375 0.147841 0.224556 -0.015340 0.302281 0.279143 -0.315679 -0.276265 -0.367172 -0.056191 -0.328199 0.056404 -0.012316 -0.010479 0.411672 0.481702 -0.177440 -0.336377 0.119024 -0.366455 -0.342318 -0.276176 -0.104091 -0.052716 -0.038602 0.004338 -0.017806 0.169571 -0.107546 -0.347490 0.144257 0.226474 -0.111321 -0.303269 0.225217
9.203222000000000000e+06 0.073548 -0.435559 0.317650 -0.018925 -0.142803 0.122488 0.238306 0.018002 -0.115563 -0.351991 0.371344 0.134939 -0.049456 0.172309 -0.197666 -0.052011 -0.179682 -0.011762 0.151432 0.129159 -0.043407 0.101302 0.151394 0.036647 -0.037899 0.200910 -0.024378 0.310510 0.062707 0.188352 0.135683 0.043357 0.108414 0.007751 0.070587 -0.214316 0.023197 0.065582 -0.003548 0.115048 -0.221279 -0.280769 0.046790 0.052393 0.080680 -0.122969 0.383767 0.147570 -0.107228 0.035085 -0.117204 0.079186 0.037101 0.018558 0.129397 -0.059589 0.294422 -0.227628 0.168465 -0.057791 -0.007132 -0.165915 0.207175 0.114351 -0.014137 -0.271432 0.295333 -0.145736 -0.040691 -0.036010 -0.056040 -0.222489 0.264573 -0.176547 -0.216598 0.429167 0.201607 0.107340 -0.296321 -0.118200 -0.109717 0.074771 0.239450 0.025093 -0.079810 -0.236675 -0.026151 0.268393 -0.201955 -0.162977 0.097179 0.327922 0.046788 0.199042 0.024704 0.037569 0.166575 -0.128782 -0.096728 0.202449 -0.015678 -0.030407 0.025877 -0.174621 -0.315329 0.174445 -0.068979 0.285256 -0.039866 -0.342582 -0.292179 0.288486 -0.232357 -0.206735 0.076501 0.111210 0.119457 0.019458 0.197796 -0.137643 -0.380880 -0.314953 -0.020305 -0.057128 -0.106457 0.123066 -0.121881 -0.004370
