157 128
12.0282001419 0.029073 0.141877 0.138457 0.152155 0.078867 0.314738 -0.472043 0.381394 -0.126584 -0.036448 -0.095725 -0.257214 -0.064304 0.106023 0.006999 -0.158711 0.050448 -0.066258 0.203784 -0.348010 0.104214 -0.393244 0.219928 0.504865 -0.623333 -0.434032 -0.127705 -0.089571 -0.012441 -0.185138 0.077588 -0.212250 0.126173 -0.082721 -0.040502 0.371120 0.159906 -0.311107 0.421095 0.352867 -0.261631 -0.090862 -0.268287 0.188705 -0.305611 0.002431 -0.029743 0.227656 -0.397810 -0.178270 0.171563 -0.042719 0.167619 0.258354 0.460863 0.202084 -0.495007 0.063936 0.154696 0.323981 -0.003932 0.064386 0.240786 0.077218 -0.381401 -0.156301 0.310267 -0.183483 -0.177580 0.351059 -0.069585 -0.526428 -0.568559 0.261454 0.409108 0.411557 -0.128871 0.189129 -0.358792 0.413833 -0.080886 0.035746 -0.121801 -0.266628 0.011629 0.541296 -0.210144 -0.177301 0.000830 0.542938 0.057367 -0.029047 0.607718 0.165734 0.128192 -0.284840 -0.256256 0.403056 -0.038438 -0.055601 -0.250198 0.031261 -0.581292 0.239703 -0.648482 0.569296 0.062466 0.005043 0.189572 0.039352 -0.041990 -0.265855 0.313674 0.330458 -0.075737 -0.412989 0.128334 0.380692 0.058709 0.036955 -0.076670 -0.045385 0.117166 0.435645 0.484187 0.020980 0.011313 0.532599
1.30313793848 0.228397 0.057350 0.111079 -0.033396 -0.066297 0.214129 -0.273138 0.550550 -0.056316 0.298977 -0.053209 -0.069116 0.187870 0.057595 0.281150 -0.350766 0.464158 -0.203577 0.040253 0.123083 0.073883 0.166600 -0.036857 -0.250952 0.247225 -0.251015 0.177990 0.550833 -0.175160 -0.378871 0.036475 0.078188 0.004639 0.217191 0.281575 0.108192 -0.406773 -0.279785 0.062572 -0.036128 -0.010937 0.025126 0.131772 -0.117574 -0.180852 0.353472 0.594801 0.185050 0.136240 -0.036792 -0.065580 0.034245 -0.170432 0.588164 0.208431 -0.376711 0.072344 -0.252549 -0.505067 0.123268 0.085425 0.131277 -0.122287 0.031831 0.044841 0.729846 0.527564 -0.711639 -0.449161 -0.125538 0.412370 -0.231075 -0.278862 0.279832 0.166021 -0.025478 -0.061365 -0.226579 0.137443 -0.003528 -0.341839 -0.184112 -0.308784 0.204060 -0.272541 0.197161 0.133169 -0.062981 -0.091227 -0.082568 -0.107817 0.468163 -0.058788 -0.232167 -0.322558 -0.283080 0.017308 0.635298 -0.290809 -0.664636 -0.047838 0.333198 -0.099288 0.071217 0.918744 -0.758578 0.001854 -0.032608 -0.065485 -0.108121 0.211392 0.029169 0.041119 -0.029324 -0.513128 -0.150112 -0.010242 -0.278899 -0.231272 0.346032 -0.265941 0.165139 -0.387128 -0.245305 0.319846 -0.504516 0.385502 0.265434
12.4162073042 0.171359 0.317291 -0.130805 0.043841 0.023146 -0.272009 -0.363590 0.259980 0.153234 0.054561 -0.279573 0.017594 -0.520880 -0.264109 0.132775 0.268331 0.559766 -0.409725 -0.176951 -0.184925 0.167889 -0.035438 0.106505 -0.009593 0.425729 -0.173178 0.288456 0.095501 0.156484 -0.280724 0.174789 0.339603 0.188793 -0.083629 -0.383504 0.414610 -0.187996 0.032878 0.035690 -0.416079 -0.134096 -0.628428 0.232680 0.285662 -0.191623 0.226973 0.294761 0.061363 0.342196 -0.208081 -0.138232 0.317017 0.201247 0.240692 0.051213 -0.100077 -0.096577 -0.366099 -0.337056 0.162115 0.317034 -0.249075 -0.277525 0.188291 0.438150 -0.008726 0.173495 -0.225707 -0.142538 -0.048150 -0.074404 -0.535171 -0.317680 0.119725 0.374378 -0.325969 -0.357164 0.109296 -0.190774 -0.289495 -0.364783 -0.444961 -0.331852 0.391442 -0.408677 0.276820 0.157036 -0.150185 -0.488639 0.183595 0.540098 0.148421 -0.109315 -0.139702 -0.426127 -0.318320 -0.107669 0.212310 -0.481754 -0.024566 0.047958 0.013778 -0.163155 0.368105 0.443733 -0.862242 0.280541 -0.125730 -0.292818 -0.166742 0.338707 -0.380398 0.136979 0.101210 -0.664797 -0.162195 -0.081274 -0.339908 -0.225953 0.482337 0.174865 0.113202 -0.102785 0.068026 0.247432 -0.489471 0.390606 -0.186221
11.4404333395 -0.249465 0.460234 0.109248 0.131051 0.268445 0.079536 0.491887 0.007865 -0.024130 0.252881 0.322354 0.175848 0.061708 0.257754 0.147840 -0.287456 -0.149733 -0.360570 -0.081545 -0.285166 -0.199196 -0.160543 0.139203 0.350608 -0.235105 0.113388 -0.187104 0.199084 -0.056289 -0.196839 0.303983 0.129498 0.226207 0.124458 -0.149334 0.354956 -0.098654 -0.481931 0.383996 0.242557 0.082175 0.087551 -0.258205 -0.212749 0.300350 0.306058 -0.193669 0.272518 -0.152582 -0.646203 0.068105 -0.421142 -0.094206 0.543958 0.207119 0.011114 -0.233561 -0.027394 0.371864 0.251450 0.200460 -0.251234 0.072655 0.044044 -0.410661 -0.338709 0.072490 -0.270085 -0.376692 0.128470 0.425763 -0.367412 -0.480297 0.295403 -0.069858 0.293473 0.576791 0.333591 -0.509569 0.162694 -0.010674 0.210878 -0.007364 -0.191746 0.132776 0.179352 0.164184 -0.046624 -0.093265 0.222061 0.230738 0.068341 0.411605 -0.152582 0.158264 -0.535367 -0.006953 0.055130 -0.500486 -0.332317 -0.128180 -0.073015 -0.087796 0.226333 -0.232148 0.257419 0.036540 -0.080798 0.491379 -0.279715 -0.198730 -0.145519 0.308089 0.310368 -0.117050 -0.431169 -0.406375 0.341501 0.204386 0.453392 0.005082 0.306023 -0.130848 0.243311 0.164417 0.155734 -0.104227 0.261287
5.57877322836 -0.175330 0.384223 -0.351282 0.214126 0.087979 -0.150029 -0.356884 0.369451 -0.072711 -0.218537 -0.159543 -0.237775 0.057719 0.286093 0.037213 0.078501 -0.101584 -0.150179 0.142527 -0.374387 -0.249613 -0.383173 0.109152 0.191488 -0.457750 -0.242508 -0.026560 0.370504 0.181294 0.088406 0.394304 -0.121468 0.209864 -0.322282 -0.267833 0.582429 0.333777 -0.154018 0.161003 -0.058899 -0.108311 0.025448 -0.474946 -0.079044 -0.267363 -0.082048 -0.395495 -0.271943 0.228538 -0.562529 0.109722 0.016131 -0.057287 0.128598 0.009257 -0.211926 -0.749434 0.094751 0.408314 0.168620 0.106736 -0.212924 -0.129432 0.101115 -0.090874 -0.133339 -0.003896 -0.271342 -0.226433 -0.286068 -0.106537 -0.125970 -0.235594 0.436055 -0.133638 0.435216 0.064472 0.077106 -0.542568 0.296476 0.029859 -0.144538 -0.355721 -0.463750 0.320908 0.258374 -0.098944 0.142382 -0.279284 0.075460 0.190586 -0.352351 0.016185 -0.024773 0.191204 -0.262263 0.047316 -0.224887 0.025962 -0.521190 -0.095289 -0.096880 -0.082525 0.009848 -0.105774 0.284006 -0.080806 0.174558 0.028067 0.240744 0.095362 -0.101243 0.351747 0.159279 -0.053118 -0.290628 -0.111627 0.379060 0.121203 0.047590 -0.229827 0.047738 -0.241938 -0.077332 -0.153548 0.387034 0.080572 0.130489
10.5325808623 0.076813 0.389669 0.441286 0.363020 0.353010 -0.555794 -0.145719 -0.032580 0.379143 -0.159693 -0.198678 -0.440460 0.396646 0.042624 -0.004695 -0.113409 -0.550480 -0.555262 0.558230 -0.236895 0.135263 0.127587 -0.120634 0.178104 -0.060853 -0.259643 0.126483 0.065275 0.294285 -0.280479 0.411141 -0.357108 0.460881 0.055334 -0.413154 0.488022 0.343421 -0.576356 0.063551 -0.155066 0.215263 -0.244136 -0.460811 0.051805 -0.075107 -0.117676 -0.605173 -0.081737 -0.007676 -0.773855 -0.288984 -0.342523 0.108899 0.268911 0.346015 0.119698 -0.384149 0.035253 0.311166 0.511306 0.228962 -0.325766 -0.028378 0.531055 -0.291065 -0.093981 -0.129364 0.070037 0.057263 -0.035258 0.190929 -0.038724 -0.328055 0.431068 0.023968 0.443988 -0.062939 -0.096351 -0.138826 0.296476 -0.326436 0.106855 -0.463393 -0.289359 0.072146 0.108581 0.480194 -0.310432 -0.273673 0.136839 0.130550 0.190771 -0.010843 -0.034116 -0.332075 -0.749587 -0.328386 0.361448 -0.144133 -0.213570 -0.300701 0.239956 -0.191651 0.312005 -0.029986 0.291174 0.379870 0.175564 0.104046 -0.102180 0.286459 -0.654121 0.139471 0.269294 0.027176 -0.273223 -0.346999 -0.040742 0.426871 0.292326 -0.245754 0.135737 -0.264618 0.129942 0.052201 0.652422 -0.383588 0.290021
6.78659009429 0.055938 0.013469 0.115113 -0.106566 0.286313 -0.050549 -0.050614 0.212618 -0.501356 0.487789 0.117146 -0.455752 0.024271 0.384377 -0.064884 0.201287 -0.372825 0.035235 0.180242 -0.327243 0.062245 -0.280772 0.145399 0.042044 -0.180290 -0.265455 -0.040847 0.584754 -0.021879 -0.079617 0.133036 0.082034 0.531625 -0.300590 -0.437660 0.306645 -0.095522 -0.422577 0.575992 0.160006 -0.108832 -0.132057 -0.306122 -0.116318 -0.445246 0.287072 -0.156552 0.021126 0.198948 -0.700670 0.330340 -0.419032 0.212891 0.007442 0.650458 -0.300485 -0.804373 0.211903 0.099220 0.501748 -0.005794 -0.104245 -0.155699 -0.051442 -0.092351 0.003551 0.221789 -0.275205 0.167159 0.218682 0.154631 -0.113945 -0.392147 0.461589 -0.201172 0.450540 0.164928 -0.389377 -0.483551 0.430016 -0.297529 0.051107 -0.310424 -0.529436 0.323655 0.116444 -0.009815 0.219806 -0.288915 0.140870 0.092047 -0.153646 0.176416 0.280366 0.431261 -0.525183 -0.264688 -0.260085 0.041205 -0.462718 -0.129464 -0.059849 -0.001587 0.496212 -0.333009 0.219440 0.222871 0.080106 0.481019 0.373495 -0.083472 0.114242 0.159424 0.085179 0.123537 -0.200366 -0.088588 0.118152 0.019964 0.167913 -0.207571 0.051374 -0.304054 -0.098366 0.060690 0.055546 0.206373 0.444045
9.13558076329 -0.019431 0.230926 0.049433 0.008473 0.065804 -0.272421 -0.041022 -0.113347 -0.018335 -0.068906 -0.055811 -0.050772 0.304771 0.109907 -0.057726 -0.117064 -0.511816 -0.376402 0.183172 -0.364799 -0.111205 -0.322778 0.158617 0.292885 -0.281366 -0.178361 -0.117047 -0.179898 -0.028896 -0.270294 0.371131 -0.237921 0.253705 -0.286531 -0.479460 0.529437 0.262851 -0.636034 0.316668 0.267417 0.017460 -0.450909 -0.369063 -0.146836 -0.276726 -0.235589 -0.524843 0.039790 -0.061721 -0.477473 -0.060320 -0.522318 0.260166 0.048119 0.243281 0.186701 -0.438741 0.283883 0.403623 0.515147 0.287021 0.003065 -0.158773 0.150923 -0.152897 -0.115844 -0.025608 -0.205539 0.154755 0.336688 -0.165006 -0.311214 -0.586037 0.209453 0.268723 0.525302 0.241956 -0.015321 -0.627877 0.341485 -0.083440 0.014530 -0.245373 -0.216511 0.327787 0.248570 0.089785 -0.456871 -0.141485 0.552141 -0.038157 -0.020859 0.352100 0.013905 -0.052298 -0.657720 -0.136729 0.079365 -0.298345 -0.151612 -0.235269 0.191453 -0.170434 0.519959 -0.242697 0.494807 -0.058108 0.109810 0.249500 0.245849 -0.166300 -0.578558 0.052084 0.394998 -0.086587 -0.219658 -0.097006 0.113587 0.305369 0.339122 -0.145266 0.001710 -0.178525 0.157009 0.044434 0.272378 -0.081964 0.363336
5.31467534179 0.001214 0.055179 0.045889 -0.061005 -0.010187 0.281707 -0.357001 -0.086489 0.106297 0.040427 0.333673 -0.493509 0.149280 0.350551 0.243681 -0.265710 -0.454116 -0.039645 0.169784 -0.170523 0.022507 -0.113092 0.103286 0.141077 -0.415426 -0.337285 -0.279856 -0.372758 -0.300709 -0.358619 -0.165761 0.009069 0.231264 -0.145497 -0.211674 0.176491 0.045948 -0.392600 0.284085 -0.046894 -0.153230 0.069389 -0.337444 -0.246930 -0.289271 0.032874 0.004198 0.125041 -0.325420 -0.300423 -0.054790 0.010317 0.254297 0.103245 0.390116 0.071782 0.041654 0.288640 0.134992 0.320410 0.372369 0.352616 -0.278997 -0.103719 -0.583483 0.118258 0.098654 -0.665715 -0.194225 0.218505 -0.000463 -0.123363 -0.205224 0.154268 0.020640 0.494595 0.348547 0.028811 -0.488389 0.388106 0.049741 -0.324811 -0.253544 -0.275297 0.563757 0.424762 0.405755 -0.513423 0.174956 0.091629 -0.177695 -0.011460 0.417474 -0.196335 -0.045822 -0.293573 -0.211061 0.418945 -0.376615 -0.503106 -0.159859 0.229085 -0.098939 -0.146505 -0.165172 0.488600 0.008917 -0.181461 0.419142 0.085869 0.226889 -0.360239 0.315643 -0.006388 0.055556 -0.048053 -0.095867 0.229575 0.356125 0.108863 0.155213 -0.264071 -0.183830 0.078231 0.299703 0.396391 -0.385655 0.190239
10.2979876006 0.524315 -0.235405 0.090152 -0.025167 0.321479 -0.446972 -0.090877 0.547568 0.070502 0.341100 -0.148670 0.118136 0.177603 -0.681719 -0.357491 -0.190290 0.294729 -0.789440 0.302011 0.302554 -0.201358 0.094058 -0.675581 0.167253 0.872277 -0.537763 0.339904 0.703334 0.188100 -0.519572 0.104388 -0.054562 0.161124 0.291348 -0.311882 0.409803 -0.171956 -0.571383 0.182414 0.279521 0.039163 -0.057940 0.639476 -0.066966 -0.339732 0.665221 0.323629 0.157098 0.442195 -0.235865 -0.033270 0.228661 -0.142504 0.163737 0.243227 0.310438 0.030816 -0.026689 -0.532392 0.293461 0.110871 -0.104658 0.057397 0.038575 -0.278063 0.117277 0.157046 -0.061234 0.238872 -0.564661 0.517020 0.104424 -0.021081 0.357543 0.249478 -0.235796 0.226820 -0.174915 0.163656 0.506895 -0.439969 -0.199276 -0.786937 -0.003560 -0.080341 0.261277 0.068139 -0.529288 -0.387876 -0.233054 -0.460996 0.492159 0.072616 -0.328251 -0.159676 -0.293800 -0.660066 0.331650 -0.353964 -0.356944 0.295129 -0.090733 -0.172930 0.042360 0.776756 -0.630679 -0.015380 -0.428084 -0.020588 -0.136544 0.034672 0.130378 -0.024234 0.328427 -0.600727 0.409253 -0.023437 0.115863 -0.187984 0.362981 -0.024161 0.155574 -0.494146 0.433593 0.221393 -0.059389 0.288502 0.293584
3.87299596878 -0.041008 0.612497 -0.367456 0.637902 -0.444626 -0.158434 -0.391451 -0.147436 -0.051351 0.364916 -0.037082 -0.030262 0.093005 0.072486 0.166002 -0.312818 -0.101274 -0.451412 -0.270161 -0.197780 -0.196900 -0.369313 0.211145 0.320896 -0.329987 -0.218347 -0.132488 -0.012465 -0.208243 -0.136282 0.236756 -0.288301 0.203671 -0.686932 -0.228065 0.363144 0.021214 -0.197223 0.209498 -0.050152 0.118892 -0.531098 -0.293288 -0.507212 -0.160316 -0.400294 -0.264165 0.400467 0.039548 0.203208 -0.536637 0.307950 -0.077003 -0.307489 0.170751 0.015722 -0.247327 0.327147 0.186709 0.131552 0.693877 0.412068 -0.309465 -0.485243 -0.354548 0.173954 -0.142210 -0.521681 -0.266499 0.183990 -0.310935 -0.268372 -0.568756 0.317414 -0.014000 0.534484 0.323216 0.185343 -0.594850 0.491135 0.283870 -0.429746 -0.280207 0.122271 0.408550 0.552040 0.328765 -0.076536 -0.247372 -0.295276 -0.378758 -0.237222 0.778320 -0.275176 0.025271 -0.519914 0.489637 -0.057682 -0.412001 -0.328041 -0.039543 0.178741 0.173714 0.041950 0.060157 0.504317 -0.360885 0.134756 0.319132 0.583295 -0.202215 0.054330 0.477957 0.189569 -0.719536 -0.138931 0.056031 0.277336 0.118284 0.058046 -0.136992 -0.416643 -0.431378 -0.043120 -0.133079 -0.018062 0.556520 0.322282
7.91377000679 0.408588 -0.244220 0.403341 0.102887 0.118271 -0.275108 0.149208 0.161574 -0.025606 0.418398 -0.387967 0.294035 0.215180 0.042709 0.414604 -0.343996 0.623126 -0.516156 -0.040070 -0.040003 0.058667 -0.235389 0.010544 -0.050356 0.440055 -0.600141 0.197872 0.291938 0.137675 -0.089455 0.163927 -0.139026 0.208021 -0.198867 -0.314066 0.005118 -0.426939 -0.231853 0.485152 -0.293620 -0.156197 -0.368323 0.268842 0.319413 -0.001952 0.417764 0.374671 0.652952 0.521573 -0.093908 0.165779 0.039649 0.060242 0.138982 0.196671 -0.388374 -0.416429 -0.400585 -0.704184 0.352688 0.224074 -0.068582 0.029248 -0.352950 0.342584 0.163764 0.164767 -0.240657 -0.416119 0.022614 0.387254 -0.681680 -0.566170 0.273437 0.226912 0.035186 0.057446 0.061275 -0.015786 0.551843 -0.456434 -0.037370 -0.194663 0.058717 -0.564143 0.285818 0.300886 0.051996 -0.381639 -0.007496 -0.034086 0.244135 0.391937 0.171486 -0.320885 -0.457540 -0.452419 0.052358 -0.327005 -0.098434 0.276820 0.146930 0.146565 0.337132 0.443022 -0.666857 0.326296 -0.428498 0.210352 -0.244477 0.339987 -0.109223 0.129044 0.038025 -0.226356 0.411155 -0.096819 -0.282583 -0.453323 0.756176 -0.079037 0.031325 -0.262448 -0.022456 0.491636 -0.685821 0.522415 0.152652
2.43782951619 0.329266 0.226340 0.011796 -0.313455 -0.038792 -0.391437 -0.080802 0.464143 0.198399 0.435739 -0.062812 0.216216 -0.009436 -0.340929 0.234462 -0.291855 0.381266 -0.367173 0.057376 0.164078 0.066934 0.297614 -0.065945 0.068190 0.483422 -0.467062 0.293643 0.701282 -0.025195 -0.523717 0.227432 0.097026 0.096266 -0.109034 -0.160954 0.087495 -0.506958 -0.532459 0.496241 0.421835 -0.361822 -0.102705 0.434570 0.030286 -0.205595 0.796695 0.269479 -0.173300 0.111350 -0.257202 -0.075304 -0.065331 0.073947 0.455903 0.698470 -0.219936 -0.223228 -0.095761 -0.466866 0.417235 0.007215 -0.012204 -0.319409 0.231758 0.316660 0.479368 0.543677 -0.279756 -0.168393 -0.085116 -0.036302 -0.142151 0.090004 -0.062490 0.136200 -0.070909 0.051061 -0.012588 -0.060067 0.059302 -0.509607 0.068550 -0.832893 0.111560 -0.061373 0.141319 0.049325 -0.367739 -0.281725 -0.268433 0.168393 0.442156 0.057719 -0.342148 -0.426876 -0.421316 -0.078334 0.300276 -0.033331 -0.692382 0.173843 0.415907 -0.158327 0.050986 0.748212 -0.569555 0.153320 -0.448633 -0.411130 -0.279040 0.185496 -0.009528 0.327713 0.000018 -0.392400 -0.167981 -0.066649 -0.111019 -0.025482 0.549643 -0.355775 0.069334 -0.441491 -0.169667 0.387891 -0.344752 0.205483 -0.177621
18.5899406172 -0.293381 0.332315 0.124818 0.915764 -0.211261 -0.269411 -0.260735 0.219590 0.222078 0.200286 -0.012219 -0.250663 0.161560 0.240018 0.186290 -0.057443 0.100395 -0.479230 0.285040 0.039789 0.108178 0.032597 0.169329 0.292209 -0.350502 -0.457368 -0.058896 0.307845 0.155056 0.153117 0.007824 -0.368830 0.161556 -0.142881 -0.243575 0.061050 0.131528 0.060768 0.311464 0.505308 0.027436 -0.084276 -0.391537 0.147908 0.073718 0.097236 -0.414154 0.274855 -0.164330 -0.167302 -0.327178 0.199721 -0.289873 0.080394 0.325733 -0.251988 -0.232544 -0.102330 0.238528 0.240178 0.206921 -0.057158 -0.139585 -0.245808 -0.524525 0.127889 0.011240 -0.220340 -0.434967 0.040050 0.458282 0.069529 -0.602164 0.652486 -0.355949 0.522919 0.037898 0.127914 -0.255701 0.033013 -0.255229 0.149518 -0.404069 -0.130495 0.450191 0.378127 0.131295 -0.272786 -0.143596 -0.487888 0.020537 -0.068112 0.834890 0.065218 0.068039 -0.627072 0.028805 0.382513 0.013348 0.011066 -0.472161 0.216797 -0.011421 -0.180879 -0.159480 0.300075 -0.000489 0.088076 0.514393 -0.143551 -0.336864 0.103490 0.551317 0.211455 -0.406053 -0.661836 -0.220665 0.367538 -0.092235 0.361095 -0.226790 -0.229310 0.028680 0.025610 0.072787 0.013000 0.221022 0.354389
16.2508433779 -0.354061 0.398166 -0.197630 0.929708 -0.022777 0.050949 -0.544661 0.647153 0.077887 0.007894 -0.328047 -0.177621 -0.251719 0.296128 0.151358 0.142298 0.519666 -0.288379 -0.256296 -0.464735 -0.348310 -0.424603 0.107005 0.493288 -0.487534 -0.561880 0.030282 0.583908 0.337013 0.189708 0.284440 0.065944 0.528080 -0.302585 -0.351240 0.606362 0.219168 0.076920 0.376294 0.040151 -0.428053 0.162215 -0.226182 0.110221 -0.091862 0.052810 0.052015 -0.047740 0.141634 -0.405239 0.101380 0.430122 -0.043990 0.383423 0.354201 -0.566453 -0.802911 -0.170369 0.211650 0.279654 -0.057843 0.051736 -0.182874 -0.310038 -0.461242 -0.229536 0.217211 -0.110286 -0.506114 -0.238330 0.193476 -0.569846 -0.120779 0.388794 -0.198446 0.385288 -0.028689 0.482988 -0.251476 0.299198 0.083291 -0.346998 -0.370750 -0.250010 0.079282 0.584585 -0.059600 0.102166 -0.157989 -0.283278 0.221446 -0.301653 0.510629 0.259781 0.121567 0.076628 -0.120108 -0.374121 -0.144303 -0.268744 0.063846 -0.571294 -0.122714 -0.303413 -0.187719 0.225368 0.153710 -0.240492 0.103159 0.183372 0.288445 0.144209 0.216790 0.116100 -0.220707 0.007465 0.142189 0.555915 -0.019793 -0.040820 -0.147779 -0.044025 0.019091 0.161913 -0.037813 0.324499 0.210674 0.203384
0.320456185133 -0.413313 0.402915 0.290903 0.313414 0.451771 0.089534 0.141760 0.153866 0.326465 0.115819 0.328680 0.305044 -0.200942 -0.157817 -0.206590 0.062579 -0.189821 -0.455254 -0.316410 -0.757464 -0.073132 -0.243982 0.368983 1.000918 -0.184303 -0.262126 -0.320682 -0.076077 -0.224076 -0.524851 0.091307 0.213734 0.159020 -0.268788 -0.260190 0.632891 -0.383050 -0.541822 0.231353 0.484171 -0.208399 -0.303849 -0.031678 0.169937 0.080118 -0.155897 -0.389913 0.552355 -0.215211 -0.575372 -0.168502 -0.463017 0.275950 0.044741 0.739516 0.156581 -0.282462 0.105873 0.134289 0.956946 0.461816 0.189162 -0.097331 0.078464 0.117597 -0.058539 -0.156272 -0.368486 -0.252708 0.491386 -0.029424 -0.123780 -0.660681 0.449539 0.297762 0.104043 0.570604 -0.004214 -0.572854 -0.188749 0.127435 -0.290220 0.007324 0.134412 0.251164 0.331987 0.698014 -0.406805 -0.198790 0.163824 0.221679 -0.019097 0.589007 0.024755 0.144381 -0.592270 -0.067041 0.189769 -0.508310 0.120563 -0.288653 0.144164 -0.023396 0.254696 -0.237600 0.257835 -0.104993 -0.127192 0.317761 -0.333928 -0.194883 -0.316741 0.134495 0.045887 -0.123384 -0.392186 -0.180433 0.549787 0.184243 0.359620 0.094901 -0.078962 0.022675 0.056975 0.102218 -0.221278 -0.053898 0.054086
6.30700847037 0.257436 0.259648 0.035699 -0.018813 0.227916 -0.261048 -0.436256 0.519503 -0.216220 0.297044 -0.376513 0.011347 0.062380 -0.214130 0.246971 -0.114407 0.645577 -0.969884 -0.153768 -0.065249 0.068244 -0.172029 0.109038 0.207140 0.369627 -0.493359 0.433171 0.165169 0.091480 -0.338553 0.241831 -0.079747 0.158718 -0.310574 -0.088809 0.081146 -0.318095 -0.340273 0.440803 -0.344648 0.025076 -0.142690 0.358197 -0.054254 -0.425773 0.848656 0.189793 -0.167145 0.145745 -0.303177 0.067189 -0.088390 0.180278 0.388373 0.315046 -0.203483 -0.028278 -0.178874 -0.222527 -0.021524 0.293526 -0.314756 -0.353502 0.224945 0.025784 0.480360 0.135330 -0.293114 -0.373060 -0.115618 0.237887 -0.180645 -0.235365 0.123448 0.351963 -0.162443 0.143546 0.111660 -0.082355 -0.198529 -0.420635 -0.114751 -0.479770 0.145102 -0.032951 0.223302 0.118286 -0.334301 -0.549450 -0.098527 0.669371 0.660463 0.069611 -0.345245 -0.327133 -0.596887 -0.056194 0.405007 -0.034202 -0.166509 0.012760 0.373244 -0.418634 0.218928 0.807051 -0.361245 0.160967 0.002173 -0.397538 -0.115243 0.022780 -0.150807 0.122364 -0.260938 -0.760132 -0.422333 -0.505548 -0.115478 -0.249346 0.382751 0.140037 -0.001150 -0.295561 -0.106654 0.365228 -0.513017 0.279330 0.090751
11.012550791 -0.198768 0.750734 -0.383244 0.502361 0.002245 0.140132 -0.092405 0.276483 -0.069143 -0.114818 -0.328296 -0.152234 -0.077016 0.285017 -0.109253 -0.061054 0.145077 -0.150997 -0.193154 -0.756804 -0.225867 -0.458775 0.034735 0.501646 -0.588989 -0.293843 0.009298 0.338890 0.285094 -0.172799 0.437376 0.257445 0.255861 -0.247743 -0.308008 0.729629 0.232918 -0.482118 0.377706 -0.194065 0.071258 0.267355 -0.172289 -0.101509 -0.023771 -0.174548 -0.123717 -0.160096 0.086302 -0.646565 0.081022 0.147502 -0.049324 0.386990 0.104093 -0.296850 -0.592789 0.054731 0.343388 0.112370 -0.107981 -0.282251 0.092348 0.041628 -0.669408 -0.375322 0.082505 -0.208534 -0.341106 -0.522358 -0.242001 -0.750533 -0.452664 0.439092 0.254672 0.524302 0.370949 0.600408 -0.601857 0.552058 0.515705 -0.200599 -0.188169 -0.323014 -0.279596 0.524111 0.125601 0.255931 -0.455393 0.332007 0.045587 -0.507968 0.260836 0.168823 0.138975 -0.338361 -0.056304 -0.021451 -0.525812 -0.224507 0.133241 -0.416568 0.064228 0.302876 -0.396092 0.202608 0.075959 0.006125 0.002495 0.692111 0.312419 -0.153356 0.446929 0.558199 -0.051807 0.081822 0.072257 0.276465 0.230287 0.006314 -0.275349 0.167644 -0.044514 0.284378 0.111398 0.626370 0.215878 0.279918
4.34731824282 0.494539 0.300454 -0.248196 0.546173 -0.303273 0.178084 -0.020390 -0.364455 -0.102706 0.033876 0.245854 -0.093047 0.242038 0.232279 0.132858 -0.242274 0.116826 -0.694465 0.168087 -0.557633 0.044790 -0.202402 -0.060971 0.310692 -0.220467 -0.577506 -0.235882 0.213343 0.001822 -0.743445 0.410147 -0.064724 0.038943 -0.256988 -0.613099 0.264610 -0.210950 -0.785363 0.669556 0.102532 0.210094 0.095662 -0.106653 -0.279903 0.119939 -0.157274 0.105485 -0.007837 -0.069425 -0.209252 -0.165139 -0.053516 -0.307587 0.011516 0.612009 -0.126110 -0.066036 0.420286 -0.305752 0.168128 0.255688 0.406219 0.200324 -0.208354 -0.661738 0.063661 -0.029238 -0.408699 0.142540 0.113508 0.287278 -0.685631 -0.307408 0.818473 0.135202 0.661654 0.095085 0.481291 -0.614301 0.543537 0.037281 -0.285037 -0.033874 -0.387897 0.032170 0.212709 -0.254870 -0.168016 -0.131947 0.464450 -0.623316 -0.141138 0.818970 0.364248 -0.015754 -0.642432 -0.032260 0.093871 -0.130703 -0.468014 0.233127 0.063168 -0.182049 0.571730 -0.007368 0.355643 -0.071828 0.143272 -0.207131 0.260030 0.002411 -0.289374 0.235706 0.285327 -0.300338 0.563463 0.010171 -0.309832 0.417516 0.127462 -0.630179 0.327657 -0.107979 -0.133405 0.180644 -0.068220 -0.038966 0.609473
17.7368788358 0.205606 0.185534 -0.610682 0.180427 -0.187529 0.047135 -0.048850 0.257638 0.354200 -0.246940 0.410666 -0.224039 0.327658 0.080890 0.085733 -0.098982 -0.126840 -0.740342 0.627747 0.202344 -0.432028 -0.006866 -0.382342 0.154641 -0.043729 -0.702114 0.091529 0.521624 -0.355102 -0.646344 0.357034 0.138966 0.275966 0.002995 -0.751818 0.214599 -0.469042 -0.210297 -0.088142 0.527517 -0.297270 -0.434025 0.176177 -0.511646 -0.286141 0.159648 -0.232084 -0.119353 0.135605 -0.182570 -0.308874 0.144258 -0.401723 0.198575 0.113231 0.064821 0.301055 0.147692 -0.068617 0.599847 0.300532 0.398347 -0.420496 -0.151442 -0.366664 0.569820 0.118320 -0.706840 0.243003 -0.385438 0.132543 -0.100005 -0.128429 0.192497 -0.161607 0.199783 0.518760 -0.385036 -0.489133 -0.059183 -0.354169 -0.572426 -0.853567 0.172562 0.107964 0.287289 0.257139 -0.887111 -0.092074 -0.133181 -0.485782 0.297207 0.686640 -0.453536 -0.396622 -0.157476 -0.376122 0.329147 -0.548486 -0.786299 0.085701 0.482303 -0.006899 -0.490877 0.396375 -0.331517 -0.091864 -0.345425 0.209596 0.031448 0.074625 -0.458092 0.154666 1.065848 -0.573585 -0.021972 -0.184224 -0.066929 0.304713 0.747145 -0.360203 -0.143613 -0.571460 0.052033 -0.109503 0.222422 0.431975 0.598804
14.0249798112 0.350338 -0.023308 0.234521 -0.066629 -0.345198 -0.568156 0.175684 0.332427 0.168999 0.358228 -0.009479 -0.338738 0.485601 -0.039654 -0.546788 -0.381869 0.142406 -0.521159 0.713321 0.166601 0.254121 -0.209184 0.144497 0.089497 -0.059609 -0.731300 0.654431 0.865765 0.100042 -0.613531 -0.045221 0.108412 -0.015544 -0.111942 -0.414828 0.416488 -0.504641 -0.974182 0.549565 0.843560 -0.196170 -0.060485 0.235293 0.158534 -0.332136 0.628526 -0.138419 0.004503 -0.078036 -0.370004 0.052790 -0.040311 -0.520653 0.297224 0.572075 -0.082435 -0.505888 0.166540 -0.628720 -0.038714 -0.245471 -0.149502 0.066054 0.010511 -0.656219 0.339253 0.912359 -0.416925 0.296202 0.112413 0.178507 -0.263977 0.108433 0.568933 0.091520 0.077901 -0.205186 0.037329 -0.293633 0.918930 0.117154 0.141714 -1.023051 -0.043075 -0.136315 0.448474 0.212288 -0.556769 -0.656153 -0.370714 -0.771692 -0.142289 0.400186 -0.457059 -0.455929 -0.657739 -0.454232 0.616377 0.055746 -0.676663 -0.222214 0.178360 -0.435832 0.409351 0.486649 -0.416307 -0.040673 0.141049 -0.089536 0.377594 -0.207556 -0.022521 0.256237 -0.182046 -0.179576 -0.127086 0.564373 -0.066077 -0.102990 0.322041 -0.230911 0.095656 -0.375507 0.075366 0.262966 -0.437845 0.536393 0.018174
16.7146601262 0.354298 -0.056170 -0.234027 0.256012 -0.263921 -0.335855 -0.347917 0.126524 0.550257 -0.068427 0.160881 0.189864 -0.446010 -0.474904 -0.162059 0.020551 0.209398 -0.363079 -0.095976 -0.377652 -0.062066 -0.223051 -0.398039 0.300856 0.501322 -0.603837 -0.243044 0.606436 -0.074767 -0.814620 0.219351 0.125518 0.567735 -0.318251 -0.779995 0.355935 -0.507414 -0.332720 0.145903 0.503285 -0.435463 -0.601650 0.428783 -0.010381 -0.084194 -0.185074 0.443223 0.359762 0.338782 -0.238273 -0.374674 -0.056567 -0.128217 0.343365 0.557575 -0.312229 -0.703480 -0.155911 -0.726423 1.047993 -0.145629 0.546367 -0.146110 -0.155697 0.330587 0.010059 0.267788 -0.209343 0.168144 0.073561 0.196640 -0.576424 -0.123244 0.478203 0.238403 0.523007 -0.189081 0.007674 -0.537193 0.172435 -0.498048 -0.643097 -0.507503 0.078840 -0.288925 0.208372 -0.144165 -0.292735 -0.498398 0.296116 -0.478889 -0.126651 0.524793 0.411022 -0.231363 -0.211455 -0.218654 -0.106132 -0.399751 -0.409681 0.435884 -0.092038 0.054731 0.134986 0.341502 -0.281434 0.133430 -0.628623 -0.377523 -0.272059 0.312050 -0.330290 -0.001115 0.432980 -0.611464 0.604513 0.590805 0.123820 0.241050 0.551969 -0.702300 0.377638 0.071529 -0.226144 0.230503 -0.234857 0.257557 0.330136
9.76657426261 0.057490 -0.323434 0.150594 -0.059452 0.457393 -0.340259 0.209231 0.522270 -0.475666 0.696402 0.481002 -0.093204 0.076382 0.551483 -0.244219 0.131779 0.066020 -0.489072 0.104357 -0.250279 0.048356 -0.722894 0.138686 0.409066 0.239937 -0.412317 0.205323 0.879021 -0.130419 -0.194477 0.092267 0.010846 0.756431 -0.564688 -0.271976 0.117025 -0.457423 -0.493327 0.201979 0.811199 -0.114961 0.004177 -0.195574 0.022325 -0.650340 0.372641 0.159982 0.190797 0.215306 -0.678844 0.327167 -0.045756 0.304360 0.379651 0.629892 0.104176 -0.826350 -0.000173 -0.233901 0.906954 0.489819 -0.052734 -0.224778 -0.146492 0.379142 -0.198909 -0.157836 -0.545074 0.280544 0.295761 0.490061 0.000962 -0.511068 0.633724 -0.052479 0.129749 0.380407 -0.262844 -0.437465 0.228540 -0.493160 0.076781 -0.191535 -0.327034 0.075366 0.176524 -0.419927 0.192369 -0.402375 0.303653 0.285532 0.171240 0.393446 0.173386 0.559645 -0.476227 -0.249990 0.476110 0.219893 0.006373 -0.252451 0.308320 -0.208453 0.037368 -0.151044 -0.061237 -0.029205 0.475312 0.437119 0.005286 -0.578399 -0.524081 0.057763 0.031119 -0.069578 -0.735938 0.200979 0.409582 -0.047198 0.224565 -0.126952 0.022735 -0.442474 0.210895 -0.111776 -0.602986 0.761378 0.620785
0.124565895427 0.074137 -0.199073 0.127066 -0.101989 -0.013168 -0.609017 0.177754 0.408995 -0.120609 0.309041 -0.343779 0.510142 -0.130471 -0.355177 -0.319904 -0.276446 0.423231 -0.757878 -0.278493 -0.126630 -0.161143 0.210109 0.275983 0.213241 0.593127 -0.299919 0.545634 0.600995 0.160946 -0.393917 0.195581 0.241283 0.181303 -0.302931 -0.221541 0.533857 -0.619743 -0.411895 -0.105365 0.046740 -0.624556 -0.483605 0.444773 -0.162851 -0.214673 0.470199 -0.060972 0.436903 0.663446 -0.587073 0.038139 -0.018255 0.013776 -0.199101 0.328454 -0.078798 -0.509854 0.583984 -0.248778 0.248388 0.717219 -0.132531 -0.524503 0.256445 -0.021432 -0.303757 0.367103 -0.374933 -0.079121 0.132816 0.084925 -0.531980 -0.197885 0.449645 -0.209311 -0.818662 0.343560 -0.053776 0.084409 0.415714 -0.088205 -0.528654 -0.334902 0.264595 -0.380130 0.604225 0.414421 -0.294859 -0.670432 -0.533988 0.250915 0.483210 0.167516 -1.021398 -0.288616 -0.194878 -0.190079 -0.304283 -0.690467 -0.424744 0.378305 0.149027 0.198866 -0.105701 0.986292 -0.128976 0.388279 -0.562291 0.427106 -0.136374 0.189138 0.058776 -0.046826 -0.480318 -0.264329 -0.169302 -0.277829 0.714289 0.175220 0.582323 0.476321 0.186128 -1.208662 0.241321 -0.196141 -0.305654 0.411024 0.499945
12.4795708393 0.298694 0.219443 0.163754 0.056731 0.450530 -0.188561 -0.004175 0.499600 0.159319 0.304017 -0.047980 0.339122 -0.004518 -0.551421 0.070735 0.295771 0.688463 -0.605002 -0.336175 -0.294618 -0.075725 0.458253 -0.291318 0.130125 1.053908 -0.774024 0.400267 0.855748 0.119334 -0.440079 0.423760 0.299976 0.127193 -0.163906 -0.627730 0.359147 -0.959424 -0.360922 -0.019892 -0.229155 -0.277429 -0.104786 0.414798 0.426221 -0.120299 0.333192 0.463614 -0.087417 0.633403 -0.342032 0.106943 0.339497 0.183784 0.478227 1.156046 -0.388276 -0.161661 0.120964 -0.541318 0.843310 0.075037 0.095040 -0.094853 0.271564 0.256038 0.227142 0.148260 -0.346406 -0.207640 -0.205587 0.805277 -0.373665 -0.117861 0.498840 -0.148305 -0.426544 0.013773 0.071549 0.078907 -0.071253 -0.598868 -0.608928 -0.545501 -0.275321 -0.442656 0.160802 0.366831 -0.074252 -0.800618 -0.120415 0.125568 0.330913 0.335729 0.201923 -0.019355 -0.400709 -0.195587 -0.001807 -0.319604 -0.362669 0.124739 -0.196346 -0.066655 -0.108262 0.597407 -0.755076 0.359271 -0.202915 -0.276681 -0.009256 0.536458 -0.230148 0.085788 -0.218306 -0.577034 -0.081122 -0.298509 -0.254231 -0.037297 0.529701 -0.239380 0.208350 -0.409038 -0.057624 -0.085331 -0.388098 0.179254 0.031244
11.7718675175 0.136535 -0.200045 -0.154223 0.249818 0.168037 0.125742 -0.462069 0.288775 -0.139052 0.326016 0.332397 0.284178 -0.065801 -0.120985 0.160508 -0.300614 0.504835 -1.065550 -0.306375 -0.207920 -0.259234 -0.354579 -0.222680 0.603654 0.639046 -0.299058 -0.336140 0.247490 0.005491 -0.679347 0.121223 -0.234577 0.641766 -0.117316 -0.116738 0.262597 -0.552618 -0.513595 0.251349 0.102033 0.127940 -0.475067 0.076262 0.197508 -0.255232 0.081988 0.634618 0.708927 -0.118848 -0.146578 -0.181958 0.064698 -0.382234 0.508553 0.162535 0.298024 -0.021450 -0.282136 -0.464626 0.005249 0.409171 0.058165 -0.343749 -0.146241 0.005390 -0.023465 -0.072245 -0.621227 -0.306749 0.014964 0.234174 -0.418690 -0.534356 0.537285 0.641049 0.231429 0.085521 -0.243364 -0.354858 -0.101687 -0.654114 -0.361030 -0.119944 0.240822 -0.153542 -0.068378 -0.290913 -0.026063 -0.421145 0.610128 0.338763 0.458920 0.421892 -0.286963 0.032889 -0.577196 0.067879 0.557981 -0.248101 0.195694 0.205125 0.443469 0.024359 0.096657 0.777167 -0.331602 -0.001573 -0.306158 -0.194544 -0.834029 0.103652 -0.215279 0.288646 -0.102507 -0.714024 0.216074 0.187545 0.220114 -0.341542 0.224235 0.050320 -0.111210 0.143328 0.085870 0.320158 -0.519606 0.185382 0.713272
17.0095260054 0.224522 0.661438 0.039295 0.217400 0.510233 0.254551 -0.079482 0.644507 0.291787 0.058578 0.337619 0.083935 -0.331861 -0.323987 0.263017 -0.129194 0.558534 -0.405660 -0.475801 -0.555593 -0.242021 0.228173 -0.154962 0.376721 0.264803 -0.286019 -0.106365 0.901879 -0.040058 -0.813194 0.520496 0.394557 0.246027 -0.376854 -0.259301 0.719452 -0.816271 -0.773436 0.236217 -0.392436 -0.536577 -0.404503 -0.065387 0.339490 0.370162 0.500228 0.156105 0.269524 -0.170326 -0.621380 -0.174959 -0.186005 -0.312655 0.697726 0.490241 -0.164857 -0.318366 -0.187943 -0.090728 0.050197 0.347158 -0.258166 -0.030161 0.274476 -0.065862 0.091803 0.558006 -0.403607 -0.357545 -0.049616 0.184810 -0.658106 0.084942 0.385759 0.153885 -0.263093 -0.341852 -0.004017 -0.210914 -0.233912 -0.374441 -0.522553 -0.278296 0.108634 -0.202552 0.118915 0.478034 0.409166 -0.825519 0.072492 0.754420 0.024467 0.263805 -0.492361 -0.280820 -0.131263 0.211925 0.106657 -0.460570 -0.812223 0.077698 -0.037763 -0.402547 -0.045583 0.721684 -0.081496 0.252253 -0.450360 -0.272684 -0.659914 0.586601 0.126712 0.639597 -0.353695 -0.537057 -0.136057 -0.378568 0.296497 -0.088749 0.286843 0.227391 0.150600 -0.391321 -0.384997 0.386499 -0.349785 -0.245837 0.270166
13.3404675405 0.569270 0.197566 0.091882 0.112709 0.426239 -0.193199 0.008797 0.334511 0.235580 0.149096 -0.194167 0.252922 0.198307 -0.691310 0.148376 -0.224392 0.640202 -0.867258 -0.259551 -0.080795 -0.119804 0.528678 -0.430095 0.168107 0.902992 -0.731570 0.355105 0.599010 0.254653 -0.684293 0.461876 0.048327 -0.093865 0.030707 -0.404192 0.549935 -0.639448 -0.872989 0.374389 -0.322092 -0.314653 -0.145921 0.507303 0.474709 0.005869 0.510410 0.200460 -0.038761 0.159257 -0.210261 -0.092809 0.130520 -0.327433 0.450145 0.612232 -0.105933 0.012702 -0.031254 -0.544100 0.068141 0.064417 -0.015481 -0.096639 0.185110 0.001913 0.254359 0.468509 -0.204856 -0.069557 -0.375410 0.407862 -0.468410 0.080776 0.268336 0.121318 -0.337035 -0.094594 -0.092095 0.108358 0.139752 -0.413021 -0.464012 -0.735245 0.114115 -0.125590 0.207623 0.238415 -0.281340 -0.494060 -0.212833 0.083762 0.336980 0.384973 -0.201466 -0.453214 -0.353495 -0.157395 0.273516 -0.368686 -0.569031 0.362472 -0.015977 -0.274396 0.019870 1.014387 -0.617547 0.152959 -0.669204 -0.560924 -0.413303 0.644791 0.145808 0.369807 -0.188836 -0.608796 0.244726 -0.372501 -0.344949 -0.122152 0.562808 -0.121193 0.048172 -0.527527 -0.103538 0.221954 -0.209985 -0.181102 0.111724
1.54339158127 0.146704 0.186145 -0.214097 -0.146358 0.050209 0.041266 -0.115358 0.565097 -0.245086 -0.045426 -0.283110 0.043122 0.030176 -0.486481 -0.126412 0.095107 0.314913 -0.107304 0.104176 -0.190274 0.063382 0.247179 0.004682 -0.048692 0.519270 -0.500132 0.561291 0.866907 0.296501 -0.751927 0.338944 0.404901 -0.033912 0.033809 -0.174071 0.587903 -0.587159 -0.285679 -0.299138 0.204959 -0.496874 -0.169634 0.435508 -0.026603 -0.544601 0.144703 0.291778 -0.280633 0.739407 -0.432532 0.035278 0.291224 0.095186 0.185929 0.663258 -0.052927 -0.207039 0.605964 -0.443612 0.572140 0.303687 0.000064 -0.080672 0.792099 -0.145061 0.192879 0.456000 -0.615878 0.047488 -0.083737 0.244928 -0.437134 -0.253355 0.704023 -0.018901 -0.680383 -0.205081 -0.055838 0.095322 0.068045 -0.198874 -0.890581 -0.307833 -0.111475 -0.554349 0.510338 0.282292 -0.202888 -0.490203 -0.236170 -0.160925 0.328234 0.189075 -0.352249 -0.092352 -0.280720 -0.414054 -0.138025 -0.503629 -0.604349 0.056670 -0.131963 -0.024556 -0.100623 0.586538 -0.688957 0.361974 -0.185601 0.039505 0.359997 0.551116 -0.255463 -0.208439 -0.151728 -0.144550 -0.221607 -0.010022 0.325373 0.210121 0.327037 0.118883 0.237439 -0.878417 0.140563 -0.317197 0.023986 0.349258 0.204775
16.8274767155 -0.176705 0.703461 -0.146743 0.388212 -0.355950 -0.669089 -0.289433 -0.079235 -0.062729 0.460068 0.221418 -0.131705 0.055228 0.228418 0.089993 -0.683348 -0.200685 -0.846557 0.000883 0.097532 0.184264 -0.237562 -0.102832 0.441407 -0.410176 -0.133292 -0.201118 0.080030 -0.109718 -0.403044 -0.093517 -0.158928 0.280778 -0.611425 0.051871 0.244244 0.001390 -0.452543 0.222175 0.480870 0.086867 -0.497016 -0.245657 -0.475774 -0.236744 0.101910 -0.161341 0.246726 0.114881 -0.379780 -0.336259 0.260022 -0.435250 -0.047806 -0.049786 0.135590 -0.232984 0.280479 0.284003 0.292649 0.764768 0.154264 -0.075315 -0.210743 -0.317665 -0.013431 0.030171 -0.643450 -0.430832 0.027510 0.321326 0.018542 -0.433828 0.505082 0.036819 0.414599 0.663557 0.036185 -0.587853 0.306028 -0.101650 0.045990 -0.753792 0.377617 0.522022 0.494743 0.163332 -0.482481 -0.145380 -0.170450 -0.403304 0.133862 0.455986 -0.680492 -0.287029 -0.971317 0.303379 0.488531 -0.546266 -0.408180 -0.256198 0.474457 0.253806 0.252265 0.050852 0.515701 -0.215344 0.287744 0.381112 -0.214383 -0.864387 0.027962 0.591500 0.176905 -0.624173 -0.472079 -0.099145 0.320252 -0.057061 0.226331 -0.434376 0.050393 -0.526638 0.002945 0.223724 -0.047173 0.366733 0.370994
7.4014753997 0.034414 0.605058 -0.235632 0.095456 -0.017678 -0.422613 -0.040375 -0.427321 -0.269510 0.050929 -0.062278 -0.188564 0.355013 0.206595 0.067282 -0.231470 -0.398347 -0.880418 -0.227888 -0.265927 -0.278031 -0.358945 0.182486 0.315893 -0.480745 -0.202197 -0.212724 -0.075128 0.055552 -0.530671 0.492301 -0.338815 0.242027 -0.502972 -0.152076 0.295139 0.206920 -0.624045 0.592393 0.085987 0.334588 -0.246677 -0.276079 -0.437829 0.046635 0.185328 -0.440826 -0.264019 0.233013 -0.680557 -0.378297 -0.436309 -0.103256 -0.012073 0.205953 -0.219871 -0.337089 0.496361 0.500962 0.067056 0.668255 0.020099 -0.085521 0.058960 -0.125091 0.048484 0.024618 -0.237594 -0.328730 0.165664 0.411216 -0.398327 -0.282940 0.822413 -0.151900 0.399439 0.411840 0.305510 -0.653327 0.310832 -0.114066 -0.060083 -0.128019 -0.194819 0.620228 0.056674 0.109308 -0.431932 -0.253389 0.155950 -0.156254 0.009162 0.342811 -0.646103 0.012930 -1.142541 0.274406 -0.414708 -0.597453 -0.709363 0.248848 0.077967 -0.110693 0.802545 0.394025 0.533175 -0.176654 0.346262 0.105039 0.076065 -0.628026 -0.207847 -0.077097 -0.011991 -0.436282 -0.086056 -0.300497 -0.069600 0.396321 0.386248 -0.271170 0.481479 -0.582312 -0.267441 -0.220466 0.311393 -0.074908 0.444078
7.62618839352 0.150345 0.202136 -0.265944 0.348061 0.213908 -0.133310 -0.150932 0.063662 0.023960 -0.291313 -0.137799 0.249791 0.097134 -0.481828 0.126818 -0.182465 0.391449 -0.913247 -0.260141 -0.152503 -0.071727 0.179772 -0.033388 0.476489 0.396663 -0.875374 0.152524 0.213309 0.269203 -0.899275 0.535077 -0.097869 -0.048844 -0.494325 -0.456744 0.427628 -0.946207 -0.558034 -0.147379 0.100041 -0.810679 -0.743101 0.323547 0.317896 -0.269199 -0.113116 -0.231921 -0.192849 0.211586 -0.298119 -0.199996 0.314191 -0.496216 0.138743 0.372874 0.338853 0.065046 0.626529 -0.354516 -0.039354 0.763731 0.280323 -0.337296 0.457353 0.082044 0.068497 0.173849 -0.544796 -0.030691 0.117608 0.002012 -0.607505 -0.017462 0.480213 -0.016122 -0.596976 -0.156886 -0.162392 -0.048774 -0.315820 -0.373783 -1.004348 -0.427326 0.594769 -0.153123 0.356657 0.163799 -0.659162 -0.286597 -0.151904 0.050337 0.372754 0.795369 -0.600363 -0.388379 -0.388049 -0.185220 0.076173 -0.446530 -0.313390 0.220908 0.263159 -0.101849 -0.289710 0.798178 -0.106090 0.244076 -0.448654 -0.221847 -0.457360 0.377693 -0.337644 0.192819 -0.352818 -0.547179 0.037193 -0.266349 0.049692 0.103559 0.545438 0.230644 -0.157997 -0.808159 -0.068227 -0.460683 -0.062901 -0.000311 0.314730
8.38617461058 0.354119 0.454763 0.081467 0.282914 0.345552 0.403826 -0.503921 0.516125 -0.470551 0.167183 -0.083641 -0.313482 0.198386 -0.218517 0.138402 -0.324728 0.243733 -0.646279 -0.254120 -0.119188 0.158041 0.111973 -0.097390 0.085598 0.346711 -0.330361 0.048789 0.432502 0.345622 -0.999320 0.158477 -0.292540 0.023820 0.042530 0.244950 0.604257 -0.076633 -0.905755 0.332109 -0.274370 0.183401 0.192475 0.193909 -0.105057 -0.438019 0.414679 0.331929 -0.060525 -0.145973 -0.357776 -0.227696 -0.074995 -0.275367 0.445054 0.324749 0.123651 0.014607 -0.046701 -0.261751 -0.316757 0.344122 -0.004903 0.006379 0.611517 -0.685079 0.444222 0.507141 -0.530436 -0.366703 -0.143387 0.598339 -0.169355 -0.229797 0.846062 0.709065 0.196985 -0.153863 -0.097609 0.013260 0.077961 -0.237854 -0.558545 -0.121360 -0.112788 0.244249 0.147004 0.049927 -0.211702 -0.360676 -0.005018 0.158483 0.549970 0.211990 -0.368250 -0.111765 -0.857396 -0.027721 0.594958 -0.384084 -0.706985 -0.001212 0.029495 -0.444007 0.368396 1.107248 -0.248040 0.121217 0.081234 -0.304092 -0.131507 0.181256 0.403417 0.306391 -0.306359 -0.676360 -0.063497 -0.379358 0.338185 -0.161276 -0.009494 0.101000 0.038489 -0.398787 -0.218750 0.241525 0.009224 -0.119703 0.616510
18.6530546836 -0.146002 0.673857 -0.477762 -0.083703 -0.146371 -0.313848 0.237122 -0.061492 -0.161968 0.115077 0.126253 0.331621 0.109854 0.152905 -0.024638 -0.439865 -0.063161 -0.400470 -0.021779 -0.537345 -0.166142 -0.193950 -0.384818 0.259944 -0.025941 0.507380 -0.065488 0.515596 0.105661 -0.296615 0.377689 0.425117 0.251976 -0.407855 -0.177394 0.745632 0.142222 -0.876898 0.240768 0.130295 0.138455 -0.221491 -0.201702 -0.263046 -0.049787 0.153076 -0.231157 -0.186039 0.517911 -0.867002 0.313091 0.000925 -0.259421 0.203059 -0.110037 0.022764 -0.481000 0.345898 0.456310 0.418400 0.353010 -0.311619 -0.190824 0.302527 -0.357890 -0.450477 0.054171 -0.537970 -0.048504 -0.450691 -0.183006 -0.373430 -0.322518 0.305275 0.350183 0.168228 0.748769 0.172954 -0.770598 0.548429 -0.024662 -0.003658 -0.608436 -0.294732 0.035544 0.575531 -0.111594 0.114275 -0.332535 0.563518 -0.048708 -0.259617 0.047467 -0.276129 -0.340264 -0.706383 0.080805 -0.061999 -0.504168 -0.564063 -0.045711 0.089097 0.337931 0.451504 -0.223690 0.336160 -0.194453 -0.058631 -0.138366 0.247891 -0.060187 -0.252283 0.699417 0.303043 0.104174 -0.227192 -0.169469 0.198091 0.164768 -0.004959 -0.512159 0.261095 -0.641346 0.278763 0.076306 0.311592 -0.068378 0.311452
19.869445427 0.085077 0.499946 0.102656 0.942800 -0.181166 -0.422814 -0.086917 -0.232814 0.097821 0.632520 0.070376 -0.166067 0.413076 0.283525 0.123816 -0.399148 -0.247748 -0.777850 0.005373 -0.056250 0.154886 -0.184085 0.085630 0.434904 -0.177947 0.005831 0.181088 -0.126536 0.113382 -0.112092 0.095293 -0.481889 0.303636 -0.279163 -0.049525 0.065184 0.140538 -0.608174 0.336791 0.265867 0.441157 -0.169349 -0.460525 -0.301134 -0.052021 -0.189583 -0.256670 0.401277 -0.098603 -0.038556 -0.597167 0.286831 -0.100331 -0.090454 0.266744 0.308567 -0.062420 0.197989 0.084309 0.268091 0.680749 0.101242 -0.183237 -0.198974 -0.478067 -0.123549 -0.363385 -0.135799 -0.026373 0.168812 0.003395 -0.033320 -0.722284 0.575412 0.076149 0.428140 0.222716 0.188537 -0.396316 0.534515 0.075160 0.136579 -0.339892 -0.038984 0.331217 0.501030 0.177500 -0.000170 -0.141448 -0.191376 -0.303923 -0.069095 0.649630 -0.034899 -0.009442 -0.915042 0.261352 0.545761 -0.254864 0.087883 -0.158018 0.504930 -0.052171 0.058428 -0.186290 0.419986 -0.266438 0.257779 0.484031 0.288467 -0.310059 -0.219713 0.622892 0.239387 -0.304543 -0.469243 -0.052745 0.079718 0.232653 -0.023384 -0.254408 -0.345261 -0.436276 0.259797 -0.093480 0.108972 0.163519 0.443896
18.5234429035 -0.042881 0.288087 0.033380 0.256621 0.426070 0.301096 0.104948 0.034512 -0.160409 0.631727 -0.011934 -0.226517 0.264749 0.238573 -0.081927 0.342893 -0.276742 -0.347266 -0.592064 -0.361803 -0.230214 -0.229273 0.415908 0.790558 -0.317186 -0.331919 0.080993 -0.060832 -0.083130 -0.222198 0.215051 -0.177558 0.300254 -0.119647 0.069622 0.186951 -0.182597 -0.632989 0.438707 0.129262 0.232513 0.084373 -0.085563 -0.264185 -0.252580 -0.055159 -0.168882 0.368165 -0.254031 -0.378847 -0.528663 -0.203824 0.395896 0.025938 0.771334 -0.089798 -0.181885 0.139085 0.138615 0.259701 0.501383 0.015702 -0.504647 -0.027680 -0.252617 0.111912 -0.033227 -0.230516 -0.207588 0.348046 -0.178971 -0.132154 -0.745433 0.627560 0.019702 0.129002 0.464748 0.036041 -0.454048 0.392997 0.244709 -0.247596 -0.106769 -0.170869 0.513869 0.437360 0.748977 0.002996 -0.349062 -0.331307 0.151320 -0.214647 0.490434 -0.187621 0.556038 -0.886473 0.114005 0.229598 -0.592698 -0.026561 0.191861 0.147187 -0.117060 0.105150 -0.018621 0.053164 -0.068134 -0.096915 0.755667 0.662350 0.016581 -0.026293 0.139573 0.089860 -0.168586 -0.411399 -0.267455 0.304905 0.221982 0.038612 0.370242 -0.326256 -0.492455 0.173895 -0.255637 0.185578 0.313453 0.457498
4.30329482749 0.368429 0.371423 -0.360226 0.186161 -0.035125 0.350146 -0.793046 0.651032 -0.220940 -0.058444 -0.394902 -0.327780 0.039179 -0.361013 0.099620 0.057518 0.505729 -0.321959 0.185950 -0.100482 0.175002 -0.184037 -0.162187 -0.036967 0.316495 -0.512617 0.224392 0.479429 0.475713 -0.827609 0.306495 -0.129020 0.134900 0.098336 -0.011684 0.399233 -0.132192 -0.047959 -0.212104 -0.152192 -0.026425 -0.273277 0.387226 -0.094807 -0.527200 -0.014292 0.495150 -0.245928 0.473240 -0.045955 -0.180148 0.463858 0.000385 0.311024 0.257710 0.029741 0.162632 0.133543 -0.550619 0.117700 0.222100 0.069542 0.047040 0.736587 -0.362308 0.441210 0.413688 -0.511868 -0.042538 -0.235902 0.434363 -0.381473 -0.331936 0.763831 0.555758 -0.208820 -0.583204 0.032190 0.151166 -0.109890 -0.511131 -0.929101 -0.109321 -0.188509 -0.386290 0.309433 -0.024896 -0.346912 -0.388205 0.206945 -0.058725 0.302786 0.201899 -0.148511 -0.227070 -0.436019 -0.359636 0.222673 -0.384728 -0.497494 0.149845 -0.077964 -0.302191 0.162079 0.775782 -0.755428 0.300729 0.093607 -0.333283 0.315670 0.443012 -0.281073 -0.159074 0.052907 -0.577139 0.159190 0.110351 0.156482 -0.011261 0.016352 -0.027059 0.166435 -0.281607 -0.027986 0.002805 -0.075949 0.219744 0.317513
0.136469487506 0.135517 0.344324 -0.005029 0.331972 0.144789 -0.112995 -0.235661 0.466946 0.056765 0.321670 -0.063036 -0.076017 0.100307 -0.031580 0.050214 -0.177574 0.232600 -0.680270 0.022472 -0.346575 -0.114361 -0.226342 -0.017064 0.492602 0.054714 -0.608268 0.112948 0.539115 0.091348 -0.575319 0.358005 -0.069248 0.375743 -0.242360 -0.386142 0.603326 -0.285630 -0.693042 0.402058 0.252774 -0.194265 -0.244081 -0.002039 -0.012860 -0.274925 0.228984 0.045518 0.210540 0.109522 -0.530339 -0.142653 0.029245 -0.055315 0.459918 0.612162 -0.079482 -0.487016 0.069848 -0.206278 0.551569 0.343735 0.046069 -0.210103 0.047319 -0.261582 0.091512 0.336341 -0.519369 -0.221672 -0.008084 0.211952 -0.492581 -0.520081 0.574360 0.175654 0.206974 0.106016 0.036384 -0.426765 0.369149 -0.292025 -0.359103 -0.559169 -0.117973 0.012744 0.512149 0.188097 -0.266625 -0.432158 0.044198 0.034991 0.105694 0.537666 -0.176005 -0.098769 -0.642727 -0.145820 0.313046 -0.437267 -0.526145 0.013792 0.133074 -0.248235 0.149023 0.369561 -0.139245 0.087033 -0.187045 0.110206 -0.033327 0.162944 -0.270389 0.326613 0.172202 -0.489947 -0.212609 -0.011596 0.254748 0.112991 0.419687 -0.164820 0.071025 -0.450449 0.068463 0.210707 -0.087425 0.268513 0.410557
9.73811725679 0.035239 0.194134 -0.062554 0.113701 -0.169963 -0.238850 -0.360586 0.411129 0.130948 0.436861 -0.099635 -0.382743 -0.351826 0.162471 -0.370410 0.366591 0.140139 -0.222124 0.135789 -0.641019 0.148403 -0.516229 0.316158 0.816569 -0.418497 -0.553704 0.191519 0.432332 0.182237 -0.474366 0.158957 0.168591 0.261693 -0.299598 -0.500261 0.454474 0.298899 -0.236519 0.451009 0.891968 -0.315730 0.174393 0.013493 0.212261 -0.421582 0.206679 -0.200328 0.117543 0.047733 -0.364965 -0.177976 0.113626 0.366867 -0.174371 0.813680 -0.192528 -0.972226 0.372843 -0.014629 0.882634 0.357319 -0.095558 -0.090636 0.043732 -0.080716 -0.540866 0.272961 0.056919 0.168504 0.049340 0.183580 -0.252602 -0.450485 0.819107 -0.148789 -0.003180 -0.154739 0.090235 -0.132277 0.441002 -0.059239 -0.114381 -0.231357 -0.458676 -0.029064 0.484046 -0.131984 -0.010268 -0.313241 0.011247 0.358820 -0.449168 0.440096 0.129325 0.434330 -0.437558 -0.221741 -0.127990 -0.047487 -0.106823 0.070505 -0.152466 -0.048087 0.134864 -0.662265 0.458811 0.056038 0.002283 0.336869 0.339120 0.015558 -0.143600 0.109491 -0.088149 0.210031 -0.479319 0.459229 0.775108 0.323318 0.191851 -0.072962 0.317102 -0.195104 0.249649 0.263176 -0.119820 0.308268 0.178587
11.7313807888 0.221810 0.350270 0.350248 0.124240 -0.035650 -0.093389 -0.498060 0.863038 0.587686 0.817712 -0.278379 -0.110018 -0.028443 -0.188614 -0.002827 -0.221771 0.449297 -0.027631 -0.088664 -0.352421 0.037927 0.166734 0.018317 0.119966 0.148675 -0.251461 -0.092270 0.579222 -0.122670 -0.142847 0.025358 -0.141073 0.356894 -0.001952 0.249903 0.225105 -0.059021 -0.310579 0.087165 -0.421859 -0.062789 0.146349 -0.006841 -0.153617 0.344559 0.187287 0.458216 0.483293 0.371150 -0.326263 -0.134967 0.062700 0.046797 0.620718 0.768156 -0.765929 -0.331511 0.083615 -0.353814 0.607885 -0.111948 0.052998 -0.091051 -0.111223 -0.292035 0.339851 0.718648 -0.279936 -0.485427 -0.256431 0.437738 -0.421080 -0.419749 0.308152 -0.091086 0.062326 -0.180756 0.268294 0.204487 0.627368 -0.495353 -0.226830 -0.358874 -0.579267 -0.166347 0.619827 0.384229 -0.001955 -0.476731 -0.105369 -0.040758 -0.161356 -0.066232 -0.067527 -0.298350 -0.240889 0.273808 0.349503 -0.417978 -0.943734 0.224314 -0.036090 -0.273983 0.160572 0.503063 -0.244525 0.187614 -0.239835 -0.011331 0.114969 0.431385 -0.094133 0.383602 -0.146005 -0.568463 -0.003453 -0.112740 0.021231 0.255022 0.081674 -0.408905 0.359209 -0.221381 -0.241714 0.567416 -0.344398 -0.201906 0.057477
10.1784924619 0.130624 0.381202 -0.010306 0.349560 0.146066 -0.100748 -0.252992 0.466848 0.062590 0.306898 -0.066476 -0.091242 0.097628 -0.032283 0.050536 -0.185460 0.221282 -0.685393 0.029925 -0.379862 -0.112899 -0.227378 -0.005229 0.496011 0.031382 -0.619891 0.094977 0.531751 0.087831 -0.592067 0.374087 -0.063040 0.382786 -0.245371 -0.403135 0.634035 -0.289403 -0.704638 0.410912 0.216608 -0.195578 -0.257154 -0.018008 -0.015227 -0.269738 0.211746 0.028569 0.217588 0.112810 -0.554342 -0.147591 0.016330 -0.044177 0.456315 0.625704 -0.081440 -0.491724 0.092015 -0.191026 0.552324 0.352273 0.036975 -0.210273 0.067606 -0.297214 0.091862 0.331363 -0.532574 -0.234318 -0.009415 0.194731 -0.518679 -0.544571 0.587923 0.184353 0.237410 0.110584 0.052322 -0.451895 0.388049 -0.280274 -0.379835 -0.560934 -0.131766 0.019930 0.536590 0.224631 -0.265686 -0.459834 0.052215 0.026654 0.082712 0.551401 -0.170783 -0.107075 -0.656565 -0.149374 0.306889 -0.461270 -0.544373 0.008706 0.126057 -0.251580 0.163650 0.352350 -0.123982 0.090901 -0.195177 0.121111 -0.010477 0.185162 -0.268552 0.356651 0.184814 -0.491743 -0.204032 -0.032267 0.268312 0.124918 0.426556 -0.168357 0.061148 -0.446102 0.072554 0.208316 -0.064491 0.253228 0.422575
17.9194643918 -0.090046 0.195361 -0.187311 0.190273 -0.001420 -0.869244 -0.502115 0.266905 0.135913 -0.225506 -0.448970 -0.090749 0.065625 -0.178135 -0.071363 0.085810 -0.064011 -0.719988 0.103680 0.074222 -0.043785 -0.519023 0.264446 0.515689 -0.622657 -0.859558 0.081446 0.081131 0.133498 -0.039913 0.392415 -0.724515 -0.014410 -0.450901 -0.361570 0.481307 0.545982 -0.006153 0.395530 0.816589 -0.417648 -0.441610 -0.074630 -0.038105 -0.437412 -0.011584 -0.506950 -0.191102 0.243910 -0.232953 -0.456131 -0.118209 -0.053569 0.052974 0.100923 -0.181778 -0.967936 -0.048866 0.159601 0.556320 0.201436 0.017654 0.077644 -0.193466 0.431361 0.136331 0.273560 0.030139 -0.267826 0.173053 0.353553 -0.209468 -0.296222 0.493065 -0.268924 0.457367 -0.035846 0.226079 -0.420887 0.159206 -0.369874 -0.107740 -0.846144 0.208398 0.472349 0.294125 -0.356934 -0.905231 0.012417 -0.267806 -0.229126 0.118030 0.423123 -0.251822 -0.120738 -0.691651 -0.117358 -0.168797 -0.348607 -0.503992 0.109823 0.048387 -0.411867 0.242475 0.259570 0.244883 -0.182113 0.119730 -0.002565 -0.132822 -0.647828 -0.216669 -0.388110 0.316176 -0.902813 -0.248378 0.200807 0.198654 0.082105 0.714781 -0.438483 0.409676 -0.246474 -0.128597 0.005715 -0.045418 0.545204 0.046644
8.96618115908 0.253964 0.336934 0.081227 0.009295 0.118683 -0.112300 0.185994 0.228652 -0.436043 0.317678 -0.103164 -0.274081 0.021416 0.031493 0.235987 0.068554 0.436715 -0.685984 -0.233631 -0.029227 0.580168 0.124469 0.185128 0.210779 0.291469 -0.504748 0.492445 0.626958 0.379610 -0.724317 0.157564 0.034769 -0.144338 -0.229918 -0.148782 0.454931 -0.318889 -0.855532 0.627406 0.327034 -0.130698 0.156297 0.172373 0.433106 -0.512622 0.596240 -0.071505 -0.441083 -0.281190 -0.374699 0.055957 -0.029238 -0.432057 0.447994 0.530082 -0.188052 -0.536624 -0.284374 -0.435614 -0.132627 0.015443 -0.218663 -0.224182 0.434605 0.024712 0.140598 0.863367 -0.331043 -0.092764 0.148459 0.454466 -0.089907 0.107940 0.540490 0.307636 -0.106867 -0.432151 -0.161236 -0.182749 -0.139682 -0.307653 -0.078424 -0.632192 0.256703 0.240630 0.037614 -0.315874 -0.213574 -0.281788 -0.332397 0.452000 0.180792 0.219438 -0.135635 -0.271242 -0.891086 0.147064 0.474219 0.303680 -0.357515 -0.242616 0.143623 -0.388971 0.448076 0.774463 -0.440812 0.271608 0.117925 -0.549275 -0.404703 -0.126835 0.286399 0.317842 -0.626014 -0.378372 -0.678002 -0.212574 0.028661 -0.390551 0.274631 -0.098869 0.102960 -0.339667 -0.361971 0.243975 -0.508587 0.262819 -0.013471
12.0545456432 -0.154188 0.292936 0.097769 0.479384 0.161259 0.482123 -0.262903 0.287557 -0.003213 0.109402 0.118774 -0.205082 -0.067095 0.351982 -0.224017 0.248841 -0.054554 -0.436272 -0.326838 -0.715650 -0.210956 -0.539239 0.514178 1.177755 -0.665487 -0.778887 -0.253106 -0.234216 -0.101226 -0.468158 0.059974 -0.079227 0.165283 -0.454079 -0.156697 0.280319 -0.150276 -0.660033 0.394473 0.400321 -0.032739 -0.010955 0.003035 -0.176476 -0.371556 -0.385450 0.006671 0.433318 -0.497664 -0.357316 -0.205336 -0.289038 0.224025 0.251717 0.724755 -0.041451 -0.131020 0.022229 0.009611 0.368842 0.301626 0.217729 -0.191056 -0.116118 -0.466839 -0.021404 0.124623 -0.605216 -0.242616 0.466924 0.006507 -0.457062 -0.790167 0.563754 0.437763 0.506949 0.333765 0.274991 -0.685622 0.139657 0.203552 -0.527291 0.233089 -0.113768 0.282550 0.530170 0.291008 -0.383439 -0.410478 0.349080 0.170290 -0.067175 0.688202 0.074387 0.460454 -0.593028 0.009798 0.532691 -0.557435 0.181952 -0.113365 0.091629 -0.256618 0.256092 -0.238316 0.311637 -0.002364 0.122495 0.355252 0.332876 -0.228377 -0.351090 -0.013750 0.308966 -0.351334 -0.228720 -0.051520 0.237270 0.245022 0.009970 0.140910 -0.062398 0.335011 0.087867 0.155879 0.053892 0.284259 0.478216
0.119014321873 0.199399 -0.295457 -0.294647 0.576406 -0.322042 -0.260843 -0.602743 -0.112682 -0.111875 0.325718 -0.117547 -0.048771 0.118804 -0.057722 -0.121826 0.037915 0.635448 -1.340510 0.003566 -0.171044 -0.091176 -0.534430 -0.239286 0.681432 0.395969 -0.721452 0.122900 0.238374 0.327516 -0.603519 0.185901 -0.456504 0.478636 -0.003887 -0.406350 0.349887 -0.502166 -0.377257 0.200398 0.674365 0.045058 -0.545411 0.200140 0.415652 -0.430836 -0.267301 0.162624 0.222032 0.015973 -0.023949 -0.381283 0.660063 -0.578496 0.267655 0.388700 0.123115 -0.272197 0.229764 -0.757623 0.060550 0.445159 0.384121 -0.706778 -0.059201 -0.051637 -0.156950 0.051327 -0.276562 0.071929 0.065824 -0.012545 -0.440501 -0.380948 0.828318 0.343220 -0.017318 -0.178347 -0.181807 -0.237816 0.292911 -0.519065 -0.613474 -0.778697 0.290843 -0.147571 0.351557 -0.560007 -0.609191 -0.151870 0.255623 -0.406548 0.119056 0.808511 -0.106758 -0.197233 -0.786233 -0.054066 0.482628 0.000820 0.108361 0.338118 0.534254 -0.182880 0.038026 0.743815 -0.401419 -0.125443 -0.197650 -0.324838 -0.358108 0.253383 -0.253435 0.238692 -0.222207 -0.669407 0.168546 0.726851 0.127858 -0.002304 0.118955 -0.203064 -0.037209 -0.399733 0.264998 -0.315995 -0.344573 0.490431 0.760813
8.83896910658 0.116586 0.408587 0.009205 0.385287 0.171567 -0.163622 -0.257119 0.508337 0.038308 0.352108 -0.053525 -0.096599 0.101941 -0.005121 0.040487 -0.179843 0.234470 -0.763270 0.027991 -0.410392 -0.118511 -0.297891 0.042020 0.547214 -0.000384 -0.676305 0.108382 0.622997 0.082143 -0.598268 0.404428 -0.071838 0.454702 -0.316414 -0.448467 0.670555 -0.318133 -0.719982 0.462673 0.288547 -0.212142 -0.277162 -0.045161 -0.031090 -0.304462 0.269307 0.002459 0.238750 0.157565 -0.628080 -0.144345 0.016006 -0.036704 0.475697 0.696131 -0.130030 -0.593902 0.091382 -0.177911 0.639745 0.410865 0.024607 -0.216033 0.041366 -0.276755 0.095234 0.337211 -0.570740 -0.269480 0.015662 0.263911 -0.538330 -0.596749 0.670942 0.152838 0.257846 0.153508 0.063588 -0.483501 0.416062 -0.333832 -0.371376 -0.603712 -0.162456 0.029550 0.562699 0.214467 -0.284382 -0.507912 0.033820 0.045152 0.097278 0.601348 -0.185455 -0.066824 -0.733732 -0.150429 0.289021 -0.469739 -0.585866 -0.006414 0.137639 -0.252204 0.178272 0.345519 -0.091239 0.092665 -0.162398 0.175015 -0.005411 0.117486 -0.279024 0.358368 0.196934 -0.547136 -0.271418 -0.038441 0.307464 0.103313 0.491976 -0.185844 0.078770 -0.498141 0.074028 0.204289 -0.111524 0.326460 0.472545
2.94587413967 0.116202 0.320351 -0.008153 0.332821 0.120827 -0.176908 -0.241376 0.428747 0.049822 0.300598 -0.062417 -0.091178 0.064169 -0.020337 0.022271 -0.157243 0.226417 -0.677509 0.031269 -0.313793 -0.094068 -0.251364 -0.000263 0.483704 0.019223 -0.589383 0.110116 0.540057 0.093558 -0.517333 0.338918 -0.068242 0.365657 -0.257441 -0.380364 0.559623 -0.248190 -0.609398 0.374503 0.283933 -0.186218 -0.232866 -0.001162 -0.012095 -0.260365 0.228771 0.002469 0.176406 0.135126 -0.506638 -0.138104 0.062202 -0.069289 0.400148 0.556079 -0.092774 -0.501588 0.070255 -0.180231 0.538348 0.335975 0.034399 -0.196528 0.030639 -0.242900 0.058799 0.304781 -0.455258 -0.214106 -0.021080 0.224660 -0.434108 -0.474688 0.586468 0.126663 0.195652 0.115345 0.040483 -0.389306 0.349286 -0.290243 -0.317829 -0.573314 -0.100052 0.023824 0.476743 0.146050 -0.272070 -0.410100 -0.009504 0.013324 0.087374 0.512642 -0.162411 -0.079997 -0.627051 -0.144399 0.259104 -0.383274 -0.495534 0.026757 0.116216 -0.220657 0.121652 0.309302 -0.091262 0.081169 -0.159809 0.118483 -0.019354 0.098621 -0.233044 0.291612 0.174171 -0.476557 -0.216559 0.005530 0.283360 0.098686 0.410499 -0.171117 0.083664 -0.436751 0.075783 0.174100 -0.096578 0.286243 0.392081
5.76139482211 -0.486996 0.798307 0.216463 0.036307 0.192952 -0.010388 -0.286491 0.129608 0.037445 0.227305 0.322949 -0.092519 -0.115183 0.013115 0.237309 -0.543166 -0.294498 -0.601610 -0.038450 -0.360887 -0.188973 -0.283425 0.286491 0.689486 -0.589105 -0.316761 -0.519479 -0.043596 -0.466606 -0.558865 0.093281 0.009959 0.257184 -0.453142 0.019981 0.507717 -0.372523 -0.291087 0.267995 0.252696 -0.156525 -0.356296 -0.214064 -0.281830 0.052427 0.286878 -0.162970 0.458787 -0.254051 -0.475024 -0.076702 -0.210775 0.004337 0.340100 0.446897 0.078621 -0.151544 0.178840 0.383724 0.475957 0.804853 0.184388 0.114117 -0.222163 -0.305298 0.165595 0.113723 -0.886241 -0.777176 0.445677 0.434854 -0.133990 -0.411626 0.180548 -0.136937 0.131860 0.772372 0.107884 -0.430258 -0.075817 0.072455 -0.246646 -0.114870 0.177536 0.377537 0.325400 0.769022 -0.546281 0.043206 -0.107693 0.171849 0.392814 0.622922 -0.810340 -0.082301 -0.528651 0.187036 0.317280 -0.692659 -0.651546 -0.342078 0.173192 -0.044830 0.110287 -0.064127 0.669487 -0.100271 0.006806 0.474436 -0.614819 -0.436898 -0.135740 0.244471 -0.048611 -0.436758 -0.622168 -0.334531 0.657496 0.131185 0.363268 0.235986 -0.036903 -0.270396 -0.104225 0.445881 -0.041647 0.015155 0.054012
3.13103124143 0.009881 1.043989 -0.016367 0.226737 0.055361 0.069842 -0.757862 0.193725 0.026032 0.099687 -0.180622 -0.455441 -0.314903 -0.090272 0.000166 -0.355472 -0.361777 -0.332440 -0.252523 -0.607901 -0.080466 -0.298082 0.209020 0.562656 -0.554412 -0.507115 -0.104583 -0.136159 -0.022805 -0.762877 0.260217 0.113199 0.446570 -0.402251 -0.220924 0.740694 -0.023250 -0.426215 0.262970 -0.432304 -0.116340 -0.240237 -0.238247 -0.261165 -0.216789 -0.080189 -0.086275 0.104872 -0.118541 -0.423782 -0.344544 0.114375 0.309738 0.058416 0.499540 0.074237 -0.457507 0.432874 0.480672 0.298017 0.663043 0.160555 0.007066 0.264506 -0.368465 -0.034711 0.202430 -0.278629 -0.423669 0.091241 -0.162613 -0.460948 -0.166275 0.190594 0.216856 0.134343 0.089245 0.208986 -0.197877 0.450129 0.482506 -0.502630 -0.065243 -0.013466 -0.048073 0.342747 0.875606 -0.138317 -0.343438 0.111427 0.032619 0.083975 0.159429 -0.615567 -0.010134 -0.304124 0.059313 -0.025901 -0.756079 -0.603827 0.060760 -0.132592 -0.080905 0.299288 -0.183231 0.637355 0.159097 -0.064549 0.232991 0.235129 0.408034 -0.036561 0.165531 0.003266 -0.154474 -0.180473 -0.052205 0.455617 0.383037 -0.066644 0.305248 -0.114122 -0.400443 0.141305 0.281580 0.576165 -0.156485 0.212128
17.4530429565 0.224406 0.152908 0.043257 -0.019474 0.304333 -0.163557 0.107532 0.473711 0.189523 0.383511 -0.272293 -0.174960 -0.036611 0.227565 -0.216562 0.152166 0.181837 -0.075427 -0.267165 -0.479591 -0.085764 -0.308854 0.191901 0.689605 -0.034621 -0.599476 0.704224 0.509770 0.262470 -0.350373 0.384721 0.169859 0.457508 0.071448 -0.467434 0.443235 -0.014467 -0.637671 0.516283 0.564931 -0.307320 0.406267 0.035142 0.134724 -0.334408 0.422602 0.153352 -0.059872 0.136064 -0.547178 -0.131583 0.378821 0.489829 0.620254 0.528733 -0.070520 -0.989495 -0.031430 0.048525 0.554676 0.020769 -0.447937 -0.121850 0.284414 -0.252185 -0.727206 0.327477 0.230239 -0.049605 -0.252223 0.089992 -0.661245 -0.318470 0.390370 0.042548 -0.052311 0.003706 0.517247 -0.153460 0.820246 0.217331 0.144975 -0.514739 -0.337762 -0.512562 0.526080 0.081076 -0.002042 -0.435746 0.078120 0.200478 -0.185824 0.190242 0.042450 0.290658 -0.284845 -0.556498 0.272072 -0.536090 -0.127659 0.410738 -0.309601 -0.296093 -0.135740 -0.505258 -0.110862 0.206104 -0.403529 0.448129 0.612229 0.533164 -0.353883 0.028852 0.380932 0.208748 -0.316074 0.344195 0.323252 0.346784 0.276473 0.197108 0.151381 -0.406875 0.885793 0.065398 0.446603 0.370206 0.108406
10.3029669223 0.096930 0.371088 0.133203 0.227099 0.199983 -0.196675 -0.261940 0.661881 0.746496 0.024766 0.493728 0.261631 -0.606033 -0.542946 -0.254529 0.225768 0.222061 -0.134599 -0.472783 -0.412450 -0.372768 0.439164 -0.226887 0.117668 0.780058 -0.455559 -0.225863 0.696887 -0.278062 -0.547723 -0.053474 0.374610 0.463618 -0.178262 -0.851738 0.590417 -0.578770 -0.204322 -0.312334 -0.039429 -0.361918 -0.407960 0.149137 -0.048341 0.115138 -0.170916 0.564976 0.449673 0.381075 -0.351506 -0.370006 0.069712 0.155959 0.423877 0.912728 -0.398866 -0.301140 -0.148608 -0.240740 1.182760 -0.016511 0.542746 -0.148797 -0.175251 0.231984 -0.058866 0.113034 -0.419032 -0.189450 -0.003718 0.652988 -0.351591 -0.107587 0.262572 -0.155667 0.453110 0.162877 0.006187 -0.304446 -0.055365 -0.425216 -0.696691 -0.161814 -0.191918 -0.017558 0.274378 0.226404 -0.111755 -0.735937 0.135652 -0.131720 0.009866 0.218722 0.286974 0.181478 0.065037 0.147904 -0.076652 -0.784702 -0.549905 -0.034671 -0.365252 0.060537 -0.041242 0.300527 -0.294352 0.148598 -0.182163 -0.039341 -0.176062 0.048498 -0.306840 0.057696 0.511186 -0.894434 0.169080 0.055800 -0.066155 0.283104 0.580457 -0.561797 0.308559 0.185728 -0.230723 0.031954 -0.190121 0.189797 0.048837
16.4298002184 0.539644 0.162367 -0.003714 -0.054680 0.503720 0.091885 -0.049920 0.538910 -0.186091 0.310782 -0.074065 0.263398 0.389282 -0.670055 0.217200 -0.634394 0.343803 -0.685219 -0.053855 0.169833 -0.201378 0.590937 -0.534289 0.180222 0.869787 -0.493580 0.208749 0.756380 0.380002 -1.004549 0.375232 -0.152706 -0.142419 0.352493 0.016225 0.745939 -0.355206 -1.233864 0.470444 0.133102 -0.223501 0.110267 0.471713 0.153185 -0.333313 0.619763 0.375657 -0.052185 0.048004 -0.260785 -0.141615 0.048986 -0.347652 0.449871 0.553881 0.390716 0.138080 0.102646 -0.490136 -0.014164 0.292869 0.030272 -0.058798 0.461484 -0.261587 0.291193 0.575309 -0.516602 -0.136560 -0.440049 0.228638 -0.226491 -0.146540 0.396530 0.457125 -0.157156 0.196835 -0.375611 0.082216 0.349513 -0.410385 -0.390862 -0.708548 0.008079 0.131584 0.216944 0.026266 -0.314290 -0.183244 -0.165148 -0.060316 0.684516 0.282714 -0.527484 -0.226396 -0.592860 -0.223637 0.517318 -0.470530 -0.842128 0.299625 0.206416 -0.146471 0.046344 1.264056 -0.587695 -0.001180 -0.731153 -0.332671 -0.524465 0.506059 0.365859 0.443464 0.050743 -0.449840 0.242051 -0.259621 0.136936 -0.092111 0.437522 -0.089175 -0.065731 -0.805531 0.041906 0.280053 0.131739 -0.166786 0.353309
10.3189125963 -0.089949 -0.131640 0.085657 0.437268 -0.228957 -0.533266 0.118805 0.397289 0.429771 0.634192 0.021399 -0.179143 -0.028374 0.435798 -0.274009 0.221891 0.184555 -0.362748 -0.228053 0.030079 -0.085135 -0.288630 0.268527 0.715958 -0.208915 -0.774278 0.474774 0.428179 0.154204 -0.123010 -0.002236 -0.042713 0.457168 -0.071730 -0.628008 0.261568 0.131104 -0.369545 0.507040 1.307973 -0.357854 0.169744 0.118677 0.015393 -0.301997 0.279746 0.051624 0.287708 -0.102804 -0.193901 -0.497233 0.232599 0.113231 0.480491 0.478077 -0.333631 -0.897505 -0.303863 -0.041538 0.650910 -0.017460 0.045932 -0.390833 -0.478649 -0.231123 -0.570494 0.465588 0.061155 -0.119951 0.039412 0.602230 -0.338413 -0.373412 0.579913 -0.371090 0.474271 0.141402 0.272472 -0.216241 0.492683 -0.010285 0.105290 -0.724807 0.104378 0.144397 0.478342 -0.094043 -0.460208 -0.197899 -0.551644 -0.022243 -0.145642 0.700513 0.053173 0.324222 -0.473074 -0.248052 0.317103 -0.500782 0.082119 0.142169 -0.186897 0.036773 -0.337980 -0.205435 -0.034934 0.066954 -0.206499 0.677834 0.260497 -0.306840 -0.121724 -0.069874 0.352241 -0.319487 -0.401912 0.586486 0.421748 0.195955 0.734713 -0.167775 0.213939 -0.070142 0.471036 -0.014359 0.096611 0.775242 0.167723
13.5418815788 0.053751 0.393826 -0.006177 0.607562 0.148164 -0.581243 -0.726666 0.595787 0.110962 -0.081183 -0.493398 -0.498128 0.120970 0.046533 -0.050446 -0.077148 0.187261 -0.765935 0.353911 -0.169759 0.061830 -0.668460 0.161943 0.650692 -0.715805 -1.048169 0.016366 0.189252 0.487448 -0.157837 0.298942 -0.720660 0.188627 -0.319564 -0.142603 0.284398 0.536276 -0.094431 0.662151 0.687360 -0.195055 -0.125085 -0.292593 0.220965 -0.454286 0.097963 -0.349744 -0.151452 -0.039962 -0.387424 -0.253437 0.091481 -0.172327 0.370270 0.295890 -0.213203 -0.784496 -0.121598 0.075508 0.493844 -0.004965 -0.120093 0.294549 -0.016807 0.143304 0.198640 0.358344 0.022960 -0.322843 0.029142 0.397287 -0.298482 -0.475949 0.593047 -0.000601 0.471821 -0.434807 0.276857 -0.293677 0.040912 -0.454051 0.146450 -0.404221 -0.104579 0.205755 0.304930 -0.524838 -0.477751 -0.090849 0.107475 -0.060630 0.071461 0.380681 0.094728 -0.006427 -0.520114 -0.089496 0.242677 0.104908 -0.148912 -0.092417 0.190373 -0.673286 0.284882 0.045296 0.164973 -0.107276 0.371640 -0.246363 -0.370277 -0.612166 -0.249779 -0.134488 0.351093 -0.585718 -0.402739 0.280521 0.079476 0.017712 0.263439 -0.527489 0.356444 0.160846 -0.154884 0.301937 -0.088321 0.190130 0.219966
18.8270110793 -0.154429 0.605547 -0.363547 0.282157 -0.261421 -0.304396 -0.586206 0.453588 0.937522 -0.183245 -0.179406 -0.222907 -0.286969 -0.415257 -0.436933 0.455018 -0.204008 -0.245198 0.130517 -0.632073 -0.114354 0.055197 0.228715 0.761550 -0.263353 -0.356488 0.016945 0.079214 0.179895 -0.592334 0.094951 0.281933 -0.064211 -0.061272 -0.650116 0.794204 0.402511 -0.249366 0.072548 0.458304 -0.175463 -0.084062 0.077905 0.420847 -0.271276 -0.322527 -0.678021 0.066190 -0.102175 -0.353480 -0.590104 -0.056006 0.199050 -0.352686 0.545982 -0.120985 -0.358236 0.182959 0.042798 0.888164 0.252194 0.068146 -0.515324 0.386659 -0.073621 -0.127081 0.071558 -0.244660 0.055870 -0.326351 -0.568898 0.241111 -0.520468 0.591234 0.228564 0.130781 -0.083514 -0.250687 -0.270698 0.026168 0.159864 -0.682673 -0.440258 -0.324806 0.251294 0.637885 0.632812 -0.402978 -0.555609 -0.222449 0.341295 -0.634558 0.299829 0.011490 0.026136 -0.424101 -0.002685 0.111191 -0.234695 -0.155716 -0.130330 0.210406 0.133708 -0.205915 -0.132821 0.076720 -0.085843 -0.193365 -0.116529 0.153144 0.617576 -0.331502 0.527079 0.163122 0.053770 -0.517036 0.162603 0.867602 0.410406 0.357724 -0.131831 -0.237893 -0.033252 -0.042983 0.031919 0.349607 -0.141242 -0.155049
12.7194779258 0.383042 -0.101903 0.248179 0.115612 0.274184 0.257878 0.234367 0.853846 -0.232475 0.919212 -0.301052 -0.043428 0.265121 0.413581 0.527453 -0.167836 0.785708 -0.340799 0.470854 0.076008 -0.171076 -0.155238 -0.518678 0.177528 0.136284 -0.226403 0.358777 0.976038 -0.053970 -0.065222 0.329900 0.005265 0.203313 0.158633 -0.003882 0.307545 -0.190883 -0.461272 0.384406 0.385071 -0.061783 -0.005776 -0.145321 0.045626 -0.146534 0.815690 0.368353 0.505038 0.278220 -0.275210 0.205052 0.421259 -0.239017 0.717240 0.151103 -0.146631 -0.301093 -0.420461 -0.574782 0.646800 0.497139 -0.037700 -0.308794 -0.420890 0.115302 0.241659 0.630747 -0.403331 -0.341236 -0.323466 0.167967 -0.146835 -0.460450 0.020916 0.127600 -0.482508 -0.075929 -0.486255 0.163836 0.420207 -0.720550 0.109448 -0.713110 0.102104 -0.334909 0.492274 -0.050330 0.244480 0.106133 -0.147897 0.117105 0.289620 -0.023666 -0.104466 -0.171474 -0.182846 -0.144038 0.477123 -0.000673 -0.674469 0.012157 0.532182 -0.385857 -0.187166 0.606685 -0.788067 0.096261 -0.410984 0.471932 -0.449358 0.174375 -0.104104 0.244118 0.281445 -0.203990 -0.557815 0.001339 0.149624 -0.349721 0.254254 0.023010 0.168674 -1.035631 0.212170 0.606942 -0.573627 0.787036 0.288334
11.3265883233 -0.146818 0.536492 -0.126402 0.873063 0.403362 0.016560 -0.252817 0.008047 -0.014513 0.404756 -0.393557 0.014039 0.010006 0.040728 0.281443 0.138770 0.138555 -0.560300 -0.216397 -0.498237 0.089211 -0.387934 0.280237 0.569649 -0.339595 -0.366407 -0.141572 -0.015775 0.262231 0.189656 0.513590 -0.503548 0.304739 -0.440211 0.053605 0.254014 0.219630 0.032616 0.304058 -0.257608 -0.063608 -0.165502 -0.250718 -0.066961 0.134645 -0.004713 -0.626540 0.110762 0.322976 -0.440615 -0.505159 -0.143595 0.208343 -0.206253 0.555546 -0.205525 -0.338431 0.483612 0.071390 0.425619 0.790910 -0.283038 -0.121457 -0.068086 -0.019357 0.066608 -0.377316 0.228889 -0.505701 0.050952 0.076693 -0.294313 -0.901595 0.628143 -0.461179 0.048147 0.338828 0.280881 -0.229621 -0.057724 -0.205462 -0.106895 -0.320986 0.030594 0.461458 0.432272 0.568529 0.104443 -0.221799 -0.467749 0.405377 -0.291925 0.529552 0.150543 0.213990 -0.774204 0.085218 -0.485133 -0.288722 -0.058527 0.169254 -0.112094 0.025608 0.123415 -0.095494 0.221899 0.002603 -0.210954 0.654258 0.199667 0.008126 0.204712 0.239950 -0.055466 -0.538667 -0.087618 -0.464894 0.403666 0.084354 0.271254 0.076634 -0.076846 -0.408847 -0.151580 -0.204612 -0.061267 0.313300 -0.015256
10.5086511543 0.222698 0.113104 0.019420 -0.043792 -0.036933 -0.092699 -0.421956 0.437749 0.261330 0.412631 -0.208425 -0.671725 0.294046 0.338672 0.052957 -0.097019 -0.256205 -0.136001 0.048000 0.137290 -0.118931 -0.374195 0.454533 0.507559 -0.861821 -1.173348 0.324170 -0.104832 -0.128370 -0.337073 0.084974 -0.398620 0.257385 0.106177 -0.484700 0.329540 0.267816 -0.514751 0.906747 0.807840 -0.362441 -0.019080 -0.048516 -0.165529 -0.517660 0.313615 0.025021 0.119584 -0.311728 -0.121257 -0.587657 -0.031586 0.268552 0.571483 0.449635 -0.246885 -0.723612 -0.156494 0.035745 0.254128 -0.093319 0.114614 -0.213992 -0.335541 -0.439104 0.016821 0.852493 -0.068011 -0.370138 0.179448 0.181093 -0.531041 -0.474079 0.229057 -0.165793 0.754851 -0.024411 0.159725 -0.356274 0.847412 0.117811 0.095939 -0.893177 -0.031817 0.416636 0.553984 0.221251 -0.800063 0.044857 -0.391216 -0.432343 -0.095375 0.554704 -0.197811 0.218818 -0.553773 -0.395756 0.467428 -0.666338 -0.541073 0.239535 -0.035207 -0.490935 -0.105335 -0.159260 -0.003584 0.058629 -0.363383 0.687887 0.534863 0.063341 -0.136685 -0.098238 0.640984 -0.353545 -0.194256 0.435814 0.007577 0.259745 0.795590 0.006006 0.033458 -0.142415 0.302035 0.345709 0.495360 0.539562 0.165903
10.2268631647 -0.299257 0.827140 0.300394 0.080734 0.218674 0.235217 -0.284118 0.156251 -0.099665 0.240125 0.286052 -0.082767 -0.123608 0.037650 0.217960 -0.508142 -0.274346 -0.397645 -0.075369 -0.607377 -0.189969 -0.256349 0.298023 0.476266 -0.292980 -0.269015 -0.294924 0.126637 -0.415445 -0.668362 0.200184 0.273884 0.482663 -0.490180 -0.183108 0.650442 -0.579669 -0.452071 0.201144 -0.245971 -0.120139 -0.262320 -0.316628 -0.275703 0.053116 0.206169 0.002401 0.408991 -0.102691 -0.518313 0.056834 -0.063399 0.314211 0.309551 0.622364 0.169897 -0.253617 0.431449 0.415221 0.433215 0.940295 0.120005 0.040442 0.022444 -0.565582 0.080359 -0.021168 -0.741548 -0.568143 0.370772 0.231319 -0.371099 -0.377432 0.154080 0.064135 -0.027672 0.662314 0.186239 -0.334563 0.288287 0.327178 -0.386166 0.011105 -0.056265 -0.042425 0.388368 1.024128 -0.233748 -0.220091 0.131553 0.123334 0.400959 0.538572 -0.691168 -0.057926 -0.353160 -0.065170 0.254941 -0.728864 -0.664353 -0.316805 0.001959 -0.071894 0.157491 -0.251092 0.680666 0.090442 -0.076078 0.611113 -0.099442 0.203800 -0.193315 0.333677 -0.054077 -0.133755 -0.460510 -0.402363 0.620131 0.246661 0.089514 0.521989 -0.288432 -0.487668 0.220870 0.375303 0.194215 -0.055287 0.245538
2.6628761539 0.102263 0.335073 -0.005970 0.361789 0.134040 -0.175225 -0.248222 0.423847 0.053016 0.301178 -0.042260 -0.104256 0.062611 0.006453 0.028359 -0.157450 0.205399 -0.700686 0.028269 -0.341769 -0.092326 -0.283689 0.032685 0.515066 -0.018380 -0.621888 0.095602 0.517590 0.079366 -0.537862 0.345863 -0.065048 0.388643 -0.284792 -0.415890 0.577297 -0.255023 -0.624481 0.396108 0.290639 -0.198847 -0.250876 -0.016343 -0.019323 -0.287149 0.214717 -0.020800 0.187591 0.127653 -0.545548 -0.140502 0.037107 -0.053273 0.392608 0.578012 -0.092202 -0.514884 0.085064 -0.163728 0.565284 0.365764 0.039468 -0.211803 0.022775 -0.263827 0.057082 0.296094 -0.482478 -0.232739 -0.002259 0.231236 -0.452501 -0.517080 0.620910 0.124471 0.232240 0.148409 0.048093 -0.439610 0.346618 -0.292103 -0.340746 -0.575072 -0.104462 0.048936 0.491483 0.179081 -0.302088 -0.427761 0.005613 0.007200 0.082632 0.553094 -0.155302 -0.068074 -0.673183 -0.167068 0.269747 -0.412162 -0.496243 0.007928 0.116647 -0.218723 0.129684 0.277016 -0.067842 0.092906 -0.160636 0.160859 -0.012225 0.088140 -0.264362 0.303615 0.198754 -0.494992 -0.227356 -0.017494 0.299775 0.116686 0.449314 -0.173548 0.070652 -0.433413 0.074438 0.164764 -0.081677 0.294190 0.406891
13.9337621071 0.347751 -0.144387 0.288295 0.089077 -0.253888 -0.608938 0.253253 0.268694 0.022905 0.418932 -0.073008 -0.274266 0.558582 0.095096 -0.524084 -0.300624 0.223416 -0.578578 0.730148 0.112210 0.240200 -0.412770 0.146323 0.180773 -0.082769 -0.879641 0.667220 0.848234 0.203695 -0.450569 0.003683 0.029185 0.009246 -0.235140 -0.573481 0.420202 -0.511698 -0.987065 0.759536 0.962747 -0.157191 -0.061604 0.186831 0.242375 -0.414262 0.601977 -0.152890 0.039743 0.047152 -0.372668 0.204882 0.026745 -0.495505 0.283924 0.629134 -0.089483 -0.644317 0.121864 -0.677106 0.105368 -0.253965 -0.080651 0.113395 -0.215167 -0.579662 0.299667 0.809230 -0.424615 0.297673 0.190151 0.232859 -0.344113 -0.090048 0.629253 0.079944 0.231338 -0.135983 0.027054 -0.430162 0.988022 0.071224 0.236947 -1.011541 -0.113781 -0.116036 0.477066 0.043943 -0.511389 -0.617555 -0.307429 -0.856342 -0.171960 0.597287 -0.129817 -0.270462 -0.776135 -0.542856 0.590082 0.159354 -0.474305 -0.281562 0.182908 -0.459450 0.471223 0.265207 -0.453994 -0.080664 0.212200 -0.008126 0.453051 -0.366518 -0.119399 0.196575 -0.035719 -0.128923 -0.143717 0.614276 -0.187761 -0.149938 0.376060 -0.317811 0.038800 -0.330928 0.172151 0.194342 -0.483163 0.744678 0.015686
14.9997518606 -0.157452 0.520656 -0.437740 0.578758 0.028138 -0.171191 -0.362490 0.193739 -0.217813 -0.010529 -0.461918 0.276851 0.268130 -0.071594 0.194754 -0.245063 0.232428 -0.578627 0.054722 -0.644001 -0.556121 -0.597460 -0.248764 0.460367 -0.117881 0.131001 -0.094740 0.420311 0.205834 0.149513 0.780488 -0.407428 0.349494 -0.503979 -0.351788 0.954426 0.437808 -0.591396 0.398948 0.127330 -0.019101 -0.530997 -0.303331 -0.019583 -0.133793 -0.233116 -0.402509 0.014437 0.234367 -0.285671 0.181548 0.111644 -0.097001 0.430697 0.173683 0.009806 -0.742581 0.030478 0.289391 0.541089 0.209578 0.118329 -0.256298 -0.186029 -0.112455 -0.121292 0.119936 -0.443622 -0.015267 -0.034510 -0.439003 -0.565441 -0.502654 -0.021776 0.216869 0.382095 0.030328 0.066160 -0.637583 0.397849 -0.230707 -0.315122 -0.331537 -0.470709 0.212328 0.627991 -0.564499 0.196868 0.066402 0.421342 0.241486 -0.193951 0.597052 0.126377 -0.086056 -0.229453 0.307906 -0.334565 -0.024313 -0.357355 -0.064667 -0.016864 -0.339980 0.163219 0.005540 0.494422 -0.348021 -0.147393 -0.429830 0.242704 0.077494 -0.455935 0.302564 0.312813 -0.352673 -0.290358 0.206346 0.205296 0.256800 -0.157047 -0.431107 -0.078453 -0.422494 0.079221 -0.049223 0.111902 0.024741 0.455166
15.8776501901 0.465151 0.261143 -0.148188 0.027457 0.201137 -0.300726 -0.195983 0.337387 -0.016539 0.274165 -0.557073 0.023147 0.085503 -0.557009 0.178977 0.235616 0.591680 -0.904188 -0.158318 -0.074254 0.083867 0.295813 -0.355420 0.308469 0.716809 -0.738812 0.529224 0.541086 0.200466 -0.484220 0.534700 -0.040262 -0.044584 0.091181 -0.345523 0.370746 -0.066360 -0.542870 0.529422 0.185359 -0.029637 0.182141 0.619855 0.222714 -0.443713 0.625559 0.148860 -0.497242 0.188663 -0.214490 -0.045144 0.181827 0.103915 0.490825 0.802032 -0.368051 -0.254171 -0.108191 -0.501805 0.628811 -0.090265 0.088583 -0.319813 0.245298 0.281460 0.355939 0.452016 -0.010455 0.031891 -0.426466 0.354844 -0.079000 -0.059008 0.230150 0.082271 -0.232882 -0.123379 0.002344 0.056232 -0.097031 -0.570264 -0.305285 -0.871161 -0.041466 0.056212 0.232090 -0.239367 -0.476546 -0.099662 -0.328154 0.231777 0.391854 0.203188 0.124315 -0.219953 -0.456061 -0.076549 0.151120 0.064034 -0.387019 0.324627 0.039122 -0.422105 0.034742 0.724270 -0.638343 0.147516 -0.345333 -0.709259 -0.083799 0.322002 -0.101133 -0.020505 0.021976 -0.571187 -0.324657 -0.334065 -0.265009 0.089116 0.443831 -0.465801 0.279939 -0.521607 -0.007473 0.213993 -0.088077 0.107341 0.083578
9.20525768635 0.296015 0.130351 0.391234 0.064911 0.397541 0.342863 0.254150 0.874639 -0.236017 1.012793 -0.157321 -0.233752 0.214511 0.343440 0.353719 -0.129383 0.604109 -0.228325 0.370409 -0.191301 -0.132734 -0.021129 -0.337250 0.294235 -0.004743 -0.115025 0.377520 1.130296 -0.058771 -0.238019 0.320790 0.196303 0.149170 0.168003 0.164669 0.597515 -0.195184 -0.807212 0.552178 0.382624 -0.037507 0.315731 -0.257104 0.075809 -0.088274 0.827976 0.271515 0.360783 0.019633 -0.568217 0.185421 0.192183 -0.164378 0.791726 0.508979 -0.208817 -0.527738 -0.240346 -0.382892 0.636008 0.421091 -0.169178 -0.247990 -0.183303 -0.112095 0.171228 0.826463 -0.433884 -0.318167 -0.178265 0.097407 -0.163220 -0.431631 0.262131 0.089573 -0.458588 -0.105127 -0.382793 0.000702 0.545865 -0.433673 0.108874 -0.725784 -0.177675 -0.168157 0.545644 0.079100 0.410563 -0.026447 -0.199245 0.209403 0.132322 -0.078238 -0.156743 0.005115 -0.373267 0.056315 0.518735 0.014001 -0.848486 -0.176582 0.388043 -0.570756 -0.032515 0.491990 -0.493903 0.004598 -0.263305 0.391879 -0.342301 0.266232 0.031162 0.391656 -0.004637 -0.043189 -0.822780 0.007826 0.289311 -0.159637 0.048274 0.063833 0.272351 -1.082636 0.067727 0.560315 -0.449916 0.489756 0.280820
6.48385515573 0.397870 0.208222 -0.485187 0.562559 -0.408213 0.107261 -0.857353 0.472420 0.021985 0.044523 -0.089693 -0.607740 0.009021 -0.021151 -0.177510 0.173330 0.395316 -0.897802 0.358745 0.023664 0.097253 -0.546876 -0.260358 0.243527 0.118941 -0.682469 0.191032 0.502875 0.311101 -0.894924 0.199444 -0.277845 0.484918 -0.030086 -0.451168 0.396435 -0.073544 -0.071804 -0.056819 0.348370 0.222834 -0.508440 0.296554 -0.281035 -0.545872 -0.078152 0.279895 0.051793 0.184497 -0.008652 -0.448344 0.595875 -0.423171 0.291104 0.074253 0.025847 0.056730 -0.124478 -0.611322 0.101122 0.192238 0.326957 -0.298572 0.191391 -0.650947 0.400778 0.444308 -0.464554 0.171044 -0.146699 0.590762 -0.199149 -0.192843 0.920043 0.585010 0.186579 -0.498124 -0.048390 -0.190560 0.030864 -0.501233 -0.904975 -0.513950 0.047321 -0.057070 0.273746 -0.241867 -0.826666 -0.427990 0.178368 -0.413944 0.080258 0.526721 -0.199782 -0.306016 -0.577367 -0.310027 0.478878 -0.302242 -0.440971 0.269895 0.142870 -0.476723 0.092524 0.915402 -0.596828 0.130437 0.157354 -0.249330 0.253394 -0.019115 -0.304204 -0.103036 0.303056 -0.931145 0.160462 0.409092 0.274202 -0.015681 0.020994 -0.182693 0.166936 -0.178098 0.060730 -0.003276 -0.177381 0.558674 0.663891
7.35445378028 0.096269 -0.288431 -0.252696 0.502112 -0.182636 -0.370931 -0.313294 -0.262927 -0.137960 0.049395 -0.065795 0.035654 0.068757 -0.080904 -0.206267 0.080188 0.505545 -1.224772 -0.111362 -0.228084 -0.004074 -0.369845 -0.128587 0.737280 0.300347 -0.863429 0.122828 0.221649 0.370947 -0.653412 0.241610 -0.323607 0.301420 -0.223982 -0.491939 0.341770 -0.721373 -0.414383 0.054878 0.720216 -0.376926 -0.599821 0.212177 0.555879 -0.405210 -0.344537 -0.149552 0.002811 0.020097 -0.222391 -0.277279 0.529480 -0.624355 0.117929 0.440990 0.150131 -0.399800 0.532829 -0.658455 0.054430 0.524092 0.351279 -0.632179 0.141536 0.106267 -0.338484 0.045066 -0.206843 0.176928 0.180295 -0.059082 -0.495432 -0.168428 0.829462 0.050550 -0.248770 -0.189549 -0.177177 -0.192954 0.143982 -0.434183 -0.684324 -0.714085 0.433619 -0.143738 0.329512 -0.483134 -0.642629 -0.128688 0.102222 -0.346815 0.080018 0.846104 -0.186552 -0.193111 -0.667381 -0.125014 0.251241 0.024173 0.115157 0.308035 0.445194 -0.092068 -0.081897 0.605320 -0.145161 0.002296 -0.201286 -0.270062 -0.459699 0.225073 -0.233704 0.212606 -0.445121 -0.429675 0.135631 0.539658 0.169972 0.146470 0.240999 -0.105561 0.010182 -0.560912 0.175227 -0.547656 -0.234357 0.342360 0.700948
3.47261788521 0.097686 0.449679 -0.304157 0.208382 0.124793 -0.140856 -0.338137 0.386093 0.481532 0.131098 -0.372820 0.094188 0.407707 -0.596066 -0.072170 0.147679 -0.047610 -0.608009 0.263465 -0.445991 -0.336730 -0.168854 0.162780 0.520484 0.117121 -0.022294 0.156971 0.049743 0.100079 -0.233955 0.534612 -0.361536 -0.132472 -0.034071 -0.133719 0.680966 0.298222 -0.564543 0.120829 0.143449 0.158738 -0.361559 0.000291 0.382143 -0.249067 -0.246325 -0.729109 0.231451 -0.053813 -0.061994 -0.532674 -0.309400 0.206161 -0.057751 0.573273 0.218498 0.025621 0.117053 -0.252752 0.748274 0.497917 -0.033213 -0.566615 0.296597 0.237286 0.437065 -0.056178 -0.333522 0.152773 -0.044894 -0.891650 0.147554 -0.937570 0.232677 0.371915 -0.131649 -0.026313 -0.477122 -0.248188 0.004704 -0.215293 -0.565468 -0.295074 -0.337304 0.288467 0.623167 0.482144 -0.092338 -0.350571 -0.112749 0.427557 -0.318137 0.404200 -0.048349 -0.092683 -0.636867 0.293346 0.224288 0.032907 -0.144789 -0.166037 0.688315 -0.352181 -0.110857 0.418070 -0.281273 -0.383716 -0.141552 -0.315344 0.191299 0.566973 -0.548731 0.480228 0.123887 -0.213861 -0.738651 -0.026734 0.421746 0.278745 0.277063 -0.031186 -0.501957 -0.511167 -0.187513 -0.100184 -0.099879 0.001012 -0.030653
2.86666301637 0.404053 0.180689 -0.625905 0.443263 -0.565371 -0.037908 -0.702801 0.462427 0.429661 -0.025277 -0.010310 -0.545200 -0.100865 -0.013542 -0.177793 0.155879 0.293868 -0.823407 0.489039 0.092881 -0.078762 -0.377225 -0.387200 0.263754 -0.052230 -0.650317 0.180225 0.634183 0.091599 -0.791552 0.304670 -0.136521 0.521333 0.056900 -0.622554 0.386860 -0.081135 0.009893 -0.028445 0.526856 -0.013643 -0.565006 0.294786 -0.381963 -0.299270 0.034086 0.139459 0.104052 0.175472 -0.033252 -0.614769 0.562916 -0.480210 0.358688 0.029537 -0.141462 -0.063070 -0.147176 -0.557255 0.330442 0.113022 0.364980 -0.380727 -0.039686 -0.538264 0.348936 0.628188 -0.321494 0.233741 -0.251974 0.375126 -0.232436 -0.011985 0.649929 0.238366 0.104206 -0.447607 -0.125875 -0.260966 0.103617 -0.478785 -0.761110 -0.856664 0.127022 -0.090758 0.316164 -0.150039 -0.865894 -0.339576 -0.021128 -0.482852 -0.067475 0.449494 -0.371591 -0.475608 -0.230695 -0.259215 0.306253 -0.407226 -0.738181 0.485738 0.208534 -0.434807 -0.212003 0.885624 -0.572854 0.138349 -0.256456 -0.130616 0.109283 0.137478 -0.289097 -0.040750 0.625566 -0.853038 0.194604 0.497778 0.342652 0.190243 0.245311 -0.299678 0.271960 -0.358815 0.043790 0.102517 -0.010278 0.530766 0.638383
10.7586061584 0.433409 0.017074 -0.009182 -0.262102 -0.158150 -0.444546 0.235374 0.333124 0.077049 0.328912 -0.121525 -0.108342 0.737780 -0.082702 -0.043016 -0.482737 0.202326 -0.446070 0.650946 0.280348 0.077639 0.127711 -0.014899 0.036197 0.101951 -0.893347 0.729094 0.852054 0.175417 -0.595103 0.307183 0.034800 -0.156509 0.071838 -0.334767 0.253554 -0.588915 -1.022933 0.740680 0.928815 -0.317472 0.044912 0.308428 0.307102 -0.441568 0.731144 -0.074322 -0.295938 -0.018088 -0.218738 0.031144 0.096315 -0.311951 0.390252 0.734016 -0.042655 -0.265906 0.228276 -0.601631 0.156960 -0.138460 -0.023010 -0.086106 0.165954 -0.213788 0.543680 0.811470 -0.461659 0.159503 -0.085885 -0.071002 -0.358635 -0.049070 0.247495 0.007586 -0.054262 0.009409 -0.124947 -0.132162 0.694438 -0.101482 0.196516 -1.096787 -0.040322 -0.155212 0.388485 0.057828 -0.527460 -0.191895 -0.370202 -0.617220 0.181518 0.515756 -0.384950 -0.423665 -0.663751 -0.486472 0.613853 0.070989 -0.747565 0.045680 0.489498 -0.313161 0.085837 0.536964 -0.669383 -0.037911 -0.253343 -0.206655 0.256879 0.210039 -0.101036 0.370715 0.102052 0.079112 -0.200010 0.320607 -0.378571 0.011913 0.597675 -0.420170 -0.119400 -0.739337 0.134888 0.180968 -0.139564 0.423924 0.027438
13.848473169 0.063053 0.481883 -0.533297 0.416427 0.002853 0.252938 0.085140 -0.015941 0.163603 -0.517385 0.292934 -0.032015 0.374177 0.047270 0.451466 -0.231645 0.079156 -0.701992 0.118275 -0.014642 -0.072873 0.232805 0.028082 0.238665 -0.076945 -0.917542 0.093786 0.366825 -0.011434 -0.915121 0.644890 0.099994 -0.085694 -0.440061 -0.667954 0.373626 -1.020352 -0.511375 -0.067471 0.225465 -0.735746 -0.719213 -0.012076 0.147955 -0.193786 -0.168008 -0.442021 -0.317775 0.028769 -0.238426 -0.235349 0.251036 -0.768243 0.278887 0.207865 0.196643 0.252498 0.351829 -0.109016 0.036843 0.560473 0.367109 -0.262370 0.245823 -0.146089 0.501530 0.336053 -0.977808 -0.081606 0.040452 0.074557 -0.625366 -0.096844 0.413508 -0.126993 -0.145929 -0.002808 -0.341108 -0.429292 -0.489313 -0.284201 -0.901060 -0.556657 0.560914 -0.048819 0.216559 0.354968 -0.695178 -0.140088 -0.137454 -0.133131 0.221932 1.052112 -0.536413 -0.547123 -0.458223 -0.188225 0.308265 -0.537575 -0.656208 -0.059615 0.419750 0.029859 -0.397785 0.505883 -0.261064 0.177508 -0.336737 -0.053629 -0.281336 0.348123 -0.436409 0.441056 0.280173 -0.436412 -0.117212 -0.405929 -0.268095 0.004163 0.811965 -0.104776 -0.386896 -0.638793 -0.241346 -0.359684 0.072008 0.147120 0.372361
18.5037088855 -0.009443 -0.506305 -0.217585 0.241340 0.512766 -0.188675 -0.104643 0.664486 -0.154623 0.101808 0.375380 -0.425490 -0.045176 0.762123 -0.200403 0.294716 0.217878 -0.585397 0.012365 -0.236219 0.035224 -0.642689 -0.213839 0.438711 0.113618 -0.703814 -0.075304 0.566535 0.100411 -0.390349 -0.185356 -0.095047 0.813837 -0.631152 -0.156179 0.176418 -0.303702 -0.481643 -0.122274 0.402635 -0.206017 0.330693 -0.144764 0.152532 -0.766567 0.026243 0.337778 -0.135119 -0.003286 -0.878182 0.105571 0.320110 0.060021 0.696988 0.357650 0.166825 -0.601659 -0.109170 -0.490810 0.742302 0.558104 0.323495 -0.391730 -0.098481 0.141997 -0.222068 -0.234315 -0.839046 -0.002054 -0.182830 0.540133 0.086887 -0.262951 0.844382 0.106746 0.430676 0.414960 -0.256682 -0.555310 0.108489 -0.480192 -0.435180 -0.483429 -0.208362 0.424472 0.438398 -0.504806 -0.096908 -0.326630 0.259043 0.312378 -0.019823 0.288718 0.154256 0.428610 -0.309666 -0.275377 0.964171 0.089852 -0.077356 -0.095856 0.199389 -0.315093 -0.336003 0.285403 -0.160644 0.147604 0.574622 0.103148 -0.286860 -0.368406 -0.850538 0.209714 0.081376 -0.302172 -0.324448 0.281414 0.569813 0.123674 0.146087 -0.300730 0.106004 -0.276349 -0.036569 -0.192287 -0.136920 0.568474 0.695298
14.8678684794 -0.334876 0.448788 0.369575 0.385889 0.617849 -0.088228 0.256304 0.659564 -0.278974 0.774353 0.162896 0.058210 0.386693 0.426124 0.295298 -0.209474 0.051947 -0.363238 0.072463 -0.401965 -0.298922 -0.315234 0.317032 0.290080 -0.023907 -0.029808 0.169424 1.023629 0.029255 0.232392 0.382645 0.037193 0.640261 -0.229092 -0.094250 0.424654 -0.457893 -0.370337 0.505238 0.107306 0.010756 0.020983 -0.540963 -0.112787 0.089224 0.643529 -0.203075 0.344499 0.378272 -0.903960 0.374505 -0.144665 0.128029 0.576706 0.686575 -0.204247 -0.675365 -0.008513 0.320805 0.571155 0.406581 -0.595461 -0.147108 -0.073931 -0.335711 0.062963 -0.143633 -0.512028 -0.515398 0.100116 0.428605 -0.242858 -0.795119 0.466478 -0.327324 0.025142 0.647885 0.086988 -0.369946 0.343633 -0.223366 0.276334 -0.303410 -0.590249 0.043471 0.459561 0.409463 0.486639 -0.428850 -0.246926 0.548158 0.141392 0.573305 -0.064105 0.226048 -0.568126 -0.146696 0.066561 -0.181764 -0.428667 -0.365025 0.082722 -0.037344 -0.076352 -0.228977 0.055696 0.022068 -0.018962 0.843161 0.069287 -0.043415 -0.000112 0.667054 0.072298 -0.007102 -0.894426 -0.604842 0.488186 -0.168669 0.286266 0.160727 -0.282082 -0.557291 0.236757 -0.106317 -0.106161 0.284252 0.330244
17.4170042082 0.125666 0.382533 0.015920 0.363646 0.157332 -0.150680 -0.236730 0.487192 0.036597 0.349268 -0.051633 -0.091604 0.111308 -0.007860 0.039338 -0.182129 0.231204 -0.730978 0.034100 -0.392635 -0.115276 -0.281825 0.037916 0.524387 0.016454 -0.653022 0.111502 0.603699 0.085437 -0.584743 0.392281 -0.068029 0.426138 -0.293922 -0.432808 0.645558 -0.313654 -0.715641 0.453983 0.288533 -0.197061 -0.264367 -0.035160 -0.024811 -0.297778 0.256832 0.011174 0.234791 0.143849 -0.594009 -0.128202 0.013142 -0.040454 0.474500 0.669542 -0.115547 -0.559696 0.084882 -0.177843 0.615724 0.386431 0.027114 -0.212096 0.039674 -0.276572 0.096218 0.337232 -0.549828 -0.254574 0.018421 0.251268 -0.528030 -0.573328 0.639449 0.157690 0.251426 0.149417 0.053731 -0.469222 0.407711 -0.323430 -0.354170 -0.581120 -0.159784 0.016571 0.540916 0.200473 -0.275136 -0.481307 0.044836 0.035107 0.097202 0.587605 -0.173830 -0.069865 -0.704861 -0.148231 0.297353 -0.444649 -0.560409 -0.005432 0.145133 -0.253914 0.172197 0.336811 -0.103441 0.086362 -0.163490 0.149943 -0.001127 0.127071 -0.279638 0.350729 0.196250 -0.517281 -0.259304 -0.032548 0.281297 0.105284 0.471706 -0.185176 0.073008 -0.474269 0.076019 0.206172 -0.108931 0.310667 0.450691
12.0425959046 0.061601 0.370210 -0.233966 0.409728 0.245878 0.185009 -0.316999 0.356760 -0.071847 0.077808 0.360122 0.100074 -0.459467 -0.100631 0.248649 0.049588 0.529698 -0.741052 -0.618059 -0.507385 -0.044246 -0.153175 -0.067122 0.580377 0.361043 -0.327466 -0.326428 0.570490 0.089851 -0.797923 0.350747 0.068400 0.526418 -0.529124 -0.306943 0.488851 -0.662722 -0.479983 0.140361 -0.104060 -0.295354 -0.564830 -0.078337 0.313713 -0.045048 0.017149 0.300118 0.359505 -0.097641 -0.454767 -0.210251 0.023697 -0.406009 0.533015 0.348087 -0.032797 -0.394590 -0.228699 -0.218207 0.131649 0.427618 -0.004092 -0.250356 0.175292 0.140001 -0.130942 0.245763 -0.518057 -0.320937 0.160358 0.343931 -0.569467 -0.226917 0.667676 0.362300 0.057755 -0.331159 -0.103874 -0.403374 -0.469923 -0.640747 -0.641899 -0.038817 0.238766 -0.098361 -0.059476 -0.154979 0.229457 -0.623511 0.382360 0.738793 0.118288 0.447865 -0.208173 -0.026067 -0.452168 0.298258 0.147584 -0.252605 -0.167359 0.099715 0.100379 -0.112460 0.077911 0.635873 -0.078006 0.288958 -0.192821 -0.309806 -0.822501 0.184805 -0.056684 0.434661 -0.345272 -0.684473 -0.081785 -0.132662 0.407724 -0.194276 0.221476 0.047751 0.089985 -0.031295 -0.326075 0.198278 -0.488953 0.032619 0.596116
4.32929105559 -0.258070 0.410547 -0.511886 1.058961 -0.154639 0.241831 -0.603766 0.715818 -0.188225 0.067715 -0.418577 0.444007 -0.151350 -0.097884 0.308844 -0.165128 1.075330 -0.578616 -0.294256 -0.632440 -0.677180 -0.553766 -0.190079 0.549999 -0.024792 -0.218189 -0.096210 0.936401 0.207803 0.173732 0.601296 -0.095953 0.319894 -0.549625 -0.185742 0.916647 -0.039419 -0.180800 0.289257 0.058077 -0.412226 -0.269550 -0.013163 0.098880 0.006279 -0.099035 0.160373 0.216827 0.291431 -0.034764 0.265094 0.621163 -0.359278 0.469184 0.323658 -0.318888 -0.683075 -0.129246 -0.126895 0.260246 0.110659 0.323965 -0.228639 -0.547014 -0.369588 0.009232 0.278029 -0.600734 -0.364796 -0.184200 -0.190801 -0.787926 -0.339399 0.270091 0.089551 0.171122 -0.094751 0.305210 -0.418239 0.286542 -0.129887 -0.711178 -0.316655 -0.276591 -0.034615 0.847291 -0.569559 0.369146 -0.128068 -0.058346 0.275445 -0.209159 0.918682 0.176015 -0.046586 0.181637 0.300446 -0.423214 0.017871 -0.445675 0.038527 -0.378997 -0.290419 -0.320825 0.305668 0.209282 -0.235920 -0.367539 -0.412314 0.092344 0.274959 0.059790 0.505907 0.047962 -0.672257 -0.030199 0.285039 0.625984 -0.103730 -0.285942 -0.334125 -0.198827 -0.307296 0.031519 -0.020057 -0.324390 0.405583 0.501678
10.5683286328 -0.464506 0.264927 -0.119623 0.623347 -0.051629 -0.821707 -0.284268 0.161983 0.277868 -0.339296 -0.101853 0.156730 -0.373822 -0.114232 -0.324000 0.329641 0.014986 -0.889483 -0.104617 -0.294414 -0.060766 -0.340381 0.145611 0.679455 -0.297761 -0.612283 -0.227642 0.363408 0.152269 -0.213140 0.252164 -0.186039 0.221783 -0.625566 -0.658123 0.689662 0.188286 0.075105 -0.012125 0.664293 -0.363638 -0.481187 -0.011180 -0.112712 -0.132930 -0.251550 -0.541294 0.074725 0.339697 -0.601645 -0.298597 -0.150498 -0.199641 -0.101342 0.195643 -0.274935 -0.907454 0.041364 0.247583 0.834812 0.403286 0.169879 -0.068120 -0.221232 0.238707 -0.194751 -0.104065 -0.215700 -0.246329 0.113267 0.671173 -0.125127 -0.211799 0.852459 -0.285052 0.406308 0.321573 0.252498 -0.532045 -0.212700 -0.295127 -0.500758 -0.559942 0.279974 0.364453 0.253358 -0.086787 -0.785425 -0.268740 -0.177446 0.061423 0.108825 0.542553 -0.131071 -0.072534 -0.608787 -0.086502 -0.359326 -0.529909 -0.260106 -0.002929 -0.176531 0.128430 0.262005 0.219191 0.421976 0.026500 0.159215 0.169663 -0.358079 -0.733716 -0.218854 -0.272454 0.165678 -0.925751 -0.094790 -0.033904 0.623466 0.153774 0.650105 -0.413423 0.512161 -0.100039 -0.142836 -0.162072 -0.109503 0.468056 0.317089
11.7535025255 0.035004 0.271835 -0.071295 0.062021 0.219793 -0.293535 0.448400 -0.014894 0.152174 0.612310 -0.024061 -0.159399 0.235757 0.302769 -0.269084 0.403707 -0.099674 -0.433703 -0.595052 -0.266688 -0.184977 -0.038942 0.325956 0.781774 -0.019661 -0.537267 0.596471 0.454073 0.104886 -0.433850 0.287817 0.193201 0.332673 0.008817 -0.391028 0.159083 -0.292538 -0.591926 0.544284 0.624387 0.175589 0.562606 0.117633 -0.104937 -0.084890 0.497162 -0.042379 -0.110713 0.147070 -0.553405 -0.544010 0.303142 0.364316 0.254409 0.739910 -0.318351 -0.570052 0.138779 0.160441 0.377719 0.444124 -0.297154 -0.448828 0.091124 -0.321668 -0.386940 0.004282 0.030044 -0.209199 -0.133128 0.417830 -0.153918 -0.239059 0.876137 -0.419394 -0.175436 0.566460 0.505970 -0.243519 0.616632 0.431871 -0.013434 -0.491050 -0.259965 0.000203 0.394857 0.640566 -0.186297 -0.487446 -0.568683 0.014331 -0.140286 0.498037 -0.379999 0.456829 -0.840002 -0.301260 0.203591 -0.788496 -0.186615 0.525287 -0.142800 0.106268 -0.153228 -0.147267 -0.138322 0.050192 -0.222286 0.729279 0.700986 0.117528 -0.118858 0.010235 0.120209 0.077800 -0.460457 -0.069085 0.275540 0.455034 0.373837 0.330372 0.007350 -0.715084 0.610846 -0.409720 0.486253 0.482577 0.163424
8.33819318714 -0.160060 0.697234 -0.504848 0.011279 -0.411721 -0.958595 -0.016481 -0.025052 -0.059147 0.306210 0.070435 0.282304 -0.002842 -0.055668 -0.083554 -0.538720 0.025258 -0.681055 0.090706 0.006848 0.225367 -0.025776 -0.509197 0.303033 -0.008983 0.354725 0.071699 0.622135 0.131414 -0.272437 0.083354 0.197144 0.072079 -0.499282 0.047323 0.501971 0.201851 -0.568524 0.043732 0.600678 0.077230 -0.457448 -0.048501 -0.170726 -0.233774 0.234403 -0.274589 -0.154881 0.629504 -0.608630 -0.061182 0.376182 -0.548762 -0.113052 -0.270632 0.097749 -0.489255 0.315936 0.282235 0.437674 0.540701 -0.282550 -0.110560 0.238323 -0.069603 -0.315536 0.079046 -0.454024 -0.128930 -0.496286 0.034635 0.082257 -0.321423 0.475822 0.185134 0.024060 0.738678 -0.046612 -0.558373 0.409894 -0.265226 0.137773 -1.190512 0.187744 0.192705 0.638736 -0.173830 -0.179909 -0.315849 0.023949 -0.306723 -0.073138 0.067400 -0.566389 -0.559562 -0.988913 0.171586 0.275056 -0.434156 -0.484867 -0.173383 0.408152 0.483680 0.306672 -0.050469 0.248272 -0.238217 0.085581 -0.073543 -0.094535 -0.555694 0.050062 0.861704 0.256073 -0.285457 -0.542647 -0.091831 0.322918 -0.114243 0.118232 -0.735300 0.236669 -0.818822 0.194302 0.164475 0.006901 0.362315 0.257434
16.8774124936 -0.051853 -0.356962 -0.139344 0.224112 0.578112 -0.069899 -0.258318 0.503424 0.108957 -0.196125 0.235727 -0.584709 0.003261 0.665828 0.018152 0.208520 -0.140159 -0.369945 0.102271 -0.165148 0.004391 -0.398292 -0.171163 0.270519 -0.159214 -0.643878 -0.200934 0.051443 0.066987 -0.335588 -0.168783 -0.296434 0.718105 -0.420971 -0.048180 0.247259 -0.074972 -0.393185 -0.212199 -0.073793 -0.234068 0.247491 -0.292638 -0.031177 -0.602652 -0.073878 0.103371 -0.136273 -0.101604 -0.895362 -0.115295 0.148808 0.095718 0.661344 0.175879 0.201154 -0.412771 -0.051364 -0.262742 0.515395 0.537421 0.272855 -0.355934 0.020148 -0.111133 -0.136744 -0.198637 -0.693453 -0.281194 -0.209548 0.358914 0.042523 -0.184189 0.554201 0.005705 0.553041 0.394870 -0.150091 -0.549482 0.156220 -0.352216 -0.479849 -0.626025 -0.144341 0.650084 0.505536 -0.044428 -0.315101 -0.183345 0.099229 0.245936 -0.100431 0.096725 -0.042729 0.158966 -0.262236 -0.261073 0.863709 -0.215758 -0.331335 -0.015293 0.111773 -0.328308 -0.419020 0.284393 0.010421 0.216036 0.289140 0.248876 -0.296039 -0.025937 -0.783378 0.256660 0.149383 -0.350836 -0.108734 0.008613 0.511629 0.276327 0.238807 -0.122516 0.032132 -0.184154 -0.109975 -0.109996 0.398645 0.175048 0.429374
16.0051910837 0.068129 0.701425 0.023376 0.293831 0.390721 0.424844 -0.048523 0.605109 0.174143 0.090578 0.425788 -0.036840 -0.409454 -0.083661 0.177621 -0.031643 0.448921 -0.251547 -0.486905 -0.748219 -0.181554 0.146077 -0.047904 0.455263 0.032634 -0.053731 -0.195098 0.971284 -0.003251 -0.803320 0.452921 0.441540 0.291799 -0.340430 -0.121348 0.900078 -0.674077 -0.798453 0.218574 -0.252967 -0.437258 -0.302848 -0.271807 0.301026 0.399386 0.335047 0.088409 0.333614 -0.286324 -0.727659 -0.194009 -0.182113 -0.368892 0.723202 0.515425 -0.205760 -0.529995 -0.130122 -0.005657 0.077973 0.383586 -0.235788 -0.047819 0.310976 -0.254218 -0.114050 0.691411 -0.467051 -0.358833 0.068734 0.154111 -0.658207 0.025485 0.603579 0.173156 -0.194037 -0.433312 -0.003958 -0.312789 -0.133343 -0.240402 -0.567427 -0.167828 -0.042564 -0.157472 0.178501 0.378644 0.582032 -0.765033 0.116345 0.786534 -0.176546 0.255021 -0.504383 -0.175830 -0.198854 0.382094 0.075928 -0.424412 -0.880879 -0.013141 -0.096314 -0.421922 0.024088 0.616174 0.092063 0.247480 -0.286262 -0.162323 -0.590938 0.575499 0.181687 0.690259 -0.467252 -0.379037 -0.292438 -0.223023 0.606102 0.019608 0.046218 0.242712 0.250188 -0.427783 -0.387965 0.335167 -0.280477 -0.232051 0.437889
7.65583660925 0.282250 0.244151 -0.420119 0.132486 -0.117664 -0.019521 -0.197384 0.790905 0.441430 0.242042 0.245081 -0.364974 0.050688 -0.252992 -0.293140 -0.081521 0.056170 -0.424246 0.725908 0.180214 -0.442416 -0.012936 -0.796701 0.166500 0.134737 -0.278270 0.083696 1.231665 -0.352898 -0.553064 0.265539 0.268153 0.460241 0.367976 -0.295832 0.486083 0.021655 -0.288714 -0.104781 0.660600 -0.052726 -0.044206 0.217936 -0.612817 -0.117546 0.506638 0.089019 0.158803 0.273648 -0.429375 -0.289510 0.188920 -0.360669 0.458027 0.085164 -0.143719 -0.095549 -0.051218 -0.181826 0.828891 -0.000789 0.040920 -0.134297 -0.154363 -0.521335 0.369399 0.432343 -0.301149 0.333175 -0.785123 0.292417 0.150644 -0.042603 0.347873 -0.121763 0.045038 0.192120 -0.264630 -0.199537 0.355177 -0.452549 -0.280588 -0.989351 -0.149659 0.004045 0.456553 0.100811 -0.362147 -0.145961 -0.241759 -0.573480 0.008554 0.090581 -0.420759 -0.250614 0.084438 -0.326574 0.320196 -0.443056 -1.085991 0.139078 0.037546 -0.204063 -0.360581 0.416220 -0.375796 -0.205765 -0.451094 0.241084 0.068126 0.027059 -0.000202 0.204896 0.994101 -0.556545 -0.022530 0.123662 0.395027 0.270675 0.249775 -0.473331 0.323662 -0.629457 0.226049 0.338513 0.176932 0.378835 0.685344
