34 128
0 -0.230430 -0.155587 -0.164443 0.051296 -0.080910 0.056730 -0.218828 0.346991 0.457200 -0.379854 0.236339 0.191185 -0.148699 -0.087587 0.311918 -0.209739 0.269273 -0.057185 -0.085968 0.045116 0.102608 -0.258320 0.014152 0.125748 -0.059380 -0.399252 -0.334858 -0.186972 -0.510998 -0.310516 0.202712 0.077290 0.122856 -0.355342 -0.233073 0.019399 0.569263 0.186412 0.050820 0.113115 -0.225262 -0.052054 0.387241 0.374785 -0.050771 0.297857 0.216758 -0.089789 -0.308447 0.123345 0.054241 0.161360 0.142106 -0.235168 -0.423617 -0.214657 -0.081594 0.242188 -0.461977 0.205922 0.141750 -0.566993 0.251287 0.546642 -0.092403 -0.007992 -0.183028 -0.149430 -0.081479 -0.433974 0.052705 0.036211 0.176154 0.076376 0.375599 -0.083257 0.053566 -0.103669 -0.207374 -0.034492 0.327564 -0.104035 -0.079378 0.255448 -0.434436 0.114074 0.057757 -0.133752 0.236586 -0.166496 0.013795 0.034212 0.157873 0.317402 -0.024132 -0.064158 -0.072288 -0.367452 0.033826 0.280557 0.043640 -0.044686 -0.001892 0.133958 -0.161455 -0.152036 0.256672 0.074725 0.213810 0.013061 -0.182507 0.186844 -0.074934 -0.428669 -0.286361 -0.007236 -0.192129 0.141146 -0.290643 -0.040391 -0.179046 -0.044046 -0.049921 -0.438625 -0.279432 -0.160680 0.012724 0.233864
33 -0.059087 -0.142213 -0.036900 0.002423 0.172613 -0.022318 -0.121892 0.342846 0.208692 0.175618 -0.198083 -0.009640 0.139854 -0.192415 0.007345 0.047976 -0.043294 0.245023 -0.231007 0.103790 0.351958 -0.086243 0.202610 -0.061805 -0.098203 0.041325 -0.288834 0.109775 -0.102363 0.179303 0.021630 0.406648 0.289071 0.117164 -0.267116 -0.232137 -0.032344 -0.053579 0.052802 0.348706 -0.245354 0.324899 -0.049603 -0.177417 -0.042576 0.189387 -0.322927 0.046575 -0.268030 0.082064 0.037904 0.100399 0.316570 -0.022011 -0.335333 0.007799 -0.401445 -0.009739 -0.061204 0.139108 0.183659 -0.464839 0.043325 0.012878 0.391939 -0.126640 0.338091 -0.217044 0.276692 0.365396 0.020856 -0.105252 0.211691 -0.081465 -0.373810 0.179645 0.272486 -0.056262 0.104956 -0.084041 0.145296 0.003004 0.112290 -0.220709 -0.277657 0.417281 -0.126480 0.049740 -0.179867 0.112768 0.210682 -0.002616 0.022373 -0.047457 -0.003976 0.020755 -0.092727 0.152405 0.108534 -0.058969 0.066877 0.011831 -0.075014 -0.002919 0.282863 -0.227030 0.067435 -0.355489 -0.007908 -0.128419 -0.397385 -0.209149 -0.258805 -0.311217 0.105148 -0.191721 -0.064175 -0.218139 0.018269 -0.131919 0.077697 -0.099749 0.064839 0.091634 0.285322 -0.352480 -0.257530 -0.364865
32 0.143954 -0.186383 -0.323068 0.128482 0.296435 -0.137717 -0.206428 0.603105 0.215741 0.068514 -0.163541 0.201693 0.193780 -0.236703 0.292237 -0.071643 -0.043031 0.232274 -0.245785 0.325302 0.538565 -0.236915 0.319171 -0.072146 -0.029690 0.087906 -0.454398 -0.178417 -0.123904 0.098520 0.088387 0.156438 0.369485 0.143778 -0.305607 -0.349908 0.225986 -0.196164 -0.030913 0.252436 -0.119998 0.347145 -0.155521 -0.067520 -0.034928 0.387702 -0.431823 0.050965 -0.152520 -0.000117 0.210013 -0.108845 0.369139 -0.187098 -0.244351 0.244172 -0.156595 0.189252 -0.158821 -0.039584 0.358372 -0.833617 0.233288 0.410520 0.458191 0.005713 0.090592 -0.270823 0.448245 0.364682 -0.143576 0.006068 0.170809 -0.238400 0.010197 0.444334 0.374975 -0.083045 0.152577 -0.000849 -0.093128 0.044798 0.341198 -0.096353 -0.318432 0.445880 0.132418 0.034911 0.120256 0.135159 0.347990 -0.170954 0.028265 0.023536 -0.003859 0.105421 -0.292740 0.026678 0.277783 -0.256074 0.137024 0.055559 0.229801 0.181772 0.152291 -0.073766 -0.044360 -0.447600 0.076874 0.078137 -0.497922 -0.117049 -0.390254 -0.406824 0.075267 -0.201517 -0.172553 -0.485156 0.075524 -0.269089 0.020412 -0.280138 0.024290 -0.386156 0.517854 -0.639404 -0.211596 -0.467848
1 -0.247682 -0.173252 -0.042124 -0.304298 -0.210311 -0.199297 -0.241414 0.211423 0.615659 -0.017768 -0.315614 -0.121717 0.137299 -0.668931 0.113258 -0.101223 0.079977 -0.021363 -0.023801 0.030624 0.461072 -0.257479 0.173344 0.282979 -0.234479 -0.317596 -0.238498 -0.059929 -0.433791 0.130045 0.220104 0.550214 0.016224 -0.451009 -0.587110 -0.405922 0.114494 0.273568 0.008185 0.095233 -0.401997 0.035208 0.108911 0.169516 -0.110223 0.479108 0.021389 0.191458 -0.243477 0.396443 -0.242344 0.524820 0.051173 -0.048638 -0.640945 -0.271089 -0.428655 0.194707 -0.215313 0.338222 0.185037 -0.503293 0.076111 0.435790 0.125722 -0.353032 0.196930 -0.145634 0.160208 -0.110940 0.082334 -0.164633 0.298814 0.244427 0.011330 -0.259770 -0.030050 -0.104917 0.174754 -0.404536 0.346457 -0.077203 -0.023263 -0.493332 -0.651055 0.103352 -0.197847 -0.201099 -0.184557 -0.026206 0.412709 0.073055 0.151983 0.154579 -0.039506 -0.147181 -0.017879 -0.216929 0.155314 0.245722 -0.075263 0.033076 -0.293601 0.182611 0.323412 -0.298911 0.217316 -0.189897 0.353481 -0.225985 -0.177465 0.069352 -0.087257 -0.272231 -0.418867 -0.345940 -0.364053 0.164993 -0.260986 -0.092146 -0.039680 0.142429 0.032768 -0.246569 -0.136228 -0.053545 -0.167354 -0.031932
2 0.214117 0.074659 -0.305994 -0.098651 0.058731 0.185696 -0.028889 0.504418 0.397804 -0.340852 0.036046 0.163880 0.162953 -0.608502 0.256129 0.106183 -0.154212 0.273584 -0.466179 -0.177744 0.056508 -0.010668 0.257416 0.121670 -0.185640 -0.209428 -0.722136 -0.459061 -0.218943 -0.038281 0.316102 0.520840 -0.272979 -0.342775 -0.116936 -0.308601 0.249611 -0.388796 -0.372709 0.201595 -0.321596 -0.075849 0.387087 0.303230 -0.172277 0.141410 -0.032453 -0.143852 -0.263358 -0.100221 -0.039252 0.226609 -0.057577 0.072674 -0.211618 -0.070722 -0.181579 0.112328 0.096833 0.280667 0.260585 -0.218410 -0.012168 0.324039 0.232662 0.077594 0.289540 0.097569 0.157855 0.002551 0.090261 0.399330 0.086507 -0.042171 0.110926 0.088457 0.034898 0.091271 -0.221441 -0.129302 0.426130 0.182956 -0.144958 0.123634 -0.234778 0.039731 -0.238449 0.116949 -0.162982 0.378260 0.472070 0.121904 0.195419 0.093214 -0.078335 0.038028 0.252890 -0.346815 -0.068626 0.300498 -0.200569 -0.120021 -0.099208 0.074174 -0.094354 -0.466003 -0.145557 0.191489 0.304633 -0.051817 0.099685 0.353554 -0.114676 -0.539764 -0.192231 -0.319809 -0.264148 -0.026594 -0.379312 0.132278 -0.073474 0.105706 0.230601 -0.073902 -0.298450 -0.102166 0.233844 0.260963
3 0.057159 0.037270 -0.186893 -0.154548 -0.079612 0.111092 -0.142368 0.148020 0.168687 -0.267715 0.052228 -0.191595 -0.046777 -0.744724 0.384240 0.024562 -0.092547 0.122419 -0.535660 -0.405148 0.264258 -0.053421 0.088756 0.379678 -0.346927 -0.564355 -0.429148 -0.259569 -0.292600 0.210489 0.304047 0.510833 -0.372992 -0.451758 -0.217060 -0.241368 0.492505 0.200721 -0.385387 0.294090 -0.099780 -0.060702 0.346850 0.330591 -0.072866 0.766849 0.292619 -0.038592 -0.757976 0.301044 -0.050080 0.315134 -0.155599 -0.031911 -0.707556 -0.580880 -0.397175 0.041732 0.035774 0.385373 0.314774 -0.063441 -0.056715 0.468129 0.155593 -0.332154 0.233332 -0.010301 0.717677 -0.041564 0.116458 0.397368 -0.044310 0.241482 0.352272 -0.155941 0.218369 0.167048 0.031703 -0.290726 0.493067 0.350505 -0.079699 -0.126873 -0.465106 0.381994 -0.120547 -0.083648 -0.719133 0.280181 0.386388 0.160429 0.087222 -0.168690 -0.090782 0.051144 0.129099 -0.353287 0.005314 0.298050 -0.124934 -0.081829 -0.335544 0.200164 -0.074029 -0.676290 0.016752 -0.124478 0.968234 -0.378518 0.031249 0.187078 -0.273942 -0.468407 -0.294603 -0.402838 -0.563164 0.169300 -0.106003 -0.240986 -0.101815 -0.027408 0.394301 -0.078148 -0.407118 -0.021517 -0.078291 0.315981
23 0.212683 0.120393 -0.373558 -0.114784 0.418009 -0.134691 -0.286872 0.587864 0.097637 -0.000770 -0.186279 0.060763 0.273163 -0.231271 0.006584 0.137876 -0.014786 0.194831 -0.091094 0.189371 0.558808 -0.201485 0.205124 0.304881 -0.039858 -0.113590 -0.623967 -0.272070 -0.121129 0.257387 0.276030 0.111525 0.248484 -0.078575 -0.356438 -0.469954 0.069330 -0.288151 -0.243652 0.119419 -0.088779 0.273661 -0.193705 -0.277477 0.051645 0.384531 -0.305436 0.213109 -0.140838 0.074866 0.423812 -0.081741 0.076969 -0.152354 -0.223616 0.170465 0.086977 0.255836 -0.078640 0.055721 0.241788 -0.553948 0.147378 0.358288 0.320637 0.047818 0.092025 -0.083638 0.378586 0.585412 -0.161486 0.129327 0.162051 -0.134212 -0.110745 0.292082 0.447900 -0.098726 0.253453 -0.013965 -0.169812 0.260093 0.544024 -0.043758 -0.225929 0.373356 0.083588 -0.015663 -0.154569 0.061846 0.131970 -0.136084 -0.017772 0.126742 -0.075464 0.096851 -0.138374 0.072330 0.336932 -0.212904 -0.174031 0.195071 0.467514 0.149897 0.170623 0.046314 -0.219899 -0.500217 0.287987 0.309930 -0.340116 -0.153987 -0.423133 -0.324812 0.114624 -0.395882 -0.082141 -0.473352 0.276337 -0.375126 0.083590 -0.064819 -0.205932 -0.579653 0.425470 -0.423647 -0.380778 -0.593670
29 0.127381 0.137769 -0.103727 -0.166720 0.331384 -0.179978 -0.106957 0.075656 -0.046022 -0.178580 -0.010833 0.143700 0.142579 -0.482407 0.289434 0.166918 -0.211193 0.035792 -0.107201 -0.016685 0.236028 -0.248369 -0.082850 0.183217 -0.362444 -0.251085 -0.502661 -0.528135 -0.186537 0.047464 0.514803 0.391623 0.325775 -0.270484 -0.293345 -0.266637 0.477167 -0.201509 0.014092 -0.050965 0.195545 0.111027 -0.272353 -0.339903 -0.253977 0.452461 -0.471936 0.124569 -0.402482 0.357210 0.183945 0.084653 -0.148522 -0.504976 -0.168938 0.121595 0.148266 0.489604 -0.418132 0.066806 0.285653 -0.834508 0.165281 0.585580 -0.107511 -0.114988 0.144462 -0.429269 0.430496 0.300435 -0.196411 0.118281 -0.407306 0.208144 0.224527 0.328182 0.082342 -0.155676 0.084355 -0.305046 -0.076594 0.571131 0.523391 0.041627 -0.019029 0.277403 -0.162749 0.144457 0.221865 -0.054445 0.369808 0.070727 0.073098 0.389666 0.367748 -0.064315 -0.138396 0.208679 0.133292 -0.148222 0.226205 0.188609 0.162151 0.203452 0.064906 -0.000743 -0.089487 -0.265161 0.741082 0.408693 -0.479302 0.211659 -0.467611 -0.202557 -0.159726 -0.383500 -0.142357 -0.573454 0.456327 -0.302713 -0.099784 -0.274623 -0.229680 -0.474290 0.297440 -0.264161 -0.348849 -0.495360
6 0.078982 0.020897 -0.042044 0.368147 0.557598 0.058987 -0.127000 0.625966 0.092416 -0.600393 0.489942 0.065518 -0.054071 -0.002410 0.484375 0.110454 -0.143439 -0.205667 -0.189138 -0.269273 0.249298 -0.341041 -0.272821 0.146147 -0.091067 -0.400658 -0.486341 -0.582473 -0.151361 -0.250029 -0.013975 -0.240300 0.316500 -0.254654 0.025277 -0.225664 0.728326 0.114689 -0.448240 -0.048951 0.130896 0.019216 0.561839 0.030234 -0.039136 0.344838 0.143105 -0.192247 -0.398675 0.156395 0.466054 0.029825 -0.054127 -0.573178 0.005411 -0.305486 0.029483 0.292286 0.022962 -0.284954 0.711061 -0.527181 0.426169 0.481910 0.149629 0.053367 -0.345508 -0.100281 0.254735 -0.038486 0.133724 0.191505 -0.068402 -0.047807 0.383062 0.108867 0.557276 -0.092147 -0.354684 0.024676 0.135123 0.205726 0.592290 0.437957 -0.003475 0.023547 0.397798 -0.035162 0.240125 0.253371 0.120766 0.221072 -0.165342 0.199070 0.037540 0.304347 -0.092536 -0.465054 0.436960 0.123075 0.201545 0.049793 0.642814 0.365014 -0.640525 0.027533 0.026952 0.186462 0.682595 0.192921 -0.062058 0.164594 -0.463166 -0.331779 0.043666 0.091127 0.088987 -0.214912 0.118062 -0.460799 0.291363 -0.068660 0.066992 -0.890333 -0.334951 -0.272424 -0.004302 -0.024062
31 -0.073821 -0.036551 -0.308787 0.564871 0.081230 0.026808 -0.219538 0.362595 0.291627 -0.452955 0.273681 0.241871 0.151439 -0.066883 0.089164 0.088922 -0.170667 0.406429 -0.159939 0.406350 0.001834 -0.149041 0.166699 -0.078807 -0.133362 -0.108165 -0.594838 -0.414775 -0.333505 0.111450 0.051186 0.455804 0.048498 0.043854 -0.322232 0.045778 0.251339 -0.235932 -0.589168 0.141453 -0.282861 0.189450 0.335660 -0.089233 0.056192 0.005204 -0.262374 0.051202 -0.399036 -0.377194 -0.294325 0.225634 0.426118 -0.448070 -0.104573 -0.200912 -0.025768 -0.184656 -0.114060 -0.033823 0.386370 -0.356036 0.258960 0.128318 0.023667 -0.123571 0.095004 0.241109 -0.097395 0.376868 0.163573 0.234131 0.222585 0.100390 -0.257525 0.294730 -0.016724 0.304839 0.138022 0.288843 0.740005 -0.381362 0.072957 -0.010578 0.131629 0.434736 -0.336218 -0.001715 -0.123993 -0.138241 -0.004927 0.268602 0.134302 -0.272967 0.049876 0.138314 0.065046 -0.206954 -0.092413 0.340920 -0.428430 -0.156056 -0.117372 0.076140 -0.117414 -0.401648 -0.017665 0.397723 0.461295 -0.002033 -0.447310 -0.065490 -0.065170 -0.741095 -0.028319 -0.089366 -0.151831 -0.163960 -0.348087 -0.128957 0.235309 0.117497 -0.054525 -0.154401 0.046852 -0.206803 -0.404456 0.058069
7 0.218015 -0.049335 -0.306164 -0.287734 -0.113535 0.254613 -0.090572 0.371631 0.414750 -0.267674 0.011258 0.064634 0.053736 -0.641043 0.568726 -0.021833 0.082888 0.015855 -0.608199 -0.358753 0.302599 -0.251043 0.149147 0.540156 0.039705 -0.500066 -0.580958 -0.376399 -0.335007 -0.246109 0.393982 0.477719 -0.262796 -0.420310 -0.172968 -0.304434 0.171579 -0.220669 -0.117307 0.056388 -0.357272 0.039033 0.282489 0.393788 -0.138362 0.603053 0.203471 -0.093900 -0.178427 0.257402 0.006968 0.233868 -0.114304 0.114180 -0.586724 -0.066941 -0.209320 0.118960 0.000677 0.557324 0.296408 -0.320672 0.125580 0.595727 0.066166 0.074022 0.266465 0.054685 0.431205 -0.205401 -0.075646 0.384728 -0.110661 0.140507 0.400862 0.081235 0.295404 -0.012904 -0.040111 -0.465774 0.190887 0.556265 0.079926 0.313083 -0.545168 -0.018627 -0.182815 0.050714 -0.235769 0.419684 0.500202 0.167054 0.278245 -0.028360 -0.238645 0.313452 0.143164 -0.396620 0.080493 0.228185 -0.068126 0.091354 -0.143540 0.138015 -0.164793 -0.441673 -0.127736 -0.071338 0.774739 -0.015183 -0.034822 0.453304 -0.388118 -0.583995 -0.334308 -0.291358 -0.220148 -0.157533 -0.280540 0.090422 -0.267221 0.091638 0.358101 -0.209819 -0.430513 -0.367190 0.192361 0.374364
5 -0.100349 -0.098019 -0.156693 0.334913 0.348867 -0.005687 -0.140789 0.281839 0.305815 -0.731218 0.474401 0.129165 -0.256067 0.148776 0.446769 -0.102405 0.024134 -0.230141 -0.132633 0.033203 0.349714 -0.263879 -0.348415 0.303419 -0.211235 -0.526499 -0.399148 -0.394511 -0.453932 -0.411297 -0.110383 -0.239883 0.212411 -0.294514 -0.247834 -0.040939 0.842144 0.239706 -0.235715 -0.000598 0.196996 -0.040646 0.457530 0.234850 0.215094 0.426561 0.244592 -0.062905 -0.571320 0.081123 0.327845 0.146392 0.278638 -0.655623 -0.298159 -0.356871 0.071004 0.254176 -0.184110 -0.137430 0.430929 -0.684231 0.463710 0.549038 -0.058766 0.006734 -0.332311 -0.154046 0.178918 -0.326390 0.118615 0.016655 0.045654 -0.061634 0.367680 -0.101112 0.263111 -0.264654 -0.364791 -0.023060 0.337660 -0.199693 0.230957 0.314858 -0.246569 0.194073 0.247456 -0.083857 0.330663 -0.106803 -0.008581 0.122951 -0.148625 0.196483 0.054315 0.245680 -0.294878 -0.501453 0.234784 0.312880 0.057195 0.029070 0.360143 0.232969 -0.576716 -0.220446 0.289496 0.113361 0.467784 0.132615 -0.238978 0.042500 -0.267375 -0.498773 -0.167039 0.188208 -0.026355 0.098332 0.007113 -0.353518 0.149196 0.034087 -0.067242 -0.834320 -0.206946 -0.110209 -0.188678 0.279333
24 0.183105 0.132317 -0.724998 0.374239 0.230158 0.016767 -0.447036 0.682168 0.361117 -0.426894 0.036360 -0.121179 0.190911 0.149456 -0.022881 0.024927 0.235611 0.282029 -0.141031 0.481092 0.597734 -0.211556 0.461172 0.390826 0.093149 -0.509763 -0.880457 -0.506283 -0.654643 0.459444 0.288750 -0.054441 0.135866 -0.418703 -0.571561 -0.036463 0.080828 -0.208689 -0.839754 0.094800 -0.281912 0.431335 0.102592 -0.270741 0.435403 0.559440 0.006112 0.369299 -0.163497 -0.185440 0.394542 0.058118 0.228445 -0.091426 -0.357223 -0.200505 0.323644 -0.066820 0.071500 0.143952 0.214915 -0.100219 0.381936 0.155358 0.090972 0.041618 -0.135520 0.311039 0.145212 0.695542 0.049521 0.248824 0.407778 0.005009 -0.243362 0.053053 0.160157 0.217463 0.282116 0.248001 0.333450 -0.011847 0.367893 0.170444 -0.095272 0.434717 -0.015310 -0.279132 -0.534113 -0.209336 -0.365769 -0.125858 0.270447 -0.121464 -0.204344 0.307513 0.101054 -0.204893 0.223927 0.133503 -0.469729 0.105876 0.397825 0.195352 -0.055778 -0.292920 -0.145209 -0.118923 0.448687 0.290405 -0.383120 -0.334858 -0.158554 -0.746046 0.030351 -0.274550 0.027305 -0.339414 0.009983 -0.424894 0.311109 0.182877 -0.143294 -0.695906 0.215863 -0.100278 -0.541105 -0.298671
30 -0.012308 -0.419003 -0.148229 0.041060 -0.063247 -0.151054 -0.079661 0.345856 0.435483 0.237918 -0.331570 0.089461 0.124650 -0.421692 0.336971 -0.297601 0.036213 0.035305 -0.288755 0.281823 0.556337 -0.335008 0.315502 -0.121070 -0.011484 0.003164 -0.162116 0.032613 -0.253925 0.052187 0.015851 0.372404 0.383254 -0.007075 -0.426043 -0.350031 0.268119 0.160034 0.250065 0.214844 -0.279931 0.319954 -0.117285 0.154168 -0.181141 0.485700 -0.346307 0.014340 -0.199088 0.271615 -0.133311 0.209389 0.484014 -0.138523 -0.446073 0.086713 -0.531239 0.081141 -0.245772 0.082010 0.336640 -0.941850 0.255694 0.436665 0.471349 -0.255486 0.136318 -0.369591 0.399572 -0.081428 -0.114394 -0.207914 0.159816 -0.138181 0.074045 0.148501 0.166968 -0.099496 0.093228 -0.215938 -0.004922 -0.113875 0.057792 -0.310578 -0.589676 0.373225 0.027950 0.025307 0.062479 0.166438 0.558939 -0.187953 0.099700 0.039327 0.045380 -0.030662 -0.293674 -0.024796 0.180964 -0.158238 0.339290 0.063245 -0.253434 0.076429 0.286742 -0.216220 0.240253 -0.435855 0.030646 -0.242554 -0.488040 -0.052496 -0.328677 -0.345282 -0.173518 -0.206408 -0.320377 -0.238616 -0.093833 -0.109040 -0.122185 -0.175563 0.196481 -0.136331 0.288128 -0.512134 -0.044670 -0.222256
25 0.124597 0.175018 -0.677359 0.418277 0.199164 -0.023169 -0.468967 0.471443 0.323713 -0.420769 0.079073 -0.095027 0.159763 0.158080 0.000516 0.062084 0.162768 0.278523 -0.092728 0.543145 0.496142 -0.244059 0.340017 0.321722 0.044420 -0.498628 -0.729664 -0.544719 -0.629262 0.447282 0.318890 0.009072 0.194650 -0.369744 -0.592696 0.088789 0.089711 -0.151664 -0.783454 0.061373 -0.162291 0.457877 0.028377 -0.395739 0.420636 0.542814 -0.071173 0.405749 -0.192189 -0.157367 0.270423 0.035589 0.244193 -0.199735 -0.353722 -0.184451 0.384780 -0.081723 -0.000866 0.093130 0.224918 -0.146480 0.393343 0.114814 -0.049401 -0.016962 -0.115862 0.229251 0.171221 0.730501 0.039636 0.179884 0.308388 0.159516 -0.215250 0.115097 0.082113 0.277578 0.364990 0.178604 0.349772 0.029817 0.421986 0.116281 0.033085 0.437043 -0.083259 -0.280942 -0.474628 -0.317777 -0.368956 -0.053834 0.264061 -0.166357 -0.107326 0.296233 0.061264 -0.105980 0.148675 0.152987 -0.378079 0.113966 0.312147 0.214551 -0.088606 -0.325622 -0.182262 -0.067674 0.582385 0.287494 -0.490728 -0.327992 -0.154430 -0.689735 -0.017963 -0.243980 0.055429 -0.397892 0.119664 -0.437108 0.321400 0.141908 -0.210954 -0.604889 0.265639 -0.089789 -0.639435 -0.329139
8 0.098071 -0.430725 -0.271392 0.351749 -0.177407 0.143600 0.124291 0.354184 0.250208 -0.107895 -0.137398 0.148736 -0.229493 -0.170120 0.411347 -0.291215 0.271052 0.129420 -0.097629 0.433035 0.052858 -0.220845 0.246640 -0.436473 -0.060812 -0.095433 -0.431872 -0.199724 -0.626692 0.105882 0.197533 0.096312 0.339007 -0.157512 -0.415199 -0.008198 0.679245 -0.051351 0.043397 0.204629 -0.246942 0.164538 0.011676 0.312873 -0.031043 0.390342 -0.252335 -0.162138 -0.383486 0.152286 -0.058097 0.095947 0.462716 -0.271544 -0.292577 0.012271 -0.352802 0.182622 -0.331033 0.006290 0.050791 -0.857652 0.370344 0.546275 0.274731 -0.282617 0.092645 -0.285629 0.044897 -0.318635 -0.113561 0.042370 -0.089407 0.029133 0.069855 0.161909 -0.235318 0.022293 -0.175624 0.127070 0.299086 -0.306306 -0.224018 0.254930 -0.282620 0.563773 -0.016635 0.117520 0.213166 -0.217731 0.383642 -0.263630 0.152711 0.326118 0.234707 -0.156240 -0.219848 -0.261698 -0.112936 -0.195712 0.371326 -0.269002 -0.289953 -0.062810 0.134751 -0.369885 0.313253 -0.146634 -0.023888 -0.000864 -0.605114 0.162985 -0.081850 -0.586108 -0.240096 0.011385 -0.347050 -0.346094 -0.285717 0.041141 -0.289763 -0.257772 0.164894 -0.249228 0.303085 -0.344765 0.192413 -0.202863
4 0.038991 0.152384 0.104103 0.345970 0.343432 0.018985 -0.151048 0.615982 0.010668 -0.610925 0.334617 -0.010954 0.060285 -0.153829 0.127052 0.307299 0.104405 -0.075839 0.104201 -0.091794 0.197449 -0.403901 -0.216483 -0.002505 -0.225174 -0.316280 -0.580597 -0.299625 -0.144362 -0.191974 0.056910 -0.287567 0.330046 -0.298575 -0.476439 -0.107443 0.630759 -0.003025 -0.228112 -0.117230 -0.003343 -0.225508 0.615425 0.229718 0.159472 0.192231 0.053845 -0.240538 -0.327190 0.090835 0.408769 0.037156 -0.094755 -0.460276 -0.246407 -0.092959 0.047644 0.385600 -0.113862 0.043036 0.614124 -0.428044 0.282396 0.482045 0.133604 0.148597 -0.459087 -0.048589 -0.029243 -0.119428 0.237776 0.124498 0.047660 0.084901 0.185313 0.134769 0.348057 -0.011594 -0.259576 0.184137 0.228246 -0.116137 0.299155 0.441001 0.113256 0.124111 0.058585 -0.262810 0.350973 -0.036099 0.092973 0.207434 -0.176871 0.347049 0.274858 0.147089 -0.099706 -0.448812 0.172651 0.103907 0.111235 -0.055713 0.494350 0.458081 -0.340212 0.055245 0.126025 0.282921 0.470256 0.328108 0.097984 0.050508 -0.212741 -0.218114 0.020323 0.081888 -0.087388 -0.064660 -0.233803 -0.340137 0.247746 -0.042734 -0.108984 -0.704614 -0.160759 -0.197834 0.161947 -0.125031
27 0.285572 0.180788 -0.435285 -0.217201 0.418330 0.005379 -0.197164 0.763507 0.112731 -0.124947 -0.225913 -0.077427 0.281009 -0.290381 -0.170157 0.224071 0.077171 0.231732 -0.107100 0.041869 0.532856 -0.041974 0.364645 0.423754 -0.087283 -0.272791 -0.984946 -0.333786 -0.232929 0.453704 0.368266 0.117386 0.026699 -0.317633 -0.385193 -0.631866 -0.018507 -0.424285 -0.531103 0.147066 -0.280422 0.133400 -0.020995 -0.172898 0.083272 0.339347 -0.161925 0.188844 -0.186269 0.043081 0.568812 0.074702 -0.118646 0.016871 -0.183358 -0.013347 0.039004 0.277591 0.151081 0.198453 0.115877 -0.220533 0.048329 0.309827 0.430196 0.085583 0.171810 0.160553 0.254640 0.619243 -0.046458 0.324451 0.261255 -0.213449 -0.296630 0.064648 0.365318 -0.079825 0.112845 0.082711 -0.034777 0.246404 0.382559 0.051467 -0.256605 0.324973 0.019272 -0.022289 -0.412983 0.140819 0.073434 -0.163781 0.017415 0.247123 -0.161257 0.043661 0.095457 -0.069234 0.386069 -0.142797 -0.445258 0.128185 0.522293 0.054764 0.254234 -0.021330 -0.203239 -0.399202 0.181758 0.332411 -0.069600 -0.113578 -0.295008 -0.392638 0.163924 -0.481312 -0.116779 -0.319310 0.083669 -0.316481 0.112457 0.121434 -0.131810 -0.572424 0.193565 -0.165742 -0.198795 -0.508274
16 -0.001859 -0.124368 -0.227039 0.325572 0.541596 0.007444 -0.122538 0.389193 0.277854 -0.623676 0.515075 0.166062 -0.216249 0.149398 0.651209 -0.147033 -0.211783 -0.257217 -0.383569 -0.159086 0.380594 -0.221839 -0.299957 0.333159 -0.104905 -0.493096 -0.380646 -0.586121 -0.324584 -0.365772 -0.115944 -0.137833 0.219673 -0.225672 0.131457 -0.186428 0.832386 0.223407 -0.417398 0.058665 0.252442 0.146700 0.402883 0.035985 0.009818 0.479556 0.213257 -0.043721 -0.578453 0.130387 0.395100 0.089508 0.223144 -0.656618 -0.071674 -0.425100 0.030004 0.204346 -0.031847 -0.361174 0.570647 -0.710595 0.495083 0.492507 0.052438 -0.025676 -0.215688 -0.168642 0.429081 -0.122915 0.039347 0.114498 -0.049444 -0.175736 0.465555 -0.009984 0.492130 -0.260469 -0.376533 -0.114104 0.215057 0.131277 0.506934 0.292690 -0.250530 0.138494 0.463432 0.095448 0.202513 0.210673 0.062994 0.139146 -0.153570 0.074659 -0.087592 0.348178 -0.219787 -0.437976 0.429375 0.235116 0.144973 0.116238 0.509358 0.204260 -0.718157 -0.187659 0.115321 0.010982 0.641946 0.062204 -0.305075 0.128847 -0.496394 -0.504582 -0.064610 0.108474 0.081392 -0.101528 0.277739 -0.465483 0.209319 -0.016514 0.075828 -0.892603 -0.276521 -0.229782 -0.262816 0.229907
10 -0.012109 0.103754 0.005249 0.274988 0.404697 -0.048360 -0.143734 0.524857 0.182483 -0.793689 0.395029 0.097987 -0.026909 -0.187301 0.230677 0.234903 0.087707 -0.095777 -0.084749 -0.048450 0.432740 -0.358415 -0.300973 0.214669 -0.392719 -0.435287 -0.652094 -0.260256 -0.238660 -0.440460 -0.054323 -0.248812 0.249007 -0.290802 -0.627265 -0.150810 0.855939 -0.005241 -0.111027 -0.041446 0.117082 -0.316452 0.629242 0.457217 0.296614 0.314932 0.113452 -0.208656 -0.555537 0.030762 0.454461 0.095957 0.145789 -0.591253 -0.504243 -0.089624 0.043523 0.448501 -0.205799 0.148847 0.621826 -0.700047 0.292763 0.640571 0.119435 0.235203 -0.423966 -0.153812 0.143280 -0.299221 0.235673 0.065962 0.106266 -0.070608 0.310650 0.093509 0.357937 -0.250704 -0.372789 0.058300 0.315956 -0.277495 0.154641 0.390159 -0.140775 0.260264 -0.003513 -0.234510 0.489570 -0.054482 0.184001 0.179449 -0.258925 0.358594 0.289132 0.210477 -0.283919 -0.521153 0.135874 0.263677 0.034989 -0.025510 0.431914 0.462379 -0.415048 -0.153413 0.267934 0.172797 0.408818 0.310098 0.041803 0.009251 -0.232659 -0.354986 -0.082253 0.095233 -0.188407 0.142095 -0.238460 -0.359795 0.189865 0.010922 -0.137655 -0.740712 -0.079490 -0.210069 0.064504 0.161881
20 0.104936 -0.080308 -0.231222 0.156147 0.326911 -0.235762 -0.340583 0.509292 0.253951 0.017697 0.032083 0.206407 0.490338 -0.165662 0.414521 -0.010238 -0.401067 0.455169 -0.733682 0.002663 0.685801 -0.301503 0.296059 0.118253 0.036439 0.240323 -0.093174 -0.038444 0.164528 -0.416408 -0.158526 0.473624 0.343229 0.302576 0.049956 -0.031133 0.088325 -0.262157 0.002958 0.339003 -0.175866 0.496034 -0.084113 -0.242240 0.026865 0.380643 -0.272692 0.017823 -0.122490 -0.283029 -0.078548 -0.161989 0.551939 -0.118910 -0.461164 0.279367 -0.136669 -0.269867 -0.231329 0.164309 0.752749 -0.629803 0.106901 0.133915 0.313821 0.159589 0.157271 -0.279081 0.577528 0.606690 -0.127984 0.001121 0.263855 -0.285124 0.056790 0.640922 0.738005 -0.030433 0.204038 -0.154868 0.110508 0.178916 0.351804 -0.286428 -0.267543 0.429386 -0.063801 0.033976 -0.132040 0.496898 0.308131 0.171869 0.225462 -0.510443 -0.161937 0.368933 -0.154156 0.070918 0.014177 0.178913 0.097989 0.065278 -0.016448 0.394584 -0.123205 -0.244990 -0.183172 -0.360652 0.445582 -0.086478 -0.573942 -0.162351 -0.523368 -0.513432 0.080157 -0.235616 0.112457 -0.278683 0.078717 -0.231380 0.119792 -0.210890 0.159850 -0.112705 0.365630 -0.788299 -0.666374 -0.138061
9 0.199795 0.085302 -0.307161 -0.177380 0.326098 -0.024404 -0.055885 0.735936 0.557858 -0.412205 -0.013404 0.416672 0.277735 -0.930948 0.329482 0.211621 -0.382490 0.431674 -0.424771 -0.130289 0.044676 0.025568 0.429462 -0.132311 -0.403082 0.024700 -0.905873 -0.791168 -0.202073 -0.087897 0.468497 0.647938 -0.150046 -0.370699 -0.111423 -0.515882 0.325307 -0.662069 -0.337896 0.296791 -0.299327 -0.193864 0.317989 0.241020 -0.350303 -0.010807 -0.375092 -0.223968 -0.225267 -0.153324 0.051331 0.199270 -0.244070 -0.160431 0.038108 0.178510 -0.169020 0.584305 -0.010113 0.154955 0.388977 -0.676688 -0.038134 0.579542 0.342809 0.169075 0.477345 -0.207050 0.185256 0.235543 0.228686 0.345802 0.172390 -0.053416 0.180696 0.281066 -0.000813 -0.042083 -0.289854 -0.193794 0.422926 0.315782 -0.104687 -0.126922 -0.233402 -0.088092 -0.326424 0.174167 0.303991 0.408571 0.809983 0.155724 0.280988 0.592403 0.080543 -0.117133 0.202193 -0.212418 0.125815 0.321721 -0.086468 -0.254880 0.065232 0.271160 0.017599 -0.356822 -0.270061 0.248404 0.099555 0.114046 -0.011859 0.488153 -0.066073 -0.559017 -0.181614 -0.360658 -0.302103 -0.134692 -0.453679 0.259037 -0.064551 -0.126718 0.050626 -0.272368 -0.066771 -0.170558 0.241177 -0.068072
12 -0.160854 0.012267 -0.111747 0.153761 -0.015826 0.060659 -0.299991 0.099481 -0.117130 -0.235334 0.289794 -0.144549 -0.183250 -0.265176 0.209630 -0.000512 0.039642 0.175672 -0.338750 -0.203862 0.159741 -0.051208 0.078665 0.144941 -0.314670 -0.495225 -0.277669 -0.030133 -0.237936 0.296272 0.203555 0.209647 -0.147510 -0.222534 -0.204231 0.088386 0.647186 0.431548 -0.311254 0.463011 0.059826 -0.016354 0.345779 0.209082 0.065919 0.762122 0.297593 -0.063715 -0.969069 0.180139 0.083229 0.049500 -0.039765 -0.223039 -0.730756 -0.676745 -0.294550 0.002684 -0.211040 0.282487 0.280333 -0.041135 -0.020296 0.407191 0.064767 -0.343740 0.004116 -0.073529 0.705453 0.124347 0.184058 0.353747 0.040854 0.229815 0.329235 -0.055416 0.365013 0.307560 0.131725 0.077780 0.469084 0.192897 -0.056041 -0.073360 -0.303182 0.731407 0.045579 -0.218870 -0.741898 -0.065402 -0.091570 0.113821 0.016746 -0.221728 -0.007254 -0.019069 0.001350 -0.181681 -0.003908 0.192783 -0.099810 -0.123612 -0.252378 0.229898 -0.067598 -0.530408 0.118789 -0.190842 0.914724 -0.390731 -0.164853 -0.131466 -0.227378 -0.411904 -0.052909 -0.227937 -0.544697 0.221876 0.014954 -0.489515 -0.056268 -0.305877 0.222195 -0.054586 -0.238793 -0.090660 -0.378095 0.128269
15 -0.226553 -0.278234 0.155256 0.307970 0.421220 0.008142 0.044939 0.327212 -0.001729 -0.136096 0.144825 -0.006805 0.018701 -0.203802 0.233537 0.168211 -0.362325 0.256133 -0.245840 -0.029683 0.320297 -0.027827 0.105650 -0.221530 -0.414971 0.048376 -0.572759 -0.181751 0.056217 0.196151 -0.181457 0.379025 0.356609 0.320591 -0.350015 -0.368238 0.193327 -0.127296 -0.142067 0.498936 -0.059910 0.202722 0.049324 -0.203325 0.032157 0.296612 -0.614124 -0.050565 -0.640995 -0.058733 0.105891 0.120650 0.318181 -0.522699 -0.265658 -0.284523 -0.572762 0.047555 0.120500 0.028743 0.496552 -0.472496 0.153424 0.168918 0.549007 -0.160244 0.443318 -0.172873 0.594759 0.686444 0.344835 -0.093889 0.137416 -0.120347 -0.529454 0.349795 0.351688 -0.078862 0.066947 0.012017 0.435131 -0.021973 0.214084 -0.403885 -0.147499 0.473269 -0.166487 0.015054 -0.006126 0.147829 0.421053 0.281404 -0.195786 -0.131246 0.103050 0.109704 -0.114237 0.117335 0.348593 0.057378 0.117463 -0.203666 -0.037165 0.173526 0.321628 -0.459290 0.130246 -0.205349 0.373890 -0.234416 -0.458680 -0.111092 -0.312745 -0.529716 0.058328 0.085803 -0.147230 -0.189136 -0.160556 -0.282739 0.393658 -0.290069 0.317320 0.076501 0.238817 -0.458876 -0.200650 -0.385014
21 -0.420439 -0.007497 -0.192915 -0.366190 -0.126191 -0.123431 -0.534190 0.363843 0.767993 -0.245298 0.001629 0.091721 0.130091 -0.521843 0.231239 -0.244697 0.286921 0.021863 0.114255 0.114383 0.460671 -0.354786 0.078779 0.494454 -0.097876 -0.485493 -0.344019 -0.196789 -0.581103 -0.281595 0.364515 0.365748 0.101965 -0.453484 -0.591329 -0.291641 0.171213 0.237069 0.154670 0.043054 -0.550898 0.168744 0.273177 0.153213 -0.147622 0.481558 0.065554 0.115589 -0.010002 0.199613 0.017974 0.469832 0.118516 -0.088809 -0.731007 -0.086066 -0.032474 0.161537 -0.682717 0.538125 0.175300 -0.704827 0.192427 0.724790 -0.016768 -0.125748 -0.091986 -0.211543 -0.172994 -0.336008 0.186162 -0.217347 0.478923 0.275487 0.281871 -0.220867 0.072156 -0.175598 0.104609 -0.189772 0.261593 -0.033372 0.009045 -0.275328 -0.695770 -0.130910 -0.201079 -0.351793 0.190134 -0.209156 0.259802 0.151864 0.284519 0.336196 -0.155384 -0.088132 -0.179419 -0.316125 0.209234 0.357064 -0.241241 0.088800 0.022495 0.341674 0.184173 -0.005295 0.176461 -0.012756 0.335604 -0.098479 -0.099561 0.181206 -0.180002 -0.450162 -0.516544 -0.161569 -0.274965 0.071169 -0.346385 0.075433 -0.162033 -0.001708 -0.238511 -0.711507 -0.168655 -0.149142 -0.122100 -0.044033
13 0.105170 0.087419 -0.136158 -0.190848 0.042755 -0.041080 0.009205 0.231683 0.344667 -0.289809 -0.095460 -0.110647 0.135776 -0.903997 0.231919 0.102874 -0.336195 0.164147 -0.361649 -0.286308 0.225724 0.039425 0.075014 0.135490 -0.548994 -0.307928 -0.488330 -0.401844 -0.218419 0.204252 0.214017 0.600832 -0.310251 -0.486894 -0.258374 -0.479862 0.522163 0.024577 -0.455593 0.196694 -0.114243 -0.178332 0.336715 0.290419 -0.188998 0.368346 0.018474 -0.024707 -0.596853 0.153283 -0.151767 0.481915 -0.076460 -0.095788 -0.352279 -0.423967 -0.396934 0.136914 0.132761 0.112076 0.351484 -0.225696 -0.106215 0.342395 0.328661 -0.313387 0.248908 -0.073610 0.408012 -0.072344 0.162821 0.233850 0.070229 0.055207 0.160999 -0.208875 -0.105877 0.018007 -0.197294 -0.250019 0.550804 0.006475 -0.177232 -0.348905 -0.339248 0.155901 -0.184037 0.017702 -0.350276 0.360684 0.671412 0.105985 -0.027846 0.081342 0.092636 -0.185446 0.151917 -0.399918 -0.031307 0.335182 -0.118168 -0.177858 -0.238828 0.188159 0.005062 -0.600341 0.055368 0.072461 0.488034 -0.314095 0.190638 0.265539 -0.091967 -0.302255 -0.356288 -0.439102 -0.541833 0.215626 -0.187266 -0.112660 0.056929 0.150235 0.280313 -0.122473 -0.280483 0.196130 0.118604 0.226800
17 -0.476395 -0.038928 0.060782 -0.234328 -0.054136 -0.377953 -0.399007 0.389718 0.733938 -0.212577 -0.038665 -0.006839 0.250970 -0.391202 -0.050136 0.042393 0.156650 -0.212698 0.163359 0.031812 0.522314 -0.425700 0.063237 0.428569 -0.144445 -0.380193 -0.302754 -0.101624 -0.330279 -0.062491 0.174157 0.340816 0.183769 -0.499420 -0.678161 -0.443698 0.172816 0.320099 -0.011472 -0.006390 -0.365231 -0.149334 0.251334 0.152633 -0.071881 0.299980 0.111201 0.311972 -0.141978 0.360409 -0.083054 0.444436 -0.021138 -0.252798 -0.603120 -0.291550 -0.178853 0.383386 -0.343604 0.282933 0.338502 -0.556396 0.173087 0.447868 -0.075921 -0.047516 -0.089808 -0.072235 -0.019627 -0.018127 0.128063 -0.265490 0.446706 0.184333 0.122051 -0.188905 0.098451 -0.264003 0.192658 -0.410035 0.311024 -0.100275 0.274900 -0.328697 -0.611618 -0.099658 -0.071303 -0.396851 0.167504 -0.155205 0.073878 0.178824 0.050615 0.320500 -0.059073 -0.110281 0.038137 -0.250695 0.357843 0.471795 -0.199704 0.170442 0.058947 0.413374 0.171613 -0.043912 0.218845 -0.091374 0.421642 0.059379 -0.095542 0.019165 -0.044245 -0.133445 -0.387917 -0.281586 -0.182914 0.311550 -0.224124 -0.355889 0.204124 0.272305 -0.213534 -0.521945 -0.317472 -0.115418 -0.331120 0.032327
28 -0.023863 0.096082 -0.273687 0.414235 0.204944 0.176495 -0.147086 0.509321 0.276268 -0.606913 0.447980 0.375200 0.216397 -0.231467 0.076623 0.231519 -0.305766 0.393161 -0.317062 0.152708 -0.185715 -0.101701 0.128020 0.016210 -0.195427 -0.156378 -0.939502 -0.587113 -0.135488 -0.021795 0.165874 0.661299 -0.094933 -0.012092 -0.184365 -0.175151 0.344226 -0.436532 -0.641046 0.202123 -0.310673 -0.027965 0.555980 0.047263 -0.165354 -0.161062 -0.302755 -0.100390 -0.532640 -0.458749 -0.236330 0.245830 0.251857 -0.443727 0.002466 -0.187436 -0.036724 -0.134918 -0.071509 0.088112 0.458982 -0.339754 0.181692 0.261718 0.084440 0.026632 0.209120 0.385613 -0.095898 0.315616 0.189702 0.499741 0.109558 -0.040746 -0.188569 0.344071 0.074510 0.333057 -0.091967 0.273382 0.753194 -0.168824 0.083366 0.175604 0.169693 0.316735 -0.369907 0.193268 -0.123032 0.142238 0.133125 0.382992 0.074533 -0.206054 0.063494 0.104640 0.251615 -0.254790 -0.111887 0.392348 -0.555722 -0.075282 -0.072309 0.012869 -0.184998 -0.373301 -0.143571 0.549248 0.585456 0.011036 -0.165371 0.182246 -0.143487 -0.732077 -0.006708 -0.206396 -0.153824 -0.141530 -0.369731 -0.091452 0.193518 0.173092 -0.011960 -0.019673 -0.283742 -0.223739 -0.173880 0.264224
18 0.143010 0.024049 -0.071130 0.086759 0.422952 0.091865 -0.557031 0.381694 0.252367 0.020764 0.253058 0.343957 0.241500 -0.094167 0.479792 -0.061588 -0.141579 0.178661 -0.376743 0.230884 0.533735 -0.328678 0.104569 0.196180 -0.034594 0.078462 -0.405698 -0.100431 0.098249 -0.148672 0.065226 0.358881 0.268811 0.297252 -0.171956 -0.266607 0.080507 -0.073900 0.202193 0.472351 0.095495 0.416487 0.103517 -0.010905 0.003349 0.537534 -0.561328 -0.019457 -0.231705 -0.043732 0.175536 -0.300899 0.387170 -0.028492 -0.350179 0.244820 -0.094365 -0.021358 -0.192333 0.032646 0.523073 -0.757587 0.281721 0.190992 0.388891 0.243472 -0.047275 -0.355513 0.663570 0.301592 -0.072775 -0.003879 0.182041 -0.268615 0.286687 0.480094 0.572526 0.079002 0.044791 -0.197811 -0.078275 0.311912 0.474754 0.126244 -0.420070 0.208250 0.223180 -0.126658 0.105821 0.357812 0.139041 0.035673 0.027866 -0.461867 -0.224702 0.398849 -0.355652 0.108570 0.295272 -0.113114 0.192333 0.383460 0.306873 0.313869 -0.144973 -0.225097 -0.063987 -0.198400 0.369919 -0.257189 -0.282877 -0.180483 -0.596655 -0.499941 0.057385 -0.137967 -0.156486 -0.462417 -0.000592 -0.319947 0.165502 -0.422958 0.152122 -0.130901 0.111053 -0.792637 -0.145111 -0.156754
22 0.109071 -0.304328 -0.178606 0.366586 0.309119 -0.343492 -0.249264 0.528534 0.263330 -0.148002 -0.076585 0.364118 0.344057 -0.408280 0.415595 -0.031677 -0.471721 0.348105 -0.052003 0.530267 0.482869 -0.262041 0.366430 -0.192103 -0.289989 0.439229 -0.460962 -0.437107 0.032231 0.057340 -0.141733 0.354164 0.175053 0.316435 -0.352037 -0.499940 0.188954 -0.336973 -0.287250 0.210815 -0.021475 0.143751 -0.087660 0.005633 0.038672 0.268490 -0.702957 0.085582 -0.185915 -0.291464 -0.223216 -0.000421 0.429810 -0.574434 0.058176 0.229118 -0.187383 0.202695 -0.026288 -0.302688 0.617220 -0.908770 0.335832 0.519025 0.470405 -0.117625 0.129695 -0.108759 0.413140 0.562884 0.031421 0.019453 0.261945 -0.221676 -0.049880 0.564625 0.192642 0.019524 0.271708 0.059158 0.287522 -0.364044 0.344699 -0.560228 -0.215415 0.356019 0.023846 0.007928 0.322116 0.164458 0.590598 0.078006 -0.057417 -0.253510 0.061685 0.142942 -0.329314 -0.118439 0.359155 -0.081533 -0.102337 -0.070196 0.149144 0.390886 0.139794 -0.192114 -0.056221 -0.030192 0.302583 -0.064061 -0.533721 -0.008937 -0.248850 -0.568494 -0.059812 -0.148207 -0.344448 -0.384776 -0.351943 -0.266661 0.284836 -0.226455 0.082630 -0.463699 0.522700 -0.664950 -0.312627 -0.352563
26 0.100003 0.196306 -0.014666 -0.193021 0.372287 -0.233356 -0.067383 -0.007043 -0.099709 -0.286247 0.040744 0.110125 0.150266 -0.540688 0.286953 0.242475 -0.282746 -0.008977 -0.069709 -0.110110 0.188816 -0.223983 -0.150075 0.227270 -0.466676 -0.304340 -0.517671 -0.626816 -0.189123 0.035036 0.543720 0.423825 0.289085 -0.346306 -0.266663 -0.291921 0.537436 -0.197841 -0.044848 -0.120419 0.267991 0.000686 -0.252575 -0.378510 -0.310802 0.417405 -0.468718 0.139380 -0.464272 0.416223 0.177822 0.168283 -0.266231 -0.633881 -0.083627 0.044138 0.190061 0.575248 -0.436415 0.029020 0.310747 -0.814684 0.155403 0.617539 -0.199303 -0.142389 0.164155 -0.451248 0.410599 0.301152 -0.149021 0.130630 -0.505974 0.275479 0.258418 0.276370 -0.000858 -0.204345 0.047211 -0.354217 -0.027663 0.615429 0.557764 0.018684 0.068471 0.221042 -0.227828 0.174448 0.287677 -0.065405 0.390828 0.158054 0.042787 0.479219 0.462533 -0.110149 -0.101261 0.210361 0.164609 -0.085817 0.218164 0.178863 0.185576 0.253742 0.024632 0.031176 -0.065323 -0.164981 0.871658 0.472587 -0.457968 0.277937 -0.447449 -0.122797 -0.181587 -0.389507 -0.130662 -0.543517 0.507412 -0.344854 -0.056441 -0.251665 -0.270940 -0.529521 0.233358 -0.148517 -0.384292 -0.482053
11 -0.313173 -0.212281 -0.328623 0.275210 -0.192647 0.131353 -0.588204 0.359892 0.604913 -0.612504 0.239583 0.229020 -0.196141 0.263062 0.414681 -0.317614 0.302941 0.193152 0.080579 0.308540 0.067990 -0.439415 0.121811 0.254647 -0.087930 -0.516524 -0.452343 -0.340967 -1.004882 -0.369788 0.420453 0.209219 0.229179 -0.551686 -0.254329 0.473394 0.470116 0.135115 -0.140393 0.162292 -0.252421 0.324248 0.397835 0.061041 0.193146 0.446391 0.251847 0.214383 -0.318043 0.023173 -0.113474 0.167458 0.265628 -0.371648 -0.427846 -0.328376 0.127294 0.185784 -0.714093 0.279318 0.003424 -0.580636 0.554184 0.525261 -0.460639 -0.112186 -0.306382 -0.048444 -0.222163 -0.185236 0.001533 0.080195 0.231827 0.336528 0.180987 0.016980 -0.045700 0.016370 0.005265 0.063181 0.723805 -0.125778 0.036083 0.267948 -0.437835 0.267574 -0.035565 -0.211913 0.076976 -0.484107 -0.381682 0.075779 0.423111 0.132847 -0.053928 -0.036765 0.046743 -0.332563 -0.176564 0.489548 -0.015175 0.054720 -0.018545 0.097241 -0.227106 -0.316192 0.261686 0.124239 0.559465 0.102806 -0.640442 0.159935 -0.187843 -0.948445 -0.354391 -0.148541 -0.177878 -0.000139 -0.464419 -0.039030 -0.119527 -0.016889 -0.126734 -0.640995 -0.156531 -0.310124 -0.518835 0.108041
14 -0.123940 -0.264883 0.100107 0.269348 0.352085 -0.293739 -0.028039 0.413657 0.111087 -0.019264 -0.120338 0.101402 0.109711 -0.465798 0.264783 0.179904 -0.352917 0.270409 -0.138512 0.034198 0.355942 -0.050067 0.064657 -0.246854 -0.322897 0.227515 -0.151802 -0.170874 -0.024493 0.182684 -0.155953 0.349208 0.197320 0.341668 -0.208985 -0.477461 0.347785 -0.091477 -0.325085 0.244098 -0.115362 0.124458 0.073938 -0.053128 -0.139573 0.123016 -0.359599 0.035971 -0.427914 0.060144 -0.113158 0.202459 0.367756 -0.578169 -0.083851 -0.074553 -0.490614 0.244463 -0.029151 -0.285327 0.541501 -0.816811 0.185798 0.282946 0.444210 -0.266491 0.385253 -0.276194 0.365687 0.361834 0.126934 -0.031871 0.037338 0.066627 -0.130744 0.411401 0.264268 -0.166864 0.147506 -0.024516 0.360103 -0.263759 0.259542 -0.418065 -0.158944 0.517023 -0.135891 0.120962 0.217159 0.155835 0.603859 0.162254 -0.294477 -0.005684 0.206141 0.077781 -0.280711 -0.071662 0.337193 0.038895 -0.048456 -0.264574 0.011957 0.343789 0.041732 -0.209820 0.094148 -0.092223 0.251317 -0.117056 -0.526475 -0.035146 -0.282302 -0.264716 0.071009 -0.097409 -0.307223 -0.273997 -0.072352 -0.272305 0.272211 -0.115774 0.116000 -0.318991 0.463033 -0.456072 -0.319498 -0.356307
19 -0.288560 -0.266769 0.125068 -0.061363 -0.145328 -0.224868 -0.277797 0.062452 0.439874 -0.100935 -0.358503 -0.127701 0.138104 -0.497983 -0.044790 0.044053 -0.089653 0.162075 0.286032 0.334292 0.396141 -0.265198 0.172839 0.167119 -0.435742 -0.075770 -0.330275 -0.080469 -0.466887 0.288521 0.093912 0.645775 0.105120 -0.249516 -0.766171 -0.349682 -0.101528 0.131145 -0.115963 0.129703 -0.349912 0.074936 0.007287 -0.092970 0.148481 0.391133 -0.284571 0.273917 -0.375376 0.226096 -0.427129 0.545934 0.159895 -0.398133 -0.451895 -0.264240 -0.480775 0.177075 -0.147798 0.224585 0.179110 -0.536493 0.206989 0.363672 0.110680 -0.542856 0.355257 -0.045274 0.041690 0.292977 0.216763 -0.204702 0.350661 0.373448 -0.499916 -0.162092 -0.101763 0.006415 0.359132 -0.222620 0.629996 -0.406002 0.049002 -0.768282 -0.443354 0.344819 -0.399840 -0.191978 -0.221722 -0.284072 0.328150 0.246162 0.092855 -0.017786 0.088578 -0.098628 -0.088594 -0.070792 0.164363 0.193631 -0.239647 -0.042437 -0.345795 0.147363 0.497190 -0.361126 0.259236 -0.045831 0.442561 -0.199997 -0.505106 -0.101093 -0.027146 -0.489841 -0.297902 -0.266399 -0.328048 0.075022 -0.471082 -0.098935 0.166242 0.135452 -0.086878 -0.216683 0.134341 -0.093071 -0.502799 -0.330124
